<?xml version="1.0"?>
<opencv_storage>
<opencv_ml_svm>
  <format>3</format>
  <svmType>C_SVC</svmType>
  <kernel>
    <type>RBF</type>
    <gamma>1.</gamma></kernel>
  <C>1.</C>
  <term_criteria><iterations>100</iterations></term_criteria>
  <var_count>2</var_count>
  <class_count>2</class_count>
  <class_labels type_id="opencv-matrix">
    <rows>2</rows>
    <cols>1</cols>
    <dt>i</dt>
    <data>
      -1 1</data></class_labels>
  <sv_total>200</sv_total>
  <support_vectors>
    <_>
      3.21537405e-02 6.47445396e-03</_>
    <_>
      1.59371775e-02 1.69838704e-02</_>
    <_>
      9.43626761e-01 3.48360747e-01</_>
    <_>
      5.24094503e-04 8.15133506e-04</_>
    <_>
      1.35425304e-03 3.15694255e-04</_>
    <_>
      1.35425304e-03 3.15694255e-04</_>
    <_>
      7.78071344e-01 8.96698952e-01</_>
    <_>
      8.19806516e-01 9.52692330e-01</_>
    <_>
      1.02371513e-03 3.62106395e-04</_>
    <_>
      1.02371513e-03 3.62106395e-04</_>
    <_>
      1.65273625e-04 6.05614781e-01</_>
    <_>
      0. 0.</_>
    <_>
      0. 0.</_>
    <_>
      8.19320500e-01 8.28710914e-01</_>
    <_>
      6.96638541e-04 1.87413840e-04</_>
    <_>
      6.96638541e-04 1.87413840e-04</_>
    <_>
      6.81260077e-04 9.16604418e-04</_>
    <_>
      6.81260077e-04 9.16604418e-04</_>
    <_>
      8.24454069e-01 8.39624405e-01</_>
    <_>
      7.24882237e-04 7.79709138e-04</_>
    <_>
      3.24204389e-04 1.23123464e-03</_>
    <_>
      9.17010844e-01 8.94996941e-01</_>
    <_>
      0. 0.</_>
    <_>
      0. 0.</_>
    <_>
      8.55090562e-04 9.30546783e-04</_>
    <_>
      3.81402409e-04 1.09246385e-03</_>
    <_>
      6.28733193e-04 1.08402499e-04</_>
    <_>
      0. 0.</_>
    <_>
      0. 0.</_>
    <_>
      0. 0.</_>
    <_>
      0. 0.</_>
    <_>
      0. 0.</_>
    <_>
      0. 0.</_>
    <_>
      0. 0.</_>
    <_>
      0. 0.</_>
    <_>
      0. 0.</_>
    <_>
      0. 0.</_>
    <_>
      0. 0.</_>
    <_>
      0. 0.</_>
    <_>
      0. 0.</_>
    <_>
      0. 0.</_>
    <_>
      0. 0.</_>
    <_>
      0. 0.</_>
    <_>
      0. 0.</_>
    <_>
      0. 0.</_>
    <_>
      0. 0.</_>
    <_>
      0. 0.</_>
    <_>
      0. 0.</_>
    <_>
      0. 0.</_>
    <_>
      0. 0.</_>
    <_>
      0. 0.</_>
    <_>
      0. 0.</_>
    <_>
      0. 0.</_>
    <_>
      0. 0.</_>
    <_>
      0. 0.</_>
    <_>
      0. 0.</_>
    <_>
      0. 0.</_>
    <_>
      0. 0.</_>
    <_>
      0. 0.</_>
    <_>
      0. 0.</_>
    <_>
      0. 0.</_>
    <_>
      0. 0.</_>
    <_>
      0. 0.</_>
    <_>
      0. 0.</_>
    <_>
      0. 0.</_>
    <_>
      0. 0.</_>
    <_>
      0. 0.</_>
    <_>
      1.84915581e-04 2.96289771e-04</_>
    <_>
      1.84915581e-04 2.96289771e-04</_>
    <_>
      2.25351367e-04 6.52911607e-04</_>
    <_>
      0. 0.</_>
    <_>
      0. 0.</_>
    <_>
      7.84825504e-01 8.54786575e-01</_>
    <_>
      3.45865883e-05 2.73401587e-04</_>
    <_>
      1.84780947e-04 4.92769119e-04</_>
    <_>
      2.19367532e-04 2.19367532e-04</_>
    <_>
      3.09364477e-05 1.60486554e-04</_>
    <_>
      8.19989383e-01 8.49574089e-01</_>
    <_>
      7.83111453e-01 9.04952526e-01</_>
    <_>
      7.83111453e-01 9.04952526e-01</_>
    <_>
      3.45865883e-05 2.73401587e-04</_>
    <_>
      8.19989383e-01 8.49574089e-01</_>
    <_>
      9.03807878e-01 7.22905755e-01</_>
    <_>
      0. 4.00160061e-05</_>
    <_>
      1.09554944e-03 8.09212564e-04</_>
    <_>
      1.09554944e-03 8.09212564e-04</_>
    <_>
      0. 0.</_>
    <_>
      0. 0.</_>
    <_>
      1.09554944e-03 8.09212564e-04</_>
    <_>
      1.32422356e-04 1.72885671e-01</_>
    <_>
      2.06382596e-04 1.35851093e-03</_>
    <_>
      8.14144671e-01 8.35574627e-01</_>
    <_>
      8.41968417e-01 8.35822403e-01</_>
    <_>
      7.40917504e-01 9.33979392e-01</_>
    <_>
      8.98190141e-01 8.53830338e-01</_>
    <_>
      8.98190141e-01 8.53830338e-01</_>
    <_>
      9.12647545e-01 8.33754480e-01</_>
    <_>
      9.14458275e-01 8.09777379e-01</_>
    <_>
      9.16204929e-01 8.11581790e-01</_>
    <_>
      9.00843024e-01 8.04082572e-01</_>
    <_>
      9.12647545e-01 8.33754480e-01</_>
    <_>
      9.14458275e-01 8.09777379e-01</_>
    <_>
      9.16204929e-01 8.11581790e-01</_>
    <_>
      9.00843024e-01 8.04082572e-01</_>
    <_>
      2.06315861e-04 5.57092251e-04</_>
    <_>
      2.06315861e-04 5.57092251e-04</_>
    <_>
      8.55580747e-01 8.04763138e-01</_>
    <_>
      8.55580747e-01 8.04763138e-01</_>
    <_>
      9.13942337e-01 9.29796040e-01</_>
    <_>
      8.86226714e-01 7.89329231e-01</_>
    <_>
      8.37663293e-01 9.41255808e-01</_>
    <_>
      8.48871827e-01 8.87874305e-01</_>
    <_>
      8.49711597e-01 7.96552181e-01</_>
    <_>
      8.47160220e-01 7.82208622e-01</_>
    <_>
      8.35311651e-01 8.48295152e-01</_>
    <_>
      8.31777513e-01 8.16289783e-01</_>
    <_>
      8.28097939e-01 8.70167911e-01</_>
    <_>
      8.35311651e-01 8.48295152e-01</_>
    <_>
      8.31777513e-01 8.16289783e-01</_>
    <_>
      8.90542746e-01 8.46965730e-01</_>
    <_>
      8.50211740e-01 7.99353838e-01</_>
    <_>
      8.50211740e-01 7.99353838e-01</_>
    <_>
      9.15494740e-01 8.80635440e-01</_>
    <_>
      8.26148868e-01 8.58342230e-01</_>
    <_>
      9.15494740e-01 8.80635440e-01</_>
    <_>
      6.87390149e-01 9.65606049e-03</_>
    <_>
      4.61214185e-01 8.17069225e-03</_>
    <_>
      5.69260180e-01 2.62779091e-02</_>
    <_>
      7.99243808e-01 9.03779864e-01</_>
    <_>
      1.44330189e-02 6.13817275e-01</_>
    <_>
      7.99243808e-01 9.03779864e-01</_>
    <_>
      3.28273396e-04 1.43731805e-03</_>
    <_>
      8.96554530e-01 8.83717120e-01</_>
    <_>
      8.81206453e-01 8.76857460e-01</_>
    <_>
      7.58723855e-01 9.07862365e-01</_>
    <_>
      7.58723855e-01 9.07862365e-01</_>
    <_>
      9.05489624e-01 9.16848719e-01</_>
    <_>
      9.08169270e-01 9.93006527e-01</_>
    <_>
      9.34054017e-01 9.78994370e-01</_>
    <_>
      9.05489624e-01 9.16848719e-01</_>
    <_>
      8.86121571e-01 9.43978190e-01</_>
    <_>
      8.86121571e-01 9.43978190e-01</_>
    <_>
      8.87748957e-01 9.61135626e-01</_>
    <_>
      8.56753170e-01 9.23155069e-01</_>
    <_>
      8.56753170e-01 9.23155069e-01</_>
    <_>
      8.03647399e-01 8.54375362e-01</_>
    <_>
      9.08169270e-01 9.93006527e-01</_>
    <_>
      9.34054017e-01 9.78994370e-01</_>
    <_>
      8.87748957e-01 9.61135626e-01</_>
    <_>
      8.03647399e-01 8.54375362e-01</_>
    <_>
      8.23380768e-01 8.39943230e-01</_>
    <_>
      8.23380768e-01 8.39943230e-01</_>
    <_>
      1.64591474e-03 1.43133424e-04</_>
    <_>
      9.15874124e-01 8.11655760e-01</_>
    <_>
      9.15874124e-01 8.11655760e-01</_>
    <_>
      9.81478930e-01 8.07007730e-01</_>
    <_>
      9.81478930e-01 8.07007730e-01</_>
    <_>
      8.32846045e-01 8.53259027e-01</_>
    <_>
      8.32846045e-01 8.53259027e-01</_>
    <_>
      9.05411839e-01 8.77715290e-01</_>
    <_>
      9.05411839e-01 8.77715290e-01</_>
    <_>
      5.36675565e-04 1.22378475e-03</_>
    <_>
      5.36675565e-04 1.22378475e-03</_>
    <_>
      7.90544450e-01 8.49141479e-01</_>
    <_>
      7.90544450e-01 8.49141479e-01</_>
    <_>
      8.03031144e-05 1.78282498e-03</_>
    <_>
      8.21135283e-01 8.44219446e-01</_>
    <_>
      8.21135283e-01 8.44219446e-01</_>
    <_>
      8.36763322e-01 8.74111652e-01</_>
    <_>
      8.83887231e-01 9.13481295e-01</_>
    <_>
      8.83887231e-01 9.13481295e-01</_>
    <_>
      5.36750340e-05 2.59684324e-01</_>
    <_>
      8.18235695e-01 8.51501882e-01</_>
    <_>
      8.18235695e-01 8.51501882e-01</_>
    <_>
      2.44140625e-04 8.93087941e-04</_>
    <_>
      3.07988172e-04 8.31933110e-04</_>
    <_>
      6.75665156e-04 2.20205271e-04</_>
    <_>
      9.52866510e-04 4.98334120e-04</_>
    <_>
      2.02157170e-01 5.25799929e-04</_>
    <_>
      9.66913576e-05 9.86652798e-04</_>
    <_>
      6.78687007e-04 3.47720867e-04</_>
    <_>
      1.41517783e-03 5.18290210e-04</_>
    <_>
      8.20438147e-01 8.54142606e-01</_>
    <_>
      8.20438147e-01 8.54142606e-01</_>
    <_>
      7.84179151e-01 8.59816194e-01</_>
    <_>
      8.03374290e-01 8.76929164e-01</_>
    <_>
      7.84179151e-01 8.59816194e-01</_>
    <_>
      8.03374290e-01 8.76929164e-01</_>
    <_>
      1.80735870e-03 4.24403770e-05</_>
    <_>
      1.40207331e-03 2.81001063e-04</_>
    <_>
      8.24442208e-01 8.55058908e-01</_>
    <_>
      8.25394332e-01 8.50458443e-01</_>
    <_>
      8.25394332e-01 8.50458443e-01</_>
    <_>
      8.37883294e-01 8.75536203e-01</_>
    <_>
      8.30126882e-01 8.30217242e-01</_>
    <_>
      8.37883294e-01 8.75536203e-01</_>
    <_>
      7.99694479e-01 8.34031343e-01</_>
    <_>
      8.95892620e-01 8.77768040e-01</_>
    <_>
      9.73391056e-04 7.13453104e-04</_>
    <_>
      1.47202436e-03 1.40163946e-04</_></support_vectors>
  <decision_functions>
    <_>
      <sv_count>200</sv_count>
      <rho>-8.6489543318748474e-02</rho>
      <alpha>
        1. 1. 1. 1. 1. 1. 1. 1. 1. 1. 1. 1. 1. 1. 1. 1. 1. 1. 1. 1. 1.
        1. 1. 1. 1. 1. 1. 1. 1. 1. 1. 1. 1. 1. 1. 1. 1. 1. 1. 1. 1. 1.
        1. 1. 1. 1. 1. 1. 1. 1. 1. 1. 1. 1. 1. 1. 1. 1. 1. 1. 1. 1. 1.
        1. 1. 1. 1. 1. 1. 1. 1. 1. 1. 1. 1. 1. 1. 1. 1. 1. 1. 1. 1. 1.
        1. 1. 1. 1. 1. 1. 1. 1. 1. 1. 1. 1. 1. 1. 1. 1. -1. -1. -1. -1.
        -1. -1. -1. -1. -1. -1. -1. -1. -1. -1. -1. -1. -1. -1. -1. -1.
        -1. -1. -1. -1. -1. -1. -1. -1. -1. -1. -1. -1. -1. -1. -1. -1.
        -1. -1. -1. -1. -1. -1. -1. -1. -1. -1. -1. -1. -1. -1. -1. -1.
        -1. -1. -1. -1. -1. -1. -1. -1. -1. -1. -1. -1. -1. -1. -1. -1.
        -1. -1. -1. -1. -1. -1. -1. -1. -1. -1. -1. -1. -1. -1. -1. -1.
        -1. -1. -1. -1. -1. -1. -1. -1. -1. -1. -1. -1. -1. -1. -1. -1.</alpha>
      <index>
        0 3 169 199 171 4 5 174 6 7 8 175 9 176 10 177 13 14 15 16 17 18
        19 20 24 25 26 67 68 69 179 180 72 181 183 73 74 75 76 77 78 79
        80 81 82 83 84 85 86 87 88 90 92 93 99 103 188 104 105 106 107
        108 109 110 111 112 113 116 119 122 123 124 125 126 131 132 133
        134 189 136 139 140 141 147 190 191 192 194 152 197 155 156 159
        160 161 162 163 164 165 198 1 2 11 12 21 22 23 27 28 29 30 31 32
        33 34 35 36 37 38 39 40 41 42 43 44 45 46 47 48 49 50 51 52 53
        54 55 56 57 58 59 60 61 62 63 64 65 66 70 71 89 91 94 95 96 97
        98 100 101 102 114 115 117 118 120 121 127 128 129 130 135 137
        138 142 143 144 145 146 148 149 150 151 153 154 157 158 166 167
        168 170 172 173 184 185 186 187 193 195 196 178 182</index></_></decision_functions></opencv_ml_svm>
</opencv_storage>
