<?xml version="1.0"?>
<opencv_storage>
<opencv_ml_svm>
  <format>3</format>
  <svmType>C_SVC</svmType>
  <kernel>
    <type>RBF</type>
    <gamma>1.</gamma></kernel>
  <C>1.</C>
  <term_criteria><iterations>100</iterations></term_criteria>
  <var_count>3</var_count>
  <class_count>2</class_count>
  <class_labels type_id="opencv-matrix">
    <rows>2</rows>
    <cols>1</cols>
    <dt>i</dt>
    <data>
      -1 1</data></class_labels>
  <sv_total>200</sv_total>
  <support_vectors>
    <_>
      3.21537405e-02 2.46303193e-02 1.82371825e-01</_>
    <_>
      1.59371775e-02 2.14244761e-02 2.16466948e-01</_>
    <_>
      9.43626761e-01 8.38109374e-01 2.05618799e-01</_>
    <_>
      9.43626761e-01 8.38109374e-01 2.05618799e-01</_>
    <_>
      5.53923985e-03 1.04061945e-03 3.09227228e-01</_>
    <_>
      1.78925763e-03 1.71439983e-02 3.42390895e-01</_>
    <_>
      1.78925763e-03 1.71439983e-02 3.42390895e-01</_>
    <_>
      2.62831151e-03 6.72583483e-05 1.42137662e-01</_>
    <_>
      2.62831151e-03 6.72583483e-05 1.42137662e-01</_>
    <_>
      5.88510535e-04 4.18704178e-04 2.62579560e-01</_>
    <_>
      0. 0. 2.14233905e-01</_>
    <_>
      0. 0. 2.09656656e-01</_>
    <_>
      2.77264160e-03 1.99938007e-03 2.85682857e-01</_>
    <_>
      8.19806516e-01 8.82307708e-01 2.05421954e-01</_>
    <_>
      8.26533198e-01 7.90416658e-01 2.09170997e-01</_>
    <_>
      1.63361558e-03 3.14171164e-04 3.13921064e-01</_>
    <_>
      1.63361558e-03 3.14171164e-04 3.13921064e-01</_>
    <_>
      4.66805231e-03 3.15408135e-04 2.99507201e-01</_>
    <_>
      1.33150141e-03 3.96907283e-03 2.99292475e-01</_>
    <_>
      1.93654979e-03 6.66737277e-03 2.85345018e-01</_>
    <_>
      0. 0. 2.61195511e-01</_>
    <_>
      0. 0. 2.61195511e-01</_>
    <_>
      3.10124038e-03 1.18047220e-03 3.18889767e-01</_>
    <_>
      8.19320500e-01 8.37901950e-01 2.30618522e-01</_>
    <_>
      8.48209136e-04 1.27934472e-04 2.36060366e-01</_>
    <_>
      6.96638541e-04 2.85847986e-04 2.31941134e-01</_>
    <_>
      9.17010844e-01 9.13698792e-01 1.96584970e-01</_>
    <_>
      3.36016482e-03 3.80165246e-03 2.84181178e-01</_>
    <_>
      1.95876472e-02 1.16525646e-02 3.90859783e-01</_>
    <_>
      2.15606927e-03 7.06134539e-04 3.46147031e-01</_>
    <_>
      2.53823218e-05 0. 2.74630845e-01</_>
    <_>
      2.53823218e-05 0. 3.37441772e-01</_>
    <_>
      2.53823218e-05 0. 2.74630845e-01</_>
    <_>
      0. 0. 2.50730604e-01</_>
    <_>
      2.53823218e-05 0. 3.37441772e-01</_>
    <_>
      0. 0. 2.50730604e-01</_>
    <_>
      0. 0. 2.70266891e-01</_>
    <_>
      2.31328493e-04 1.98281559e-04 3.39589506e-01</_>
    <_>
      0. 0. 2.70266891e-01</_>
    <_>
      2.31328493e-04 1.98281559e-04 3.39589506e-01</_>
    <_>
      1.84915581e-04 6.50114147e-04 1.52107209e-01</_>
    <_>
      0. 0. 2.25301579e-01</_>
    <_>
      0. 0. 2.31544852e-01</_>
    <_>
      1.84915581e-04 6.50114147e-04 1.52107209e-01</_>
    <_>
      0. 0. 2.50754356e-01</_>
    <_>
      0. 0. 2.50754356e-01</_>
    <_>
      2.47641176e-04 1.85507978e-03 2.97752291e-01</_>
    <_>
      2.47641176e-04 1.85507978e-03 2.97752291e-01</_>
    <_>
      0. 0. 2.11769581e-01</_>
    <_>
      0. 0. 2.05271661e-01</_>
    <_>
      7.84825504e-01 8.57948124e-01 1.77812710e-01</_>
    <_>
      0. 0. 1.96823016e-01</_>
    <_>
      0. 0. 2.48766840e-01</_>
    <_>
      0. 0. 2.48766840e-01</_>
    <_>
      0. 0. 2.38171980e-01</_>
    <_>
      3.45865883e-05 1.35294598e-04 2.06869066e-01</_>
    <_>
      2.19367532e-04 2.65084062e-04 2.31607780e-01</_>
    <_>
      3.09364477e-05 1.70659085e-04 2.22904027e-01</_>
    <_>
      7.83111453e-01 9.07206655e-01 1.86766744e-01</_>
    <_>
      8.04260254e-01 9.45059180e-01 2.03165084e-01</_>
    <_>
      9.03807878e-01 9.08754528e-01 1.89903751e-01</_>
    <_>
      9.03807878e-01 9.08754528e-01 1.89903751e-01</_>
    <_>
      0. 0. 2.18457058e-01</_>
    <_>
      1.09554944e-03 1.12044821e-04 2.35428095e-01</_>
    <_>
      1.09554944e-03 1.12044821e-04 2.35428095e-01</_>
    <_>
      0. 0. 2.37805769e-01</_>
    <_>
      0. 0. 2.22182691e-01</_>
    <_>
      4.61485609e-03 4.13154165e-04 2.69454449e-01</_>
    <_>
      8.46707940e-01 6.07237339e-01 1.56959519e-01</_>
    <_>
      2.06382596e-04 3.58491787e-04 1.84698746e-01</_>
    <_>
      8.14144671e-01 8.43255460e-01 1.89540774e-01</_>
    <_>
      7.71062076e-01 8.61187518e-01 1.98775694e-01</_>
    <_>
      8.98190141e-01 9.24139619e-01 2.20924631e-01</_>
    <_>
      8.98190141e-01 9.24139619e-01 2.20924631e-01</_>
    <_>
      9.12647545e-01 9.30137515e-01 2.11730495e-01</_>
    <_>
      9.14458275e-01 9.18969452e-01 1.95510209e-01</_>
    <_>
      9.16204929e-01 9.20829237e-01 1.99681550e-01</_>
    <_>
      9.00843024e-01 9.06571388e-01 1.73791140e-01</_>
    <_>
      8.77090812e-01 8.18725944e-01 2.24898756e-01</_>
    <_>
      9.12647545e-01 9.30137515e-01 2.11730495e-01</_>
    <_>
      9.14458275e-01 9.18969452e-01 1.95510209e-01</_>
    <_>
      9.16204929e-01 9.20829237e-01 1.99681550e-01</_>
    <_>
      9.00843024e-01 9.06571388e-01 1.73791140e-01</_>
    <_>
      8.77090812e-01 8.18725944e-01 2.24898756e-01</_>
    <_>
      7.96121001e-01 8.00794542e-01 1.52795434e-01</_>
    <_>
      8.55580747e-01 8.29090774e-01 2.01197460e-01</_>
    <_>
      8.41885269e-01 8.14599216e-01 1.92856163e-01</_>
    <_>
      8.55580747e-01 8.29090774e-01 2.01197460e-01</_>
    <_>
      8.67244840e-01 8.71999502e-01 2.25809708e-01</_>
    <_>
      8.67244840e-01 8.71999502e-01 2.25809708e-01</_>
    <_>
      9.13942337e-01 9.32842910e-01 1.88105837e-01</_>
    <_>
      8.49711597e-01 8.35938811e-01 1.61193117e-01</_>
    <_>
      8.49711597e-01 8.35938811e-01 1.61193117e-01</_>
    <_>
      8.35311651e-01 8.43547344e-01 1.65473685e-01</_>
    <_>
      8.31777513e-01 8.25353622e-01 2.05731258e-01</_>
    <_>
      8.35311651e-01 8.43547344e-01 1.65473685e-01</_>
    <_>
      8.31777513e-01 8.25353622e-01 2.05731258e-01</_>
    <_>
      8.50211740e-01 8.38146031e-01 1.91417873e-01</_>
    <_>
      8.50211740e-01 8.38146031e-01 1.91417873e-01</_>
    <_>
      9.15494740e-01 8.91434014e-01 2.06604183e-01</_>
    <_>
      8.90308678e-01 8.73841703e-01 2.07357615e-01</_>
    <_>
      9.15494740e-01 8.91434014e-01 2.06604183e-01</_>
    <_>
      8.90308678e-01 8.73841703e-01 2.07357615e-01</_>
    <_>
      5.17283618e-01 2.88833380e-01 1.43572405e-01</_>
    <_>
      7.99243808e-01 8.58600199e-01 1.72772333e-01</_>
    <_>
      7.99243808e-01 8.58600199e-01 1.72772333e-01</_>
    <_>
      8.31286013e-01 8.36980104e-01 1.80217683e-01</_>
    <_>
      8.96554530e-01 9.10462797e-01 1.85508117e-01</_>
    <_>
      8.31286013e-01 8.36980104e-01 1.80217683e-01</_>
    <_>
      8.96554530e-01 9.10462797e-01 1.85508117e-01</_>
    <_>
      9.05489624e-01 9.53052580e-01 2.23228693e-01</_>
    <_>
      9.08169270e-01 9.58918095e-01 2.03448892e-01</_>
    <_>
      9.34054017e-01 9.66179490e-01 1.92829192e-01</_>
    <_>
      8.52545857e-01 9.40862775e-01 1.76081344e-01</_>
    <_>
      9.05489624e-01 9.53052580e-01 2.23228693e-01</_>
    <_>
      8.86121571e-01 9.47636425e-01 2.01415211e-01</_>
    <_>
      8.86121571e-01 9.47636425e-01 2.01415211e-01</_>
    <_>
      8.87748957e-01 9.49117064e-01 1.86560497e-01</_>
    <_>
      8.56753170e-01 8.94146025e-01 1.74186543e-01</_>
    <_>
      8.56753170e-01 8.94146025e-01 1.74186543e-01</_>
    <_>
      8.03647399e-01 8.59093308e-01 1.87740460e-01</_>
    <_>
      9.08169270e-01 9.58918095e-01 2.03448892e-01</_>
    <_>
      9.34054017e-01 9.66179490e-01 1.92829192e-01</_>
    <_>
      8.87748957e-01 9.49117064e-01 1.86560497e-01</_>
    <_>
      8.08853388e-01 8.65077913e-01 1.61950499e-01</_>
    <_>
      8.03647399e-01 8.59093308e-01 1.87740460e-01</_>
    <_>
      8.08853388e-01 8.65077913e-01 1.61950499e-01</_>
    <_>
      8.59410167e-01 7.96440363e-01 1.53018907e-01</_>
    <_>
      4.75658337e-03 3.20893829e-03 2.87552953e-01</_>
    <_>
      4.75658337e-03 3.20893829e-03 2.87552953e-01</_>
    <_>
      9.15874124e-01 9.10876036e-01 1.85637683e-01</_>
    <_>
      9.15874124e-01 9.10876036e-01 1.85637683e-01</_>
    <_>
      9.81478930e-01 9.57103729e-01 1.90068290e-01</_>
    <_>
      9.81478930e-01 9.57103729e-01 1.90068290e-01</_>
    <_>
      8.32846045e-01 8.51766169e-01 2.06561044e-01</_>
    <_>
      8.32846045e-01 8.51766169e-01 2.06561044e-01</_>
    <_>
      9.05411839e-01 8.99165094e-01 1.69271976e-01</_>
    <_>
      8.31104457e-01 8.23690653e-01 1.61636427e-01</_>
    <_>
      8.31104457e-01 8.23690653e-01 1.61636427e-01</_>
    <_>
      8.42345005e-04 4.60336712e-04 3.41845781e-01</_>
    <_>
      8.42345005e-04 4.60336712e-04 3.41845781e-01</_>
    <_>
      5.43296663e-03 1.28582828e-02 3.42527211e-01</_>
    <_>
      8.03031144e-05 8.37737446e-07 2.02860117e-01</_>
    <_>
      8.36763322e-01 8.53203356e-01 1.82647735e-01</_>
    <_>
      8.48292530e-01 8.59417021e-01 1.43181518e-01</_>
    <_>
      8.83887231e-01 9.04183626e-01 2.00394168e-01</_>
    <_>
      8.18235695e-01 8.25044036e-01 1.83027193e-01</_>
    <_>
      6.29920606e-03 9.03291535e-03 3.18276197e-01</_>
    <_>
      4.13895398e-03 1.99549063e-03 2.60902107e-01</_>
    <_>
      4.13895398e-03 1.99549063e-03 2.60902107e-01</_>
    <_>
      8.09930801e-01 8.40088010e-01 1.69548228e-01</_>
    <_>
      8.09930801e-01 8.40088010e-01 1.69548228e-01</_>
    <_>
      9.52866510e-04 3.40121391e-04 1.42929599e-01</_>
    <_>
      3.44486604e-03 6.77280826e-04 2.45818615e-01</_>
    <_>
      2.60895380e-04 8.20134487e-03 1.69479981e-01</_>
    <_>
      1.81747135e-03 5.64515358e-04 1.41002625e-01</_>
    <_>
      2.53532268e-03 1.47621307e-04 2.64384300e-01</_>
    <_>
      3.32581752e-04 3.28333233e-04 1.60711661e-01</_>
    <_>
      3.32581752e-04 3.28333233e-04 1.60711661e-01</_>
    <_>
      8.48396480e-01 8.46787751e-01 1.62756756e-01</_>
    <_>
      4.23835311e-03 1.20502547e-03 3.27180177e-01</_>
    <_>
      4.23835311e-03 1.20502547e-03 3.27180177e-01</_>
    <_>
      8.26045275e-01 8.22182059e-01 2.08308294e-01</_>
    <_>
      8.26045275e-01 8.22182059e-01 2.08308294e-01</_>
    <_>
      1.74219464e-03 2.04007025e-03 3.41526568e-01</_>
    <_>
      1.74219464e-03 2.04007025e-03 3.41526568e-01</_>
    <_>
      1.29650636e-02 5.09718340e-03 3.29402477e-01</_>
    <_>
      4.30752616e-03 2.15095072e-03 3.48803729e-01</_>
    <_>
      8.62271190e-05 5.73850157e-05 1.55310810e-01</_>
    <_>
      8.62271190e-05 5.73850157e-05 1.55310810e-01</_>
    <_>
      4.30752616e-03 2.15095072e-03 3.48803729e-01</_>
    <_>
      5.03599877e-04 3.33359669e-04 3.44284773e-01</_>
    <_>
      5.03599877e-04 3.33359669e-04 3.44284773e-01</_>
    <_>
      2.89139082e-03 1.96254207e-03 2.77370006e-01</_>
    <_>
      6.82471786e-04 6.85478677e-04 1.47808090e-01</_>
    <_>
      8.10546756e-01 8.13814759e-01 2.85462976e-01</_>
    <_>
      3.15871136e-03 7.83026498e-03 3.05624455e-01</_>
    <_>
      1.30136525e-02 1.02887917e-02 4.15481061e-01</_>
    <_>
      8.03374290e-01 8.61975908e-01 1.76913530e-01</_>
    <_>
      8.03374290e-01 8.61975908e-01 1.76913530e-01</_>
    <_>
      9.69296768e-02 1.13471539e-03 1.22494832e-01</_>
    <_>
      2.19565001e-03 1.07963784e-02 3.24643910e-01</_>
    <_>
      1.08439126e-03 7.48099526e-04 1.60073370e-01</_>
    <_>
      2.65446072e-03 9.11811367e-03 3.27868551e-01</_>
    <_>
      8.34387898e-01 8.28679919e-01 2.02991888e-01</_>
    <_>
      5.92762046e-03 1.00444872e-02 3.03321272e-01</_>
    <_>
      8.57577920e-01 8.58802736e-01 2.04186767e-01</_>
    <_>
      8.25394332e-01 8.38549733e-01 1.96855590e-01</_>
    <_>
      8.37883294e-01 8.65619719e-01 2.00830743e-01</_>
    <_>
      8.37883294e-01 8.65619719e-01 2.00830743e-01</_>
    <_>
      4.30716726e-04 5.10600978e-04 2.79026359e-01</_>
    <_>
      1.12364523e-03 5.93357487e-04 2.81073183e-01</_>
    <_>
      4.30716726e-04 5.10600978e-04 2.79026359e-01</_>
    <_>
      8.95892620e-01 8.96697223e-01 1.95775554e-01</_>
    <_>
      8.95892620e-01 8.96697223e-01 1.95775554e-01</_>
    <_>
      4.21501609e-04 4.21501609e-04 2.97153562e-01</_>
    <_>
      4.21501609e-04 4.21501609e-04 2.97153562e-01</_>
    <_>
      8.19734454e-01 8.17813575e-01 1.54814616e-01</_>
    <_>
      5.55743044e-03 1.63239121e-04 2.57908851e-01</_>
    <_>
      2.05719145e-03 4.03172383e-03 2.83814847e-01</_></support_vectors>
  <decision_functions>
    <_>
      <sv_count>200</sv_count>
      <rho>-6.1846509575843811e-02</rho>
      <alpha>
        1. 1. 1. 1. 1. 1. 1. 1. 1. 1. 1. 1. 1. 1. 1. 1. 1. 1. 1. 1. 1.
        1. 1. 1. 1. 1. 1. 1. 1. 1. 1. 1. 1. 1. 1. 1. 1. 1. 1. 1. 1. 1.
        1. 1. 1. 1. 1. 1. 1. 1. 1. 1. 1. 1. 1. 1. 1. 1. 1. 1. 1. 1. 1.
        1. 1. 1. 1. 1. 1. 1. 1. 1. 1. 1. 1. 1. 1. 1. 1. 1. 1. 1. 1. 1.
        1. 1. 1. 1. 1. 1. 1. 1. 1. 1. 1. 1. 1. 1. 1. 1. -1. -1. -1. -1.
        -1. -1. -1. -1. -1. -1. -1. -1. -1. -1. -1. -1. -1. -1. -1. -1.
        -1. -1. -1. -1. -1. -1. -1. -1. -1. -1. -1. -1. -1. -1. -1. -1.
        -1. -1. -1. -1. -1. -1. -1. -1. -1. -1. -1. -1. -1. -1. -1. -1.
        -1. -1. -1. -1. -1. -1. -1. -1. -1. -1. -1. -1. -1. -1. -1. -1.
        -1. -1. -1. -1. -1. -1. -1. -1. -1. -1. -1. -1. -1. -1. -1. -1.
        -1. -1. -1. -1. -1. -1. -1. -1. -1. -1. -1. -1. -1. -1. -1. -1.</alpha>
      <index>
        0 4 5 6 144 199 9 12 147 148 149 13 14 150 151 152 17 153 18 19
        23 24 25 154 27 28 155 156 29 40 43 159 163 164 165 50 166 173
        55 56 57 58 59 174 60 61 62 63 64 65 66 67 68 69 175 176 177 71
        77 82 84 180 85 86 87 181 88 89 90 91 92 99 100 101 102 183 107
        185 109 110 113 114 115 116 122 186 187 126 127 128 129 193 194
        132 133 136 197 141 142 198 1 2 3 7 8 10 11 15 16 20 21 22 26 30
        31 32 33 34 35 36 37 38 39 41 42 44 45 46 47 48 49 51 52 53 54
        70 72 73 74 75 76 78 79 80 81 83 93 94 95 96 97 98 103 104 105
        106 108 111 112 117 118 119 120 121 123 124 125 130 131 134 135
        137 138 139 140 143 145 170 171 172 146 178 179 182 184 157 158
        188 189 190 160 191 192 161 162 195 196 167 168 169</index></_></decision_functions></opencv_ml_svm>
</opencv_storage>
