<?xml version="1.0"?>
<opencv_storage>
<opencv_ml_svm>
  <format>3</format>
  <svmType>C_SVC</svmType>
  <kernel>
    <type>RBF</type>
    <gamma>1.</gamma></kernel>
  <C>1.</C>
  <term_criteria><iterations>100</iterations></term_criteria>
  <var_count>1</var_count>
  <class_count>2</class_count>
  <class_labels type_id="opencv-matrix">
    <rows>2</rows>
    <cols>1</cols>
    <dt>i</dt>
    <data>
      -1 1</data></class_labels>
  <sv_total>200</sv_total>
  <support_vectors>
    <_>
      2.61027515e-01</_>
    <_>
      5.12087882e-01</_>
    <_>
      1.</_>
    <_>
      1.</_>
    <_>
      1.</_>
    <_>
      2.05761194e-03</_>
    <_>
      2.05761194e-03</_>
    <_>
      1.</_>
    <_>
      4.13224101e-03</_>
    <_>
      1.</_>
    <_>
      1.</_>
    <_>
      1.</_>
    <_>
      0.</_>
    <_>
      1.</_>
    <_>
      1.44928694e-03</_>
    <_>
      1.</_>
    <_>
      1.44928694e-03</_>
    <_>
      1.</_>
    <_>
      1.</_>
    <_>
      1.</_>
    <_>
      1.</_>
    <_>
      1.</_>
    <_>
      1.47491693e-03</_>
    <_>
      1.47491693e-03</_>
    <_>
      1.</_>
    <_>
      1.</_>
    <_>
      2.54452229e-03</_>
    <_>
      2.54452229e-03</_>
    <_>
      1.</_>
    <_>
      1.</_>
    <_>
      1.</_>
    <_>
      1.</_>
    <_>
      1.</_>
    <_>
      1.</_>
    <_>
      1.</_>
    <_>
      1.51976943e-03</_>
    <_>
      1.</_>
    <_>
      1.51976943e-03</_>
    <_>
      1.</_>
    <_>
      1.</_>
    <_>
      1.</_>
    <_>
      1.</_>
    <_>
      1.</_>
    <_>
      1.</_>
    <_>
      1.57234073e-03</_>
    <_>
      1.</_>
    <_>
      1.</_>
    <_>
      1.58730149e-03</_>
    <_>
      1.58730149e-03</_>
    <_>
      1.</_>
    <_>
      1.</_>
    <_>
      1.17924809e-03</_>
    <_>
      3.71748209e-03</_>
    <_>
      1.87265873e-03</_>
    <_>
      4.82314825e-03</_>
    <_>
      3.21543217e-03</_>
    <_>
      1.61811709e-03</_>
    <_>
      1.61811709e-03</_>
    <_>
      1.73011422e-03</_>
    <_>
      3.46019864e-03</_>
    <_>
      1.52438879e-03</_>
    <_>
      1.51976943e-03</_>
    <_>
      1.43265724e-03</_>
    <_>
      1.43265724e-03</_>
    <_>
      0.</_>
    <_>
      1.52438879e-03</_>
    <_>
      1.52438879e-03</_>
    <_>
      1.51976943e-03</_>
    <_>
      1.51515007e-03</_>
    <_>
      1.51515007e-03</_>
    <_>
      0.</_>
    <_>
      1.52438879e-03</_>
    <_>
      1.47059560e-03</_>
    <_>
      1.47059560e-03</_>
    <_>
      1.58730149e-03</_>
    <_>
      1.58730149e-03</_>
    <_>
      1.49253011e-03</_>
    <_>
      1.49253011e-03</_>
    <_>
      1.</_>
    <_>
      1.</_>
    <_>
      1.</_>
    <_>
      1.</_>
    <_>
      0.</_>
    <_>
      0.</_>
    <_>
      1.51515007e-03</_>
    <_>
      1.51515007e-03</_>
    <_>
      1.</_>
    <_>
      1.</_>
    <_>
      1.</_>
    <_>
      1.</_>
    <_>
      1.</_>
    <_>
      1.</_>
    <_>
      1.</_>
    <_>
      1.</_>
    <_>
      1.</_>
    <_>
      1.</_>
    <_>
      1.</_>
    <_>
      1.</_>
    <_>
      1.</_>
    <_>
      1.</_>
    <_>
      1.</_>
    <_>
      1.</_>
    <_>
      1.</_>
    <_>
      1.</_>
    <_>
      1.</_>
    <_>
      1.</_>
    <_>
      1.</_>
    <_>
      1.</_>
    <_>
      1.</_>
    <_>
      4.33525443e-03</_>
    <_>
      1.49253011e-03</_>
    <_>
      1.67784095e-03</_>
    <_>
      4.36046720e-03</_>
    <_>
      4.96277213e-03</_>
    <_>
      2.06610560e-03</_>
    <_>
      3.83961201e-03</_>
    <_>
      1.</_>
    <_>
      1.</_>
    <_>
      1.</_>
    <_>
      1.</_>
    <_>
      1.</_>
    <_>
      1.</_>
    <_>
      1.</_>
    <_>
      1.</_>
    <_>
      1.</_>
    <_>
      1.</_>
    <_>
      1.</_>
    <_>
      1.</_>
    <_>
      1.</_>
    <_>
      1.</_>
    <_>
      1.</_>
    <_>
      1.</_>
    <_>
      1.</_>
    <_>
      1.</_>
    <_>
      1.</_>
    <_>
      1.</_>
    <_>
      1.</_>
    <_>
      1.</_>
    <_>
      1.</_>
    <_>
      1.</_>
    <_>
      1.</_>
    <_>
      1.</_>
    <_>
      1.</_>
    <_>
      1.</_>
    <_>
      1.</_>
    <_>
      1.29532814e-03</_>
    <_>
      1.29532814e-03</_>
    <_>
      4.93422151e-03</_>
    <_>
      4.93422151e-03</_>
    <_>
      1.25312805e-03</_>
    <_>
      1.25312805e-03</_>
    <_>
      1.96078420e-03</_>
    <_>
      1.96078420e-03</_>
    <_>
      0.</_>
    <_>
      0.</_>
    <_>
      1.38887763e-03</_>
    <_>
      1.38887763e-03</_>
    <_>
      1.57728791e-03</_>
    <_>
      1.47059560e-03</_>
    <_>
      1.48808956e-03</_>
    <_>
      1.48808956e-03</_>
    <_>
      1.47059560e-03</_>
    <_>
      3.00300121e-03</_>
    <_>
      0.</_>
    <_>
      1.44508481e-03</_>
    <_>
      0.</_>
    <_>
      1.44508481e-03</_>
    <_>
      1.43265724e-03</_>
    <_>
      1.43265724e-03</_>
    <_>
      2.43309140e-03</_>
    <_>
      2.43309140e-03</_>
    <_>
      3.96826863e-03</_>
    <_>
      3.96826863e-03</_>
    <_>
      4.70218062e-03</_>
    <_>
      4.16666269e-03</_>
    <_>
      3.51288915e-03</_>
    <_>
      3.51288915e-03</_>
    <_>
      3.54608893e-03</_>
    <_>
      4.31033969e-03</_>
    <_>
      1.53845549e-03</_>
    <_>
      1.53845549e-03</_>
    <_>
      1.57234073e-03</_>
    <_>
      1.57234073e-03</_>
    <_>
      1.44091249e-03</_>
    <_>
      1.18201971e-03</_>
    <_>
      1.39665604e-03</_>
    <_>
      1.44091249e-03</_>
    <_>
      1.44091249e-03</_>
    <_>
      1.45772099e-03</_>
    <_>
      1.70066953e-03</_>
    <_>
      1.</_>
    <_>
      1.</_>
    <_>
      1.</_>
    <_>
      1.</_>
    <_>
      1.</_>
    <_>
      1.</_>
    <_>
      0.</_>
    <_>
      1.</_>
    <_>
      1.</_>
    <_>
      1.</_></support_vectors>
  <decision_functions>
    <_>
      <sv_count>200</sv_count>
      <rho>1.6364902257919312e-03</rho>
      <alpha>
        1. 1. 1. 1. 1. 1. 1. 1. 1. 1. 1. 1. 1. 1. 1. 1. 1. 1. 1. 1. 1.
        1. 1. 1. 1. 1. 1. 1. 1. 1. 1. 1. 1. 1. 1. 1. 1. 1. 1. 1. 1. 1.
        1. 1. 1. 1. 1. 1. 1. 1. 1. 1. 1. 1. 1. 1. 1. 1. 1. 1. 1. 1. 1.
        1. 1. 1. 1. 1. 1. 1. 1. 1. 1. 1. 1. 1. 1. 1. 1. 1. 1. 1. 1. 1.
        1. 1. 1. 1. 1. 1. 1. 1. 1. 1. 1. 1. 1. 1. 1. 1. -1. -1. -1. -1.
        -1. -1. -1. -1. -1. -1. -1. -1. -1. -1. -1. -1. -1. -1. -1. -1.
        -1. -1. -1. -1. -1. -1. -1. -1. -1. -1. -1. -1. -1. -1. -1. -1.
        -1. -1. -1. -1. -1. -1. -1. -1. -1. -1. -1. -1. -1. -1. -1. -1.
        -1. -1. -1. -1. -1. -1. -1. -1. -1. -1. -1. -1. -1. -1. -1. -1.
        -1. -1. -1. -1. -1. -1. -1. -1. -1. -1. -1. -1. -1. -1. -1. -1.
        -1. -1. -1. -1. -1. -1. -1. -1. -1. -1. -1. -1. -1. -1. -1. -1.</alpha>
      <index>
        0 190 116 2 191 117 118 119 192 193 194 120 3 4 121 122 5 195
        196 6 123 124 125 126 127 7 128 8 9 129 130 131 132 133 197 198
        199 134 12 135 136 137 13 14 15 16 17 138 139 18 19 20 21 140
        141 142 143 144 26 27 147 148 151 152 44 157 51 52 53 162 54 55
        56 57 58 59 64 70 169 170 171 172 173 109 174 175 176 177 178
        110 111 183 184 185 112 113 114 115 188 189 1 10 11 22 23 24 25
        28 29 30 31 32 33 34 35 36 37 38 39 40 41 42 43 45 46 47 48 49
        50 60 61 62 63 65 66 67 68 69 71 72 73 74 75 76 77 78 79 80 81
        82 83 84 85 86 87 88 89 90 91 92 93 94 95 96 97 98 99 100 101
        102 103 104 105 106 107 108 158 159 160 161 179 180 181 182 145
        146 149 150 163 164 153 165 166 154 167 168 186 155 187 156</index></_></decision_functions></opencv_ml_svm>
</opencv_storage>
