<?xml version="1.0"?>
<opencv_storage>
<opencv_ml_svm>
  <format>3</format>
  <svmType>C_SVC</svmType>
  <kernel>
    <type>RBF</type>
    <gamma>1.</gamma></kernel>
  <C>1.</C>
  <term_criteria><iterations>100</iterations></term_criteria>
  <var_count>5</var_count>
  <class_count>2</class_count>
  <class_labels type_id="opencv-matrix">
    <rows>2</rows>
    <cols>1</cols>
    <dt>i</dt>
    <data>
      -1 1</data></class_labels>
  <sv_total>200</sv_total>
  <support_vectors>
    <_>
      2.61027515e-01 3.21537405e-02 2.46303193e-02 6.47445396e-03
      1.82371825e-01</_>
    <_>
      5.12087882e-01 1.59371775e-02 2.14244761e-02 1.69838704e-02
      2.16466948e-01</_>
    <_>
      9.44823086e-01 6.12007201e-01 2.09724247e-01 3.50084662e-01
      1.86217546e-01</_>
    <_>
      1.81159377e-03 2.21078806e-02 9.33318026e-03 1.81358191e-03
      2.14461342e-01</_>
    <_>
      0. 4.09249682e-03 8.57717451e-03 1.44997388e-02 1.66393086e-01</_>
    <_>
      6.83060288e-03 3.46083790e-02 2.24472303e-02 1.98862776e-02
      1.59036830e-01</_>
    <_>
      8.17438960e-03 3.13191190e-02 2.58802157e-02 1.53548466e-02
      2.32152537e-01</_>
    <_>
      9.31677222e-03 5.88510535e-04 4.18704178e-04 7.48054916e-03
      2.62579560e-01</_>
    <_>
      1.44928694e-03 2.35398230e-03 4.68965434e-03 1.58569328e-02
      2.22075433e-01</_>
    <_>
      1.44928694e-03 2.35398230e-03 4.68965434e-03 1.58569328e-02
      2.22075433e-01</_>
    <_>
      1.47491693e-03 7.10445922e-03 3.59865581e-03 1.95714608e-02
      2.18051419e-01</_>
    <_>
      1.65015459e-03 0. 0. 3.81931439e-02 2.14233905e-01</_>
    <_>
      2.54452229e-03 4.45622485e-03 5.81458304e-03 1.20061822e-02
      2.09403828e-01</_>
    <_>
      2.54452229e-03 4.45622485e-03 5.81458304e-03 1.20061822e-02
      2.09403828e-01</_>
    <_>
      1. 8.19806516e-01 8.82307708e-01 9.52692330e-01 2.05421954e-01</_>
    <_>
      2.04342306e-02 1.02371513e-03 2.35995115e-03 3.62106395e-04
      2.28814736e-01</_>
    <_>
      5.91716170e-03 3.36326979e-04 2.45940373e-05 1.89242128e-03
      2.06969634e-01</_>
    <_>
      2.04342306e-02 1.02371513e-03 2.35995115e-03 3.62106395e-04
      2.28814736e-01</_>
    <_>
      8.98203254e-03 2.99114821e-04 8.58397980e-05 5.95867168e-04
      1.80968657e-01</_>
    <_>
      1.51976943e-03 2.03579097e-04 1.79412702e-04 2.30943449e-04
      1.89693347e-01</_>
    <_>
      8.98203254e-03 2.99114821e-04 8.58397980e-05 5.95867168e-04
      1.80968657e-01</_>
    <_>
      1.51976943e-03 2.03579097e-04 1.79412702e-04 2.30943449e-04
      1.89693347e-01</_>
    <_>
      4.94185984e-02 9.07395966e-03 8.34914623e-04 1.59598724e-03
      2.26073384e-01</_>
    <_>
      1. 4.66805231e-03 3.15408135e-04 0. 2.99507201e-01</_>
    <_>
      1. 8.19320500e-01 8.37901950e-01 8.28710914e-01 2.30618522e-01</_>
    <_>
      1. 8.72679770e-01 9.07467484e-01 8.96557987e-01 1.81777701e-01</_>
    <_>
      9.70108509e-01 8.24454069e-01 8.45407069e-01 8.39624405e-01
      1.84152573e-01</_>
    <_>
      9.70248520e-01 8.29653084e-01 8.57930362e-01 8.48534584e-01
      2.04401284e-01</_>
    <_>
      9.91377652e-01 9.17010844e-01 9.13698792e-01 8.94996941e-01
      1.96584970e-01</_>
    <_>
      9.96804416e-01 7.30934620e-01 7.04555273e-01 5.93859017e-01
      1.57918215e-01</_>
    <_>
      1.04166567e-02 1.60226307e-03 2.61503109e-03 1.79260527e-03
      2.19117403e-01</_>
    <_>
      9.86548603e-01 3.87081116e-01 9.08798650e-02 1.21571533e-01
      1.80534452e-01</_>
    <_>
      3.71748209e-03 5.17552206e-03 4.67822189e-03 1.08171143e-02
      2.02144206e-01</_>
    <_>
      1.87265873e-03 1.08947735e-02 1.29807892e-03 3.46454373e-03
      2.22998768e-01</_>
    <_>
      3.21543217e-03 2.15606927e-03 7.06134539e-04 5.10870188e-04
      3.46147031e-01</_>
    <_>
      5.57619333e-03 5.71925147e-03 3.38014285e-03 7.35257100e-03
      2.15773553e-01</_>
    <_>
      5.57619333e-03 5.71925147e-03 3.38014285e-03 7.35257100e-03
      2.15773553e-01</_>
    <_>
      6.38976693e-03 2.53823218e-05 0. 1.47878379e-03 3.37441772e-01</_>
    <_>
      6.38976693e-03 2.53823218e-05 0. 1.47878379e-03 3.37441772e-01</_>
    <_>
      3.46019864e-03 7.40069244e-03 6.86621573e-03 7.76307331e-03
      2.28703707e-01</_>
    <_>
      1.51976943e-03 7.77140143e-04 1.41080830e-03 1.08799618e-03
      2.15315431e-01</_>
    <_>
      1.52438879e-03 0. 0. 0. 2.21279770e-01</_>
    <_>
      1.51515007e-03 0. 0. 0. 2.32146204e-01</_>
    <_>
      1.51515007e-03 0. 0. 0. 2.32146204e-01</_>
    <_>
      1.52438879e-03 0. 0. 0. 2.21279770e-01</_>
    <_>
      4.90197539e-03 0. 0. 2.56311687e-05 2.44360253e-01</_>
    <_>
      2.92396545e-03 0. 0. 5.76701277e-05 2.32602313e-01</_>
    <_>
      4.90197539e-03 0. 0. 2.56311687e-05 2.44360253e-01</_>
    <_>
      2.92396545e-03 0. 0. 5.76701277e-05 2.32602313e-01</_>
    <_>
      2.23463774e-02 0. 0. 7.66787198e-05 2.42349982e-01</_>
    <_>
      2.34604180e-02 0. 0. 3.92493035e-04 2.20974281e-01</_>
    <_>
      5.08981943e-02 1.19468542e-02 1.04048187e-02 1.32007077e-02
      2.30047673e-01</_>
    <_>
      8.36119056e-03 2.70238314e-02 2.62206066e-02 2.64558904e-02
      1.96191236e-01</_>
    <_>
      1.74215436e-03 0. 0. 0. 2.18138665e-01</_>
    <_>
      1.74215436e-03 0. 0. 0. 2.18138665e-01</_>
    <_>
      4.55927849e-03 3.84939252e-04 7.21761098e-05 3.16894817e-04
      2.22364485e-01</_>
    <_>
      1.34328306e-02 3.84939252e-04 7.21761098e-05 4.35965194e-04
      1.86760858e-01</_>
    <_>
      0. 0. 0. 6.79420657e-04 2.30792478e-01</_>
    <_>
      0. 0. 0. 6.79420657e-04 2.30792478e-01</_>
    <_>
      1.51515007e-03 0. 0. 4.69923616e-05 2.16669798e-01</_>
    <_>
      1.51515007e-03 0. 0. 4.69923616e-05 2.16669798e-01</_>
    <_>
      9.17431712e-03 2.91300155e-02 7.86515791e-03 3.18656489e-02
      1.79706171e-01</_>
    <_>
      2.38031745e-02 4.01181635e-03 1.14000030e-03 7.29451934e-03
      1.57834187e-01</_>
    <_>
      2.38031745e-02 4.01181635e-03 1.14000030e-03 7.29451934e-03
      1.57834187e-01</_>
    <_>
      9.75128233e-01 7.83111453e-01 9.07206655e-01 9.04952526e-01
      1.86766744e-01</_>
    <_>
      9.96911407e-01 8.04260254e-01 9.45059180e-01 9.40323591e-01
      2.03165084e-01</_>
    <_>
      1. 6.85165823e-01 4.18429196e-01 4.63032573e-01 1.69075042e-01</_>
    <_>
      1. 9.03807878e-01 9.08754528e-01 7.22905755e-01 1.89903751e-01</_>
    <_>
      4.33525443e-03 6.84574386e-03 7.70712912e-04 1.24674151e-03
      2.31466681e-01</_>
    <_>
      2.56024003e-02 1.09554944e-03 1.12044821e-04 8.09212564e-04
      2.35428095e-01</_>
    <_>
      2.56024003e-02 1.09554944e-03 1.12044821e-04 8.09212564e-04
      2.35428095e-01</_>
    <_>
      1.44508779e-02 6.84574386e-03 7.70712912e-04 1.24674151e-03
      2.24698350e-01</_>
    <_>
      1.42857134e-02 1.09554944e-03 1.12044821e-04 8.09212564e-04
      2.31859967e-01</_>
    <_>
      9.81935143e-01 8.14144671e-01 8.43255460e-01 8.35574627e-01
      1.89540774e-01</_>
    <_>
      4.70218062e-03 1.07877771e-03 1.46123590e-02 1.22748390e-02
      2.15770200e-01</_>
    <_>
      1.33587718e-02 1.14518523e-04 9.95342527e-03 4.17572772e-03
      2.21436307e-01</_>
    <_>
      9.95851576e-01 8.98190141e-01 9.24139619e-01 8.53830338e-01
      2.20924631e-01</_>
    <_>
      9.95851576e-01 8.98190141e-01 9.24139619e-01 8.53830338e-01
      2.20924631e-01</_>
    <_>
      9.97052014e-01 9.12647545e-01 9.30137515e-01 8.33754480e-01
      2.11730495e-01</_>
    <_>
      1. 9.14458275e-01 9.18969452e-01 8.09777379e-01 1.95510209e-01</_>
    <_>
      1. 9.16204929e-01 9.20829237e-01 8.11581790e-01 1.99681550e-01</_>
    <_>
      9.85345721e-01 9.00843024e-01 9.06571388e-01 8.04082572e-01
      1.73791140e-01</_>
    <_>
      9.88796949e-01 8.07766080e-01 8.75447035e-01 9.25573349e-01
      1.90509036e-01</_>
    <_>
      9.97052014e-01 9.12647545e-01 9.30137515e-01 8.33754480e-01
      2.11730495e-01</_>
    <_>
      1. 9.14458275e-01 9.18969452e-01 8.09777379e-01 1.95510209e-01</_>
    <_>
      1. 9.16204929e-01 9.20829237e-01 8.11581790e-01 1.99681550e-01</_>
    <_>
      9.85345721e-01 9.00843024e-01 9.06571388e-01 8.04082572e-01
      1.73791140e-01</_>
    <_>
      1.19047761e-02 8.64222832e-03 4.72521456e-03 2.68218555e-05
      2.21203059e-01</_>
    <_>
      9.84116912e-01 8.55580747e-01 8.29090774e-01 8.04763138e-01
      2.01197460e-01</_>
    <_>
      9.34543729e-01 8.41885269e-01 8.14599216e-01 7.92356789e-01
      1.92856163e-01</_>
    <_>
      9.89802897e-01 5.33273742e-02 2.80390121e-02 1.69905126e-02
      2.80655056e-01</_>
    <_>
      9.67175603e-01 9.13942337e-01 9.32842910e-01 9.29796040e-01
      1.88105837e-01</_>
    <_>
      1. 8.37663293e-01 9.11413133e-01 9.41255808e-01 1.64684132e-01</_>
    <_>
      1. 8.37663293e-01 9.11413133e-01 9.41255808e-01 1.64684132e-01</_>
    <_>
      9.82522428e-01 8.33691120e-01 8.31415772e-01 7.80654073e-01
      1.89055607e-01</_>
    <_>
      9.97163534e-01 8.35311651e-01 8.43547344e-01 8.48295152e-01
      1.65473685e-01</_>
    <_>
      9.96757627e-01 8.31777513e-01 8.25353622e-01 8.16289783e-01
      2.05731258e-01</_>
    <_>
      9.97163534e-01 8.35311651e-01 8.43547344e-01 8.48295152e-01
      1.65473685e-01</_>
    <_>
      9.96757627e-01 8.31777513e-01 8.25353622e-01 8.16289783e-01
      2.05731258e-01</_>
    <_>
      9.90904570e-01 8.50211740e-01 8.38146031e-01 7.99353838e-01
      1.91417873e-01</_>
    <_>
      9.90904570e-01 8.50211740e-01 8.38146031e-01 7.99353838e-01
      1.91417873e-01</_>
    <_>
      1. 9.15494740e-01 8.91434014e-01 8.80635440e-01 2.06604183e-01</_>
    <_>
      9.72424865e-01 8.26148868e-01 8.26742113e-01 8.58342230e-01
      2.09401786e-01</_>
    <_>
      1. 9.15494740e-01 8.91434014e-01 8.80635440e-01 2.06604183e-01</_>
    <_>
      9.93082225e-01 7.99243808e-01 8.58600199e-01 9.03779864e-01
      1.72772333e-01</_>
    <_>
      9.93082225e-01 7.99243808e-01 8.58600199e-01 9.03779864e-01
      1.72772333e-01</_>
    <_>
      1. 8.96554530e-01 9.10462797e-01 8.83717120e-01 1.85508117e-01</_>
    <_>
      1. 8.96554530e-01 9.10462797e-01 8.83717120e-01 1.85508117e-01</_>
    <_>
      9.89383698e-01 7.58723855e-01 8.20696294e-01 9.07862365e-01
      1.85132474e-01</_>
    <_>
      9.89383698e-01 7.58723855e-01 8.20696294e-01 9.07862365e-01
      1.85132474e-01</_>
    <_>
      1. 9.05489624e-01 9.53052580e-01 9.16848719e-01 2.23228693e-01</_>
    <_>
      1. 9.08169270e-01 9.58918095e-01 9.93006527e-01 2.03448892e-01</_>
    <_>
      1. 9.34054017e-01 9.66179490e-01 9.78994370e-01 1.92829192e-01</_>
    <_>
      1. 9.05489624e-01 9.53052580e-01 9.16848719e-01 2.23228693e-01</_>
    <_>
      9.89828110e-01 8.86121571e-01 9.47636425e-01 9.43978190e-01
      2.01415211e-01</_>
    <_>
      9.89828110e-01 8.86121571e-01 9.47636425e-01 9.43978190e-01
      2.01415211e-01</_>
    <_>
      9.96648669e-01 8.87748957e-01 9.49117064e-01 9.61135626e-01
      1.86560497e-01</_>
    <_>
      9.78782594e-01 8.56753170e-01 8.94146025e-01 9.23155069e-01
      1.74186543e-01</_>
    <_>
      9.78782594e-01 8.56753170e-01 8.94146025e-01 9.23155069e-01
      1.74186543e-01</_>
    <_>
      9.85489726e-01 8.03647399e-01 8.59093308e-01 8.54375362e-01
      1.87740460e-01</_>
    <_>
      1. 9.08169270e-01 9.58918095e-01 9.93006527e-01 2.03448892e-01</_>
    <_>
      1. 9.34054017e-01 9.66179490e-01 9.78994370e-01 1.92829192e-01</_>
    <_>
      9.96648669e-01 8.87748957e-01 9.49117064e-01 9.61135626e-01
      1.86560497e-01</_>
    <_>
      9.85489726e-01 8.03647399e-01 8.59093308e-01 8.54375362e-01
      1.87740460e-01</_>
    <_>
      2.06610560e-03 2.13183230e-03 1.45005696e-02 5.47750155e-03
      1.97734430e-01</_>
    <_>
      9.90364134e-01 9.15874124e-01 9.10876036e-01 8.11655760e-01
      1.85637683e-01</_>
    <_>
      9.90364134e-01 9.15874124e-01 9.10876036e-01 8.11655760e-01
      1.85637683e-01</_>
    <_>
      1. 9.81478930e-01 9.57103729e-01 8.07007730e-01 1.90068290e-01</_>
    <_>
      1. 2.26211488e-01 6.19425438e-02 4.22257371e-02 1.90668404e-01</_>
    <_>
      1. 9.81478930e-01 9.57103729e-01 8.07007730e-01 1.90068290e-01</_>
    <_>
      9.41287875e-01 8.32846045e-01 8.51766169e-01 8.53259027e-01
      2.06561044e-01</_>
    <_>
      9.41287875e-01 8.32846045e-01 8.51766169e-01 8.53259027e-01
      2.06561044e-01</_>
    <_>
      1. 7.90544450e-01 8.25524151e-01 8.49141479e-01 1.64727777e-01</_>
    <_>
      1. 7.90544450e-01 8.25524151e-01 8.49141479e-01 1.64727777e-01</_>
    <_>
      9.90577281e-01 8.21135283e-01 8.22312772e-01 8.44219446e-01
      1.86348289e-01</_>
    <_>
      9.90577281e-01 8.21135283e-01 8.22312772e-01 8.44219446e-01
      1.86348289e-01</_>
    <_>
      9.95792806e-01 7.79878616e-01 8.13611448e-01 8.42372060e-01
      1.75306574e-01</_>
    <_>
      1. 8.36763322e-01 8.53203356e-01 8.74111652e-01 1.82647735e-01</_>
    <_>
      1. 8.83887231e-01 9.04183626e-01 9.13481295e-01 2.00394168e-01</_>
    <_>
      1. 8.48292530e-01 8.59417021e-01 8.75562131e-01 1.43181518e-01</_>
    <_>
      1. 8.83887231e-01 9.04183626e-01 9.13481295e-01 2.00394168e-01</_>
    <_>
      1. 7.51425683e-01 7.86641777e-01 8.46891940e-01 1.65482298e-01</_>
    <_>
      1. 8.18235695e-01 8.25044036e-01 8.51501882e-01 1.83027193e-01</_>
    <_>
      1. 8.18235695e-01 8.25044036e-01 8.51501882e-01 1.83027193e-01</_>
    <_>
      9.96124208e-01 8.61097753e-01 8.96879077e-01 9.03290987e-01
      1.96145594e-01</_>
    <_>
      1.64048076e-02 8.43182730e-04 1.09384570e-03 2.02977797e-03
      1.79117054e-01</_>
    <_>
      1.29532814e-03 8.42623971e-03 4.87560965e-03 2.57167825e-03
      2.12135896e-01</_>
    <_>
      4.93422151e-03 9.79353953e-03 1.23869209e-03 7.03772763e-03
      2.12148905e-01</_>
    <_>
      4.93422151e-03 9.79353953e-03 1.23869209e-03 7.03772763e-03
      2.12148905e-01</_>
    <_>
      7.87660480e-03 9.52866510e-04 3.40121391e-04 4.98334120e-04
      1.42929599e-01</_>
    <_>
      7.42575526e-03 2.37040799e-02 1.99523922e-02 1.24404003e-04
      1.98008657e-01</_>
    <_>
      1.25698447e-02 3.54847242e-03 5.23784850e-03 8.09529610e-03
      2.15199143e-01</_>
    <_>
      1.38887763e-03 2.83992995e-04 2.62151967e-04 2.73102400e-04
      1.92416564e-01</_>
    <_>
      1.38887763e-03 2.83992995e-04 2.62151967e-04 2.73102400e-04
      1.92416564e-01</_>
    <_>
      1.47059560e-03 1.43210394e-02 2.45425347e-02 3.39643396e-02
      1.94467127e-01</_>
    <_>
      1.44508779e-02 4.60390188e-03 2.17518909e-03 9.20888875e-03
      2.33777076e-01</_>
    <_>
      9.96517122e-01 8.23867917e-01 8.00995648e-01 6.65568173e-01
      1.77156940e-01</_>
    <_>
      2.04081535e-02 8.60230718e-03 1.94995361e-03 3.76862171e-03
      2.43079379e-01</_>
    <_>
      1. 8.12615633e-01 8.11697066e-01 7.39545643e-01 1.80501089e-01</_>
    <_>
      2.43309140e-03 1.68903433e-02 4.29738127e-02 4.55956869e-02
      1.62677422e-01</_>
    <_>
      1. 8.20438147e-01 8.09675336e-01 8.54142606e-01 1.89325407e-01</_>
    <_>
      1. 8.20438147e-01 8.09675336e-01 8.54142606e-01 1.89325407e-01</_>
    <_>
      1.11111104e-02 5.97271649e-03 2.74955155e-03 3.89755098e-03
      2.01684296e-01</_>
    <_>
      9.97729242e-01 8.10525298e-01 8.26389551e-01 8.37397397e-01
      1.71487048e-01</_>
    <_>
      3.96826863e-03 6.84618670e-03 3.17858625e-03 1.14733935e-03
      2.34984964e-01</_>
    <_>
      3.96826863e-03 6.84618670e-03 3.17858625e-03 1.14733935e-03
      2.34984964e-01</_>
    <_>
      8.99279118e-03 1.22490246e-02 6.72811456e-03 1.50814059e-03
      2.24894583e-01</_>
    <_>
      7.32600689e-03 8.18329770e-03 8.16145726e-03 1.81748357e-03
      2.09996477e-01</_>
    <_>
      1.61870420e-02 4.06572688e-03 1.43334258e-03 3.09342955e-04
      2.19334409e-01</_>
    <_>
      8.99279118e-03 1.22490246e-02 6.72811456e-03 1.50814059e-03
      2.24894583e-01</_>
    <_>
      8.99279118e-03 2.89139082e-03 1.96254207e-03 2.57143984e-03
      2.77370006e-01</_>
    <_>
      1.17924511e-02 6.94750622e-03 3.56563483e-03 6.08430756e-03
      2.40325063e-01</_>
    <_>
      1.17924511e-02 6.94750622e-03 3.56563483e-03 6.08430756e-03
      2.40325063e-01</_>
    <_>
      4.31033969e-03 3.35763674e-03 6.75152813e-04 1.10145910e-02
      1.96461722e-01</_>
    <_>
      1.53845549e-03 1.11808628e-02 4.43178229e-03 4.17790515e-03
      1.99796945e-01</_>
    <_>
      9.86263275e-01 7.84179151e-01 8.45126867e-01 8.59816194e-01
      1.60286874e-01</_>
    <_>
      9.91091132e-01 8.03374290e-01 8.61975908e-01 8.76929164e-01
      1.76913530e-01</_>
    <_>
      9.86263275e-01 7.84179151e-01 8.45126867e-01 8.59816194e-01
      1.60286874e-01</_>
    <_>
      9.91091132e-01 8.03374290e-01 8.61975908e-01 8.76929164e-01
      1.76913530e-01</_>
    <_>
      1.57234073e-03 1.42256788e-03 1.95120275e-02 1.39976498e-02
      1.92105085e-01</_>
    <_>
      1.44091249e-03 7.70582305e-03 6.38405466e-03 6.29612617e-03
      2.43019059e-01</_>
    <_>
      6.52742386e-03 1.18303485e-02 7.00434530e-03 8.37030588e-04
      2.20249176e-01</_>
    <_>
      5.23561239e-03 9.47878975e-03 6.37136749e-04 8.01559538e-03
      1.94674030e-01</_>
    <_>
      5.91015816e-03 3.94529477e-03 2.55696912e-04 1.46576976e-02
      2.24459231e-01</_>
    <_>
      1.18201971e-03 8.65631085e-03 3.39978538e-03 1.42874513e-02
      2.05271930e-01</_>
    <_>
      8.04290175e-03 2.71035731e-03 4.18956252e-03 1.06178736e-03
      1.77918658e-01</_>
    <_>
      9.94754612e-01 8.34387898e-01 8.28679919e-01 8.04812312e-01
      2.02991888e-01</_>
    <_>
      1. 8.57577920e-01 8.58802736e-01 8.28056991e-01 2.04186767e-01</_>
    <_>
      1. 8.57577920e-01 8.58802736e-01 8.28056991e-01 2.04186767e-01</_>
    <_>
      9.87826526e-01 8.25394332e-01 8.38549733e-01 8.50458443e-01
      1.96855590e-01</_>
    <_>
      1. 8.37883294e-01 8.65619719e-01 8.75536203e-01 2.00830743e-01</_>
    <_>
      1. 8.37883294e-01 8.65619719e-01 8.75536203e-01 2.00830743e-01</_>
    <_>
      9.90164876e-01 8.95892620e-01 8.96697223e-01 8.77768040e-01
      1.95775554e-01</_>
    <_>
      7.38334656e-03 2.79355515e-03 5.78565430e-03 4.35204618e-03
      1.80854410e-01</_>
    <_>
      1.45772099e-03 8.33666977e-03 1.06486753e-02 1.82495860e-03
      1.98245972e-01</_>
    <_>
      1.28939748e-02 6.98319962e-03 3.77281045e-04 4.20239009e-03
      1.95482373e-01</_>
    <_>
      9.95791256e-01 8.12945426e-01 8.10757458e-01 8.18274498e-01
      1.82772815e-01</_>
    <_>
      1.08040869e-02 1.31536741e-03 4.07607155e-03 3.59111116e-03
      2.29946822e-01</_>
    <_>
      1.08040869e-02 1.31536741e-03 4.07607155e-03 3.59111116e-03
      2.29946822e-01</_>
    <_>
      0. 1.08703161e-02 9.86125413e-03 9.48285498e-03 2.08340138e-01</_></support_vectors>
  <decision_functions>
    <_>
      <sv_count>200</sv_count>
      <rho>-8.0539137125015259e-02</rho>
      <alpha>
        1. 1. 1. 1. 1. 1. 1. 1. 1. 1. 1. 1. 1. 1. 1. 1. 1. 1. 1. 1. 1.
        1. 1. 1. 1. 1. 1. 1. 1. 1. 1. 1. 1. 1. 1. 1. 1. 1. 1. 1. 1. 1.
        1. 1. 1. 1. 1. 1. 1. 1. 1. 1. 1. 1. 1. 1. 1. 1. 1. 1. 1. 1. 1.
        1. 1. 1. 1. 1. 1. 1. 1. 1. 1. 1. 1. 1. 1. 1. 1. 1. 1. 1. 1. 1.
        1. 1. 1. 1. 1. 1. 1. 1. 1. 1. 1. 1. 1. 1. 1. 1. -1. -1. -1. -1.
        -1. -1. -1. -1. -1. -1. -1. -1. -1. -1. -1. -1. -1. -1. -1. -1.
        -1. -1. -1. -1. -1. -1. -1. -1. -1. -1. -1. -1. -1. -1. -1. -1.
        -1. -1. -1. -1. -1. -1. -1. -1. -1. -1. -1. -1. -1. -1. -1. -1.
        -1. -1. -1. -1. -1. -1. -1. -1. -1. -1. -1. -1. -1. -1. -1. -1.
        -1. -1. -1. -1. -1. -1. -1. -1. -1. -1. -1. -1. -1. -1. -1. -1.
        -1. -1. -1. -1. -1. -1. -1. -1. -1. -1. -1. -1. -1. -1. -1. -1.</alpha>
      <index>
        0 2 136 199 138 139 4 7 8 9 141 144 12 13 14 145 15 147 17 148
        149 23 24 25 26 27 29 30 32 33 34 35 36 39 158 159 161 162 163
        166 167 168 169 170 64 65 67 68 69 70 71 72 171 172 173 75 81 82
        86 87 88 89 180 91 92 93 94 181 182 183 184 185 101 102 103 186
        106 107 108 110 113 114 115 121 187 188 189 124 192 127 128 129
        193 132 133 194 195 196 197 198 1 3 5 6 10 11 16 18 19 20 21 22
        28 31 37 38 40 41 42 43 44 45 46 47 48 49 50 51 52 53 54 55 56
        57 58 59 60 61 62 63 66 73 74 76 77 78 79 80 83 84 85 90 95 96
        97 98 99 100 104 105 109 111 112 116 117 118 119 120 122 123 125
        126 130 131 134 135 137 140 164 165 154 155 142 143 174 156 175
        176 177 178 179 146 150 151 157 190 191 152 153 160</index></_></decision_functions></opencv_ml_svm>
</opencv_storage>
