<?xml version="1.0"?>
<opencv_storage>
<opencv_ml_svm>
  <format>3</format>
  <svmType>C_SVC</svmType>
  <kernel>
    <type>RBF</type>
    <gamma>1.</gamma></kernel>
  <C>1.</C>
  <term_criteria><iterations>100</iterations></term_criteria>
  <var_count>2</var_count>
  <class_count>2</class_count>
  <class_labels type_id="opencv-matrix">
    <rows>2</rows>
    <cols>1</cols>
    <dt>i</dt>
    <data>
      -1 1</data></class_labels>
  <sv_total>200</sv_total>
  <support_vectors>
    <_>
      2.46303193e-02 1.82371825e-01</_>
    <_>
      2.14244761e-02 2.16466948e-01</_>
    <_>
      8.38109374e-01 2.05618799e-01</_>
    <_>
      8.38109374e-01 2.05618799e-01</_>
    <_>
      1.04061945e-03 3.09227228e-01</_>
    <_>
      1.71439983e-02 3.42390895e-01</_>
    <_>
      1.71439983e-02 3.42390895e-01</_>
    <_>
      3.51430848e-04 3.03530127e-01</_>
    <_>
      3.51430848e-04 3.03530127e-01</_>
    <_>
      6.72583483e-05 1.42137662e-01</_>
    <_>
      6.72583483e-05 1.42137662e-01</_>
    <_>
      1.99938007e-03 2.85682857e-01</_>
    <_>
      8.33704650e-01 2.17861295e-01</_>
    <_>
      3.14171164e-04 3.13921064e-01</_>
    <_>
      3.14171164e-04 3.13921064e-01</_>
    <_>
      3.15408135e-04 2.99507201e-01</_>
    <_>
      1.69163119e-04 1.43834442e-01</_>
    <_>
      1.69163119e-04 1.43834442e-01</_>
    <_>
      3.96907283e-03 2.99292475e-01</_>
    <_>
      1.18047220e-03 3.18889767e-01</_>
    <_>
      1.18047220e-03 3.18889767e-01</_>
    <_>
      8.37901950e-01 2.30618522e-01</_>
    <_>
      8.37901950e-01 2.30618522e-01</_>
    <_>
      3.07030772e-04 1.46936610e-01</_>
    <_>
      9.13698792e-01 1.96584970e-01</_>
    <_>
      3.40718136e-04 3.14680845e-01</_>
    <_>
      3.40718136e-04 3.14680845e-01</_>
    <_>
      6.50306698e-03 4.14424866e-01</_>
    <_>
      1.16525646e-02 3.90859783e-01</_>
    <_>
      7.06134539e-04 3.46147031e-01</_>
    <_>
      0. 3.37441772e-01</_>
    <_>
      0. 3.37441772e-01</_>
    <_>
      1.98281559e-04 3.39589506e-01</_>
    <_>
      1.98281559e-04 3.39589506e-01</_>
    <_>
      0. 2.41200432e-01</_>
    <_>
      8.57948124e-01 1.77812710e-01</_>
    <_>
      0. 2.16279298e-01</_>
    <_>
      1.57045855e-04 1.39208749e-01</_>
    <_>
      1.57045855e-04 1.39208749e-01</_>
    <_>
      9.25016940e-01 2.13800564e-01</_>
    <_>
      9.45059180e-01 2.03165084e-01</_>
    <_>
      9.45059180e-01 2.03165084e-01</_>
    <_>
      9.25016940e-01 2.13800564e-01</_>
    <_>
      9.08754528e-01 1.89903751e-01</_>
    <_>
      9.08754528e-01 1.89903751e-01</_>
    <_>
      4.13154165e-04 2.69454449e-01</_>
    <_>
      8.80836844e-01 1.48718685e-01</_>
    <_>
      8.43255460e-01 1.89540774e-01</_>
    <_>
      8.81083488e-01 1.63121134e-01</_>
    <_>
      9.45064247e-01 2.08663106e-01</_>
    <_>
      9.24139619e-01 2.20924631e-01</_>
    <_>
      9.24139619e-01 2.20924631e-01</_>
    <_>
      9.30137515e-01 2.11730495e-01</_>
    <_>
      9.18969452e-01 1.95510209e-01</_>
    <_>
      9.20829237e-01 1.99681550e-01</_>
    <_>
      9.30137515e-01 2.11730495e-01</_>
    <_>
      9.18969452e-01 1.95510209e-01</_>
    <_>
      9.20829237e-01 1.99681550e-01</_>
    <_>
      8.02057743e-01 1.29268155e-01</_>
    <_>
      8.02057743e-01 1.29268155e-01</_>
    <_>
      8.71999502e-01 2.25809708e-01</_>
    <_>
      8.38925183e-01 1.54819623e-01</_>
    <_>
      8.71999502e-01 2.25809708e-01</_>
    <_>
      9.32842910e-01 1.88105837e-01</_>
    <_>
      8.83069515e-01 2.09608689e-01</_>
    <_>
      1.74916582e-03 1.31621048e-01</_>
    <_>
      1.74916582e-03 1.31621048e-01</_>
    <_>
      8.31415772e-01 1.89055607e-01</_>
    <_>
      8.40931654e-01 1.60907328e-01</_>
    <_>
      8.40931654e-01 1.60907328e-01</_>
    <_>
      8.35938811e-01 1.61193117e-01</_>
    <_>
      8.43547344e-01 1.65473685e-01</_>
    <_>
      8.43547344e-01 1.65473685e-01</_>
    <_>
      8.38146031e-01 1.91417873e-01</_>
    <_>
      8.38146031e-01 1.91417873e-01</_>
    <_>
      8.91434014e-01 2.06604183e-01</_>
    <_>
      8.26226234e-01 1.53860494e-01</_>
    <_>
      8.58600199e-01 1.72772333e-01</_>
    <_>
      8.58600199e-01 1.72772333e-01</_>
    <_>
      8.36980104e-01 1.80217683e-01</_>
    <_>
      9.10462797e-01 1.85508117e-01</_>
    <_>
      8.36980104e-01 1.80217683e-01</_>
    <_>
      9.10462797e-01 1.85508117e-01</_>
    <_>
      8.43399584e-01 1.67676747e-01</_>
    <_>
      8.43399584e-01 1.67676747e-01</_>
    <_>
      6.26926776e-04 1.33643940e-01</_>
    <_>
      6.26926776e-04 1.33643940e-01</_>
    <_>
      9.53052580e-01 2.23228693e-01</_>
    <_>
      9.58918095e-01 2.03448892e-01</_>
    <_>
      9.66179490e-01 1.92829192e-01</_>
    <_>
      9.53052580e-01 2.23228693e-01</_>
    <_>
      9.47636425e-01 2.01415211e-01</_>
    <_>
      9.47636425e-01 2.01415211e-01</_>
    <_>
      9.49117064e-01 1.86560497e-01</_>
    <_>
      8.94146025e-01 1.74186543e-01</_>
    <_>
      8.94146025e-01 1.74186543e-01</_>
    <_>
      8.59093308e-01 1.87740460e-01</_>
    <_>
      9.58918095e-01 2.03448892e-01</_>
    <_>
      9.66179490e-01 1.92829192e-01</_>
    <_>
      9.49117064e-01 1.86560497e-01</_>
    <_>
      8.65077913e-01 1.61950499e-01</_>
    <_>
      8.59093308e-01 1.87740460e-01</_>
    <_>
      2.01241244e-02 3.50102425e-01</_>
    <_>
      3.20893829e-03 2.87552953e-01</_>
    <_>
      3.20893829e-03 2.87552953e-01</_>
    <_>
      8.38391304e-01 2.15735465e-01</_>
    <_>
      3.94191593e-01 1.17021881e-01</_>
    <_>
      8.61672834e-06 1.63856864e-01</_>
    <_>
      8.61672834e-06 1.63856864e-01</_>
    <_>
      9.10876036e-01 1.85637683e-01</_>
    <_>
      9.10876036e-01 1.85637683e-01</_>
    <_>
      9.57103729e-01 1.90068290e-01</_>
    <_>
      9.57103729e-01 1.90068290e-01</_>
    <_>
      8.51766169e-01 2.06561044e-01</_>
    <_>
      8.51766169e-01 2.06561044e-01</_>
    <_>
      8.99165094e-01 1.69271976e-01</_>
    <_>
      8.23690653e-01 1.61636427e-01</_>
    <_>
      8.59033108e-01 1.93663955e-01</_>
    <_>
      8.23690653e-01 1.61636427e-01</_>
    <_>
      9.49635214e-05 1.58763573e-01</_>
    <_>
      9.49635214e-05 1.58763573e-01</_>
    <_>
      4.60336712e-04 3.41845781e-01</_>
    <_>
      2.30976184e-05 1.81353197e-01</_>
    <_>
      4.60336712e-04 3.41845781e-01</_>
    <_>
      1.28582828e-02 3.42527211e-01</_>
    <_>
      8.37737446e-07 2.02860117e-01</_>
    <_>
      8.38641584e-01 2.18717858e-01</_>
    <_>
      8.53203356e-01 1.82647735e-01</_>
    <_>
      9.04183626e-01 2.00394168e-01</_>
    <_>
      8.59417021e-01 1.43181518e-01</_>
    <_>
      9.04183626e-01 2.00394168e-01</_>
    <_>
      8.59417021e-01 1.43181518e-01</_>
    <_>
      3.59030346e-05 1.65587708e-01</_>
    <_>
      1.22429337e-04 1.41902760e-01</_>
    <_>
      8.25044036e-01 1.83027193e-01</_>
    <_>
      8.25044036e-01 1.83027193e-01</_>
    <_>
      9.03291535e-03 3.18276197e-01</_>
    <_>
      7.87258983e-01 1.37558863e-01</_>
    <_>
      3.40121391e-04 1.42929599e-01</_>
    <_>
      3.18370148e-04 1.22875683e-01</_>
    <_>
      5.64515358e-04 1.41002625e-01</_>
    <_>
      2.20779725e-03 1.21069260e-01</_>
    <_>
      3.71446804e-04 1.48720264e-01</_>
    <_>
      3.71446804e-04 1.48720264e-01</_>
    <_>
      7.43065611e-04 1.45816162e-01</_>
    <_>
      7.43065611e-04 1.45816162e-01</_>
    <_>
      5.93656674e-03 3.66942227e-01</_>
    <_>
      5.93656674e-03 3.66942227e-01</_>
    <_>
      8.46787751e-01 1.62756756e-01</_>
    <_>
      1.20502547e-03 3.27180177e-01</_>
    <_>
      8.46787751e-01 1.62756756e-01</_>
    <_>
      1.20502547e-03 3.27180177e-01</_>
    <_>
      2.04007025e-03 3.41526568e-01</_>
    <_>
      2.04007025e-03 3.41526568e-01</_>
    <_>
      3.16335645e-04 1.50030732e-01</_>
    <_>
      7.81782530e-03 3.47251117e-01</_>
    <_>
      5.09718340e-03 3.29402477e-01</_>
    <_>
      8.21518481e-01 1.96797892e-01</_>
    <_>
      2.15095072e-03 3.48803729e-01</_>
    <_>
      2.33633001e-03 1.25157699e-01</_>
    <_>
      5.73850157e-05 1.55310810e-01</_>
    <_>
      5.73850157e-05 1.55310810e-01</_>
    <_>
      2.15095072e-03 3.48803729e-01</_>
    <_>
      3.33359669e-04 3.44284773e-01</_>
    <_>
      2.33633001e-03 1.25157699e-01</_>
    <_>
      3.33359669e-04 3.44284773e-01</_>
    <_>
      1.96254207e-03 2.77370006e-01</_>
    <_>
      1.80581603e-02 3.31440240e-01</_>
    <_>
      9.52178380e-06 2.83257246e-01</_>
    <_>
      9.52178380e-06 2.83257246e-01</_>
    <_>
      7.83026498e-03 3.05624455e-01</_>
    <_>
      1.02887917e-02 4.15481061e-01</_>
    <_>
      8.45126867e-01 1.60286874e-01</_>
    <_>
      8.61975908e-01 1.76913530e-01</_>
    <_>
      2.38994529e-04 1.53930157e-01</_>
    <_>
      8.45126867e-01 1.60286874e-01</_>
    <_>
      8.61975908e-01 1.76913530e-01</_>
    <_>
      2.38994529e-04 1.53930157e-01</_>
    <_>
      1.39752563e-04 1.29380077e-01</_>
    <_>
      1.39752563e-04 1.29380077e-01</_>
    <_>
      1.83457020e-03 1.32393613e-01</_>
    <_>
      1.13471539e-03 1.22494832e-01</_>
    <_>
      1.13471539e-03 1.22494832e-01</_>
    <_>
      1.07963784e-02 3.24643910e-01</_>
    <_>
      2.12456202e-04 1.50497526e-01</_>
    <_>
      1.25758452e-02 3.24225187e-01</_>
    <_>
      9.11811367e-03 3.27868551e-01</_>
    <_>
      8.28679919e-01 2.02991888e-01</_>
    <_>
      8.38924766e-01 1.84575632e-01</_>
    <_>
      5.04138407e-05 1.86504349e-01</_>
    <_>
      8.65619719e-01 2.00830743e-01</_>
    <_>
      8.49231482e-01 1.73530921e-01</_>
    <_>
      8.65619719e-01 2.00830743e-01</_>
    <_>
      1.41918706e-03 3.10173422e-01</_>
    <_>
      4.21501609e-04 2.97153562e-01</_>
    <_>
      4.21501609e-04 2.97153562e-01</_>
    <_>
      6.73540926e-04 1.35926485e-01</_>
    <_>
      6.73540926e-04 1.35926485e-01</_>
    <_>
      8.17813575e-01 1.54814616e-01</_>
    <_>
      3.69801237e-05 1.66878223e-01</_></support_vectors>
  <decision_functions>
    <_>
      <sv_count>200</sv_count>
      <rho>-1.3098740577697754e-01</rho>
      <alpha>
        1. 1. 1. 1. 1. 1. 1. 1. 1. 1. 1. 1. 1. 1. 1. 1. 1. 1. 1. 1. 1.
        1. 1. 1. 1. 1. 1. 1. 1. 1. 1. 1. 1. 1. 1. 1. 1. 1. 1. 1. 1. 1.
        1. 1. 1. 1. 1. 1. 1. 1. 1. 1. 1. 1. 1. 1. 1. 1. 1. 1. 1. 1. 1.
        1. 1. 1. 1. 1. 1. 1. 1. 1. 1. 1. 1. 1. 1. 1. 1. 1. 1. 1. 1. 1.
        1. 1. 1. 1. 1. 1. 1. 1. 1. 1. 1. 1. 1. 1. 1. 1. -1. -1. -1. -1.
        -1. -1. -1. -1. -1. -1. -1. -1. -1. -1. -1. -1. -1. -1. -1. -1.
        -1. -1. -1. -1. -1. -1. -1. -1. -1. -1. -1. -1. -1. -1. -1. -1.
        -1. -1. -1. -1. -1. -1. -1. -1. -1. -1. -1. -1. -1. -1. -1. -1.
        -1. -1. -1. -1. -1. -1. -1. -1. -1. -1. -1. -1. -1. -1. -1. -1.
        -1. -1. -1. -1. -1. -1. -1. -1. -1. -1. -1. -1. -1. -1. -1. -1.
        -1. -1. -1. -1. -1. -1. -1. -1. -1. -1. -1. -1. -1. -1. -1. -1.</alpha>
      <index>
        0 126 4 5 6 128 129 131 132 133 11 136 12 137 138 139 15 18 21
        22 23 25 26 27 28 140 141 142 143 29 148 150 152 153 35 154 156
        157 166 167 39 40 41 42 43 44 45 170 171 46 48 49 178 179 180
        181 182 183 58 59 60 61 62 63 64 67 184 68 69 185 70 75 76 186
        80 82 87 90 91 92 98 188 189 102 191 103 104 105 111 112 115 117
        196 197 119 120 198 122 124 125 1 2 3 7 8 9 10 13 14 16 17 19 20
        24 30 31 32 33 34 36 37 38 47 50 51 52 53 54 55 56 57 65 66 71
        72 73 74 77 78 79 81 83 84 85 86 88 89 93 94 95 96 97 99 100 101
        106 107 108 109 110 113 114 116 118 121 123 127 130 162 163 164
        165 144 145 134 168 169 135 172 173 174 175 176 177 146 147 187
        190 192 149 193 151 194 195 155 199 158 159 160 161</index></_></decision_functions></opencv_ml_svm>
</opencv_storage>
