<?xml version="1.0"?>
<opencv_storage>
<opencv_ml_svm>
  <format>3</format>
  <svmType>C_SVC</svmType>
  <kernel>
    <type>RBF</type>
    <gamma>1.</gamma></kernel>
  <C>1.</C>
  <term_criteria><iterations>100</iterations></term_criteria>
  <var_count>2</var_count>
  <class_count>2</class_count>
  <class_labels type_id="opencv-matrix">
    <rows>2</rows>
    <cols>1</cols>
    <dt>i</dt>
    <data>
      -1 1</data></class_labels>
  <sv_total>200</sv_total>
  <support_vectors>
    <_>
      2.61027515e-01 1.82371825e-01</_>
    <_>
      5.12087882e-01 2.16466948e-01</_>
    <_>
      1.11309588e-02 2.79238850e-01</_>
    <_>
      2.05761194e-03 2.51833856e-01</_>
    <_>
      2.05761194e-03 2.51833856e-01</_>
    <_>
      1. 1.88437730e-01</_>
    <_>
      0. 1.66393086e-01</_>
    <_>
      6.83060288e-03 1.59036830e-01</_>
    <_>
      3.08641791e-03 1.82018682e-01</_>
    <_>
      6.83060288e-03 1.59036830e-01</_>
    <_>
      1.44928694e-03 2.22075433e-01</_>
    <_>
      1.44928694e-03 2.22075433e-01</_>
    <_>
      2.54452229e-03 2.09403828e-01</_>
    <_>
      2.54452229e-03 2.09403828e-01</_>
    <_>
      1. 1.36535212e-01</_>
    <_>
      1. 1.70294464e-01</_>
    <_>
      1. 1.65528312e-01</_>
    <_>
      1.51976943e-03 1.89693347e-01</_>
    <_>
      1.51976943e-03 1.89693347e-01</_>
    <_>
      1.45348907e-02 3.12894404e-01</_>
    <_>
      1. 1.47344574e-01</_>
    <_>
      1. 1.47344574e-01</_>
    <_>
      1. 1.41196027e-01</_>
    <_>
      1. 1.50174394e-01</_>
    <_>
      1. 1.50174394e-01</_>
    <_>
      1.57234073e-03 1.96327180e-01</_>
    <_>
      1.03448331e-02 3.21704388e-01</_>
    <_>
      1.03448331e-02 3.21704388e-01</_>
    <_>
      5.20834327e-03 2.95665294e-01</_>
    <_>
      5.20834327e-03 2.95665294e-01</_>
    <_>
      3.08441520e-02 4.14424866e-01</_>
    <_>
      1. 1.66333109e-01</_>
    <_>
      1.17924809e-03 1.81954831e-01</_>
    <_>
      1.87265873e-03 2.22998768e-01</_>
    <_>
      4.82314825e-03 2.80879885e-01</_>
    <_>
      3.21543217e-03 3.46147031e-01</_>
    <_>
      1.61811709e-03 2.50152498e-01</_>
    <_>
      1. 1.89907938e-01</_>
    <_>
      1.61811709e-03 2.50152498e-01</_>
    <_>
      6.38976693e-03 3.37441772e-01</_>
    <_>
      6.38976693e-03 3.37441772e-01</_>
    <_>
      1. 1.30349353e-01</_>
    <_>
      1.73011422e-03 2.01304033e-01</_>
    <_>
      3.46019864e-03 2.28703707e-01</_>
    <_>
      1.52438879e-03 2.28525713e-01</_>
    <_>
      1.43265724e-03 2.11738124e-01</_>
    <_>
      0. 2.06182763e-01</_>
    <_>
      1.52438879e-03 2.28525713e-01</_>
    <_>
      1.52438879e-03 2.21279770e-01</_>
    <_>
      1.51515007e-03 2.32146204e-01</_>
    <_>
      1.51515007e-03 2.32146204e-01</_>
    <_>
      0. 2.06182763e-01</_>
    <_>
      1. 1.36429206e-01</_>
    <_>
      1. 1.36429206e-01</_>
    <_>
      1.73610449e-03 1.90591708e-01</_>
    <_>
      1.73610449e-03 1.90591708e-01</_>
    <_>
      0. 2.30792478e-01</_>
    <_>
      0. 2.30792478e-01</_>
    <_>
      1. 1.78247720e-01</_>
    <_>
      1. 1.51474997e-01</_>
    <_>
      1. 1.51474997e-01</_>
    <_>
      1. 1.72431812e-01</_>
    <_>
      1. 1.18424110e-01</_>
    <_>
      1. 1.18424110e-01</_>
    <_>
      1. 1.49370328e-01</_>
    <_>
      4.33525443e-03 2.31466681e-01</_>
    <_>
      2.88185477e-03 2.67965406e-01</_>
    <_>
      1. 1.84511051e-01</_>
    <_>
      2.88185477e-03 2.67965406e-01</_>
    <_>
      9.95932519e-01 1.11373737e-01</_>
    <_>
      9.95932519e-01 1.11373737e-01</_>
    <_>
      1.49253011e-03 1.95083320e-01</_>
    <_>
      1.67784095e-03 2.28151977e-01</_>
    <_>
      1. 1.64684132e-01</_>
    <_>
      1. 1.82216853e-01</_>
    <_>
      1. 1.69273213e-01</_>
    <_>
      1. 1.52021065e-01</_>
    <_>
      1. 1.52021065e-01</_>
    <_>
      1. 2.02795550e-01</_>
    <_>
      1. 1.38294369e-01</_>
    <_>
      1. 1.38294369e-01</_>
    <_>
      2.06610560e-03 1.97734430e-01</_>
    <_>
      1. 3.00380796e-01</_>
    <_>
      1. 1.91831276e-01</_>
    <_>
      1. 1.77869737e-01</_>
    <_>
      3.83961201e-03 2.11682335e-01</_>
    <_>
      1. 1.78423300e-01</_>
    <_>
      1. 1.54821560e-01</_>
    <_>
      1. 1.54821560e-01</_>
    <_>
      1. 1.52270481e-01</_>
    <_>
      1. 1.52270481e-01</_>
    <_>
      1. 2.87477344e-01</_>
    <_>
      1. 1.43065259e-01</_>
    <_>
      1. 1.71532691e-01</_>
    <_>
      1. 1.41148522e-01</_>
    <_>
      1. 1.43065259e-01</_>
    <_>
      1. 1.41148522e-01</_>
    <_>
      1. 1.68010846e-01</_>
    <_>
      1. 1.76936597e-01</_>
    <_>
      1. 1.50325954e-01</_>
    <_>
      1.29532814e-03 2.12135896e-01</_>
    <_>
      1.29532814e-03 2.12135896e-01</_>
    <_>
      1. 1.49662852e-01</_>
    <_>
      1. 1.49662852e-01</_>
    <_>
      1. 1.53330132e-01</_>
    <_>
      1. 1.53330132e-01</_>
    <_>
      1.25312805e-03 2.08928928e-01</_>
    <_>
      1.25312805e-03 2.08928928e-01</_>
    <_>
      1.96078420e-03 2.00946629e-01</_>
    <_>
      1.96078420e-03 2.00946629e-01</_>
    <_>
      0. 2.29163378e-01</_>
    <_>
      0. 2.29163378e-01</_>
    <_>
      1.38887763e-03 1.92416564e-01</_>
    <_>
      1.38887763e-03 1.92416564e-01</_>
    <_>
      1.57728791e-03 2.07414120e-01</_>
    <_>
      1.47059560e-03 1.94467127e-01</_>
    <_>
      1.48808956e-03 2.31300026e-01</_>
    <_>
      1.48808956e-03 2.31300026e-01</_>
    <_>
      1.47059560e-03 1.94467127e-01</_>
    <_>
      3.00300121e-03 2.23886982e-01</_>
    <_>
      0. 2.21706674e-01</_>
    <_>
      0. 2.21706674e-01</_>
    <_>
      1.43265724e-03 2.26605937e-01</_>
    <_>
      1.43265724e-03 2.26605937e-01</_>
    <_>
      1.42857134e-02 3.27180177e-01</_>
    <_>
      5.37633896e-03 1.67287529e-01</_>
    <_>
      1.42857134e-02 3.27180177e-01</_>
    <_>
      2.43309140e-03 1.62677422e-01</_>
    <_>
      2.43309140e-03 1.62677422e-01</_>
    <_>
      1.77934766e-03 3.33185285e-01</_>
    <_>
      1.77934766e-03 3.33185285e-01</_>
    <_>
      3.96826863e-03 2.21857309e-01</_>
    <_>
      3.96826863e-03 2.21857309e-01</_>
    <_>
      8.99279118e-03 2.77370006e-01</_>
    <_>
      1.83967054e-02 3.31440240e-01</_>
    <_>
      1. 1.59569010e-01</_>
    <_>
      1. 1.52112409e-01</_>
    <_>
      1. 1.52112409e-01</_>
    <_>
      5.10203838e-03 2.93629736e-01</_>
    <_>
      3.51288915e-03 2.25789756e-01</_>
    <_>
      3.51288915e-03 2.25789756e-01</_>
    <_>
      1. 2.01903477e-01</_>
    <_>
      1. 1.47476897e-01</_>
    <_>
      1. 1.47476897e-01</_>
    <_>
      1. 1.45883322e-01</_>
    <_>
      1. 1.45883322e-01</_>
    <_>
      1. 2.85462976e-01</_>
    <_>
      3.54608893e-03 2.61799037e-01</_>
    <_>
      1.53845549e-03 1.99796945e-01</_>
    <_>
      1. 1.35535866e-01</_>
    <_>
      1. 1.35535866e-01</_>
    <_>
      1.57234073e-03 1.92105085e-01</_>
    <_>
      1. 1.46117896e-01</_>
    <_>
      1. 1.38577878e-01</_>
    <_>
      1. 1.46117896e-01</_>
    <_>
      1.57234073e-03 1.92105085e-01</_>
    <_>
      1. 1.38577878e-01</_>
    <_>
      1. 1.49363458e-01</_>
    <_>
      1. 1.24072447e-01</_>
    <_>
      1. 1.24072447e-01</_>
    <_>
      9.89431322e-01 3.27932894e-01</_>
    <_>
      9.89431322e-01 3.27932894e-01</_>
    <_>
      1.44091249e-03 2.43019059e-01</_>
    <_>
      1. 1.36384532e-01</_>
    <_>
      1. 1.36384532e-01</_>
    <_>
      1. 2.16459453e-01</_>
    <_>
      1.18201971e-03 2.05271930e-01</_>
    <_>
      1.39665604e-03 1.98719084e-01</_>
    <_>
      1. 1.46783173e-01</_>
    <_>
      1. 1.60828128e-01</_>
    <_>
      1. 1.46783173e-01</_>
    <_>
      1. 1.18531160e-01</_>
    <_>
      1. 1.18531160e-01</_>
    <_>
      1. 1.46992370e-01</_>
    <_>
      9.96532202e-01 1.34636164e-01</_>
    <_>
      1. 2.40023032e-01</_>
    <_>
      9.96532202e-01 1.34636164e-01</_>
    <_>
      8.62067938e-03 3.14584821e-01</_>
    <_>
      1. 1.28658876e-01</_>
    <_>
      1. 1.28658876e-01</_>
    <_>
      1. 1.14771560e-01</_>
    <_>
      1. 1.14771560e-01</_>
    <_>
      1. 1.35021180e-01</_>
    <_>
      1. 1.33309633e-01</_>
    <_>
      1. 1.35884419e-01</_>
    <_>
      1.44091249e-03 2.16518149e-01</_>
    <_>
      6.04230165e-03 2.62809932e-01</_>
    <_>
      6.04230165e-03 2.62809932e-01</_>
    <_>
      1. 1.55173615e-01</_>
    <_>
      1. 1.76453426e-01</_>
    <_>
      1.45772099e-03 1.98245972e-01</_>
    <_>
      1.70066953e-03 2.05469668e-01</_>
    <_>
      9.94342327e-01 3.28520685e-01</_>
    <_>
      9.94342327e-01 3.28520685e-01</_>
    <_>
      1. 1.53665081e-01</_>
    <_>
      1. 1.53665081e-01</_>
    <_>
      1. 1.28792822e-01</_>
    <_>
      0. 2.08340138e-01</_>
    <_>
      5.78033924e-03 2.89663732e-01</_>
    <_>
      5.78033924e-03 2.89663732e-01</_></support_vectors>
  <decision_functions>
    <_>
      <sv_count>200</sv_count>
      <rho>-2.1029934287071228e-02</rho>
      <alpha>
        1. 1. 1. 1. 1. 1. 1. 1. 1. 1. 1. 1. 1. 1. 1. 1. 1. 1. 1. 1. 1.
        1. 1. 1. 1. 1. 1. 1. 1. 1. 1. 1. 1. 1. 1. 1. 1. 1. 1. 1. 1. 1.
        1. 1. 1. 1. 1. 1. 1. 1. 1. 1. 1. 1. 1. 1. 1. 1. 1. 1. 1. 1. 1.
        1. 1. 1. 1. 1. 1. 1. 1. 1. 1. 1. 1. 1. 1. 1. 1. 1. 1. 1. 1. 1.
        1. 1. 1. 1. 1. 1. 1. 1. 1. 1. 1. 1. 1. 1. 1. 1. -1. -1. -1. -1.
        -1. -1. -1. -1. -1. -1. -1. -1. -1. -1. -1. -1. -1. -1. -1. -1.
        -1. -1. -1. -1. -1. -1. -1. -1. -1. -1. -1. -1. -1. -1. -1. -1.
        -1. -1. -1. -1. -1. -1. -1. -1. -1. -1. -1. -1. -1. -1. -1. -1.
        -1. -1. -1. -1. -1. -1. -1. -1. -1. -1. -1. -1. -1. -1. -1. -1.
        -1. -1. -1. -1. -1. -1. -1. -1. -1. -1. -1. -1. -1. -1. -1. -1.
        -1. -1. -1. -1. -1. -1. -1. -1. -1. -1. -1. -1. -1. -1. -1. -1.</alpha>
      <index>
        0 92 93 94 95 2 96 3 197 4 198 199 6 10 11 97 98 12 13 14 15 104
        105 19 108 109 22 23 24 25 30 31 114 32 33 119 34 35 36 37 38 41
        42 43 46 51 52 53 127 62 128 63 131 132 133 134 135 64 138 65 67
        139 140 69 146 147 70 71 72 158 159 160 161 162 73 165 74 75 166
        167 172 78 79 80 177 178 179 180 181 81 82 83 184 84 85 86 188
        190 191 196 1 5 7 8 9 16 17 18 20 21 26 27 28 29 39 40 44 45 47
        48 49 50 54 55 56 57 58 59 60 61 66 68 76 77 87 88 89 90 91 129
        130 115 116 117 136 137 118 99 141 142 143 144 145 148 149 150
        151 152 153 154 155 156 157 100 101 102 106 107 163 164 103 168
        169 170 171 173 174 175 176 120 110 121 111 122 123 124 125 126
        182 183 185 112 186 187 113 189 192 193 194 195</index></_></decision_functions></opencv_ml_svm>
</opencv_storage>
