<?xml version="1.0"?>
<opencv_storage>
<opencv_ml_svm>
  <format>3</format>
  <svmType>C_SVC</svmType>
  <kernel>
    <type>RBF</type>
    <gamma>1.</gamma></kernel>
  <C>1.</C>
  <term_criteria><iterations>100</iterations></term_criteria>
  <var_count>2</var_count>
  <class_count>2</class_count>
  <class_labels type_id="opencv-matrix">
    <rows>2</rows>
    <cols>1</cols>
    <dt>i</dt>
    <data>
      -1 1</data></class_labels>
  <sv_total>200</sv_total>
  <support_vectors>
    <_>
      2.61027515e-01 3.21537405e-02</_>
    <_>
      5.12087882e-01 1.59371775e-02</_>
    <_>
      9.92822826e-01 9.43626761e-01</_>
    <_>
      9.92822826e-01 9.43626761e-01</_>
    <_>
      4.13224101e-03 6.94149220e-03</_>
    <_>
      0. 4.09249682e-03</_>
    <_>
      9.31677222e-03 5.88510535e-04</_>
    <_>
      1.44928694e-03 2.35398230e-03</_>
    <_>
      1.44928694e-03 2.35398230e-03</_>
    <_>
      1.65015459e-03 0.</_>
    <_>
      1.65015459e-03 0.</_>
    <_>
      2.54452229e-03 4.45622485e-03</_>
    <_>
      2.54452229e-03 4.45622485e-03</_>
    <_>
      1.51976943e-03 2.03579097e-04</_>
    <_>
      1.51976943e-03 2.03579097e-04</_>
    <_>
      1. 8.72679770e-01</_>
    <_>
      1. 8.72679770e-01</_>
    <_>
      1.57234073e-03 1.85136385e-02</_>
    <_>
      9.91377652e-01 9.17010844e-01</_>
    <_>
      1.17924809e-03 1.95335653e-02</_>
    <_>
      1.04166567e-02 1.60226307e-03</_>
    <_>
      3.71748209e-03 5.17552206e-03</_>
    <_>
      1.87265873e-03 1.08947735e-02</_>
    <_>
      3.21543217e-03 2.15606927e-03</_>
    <_>
      1.61811709e-03 4.35575023e-02</_>
    <_>
      5.57619333e-03 5.71925147e-03</_>
    <_>
      5.57619333e-03 5.71925147e-03</_>
    <_>
      1.61811709e-03 4.35575023e-02</_>
    <_>
      1.73011422e-03 3.91161740e-02</_>
    <_>
      3.46019864e-03 7.40069244e-03</_>
    <_>
      1.52438879e-03 7.77140143e-04</_>
    <_>
      1.51976943e-03 7.77140143e-04</_>
    <_>
      0. 1.24031916e-01</_>
    <_>
      1.52438879e-03 7.77140143e-04</_>
    <_>
      3.03950906e-03 0.</_>
    <_>
      1.52438879e-03 0.</_>
    <_>
      1.51976943e-03 7.77140143e-04</_>
    <_>
      3.03950906e-03 0.</_>
    <_>
      1.51515007e-03 0.</_>
    <_>
      1.51515007e-03 0.</_>
    <_>
      0. 1.24031916e-01</_>
    <_>
      1.52438879e-03 0.</_>
    <_>
      2.92396545e-03 0.</_>
    <_>
      2.92396545e-03 0.</_>
    <_>
      4.15512919e-03 5.68247251e-02</_>
    <_>
      4.15512919e-03 5.68247251e-02</_>
    <_>
      1. 1.47900641e-01</_>
    <_>
      1.73610449e-03 3.31290849e-02</_>
    <_>
      3.37839127e-03 8.56382176e-02</_>
    <_>
      1.73610449e-03 3.31290849e-02</_>
    <_>
      1.74215436e-03 0.</_>
    <_>
      3.37839127e-03 8.56382176e-02</_>
    <_>
      1.74215436e-03 0.</_>
    <_>
      0. 0.</_>
    <_>
      0. 0.</_>
    <_>
      1.51515007e-03 0.</_>
    <_>
      1.51515007e-03 0.</_>
    <_>
      1.68350339e-03 1.29398564e-03</_>
    <_>
      1.68350339e-03 1.29398564e-03</_>
    <_>
      1. 0.</_>
    <_>
      1. 0.</_>
    <_>
      1. 2.21339203e-02</_>
    <_>
      4.99999523e-03 1.45850831e-03</_>
    <_>
      1. 0.</_>
    <_>
      9.85783339e-03 6.52657298e-04</_>
    <_>
      1. 1.69530530e-02</_>
    <_>
      1. 0.</_>
    <_>
      1. 2.04138667e-03</_>
    <_>
      1. 1.15787283e-04</_>
    <_>
      1. 1.15787283e-04</_>
    <_>
      1. 0.</_>
    <_>
      1. 3.48259418e-05</_>
    <_>
      1. 3.48259418e-05</_>
    <_>
      1. 3.48259418e-05</_>
    <_>
      1. 2.19367532e-04</_>
    <_>
      1. 9.03807878e-01</_>
    <_>
      1. 7.77797308e-03</_>
    <_>
      1. 9.03807878e-01</_>
    <_>
      4.33525443e-03 6.84574386e-03</_>
    <_>
      1. 1.26079482e-04</_>
    <_>
      1. 8.20384303e-05</_>
    <_>
      1. 2.27984259e-04</_>
    <_>
      1. 1.26079482e-04</_>
    <_>
      1. 8.20384303e-05</_>
    <_>
      1. 2.27984259e-04</_>
    <_>
      1. 5.99670410e-03</_>
    <_>
      1. 3.22349399e-04</_>
    <_>
      1. 3.22349399e-04</_>
    <_>
      1. 0.</_>
    <_>
      1. 1.76523245e-05</_>
    <_>
      1. 3.13194119e-04</_>
    <_>
      1. 1.02622835e-04</_>
    <_>
      1. 0.</_>
    <_>
      1. 0.</_>
    <_>
      1. 1.02622835e-04</_>
    <_>
      1. 3.81768914e-05</_>
    <_>
      1. 3.81768914e-05</_>
    <_>
      1. 1.02622835e-04</_>
    <_>
      1. 2.92829927e-02</_>
    <_>
      1. 1.22447289e-03</_>
    <_>
      1. 0.</_>
    <_>
      1. 1.02622835e-04</_>
    <_>
      1. 2.65084054e-05</_>
    <_>
      1. 2.65084054e-05</_>
    <_>
      1. 2.65084054e-05</_>
    <_>
      7.69230723e-03 1.29433125e-01</_>
    <_>
      7.69230723e-03 1.29433125e-01</_>
    <_>
      1.49253011e-03 1.49944881e-02</_>
    <_>
      1.67784095e-03 4.22508605e-02</_>
    <_>
      9.95851576e-01 8.98190141e-01</_>
    <_>
      9.95851576e-01 8.98190141e-01</_>
    <_>
      9.97052014e-01 9.12647545e-01</_>
    <_>
      1. 9.14458275e-01</_>
    <_>
      1. 9.16204929e-01</_>
    <_>
      9.85345721e-01 9.00843024e-01</_>
    <_>
      9.84051049e-01 8.77090812e-01</_>
    <_>
      9.97052014e-01 9.12647545e-01</_>
    <_>
      1. 9.14458275e-01</_>
    <_>
      1. 9.16204929e-01</_>
    <_>
      9.85345721e-01 9.00843024e-01</_>
    <_>
      9.84051049e-01 8.77090812e-01</_>
    <_>
      1. 9.43394098e-03</_>
    <_>
      9.67175603e-01 9.13942337e-01</_>
    <_>
      1. 8.47160220e-01</_>
    <_>
      9.92960513e-01 8.90542746e-01</_>
    <_>
      9.90904570e-01 8.50211740e-01</_>
    <_>
      9.90904570e-01 8.50211740e-01</_>
    <_>
      1. 9.15494740e-01</_>
    <_>
      1. 8.90308678e-01</_>
    <_>
      1. 9.15494740e-01</_>
    <_>
      1. 8.90308678e-01</_>
    <_>
      1. 1.56644930e-03</_>
    <_>
      1. 8.96554530e-01</_>
    <_>
      1. 8.96554530e-01</_>
    <_>
      1. 9.05489624e-01</_>
    <_>
      1. 9.08169270e-01</_>
    <_>
      1. 9.34054017e-01</_>
    <_>
      1. 9.05489624e-01</_>
    <_>
      1. 2.67962296e-03</_>
    <_>
      9.96648669e-01 8.87748957e-01</_>
    <_>
      9.78782594e-01 8.56753170e-01</_>
    <_>
      1. 9.08169270e-01</_>
    <_>
      1. 9.34054017e-01</_>
    <_>
      9.96648669e-01 8.87748957e-01</_>
    <_>
      5.15460968e-03 7.02243820e-02</_>
    <_>
      2.06610560e-03 2.13183230e-03</_>
    <_>
      9.90364134e-01 9.15874124e-01</_>
    <_>
      9.90364134e-01 9.15874124e-01</_>
    <_>
      1. 9.81478930e-01</_>
    <_>
      1. 9.81478930e-01</_>
    <_>
      9.85065997e-01 9.05411839e-01</_>
    <_>
      9.85065997e-01 9.05411839e-01</_>
    <_>
      1. 5.78947663e-01</_>
    <_>
      1. 8.83887231e-01</_>
    <_>
      1. 8.83887231e-01</_>
    <_>
      1.68350339e-03 2.49432139e-02</_>
    <_>
      1.68350339e-03 2.49432139e-02</_>
    <_>
      1.29532814e-03 8.42623971e-03</_>
    <_>
      1.29532814e-03 8.42623971e-03</_>
    <_>
      4.93422151e-03 9.79353953e-03</_>
    <_>
      1.14795864e-02 8.26846866e-04</_>
    <_>
      7.87660480e-03 9.52866510e-04</_>
    <_>
      1.25312805e-03 1.45477895e-02</_>
    <_>
      1.25312805e-03 1.45477895e-02</_>
    <_>
      1. 3.64486217e-01</_>
    <_>
      1.96078420e-03 9.63712228e-04</_>
    <_>
      1.96078420e-03 9.63712228e-04</_>
    <_>
      0. 1.60130747e-02</_>
    <_>
      0. 1.60130747e-02</_>
    <_>
      1.38887763e-03 2.83992995e-04</_>
    <_>
      1.38887763e-03 2.83992995e-04</_>
    <_>
      1.57728791e-03 1.27842436e-02</_>
    <_>
      0. 9.84982494e-03</_>
    <_>
      1.44508481e-03 1.48241660e-02</_>
    <_>
      0. 9.84982494e-03</_>
    <_>
      1.44508481e-03 1.48241660e-02</_>
    <_>
      8.99279118e-03 2.89139082e-03</_>
    <_>
      4.16666269e-03 6.51946699e-04</_>
    <_>
      4.31033969e-03 3.35763674e-03</_>
    <_>
      1.57234073e-03 1.42256788e-03</_>
    <_>
      1.57234073e-03 1.42256788e-03</_>
    <_>
      1.44091249e-03 7.70582305e-03</_>
    <_>
      5.71429729e-03 8.15282762e-02</_>
    <_>
      5.91015816e-03 3.94529477e-03</_>
    <_>
      1.18201971e-03 8.65631085e-03</_>
    <_>
      1.39665604e-03 3.62321436e-02</_>
    <_>
      8.04290175e-03 2.71035731e-03</_>
    <_>
      1. 8.57577920e-01</_>
    <_>
      1. 8.37883294e-01</_>
    <_>
      1. 8.30126882e-01</_>
    <_>
      9.90164876e-01 8.95892620e-01</_>
    <_>
      1.44091249e-03 2.65996601e-03</_>
    <_>
      1.44091249e-03 2.65996601e-03</_>
    <_>
      7.38334656e-03 2.79355515e-03</_>
    <_>
      1. 7.96695501e-02</_>
    <_>
      1.45772099e-03 8.33666977e-03</_>
    <_>
      1.70066953e-03 4.02151309e-02</_>
    <_>
      1.08040869e-02 1.31536741e-03</_>
    <_>
      1.08040869e-02 1.31536741e-03</_>
    <_>
      0. 1.08703161e-02</_></support_vectors>
  <decision_functions>
    <_>
      <sv_count>200</sv_count>
      <rho>-3.0822589993476868e-02</rho>
      <alpha>
        1. 1. 1. 1. 1. 1. 1. 1. 1. 1. 1. 1. 1. 1. 1. 1. 1. 1. 1. 1. 1.
        1. 1. 1. 1. 1. 1. 1. 1. 1. 1. 1. 1. 1. 1. 1. 1. 1. 1. 1. 1. 1.
        1. 1. 1. 1. 1. 1. 1. 1. 1. 1. 1. 1. 1. 1. 1. 1. 1. 1. 1. 1. 1.
        1. 1. 1. 1. 1. 1. 1. 1. 1. 1. 1. 1. 1. 1. 1. 1. 1. 1. 1. 1. 1.
        1. 1. 1. 1. 1. 1. 1. 1. 1. 1. 1. 1. 1. 1. 1. 1. -1. -1. -1. -1.
        -1. -1. -1. -1. -1. -1. -1. -1. -1. -1. -1. -1. -1. -1. -1. -1.
        -1. -1. -1. -1. -1. -1. -1. -1. -1. -1. -1. -1. -1. -1. -1. -1.
        -1. -1. -1. -1. -1. -1. -1. -1. -1. -1. -1. -1. -1. -1. -1. -1.
        -1. -1. -1. -1. -1. -1. -1. -1. -1. -1. -1. -1. -1. -1. -1. -1.
        -1. -1. -1. -1. -1. -1. -1. -1. -1. -1. -1. -1. -1. -1. -1. -1.
        -1. -1. -1. -1. -1. -1. -1. -1. -1. -1. -1. -1. -1. -1. -1. -1.</alpha>
      <index>
        0 199 153 4 5 6 7 8 11 12 159 160 161 164 15 16 165 166 17 171
        19 20 21 22 23 24 25 26 27 28 29 32 40 61 62 176 64 67 68 69 70
        71 72 73 74 75 76 77 78 86 87 88 89 92 93 100 102 177 103 104
        178 107 108 114 119 181 121 182 122 123 183 184 185 186 124 127
        128 129 130 131 132 133 134 137 142 187 144 189 145 190 148 149
        150 151 193 194 195 196 197 198 1 2 3 9 10 13 14 18 30 31 33 34
        35 36 37 38 39 41 42 43 44 45 46 47 48 49 50 51 52 53 54 55 56
        57 58 59 60 63 65 66 79 80 81 82 83 84 85 90 91 94 95 96 97 98
        99 101 105 106 109 110 111 112 113 115 116 117 118 120 125 126
        135 136 138 139 140 141 143 146 147 152 154 179 180 157 155 156
        158 162 163 172 173 167 174 175 168 188 191 169 192 170</index></_></decision_functions></opencv_ml_svm>
</opencv_storage>
