<?xml version="1.0"?>
<opencv_storage>
<opencv_ml_svm>
  <format>3</format>
  <svmType>C_SVC</svmType>
  <kernel>
    <type>RBF</type>
    <gamma>1.</gamma></kernel>
  <C>1.</C>
  <term_criteria><iterations>100</iterations></term_criteria>
  <var_count>2</var_count>
  <class_count>2</class_count>
  <class_labels type_id="opencv-matrix">
    <rows>2</rows>
    <cols>1</cols>
    <dt>i</dt>
    <data>
      -1 1</data></class_labels>
  <sv_total>200</sv_total>
  <support_vectors>
    <_>
      3.21537405e-02 2.46303193e-02</_>
    <_>
      1.59371775e-02 2.14244761e-02</_>
    <_>
      6.86333954e-01 3.46365005e-01</_>
    <_>
      9.43626761e-01 8.38109374e-01</_>
    <_>
      9.43626761e-01 8.38109374e-01</_>
    <_>
      6.22977444e-04 9.91970883e-05</_>
    <_>
      5.88510535e-04 4.18704178e-04</_>
    <_>
      0. 0.</_>
    <_>
      0. 0.</_>
    <_>
      0. 0.</_>
    <_>
      0. 0.</_>
    <_>
      0. 0.</_>
    <_>
      0. 0.</_>
    <_>
      0. 0.</_>
    <_>
      0. 0.</_>
    <_>
      0. 0.</_>
    <_>
      0. 0.</_>
    <_>
      0. 0.</_>
    <_>
      0. 0.</_>
    <_>
      8.19806516e-01 8.82307708e-01</_>
    <_>
      7.70664871e-01 8.81182492e-01</_>
    <_>
      2.87583302e-04 4.65841847e-04</_>
    <_>
      0. 0.</_>
    <_>
      0. 0.</_>
    <_>
      1.51570639e-04 4.13782458e-04</_>
    <_>
      8.48209136e-04 1.27934472e-04</_>
    <_>
      6.96638541e-04 2.85847986e-04</_>
    <_>
      6.96638541e-04 2.85847986e-04</_>
    <_>
      6.81260077e-04 4.37777664e-04</_>
    <_>
      6.81260077e-04 4.37777664e-04</_>
    <_>
      8.72679770e-01 9.07467484e-01</_>
    <_>
      1.95791203e-04 1.46520277e-03</_>
    <_>
      3.99720448e-05 1.27814803e-03</_>
    <_>
      9.17010844e-01 9.13698792e-01</_>
    <_>
      7.28233208e-05 4.93666703e-05</_>
    <_>
      2.16156826e-04 5.32531762e-04</_>
    <_>
      2.16156826e-04 5.32531762e-04</_>
    <_>
      0. 0.</_>
    <_>
      0. 0.</_>
    <_>
      0. 0.</_>
    <_>
      0. 0.</_>
    <_>
      0. 0.</_>
    <_>
      0. 0.</_>
    <_>
      0. 0.</_>
    <_>
      0. 0.</_>
    <_>
      0. 0.</_>
    <_>
      0. 0.</_>
    <_>
      0. 0.</_>
    <_>
      0. 0.</_>
    <_>
      0. 0.</_>
    <_>
      0. 0.</_>
    <_>
      0. 0.</_>
    <_>
      0. 0.</_>
    <_>
      0. 0.</_>
    <_>
      0. 0.</_>
    <_>
      0. 0.</_>
    <_>
      0. 0.</_>
    <_>
      0. 0.</_>
    <_>
      0. 0.</_>
    <_>
      0. 0.</_>
    <_>
      0. 0.</_>
    <_>
      0. 0.</_>
    <_>
      0. 0.</_>
    <_>
      0. 0.</_>
    <_>
      0. 0.</_>
    <_>
      0. 0.</_>
    <_>
      0. 0.</_>
    <_>
      0. 0.</_>
    <_>
      0. 0.</_>
    <_>
      0. 0.</_>
    <_>
      0. 0.</_>
    <_>
      1.84915581e-04 6.50114147e-04</_>
    <_>
      1.84915581e-04 6.50114147e-04</_>
    <_>
      7.84825504e-01 8.57948124e-01</_>
    <_>
      0. 3.48151699e-02</_>
    <_>
      3.45865883e-05 1.35294598e-04</_>
    <_>
      1.84780947e-04 4.00378660e-04</_>
    <_>
      2.19367532e-04 2.65084062e-04</_>
    <_>
      3.09364477e-05 1.70659085e-04</_>
    <_>
      8.19989383e-01 8.67613077e-01</_>
    <_>
      7.83111453e-01 9.07206655e-01</_>
    <_>
      7.83111453e-01 9.07206655e-01</_>
    <_>
      3.45865883e-05 1.35294598e-04</_>
    <_>
      3.72793147e-05 1.25420140e-03</_>
    <_>
      3.72793147e-05 1.25420140e-03</_>
    <_>
      9.03807878e-01 9.08754528e-01</_>
    <_>
      9.03807878e-01 9.08754528e-01</_>
    <_>
      0. 0.</_>
    <_>
      0. 0.</_>
    <_>
      0. 0.</_>
    <_>
      8.22179427e-05 1.61533733e-03</_>
    <_>
      4.35743132e-04 3.99421231e-04</_>
    <_>
      2.29360550e-04 1.62407372e-03</_>
    <_>
      8.22179427e-05 1.61533733e-03</_>
    <_>
      4.35743132e-04 3.99421231e-04</_>
    <_>
      2.29360550e-04 1.62407372e-03</_>
    <_>
      8.46707940e-01 6.07237339e-01</_>
    <_>
      2.06382596e-04 3.58491787e-04</_>
    <_>
      8.14144671e-01 8.43255460e-01</_>
    <_>
      2.81808898e-04 9.76383511e-04</_>
    <_>
      8.41968417e-01 8.78674865e-01</_>
    <_>
      8.98190141e-01 9.24139619e-01</_>
    <_>
      8.98190141e-01 9.24139619e-01</_>
    <_>
      9.12647545e-01 9.30137515e-01</_>
    <_>
      9.14458275e-01 9.18969452e-01</_>
    <_>
      9.16204929e-01 9.20829237e-01</_>
    <_>
      9.00843024e-01 9.06571388e-01</_>
    <_>
      8.77090812e-01 8.18725944e-01</_>
    <_>
      9.12647545e-01 9.30137515e-01</_>
    <_>
      9.14458275e-01 9.18969452e-01</_>
    <_>
      9.16204929e-01 9.20829237e-01</_>
    <_>
      9.00843024e-01 9.06571388e-01</_>
    <_>
      8.77090812e-01 8.18725944e-01</_>
    <_>
      2.06315861e-04 3.39618680e-04</_>
    <_>
      2.06315861e-04 3.39618680e-04</_>
    <_>
      8.55580747e-01 8.29090774e-01</_>
    <_>
      8.41885269e-01 8.14599216e-01</_>
    <_>
      8.55580747e-01 8.29090774e-01</_>
    <_>
      8.32074642e-01 8.35257173e-01</_>
    <_>
      8.87660205e-01 8.38925183e-01</_>
    <_>
      9.13942337e-01 9.32842910e-01</_>
    <_>
      8.33691120e-01 8.31415772e-01</_>
    <_>
      8.23292494e-01 8.08731675e-01</_>
    <_>
      8.47160220e-01 8.20824981e-01</_>
    <_>
      8.47160220e-01 8.20824981e-01</_>
    <_>
      8.35311651e-01 8.43547344e-01</_>
    <_>
      8.31777513e-01 8.25353622e-01</_>
    <_>
      8.35311651e-01 8.43547344e-01</_>
    <_>
      8.31777513e-01 8.25353622e-01</_>
    <_>
      8.50211740e-01 8.38146031e-01</_>
    <_>
      8.50211740e-01 8.38146031e-01</_>
    <_>
      9.15494740e-01 8.91434014e-01</_>
    <_>
      8.26148868e-01 8.26742113e-01</_>
    <_>
      9.15494740e-01 8.91434014e-01</_>
    <_>
      7.99243808e-01 8.58600199e-01</_>
    <_>
      7.99243808e-01 8.58600199e-01</_>
    <_>
      3.28273396e-04 6.03290624e-04</_>
    <_>
      8.31286013e-01 8.36980104e-01</_>
    <_>
      8.96554530e-01 9.10462797e-01</_>
    <_>
      8.31286013e-01 8.36980104e-01</_>
    <_>
      8.96554530e-01 9.10462797e-01</_>
    <_>
      9.05489624e-01 9.53052580e-01</_>
    <_>
      9.08169270e-01 9.58918095e-01</_>
    <_>
      9.34054017e-01 9.66179490e-01</_>
    <_>
      8.52545857e-01 9.40862775e-01</_>
    <_>
      9.05489624e-01 9.53052580e-01</_>
    <_>
      8.86121571e-01 9.47636425e-01</_>
    <_>
      8.86121571e-01 9.47636425e-01</_>
    <_>
      8.87748957e-01 9.49117064e-01</_>
    <_>
      8.56753170e-01 8.94146025e-01</_>
    <_>
      8.56753170e-01 8.94146025e-01</_>
    <_>
      8.03647399e-01 8.59093308e-01</_>
    <_>
      9.08169270e-01 9.58918095e-01</_>
    <_>
      9.34054017e-01 9.66179490e-01</_>
    <_>
      8.87748957e-01 9.49117064e-01</_>
    <_>
      8.08853388e-01 8.65077913e-01</_>
    <_>
      8.03647399e-01 8.59093308e-01</_>
    <_>
      8.08853388e-01 8.65077913e-01</_>
    <_>
      8.59410167e-01 7.96440363e-01</_>
    <_>
      8.59410167e-01 7.96440363e-01</_>
    <_>
      9.15874124e-01 9.10876036e-01</_>
    <_>
      9.15874124e-01 9.10876036e-01</_>
    <_>
      9.81478930e-01 9.57103729e-01</_>
    <_>
      9.81478930e-01 9.57103729e-01</_>
    <_>
      8.32846045e-01 8.51766169e-01</_>
    <_>
      8.32846045e-01 8.51766169e-01</_>
    <_>
      9.05411839e-01 8.99165094e-01</_>
    <_>
      8.31104457e-01 8.23690653e-01</_>
    <_>
      9.05411839e-01 8.99165094e-01</_>
    <_>
      8.31104457e-01 8.23690653e-01</_>
    <_>
      2.87463627e-04 1.37580419e-03</_>
    <_>
      6.39313366e-04 3.30906274e-04</_>
    <_>
      8.03031144e-05 8.37737446e-07</_>
    <_>
      8.21135283e-01 8.22312772e-01</_>
    <_>
      8.36763322e-01 8.53203356e-01</_>
    <_>
      8.83887231e-01 9.04183626e-01</_>
    <_>
      7.24164187e-04 4.40859323e-04</_>
    <_>
      3.29048306e-01 4.07215208e-03</_>
    <_>
      8.14624846e-01 8.26413989e-01</_>
    <_>
      9.66913576e-05 2.05503730e-03</_>
    <_>
      8.26045275e-01 8.22182059e-01</_>
    <_>
      8.89169723e-02 7.92858627e-05</_>
    <_>
      1.35100126e-04 3.82049417e-04</_>
    <_>
      8.03374290e-01 8.61975908e-01</_>
    <_>
      8.03374290e-01 8.61975908e-01</_>
    <_>
      2.65981624e-04 1.53739785e-03</_>
    <_>
      2.65981624e-04 1.53739785e-03</_>
    <_>
      1.44808902e-04 8.28941178e-04</_>
    <_>
      1.44808902e-04 8.28941178e-04</_>
    <_>
      8.34387898e-01 8.28679919e-01</_>
    <_>
      8.34387898e-01 8.28679919e-01</_>
    <_>
      8.24442208e-01 8.38924766e-01</_>
    <_>
      8.25394332e-01 8.38549733e-01</_>
    <_>
      8.37883294e-01 8.65619719e-01</_>
    <_>
      8.37883294e-01 8.65619719e-01</_>
    <_>
      8.95892620e-01 8.96697223e-01</_>
    <_>
      8.45798492e-01 8.48447621e-01</_>
    <_>
      8.95892620e-01 8.96697223e-01</_>
    <_>
      1.45556885e-04 7.88954203e-04</_>
    <_>
      8.39666367e-01 8.40832233e-01</_></support_vectors>
  <decision_functions>
    <_>
      <sv_count>200</sv_count>
      <rho>-6.8913422524929047e-02</rho>
      <alpha>
        1. 1. 1. 1. 1. 1. 1. 1. 1. 1. 1. 1. 1. 1. 1. 1. 1. 1. 1. 1. 1.
        1. 1. 1. 1. 1. 1. 1. 1. 1. 1. 1. 1. 1. 1. 1. 1. 1. 1. 1. 1. 1.
        1. 1. 1. 1. 1. 1. 1. 1. 1. 1. 1. 1. 1. 1. 1. 1. 1. 1. 1. 1. 1.
        1. 1. 1. 1. 1. 1. 1. 1. 1. 1. 1. 1. 1. 1. 1. 1. 1. 1. 1. 1. 1.
        1. 1. 1. 1. 1. 1. 1. 1. 1. 1. 1. 1. 1. 1. 1. 1. -1. -1. -1. -1.
        -1. -1. -1. -1. -1. -1. -1. -1. -1. -1. -1. -1. -1. -1. -1. -1.
        -1. -1. -1. -1. -1. -1. -1. -1. -1. -1. -1. -1. -1. -1. -1. -1.
        -1. -1. -1. -1. -1. -1. -1. -1. -1. -1. -1. -1. -1. -1. -1. -1.
        -1. -1. -1. -1. -1. -1. -1. -1. -1. -1. -1. -1. -1. -1. -1. -1.
        -1. -1. -1. -1. -1. -1. -1. -1. -1. -1. -1. -1. -1. -1. -1. -1.
        -1. -1. -1. -1. -1. -1. -1. -1. -1. -1. -1. -1. -1. -1. -1. -1.</alpha>
      <index>
        0 5 6 19 20 21 176 24 25 26 27 28 29 30 31 32 34 35 36 71 72 177
        178 179 73 74 75 76 77 78 79 80 81 82 83 84 85 86 87 88 89 90 91
        92 93 94 95 96 97 182 185 186 99 187 100 188 106 111 113 114 115
        116 117 118 119 120 121 122 123 124 131 132 133 190 136 138 140
        141 144 145 146 147 153 191 192 157 158 159 195 196 197 198 162
        163 166 168 170 171 199 172 1 2 3 4 7 8 9 10 11 12 13 14 15 16
        17 18 22 23 33 37 38 39 40 41 42 43 44 45 46 47 48 49 50 51 52
        53 54 55 56 57 58 59 60 61 62 63 64 65 66 67 68 69 70 98 101 102
        103 104 105 107 108 109 110 112 125 126 127 128 129 130 134 135
        137 139 142 143 148 149 150 151 152 154 155 156 160 161 164 165
        167 169 173 174 175 181 183 184 189 193 194 180</index></_></decision_functions></opencv_ml_svm>
</opencv_storage>
