<?xml version="1.0"?>
<opencv_storage>
<opencv_ml_svm>
  <format>3</format>
  <svmType>C_SVC</svmType>
  <kernel>
    <type>RBF</type>
    <gamma>1.</gamma></kernel>
  <C>1.</C>
  <term_criteria><iterations>100</iterations></term_criteria>
  <var_count>2</var_count>
  <class_count>2</class_count>
  <class_labels type_id="opencv-matrix">
    <rows>2</rows>
    <cols>1</cols>
    <dt>i</dt>
    <data>
      -1 1</data></class_labels>
  <sv_total>200</sv_total>
  <support_vectors>
    <_>
      2.61027515e-01 2.46303193e-02</_>
    <_>
      5.12087882e-01 2.14244761e-02</_>
    <_>
      9.92822826e-01 8.38109374e-01</_>
    <_>
      9.92822826e-01 8.38109374e-01</_>
    <_>
      0. 8.57717451e-03</_>
    <_>
      9.31677222e-03 4.18704178e-04</_>
    <_>
      1.44928694e-03 4.68965434e-03</_>
    <_>
      1.44928694e-03 4.68965434e-03</_>
    <_>
      1.47491693e-03 3.59865581e-03</_>
    <_>
      1.47491693e-03 3.59865581e-03</_>
    <_>
      1.65015459e-03 0.</_>
    <_>
      1.65015459e-03 0.</_>
    <_>
      2.54452229e-03 5.81458304e-03</_>
    <_>
      2.54452229e-03 5.81458304e-03</_>
    <_>
      1. 8.81182492e-01</_>
    <_>
      8.98203254e-03 8.58397980e-05</_>
    <_>
      1.51976943e-03 1.79412702e-04</_>
    <_>
      1.51976943e-03 1.79412702e-04</_>
    <_>
      1. 3.15408135e-04</_>
    <_>
      1. 3.15408135e-04</_>
    <_>
      1. 8.37901950e-01</_>
    <_>
      1. 9.07467484e-01</_>
    <_>
      1. 9.07467484e-01</_>
    <_>
      1. 8.04256499e-01</_>
    <_>
      9.91377652e-01 9.13698792e-01</_>
    <_>
      1.17924809e-03 2.35438216e-02</_>
    <_>
      1.04166567e-02 2.61503109e-03</_>
    <_>
      6.90609217e-03 3.61323613e-03</_>
    <_>
      3.71748209e-03 4.67822189e-03</_>
    <_>
      1.87265873e-03 1.29807892e-03</_>
    <_>
      3.21543217e-03 7.06134539e-04</_>
    <_>
      5.57619333e-03 3.38014285e-03</_>
    <_>
      5.57619333e-03 3.38014285e-03</_>
    <_>
      8.28728080e-03 3.97573411e-03</_>
    <_>
      8.28728080e-03 3.97573411e-03</_>
    <_>
      3.46019864e-03 6.86621573e-03</_>
    <_>
      4.68748808e-03 8.44931044e-03</_>
    <_>
      1.52438879e-03 1.41080830e-03</_>
    <_>
      1.51976943e-03 1.41080830e-03</_>
    <_>
      1.52438879e-03 1.41080830e-03</_>
    <_>
      3.03950906e-03 0.</_>
    <_>
      1.52438879e-03 0.</_>
    <_>
      1.51976943e-03 1.41080830e-03</_>
    <_>
      3.03950906e-03 0.</_>
    <_>
      1.51515007e-03 0.</_>
    <_>
      1.51515007e-03 0.</_>
    <_>
      1.52438879e-03 0.</_>
    <_>
      4.46429849e-03 0.</_>
    <_>
      4.46429849e-03 0.</_>
    <_>
      2.92396545e-03 0.</_>
    <_>
      2.92396545e-03 0.</_>
    <_>
      3.27870250e-03 0.</_>
    <_>
      3.27870250e-03 0.</_>
    <_>
      1.58730149e-03 1.96700916e-03</_>
    <_>
      1.58730149e-03 1.96700916e-03</_>
    <_>
      1.74215436e-03 0.</_>
    <_>
      3.62318754e-03 0.</_>
    <_>
      1.74215436e-03 0.</_>
    <_>
      3.62318754e-03 0.</_>
    <_>
      0. 0.</_>
    <_>
      0. 0.</_>
    <_>
      1.51515007e-03 0.</_>
    <_>
      1.51515007e-03 0.</_>
    <_>
      1.68350339e-03 1.36000523e-03</_>
    <_>
      1.68350339e-03 1.36000523e-03</_>
    <_>
      1.31579041e-02 0.</_>
    <_>
      1. 1.23931281e-03</_>
    <_>
      2.34899223e-02 0.</_>
    <_>
      1. 1.23931281e-03</_>
    <_>
      1. 1.11428231e-01</_>
    <_>
      1. 1.71961766e-02</_>
    <_>
      9.96767998e-01 9.44923937e-01</_>
    <_>
      1. 4.00378660e-04</_>
    <_>
      1. 2.65084062e-04</_>
    <_>
      9.96767998e-01 9.44923937e-01</_>
    <_>
      9.96911407e-01 9.45059180e-01</_>
    <_>
      9.96911407e-01 9.45059180e-01</_>
    <_>
      1. 9.08754528e-01</_>
    <_>
      4.33525443e-03 7.70712912e-04</_>
    <_>
      1. 2.96457321e-03</_>
    <_>
      1. 2.96457321e-03</_>
    <_>
      1. 3.58491787e-04</_>
    <_>
      1. 7.61324391e-02</_>
    <_>
      1. 9.83569585e-03</_>
    <_>
      9.86890018e-01 8.78674865e-01</_>
    <_>
      1. 8.09569597e-01</_>
    <_>
      9.95851576e-01 9.24139619e-01</_>
    <_>
      9.95851576e-01 9.24139619e-01</_>
    <_>
      9.97052014e-01 9.30137515e-01</_>
    <_>
      1. 9.18969452e-01</_>
    <_>
      1. 9.20829237e-01</_>
    <_>
      9.85345721e-01 9.06571388e-01</_>
    <_>
      9.97052014e-01 9.30137515e-01</_>
    <_>
      1. 9.18969452e-01</_>
    <_>
      1. 9.20829237e-01</_>
    <_>
      1. 1.30421957e-02</_>
    <_>
      9.67175603e-01 9.32842910e-01</_>
    <_>
      1. 9.11413133e-01</_>
    <_>
      1. 9.11413133e-01</_>
    <_>
      9.56444621e-01 8.83334935e-01</_>
    <_>
      1. 8.20824981e-01</_>
    <_>
      9.97163534e-01 8.43547344e-01</_>
    <_>
      9.97163534e-01 8.43547344e-01</_>
    <_>
      9.90904570e-01 8.38146031e-01</_>
    <_>
      9.90904570e-01 8.38146031e-01</_>
    <_>
      1. 8.91434014e-01</_>
    <_>
      1. 8.73841703e-01</_>
    <_>
      1. 8.91434014e-01</_>
    <_>
      9.93082225e-01 8.58600199e-01</_>
    <_>
      9.93082225e-01 8.58600199e-01</_>
    <_>
      1. 9.10462797e-01</_>
    <_>
      9.87146020e-01 8.43399584e-01</_>
    <_>
      9.87146020e-01 8.43399584e-01</_>
    <_>
      1. 9.53052580e-01</_>
    <_>
      1. 9.58918095e-01</_>
    <_>
      1. 9.66179490e-01</_>
    <_>
      9.91581142e-01 9.40862775e-01</_>
    <_>
      1. 9.53052580e-01</_>
    <_>
      1. 5.86547842e-03</_>
    <_>
      9.89828110e-01 9.47636425e-01</_>
    <_>
      9.89828110e-01 9.47636425e-01</_>
    <_>
      9.96648669e-01 9.49117064e-01</_>
    <_>
      9.78782594e-01 8.94146025e-01</_>
    <_>
      9.78782594e-01 8.94146025e-01</_>
    <_>
      9.85489726e-01 8.59093308e-01</_>
    <_>
      1. 9.58918095e-01</_>
    <_>
      1. 9.66179490e-01</_>
    <_>
      1. 5.86547842e-03</_>
    <_>
      9.96648669e-01 9.49117064e-01</_>
    <_>
      9.85489726e-01 8.59093308e-01</_>
    <_>
      4.36046720e-03 4.11667192e-04</_>
    <_>
      4.96277213e-03 4.16296395e-03</_>
    <_>
      1. 7.94922650e-01</_>
    <_>
      9.90364134e-01 9.10876036e-01</_>
    <_>
      9.90364134e-01 9.10876036e-01</_>
    <_>
      1. 9.57103729e-01</_>
    <_>
      9.82674539e-01 8.83060098e-01</_>
    <_>
      1. 9.57103729e-01</_>
    <_>
      1. 7.77316988e-01</_>
    <_>
      1. 7.81710029e-01</_>
    <_>
      1. 8.53203356e-01</_>
    <_>
      1. 9.04183626e-01</_>
    <_>
      1. 9.04183626e-01</_>
    <_>
      1. 8.25044036e-01</_>
    <_>
      1. 8.25044036e-01</_>
    <_>
      1.29532814e-03 4.87560965e-03</_>
    <_>
      4.93422151e-03 1.23869209e-03</_>
    <_>
      4.93422151e-03 1.23869209e-03</_>
    <_>
      7.87660480e-03 3.40121391e-04</_>
    <_>
      1.25312805e-03 1.44241629e-02</_>
    <_>
      1.25312805e-03 1.44241629e-02</_>
    <_>
      1.96078420e-03 7.98275881e-03</_>
    <_>
      1.96078420e-03 7.98275881e-03</_>
    <_>
      0. 1.91176478e-02</_>
    <_>
      0. 1.91176478e-02</_>
    <_>
      1.38887763e-03 2.62151967e-04</_>
    <_>
      1.38887763e-03 2.62151967e-04</_>
    <_>
      1.57728791e-03 1.82431694e-02</_>
    <_>
      3.00300121e-03 9.61647369e-03</_>
    <_>
      1. 7.71255553e-01</_>
    <_>
      0. 1.28533011e-02</_>
    <_>
      7.13017583e-03 5.60361054e-03</_>
    <_>
      0. 1.28533011e-02</_>
    <_>
      1.43265724e-03 5.77476341e-03</_>
    <_>
      1. 8.22182059e-01</_>
    <_>
      1.11111104e-02 2.74955155e-03</_>
    <_>
      8.99279118e-03 1.96254207e-03</_>
    <_>
      5.01671433e-03 9.90822539e-03</_>
    <_>
      5.01671433e-03 9.90822539e-03</_>
    <_>
      1. 4.28179801e-01</_>
    <_>
      9.94933486e-01 7.87965655e-01</_>
    <_>
      4.16666269e-03 5.33246808e-03</_>
    <_>
      4.31033969e-03 6.75152813e-04</_>
    <_>
      8.06450844e-03 2.51262519e-03</_>
    <_>
      8.68055224e-03 1.23535423e-03</_>
    <_>
      9.86263275e-01 8.45126867e-01</_>
    <_>
      9.91091132e-01 8.61975908e-01</_>
    <_>
      9.86263275e-01 8.45126867e-01</_>
    <_>
      9.91091132e-01 8.61975908e-01</_>
    <_>
      1. 2.53841192e-01</_>
    <_>
      1.44091249e-03 6.38405466e-03</_>
    <_>
      6.52742386e-03 7.00434530e-03</_>
    <_>
      5.23561239e-03 6.37136749e-04</_>
    <_>
      5.91015816e-03 2.55696912e-04</_>
    <_>
      1.18201971e-03 3.39978538e-03</_>
    <_>
      8.04290175e-03 4.18956252e-03</_>
    <_>
      1. 8.65619719e-01</_>
    <_>
      1. 8.49231482e-01</_>
    <_>
      1. 8.65619719e-01</_>
    <_>
      1.44091249e-03 3.71925510e-03</_>
    <_>
      1.44091249e-03 3.71925510e-03</_>
    <_>
      1. 8.19264114e-01</_>
    <_>
      7.38334656e-03 5.78565430e-03</_>
    <_>
      1. 8.05785775e-01</_>
    <_>
      1.45772099e-03 1.06486753e-02</_>
    <_>
      1.12903118e-02 9.66259104e-04</_>
    <_>
      1.04895234e-02 2.17037951e-03</_>
    <_>
      1.04895234e-02 2.17037951e-03</_>
    <_>
      1.28939748e-02 3.77281045e-04</_>
    <_>
      0. 9.86125413e-03</_></support_vectors>
  <decision_functions>
    <_>
      <sv_count>200</sv_count>
      <rho>-5.1694817841053009e-02</rho>
      <alpha>
        1. 1. 1. 1. 1. 1. 1. 1. 1. 1. 1. 1. 1. 1. 1. 1. 1. 1. 1. 1. 1.
        1. 1. 1. 1. 1. 1. 1. 1. 1. 1. 1. 1. 1. 1. 1. 1. 1. 1. 1. 1. 1.
        1. 1. 1. 1. 1. 1. 1. 1. 1. 1. 1. 1. 1. 1. 1. 1. 1. 1. 1. 1. 1.
        1. 1. 1. 1. 1. 1. 1. 1. 1. 1. 1. 1. 1. 1. 1. 1. 1. 1. 1. 1. 1.
        1. 1. 1. 1. 1. 1. 1. 1. 1. 1. 1. 1. 1. 1. 1. 1. -1. -1. -1. -1.
        -1. -1. -1. -1. -1. -1. -1. -1. -1. -1. -1. -1. -1. -1. -1. -1.
        -1. -1. -1. -1. -1. -1. -1. -1. -1. -1. -1. -1. -1. -1. -1. -1.
        -1. -1. -1. -1. -1. -1. -1. -1. -1. -1. -1. -1. -1. -1. -1. -1.
        -1. -1. -1. -1. -1. -1. -1. -1. -1. -1. -1. -1. -1. -1. -1. -1.
        -1. -1. -1. -1. -1. -1. -1. -1. -1. -1. -1. -1. -1. -1. -1. -1.
        -1. -1. -1. -1. -1. -1. -1. -1. -1. -1. -1. -1. -1. -1. -1. -1.</alpha>
      <index>
        0 199 141 4 5 6 7 12 13 14 146 147 148 18 19 20 21 22 151 152 23
        157 25 26 27 28 29 158 30 31 32 33 34 159 35 161 164 165 166 167
        168 71 72 73 74 75 76 77 170 78 171 81 82 83 172 173 174 84 179
        85 91 180 95 96 97 98 99 181 182 100 183 184 185 105 106 107 110
        113 116 117 119 120 126 130 131 187 132 135 136 137 191 192 193
        194 195 196 197 198 138 139 1 2 3 8 9 10 11 15 16 17 24 36 37 38
        39 40 41 42 43 44 45 46 47 48 49 50 51 52 53 54 55 56 57 58 59
        60 61 62 63 64 65 66 67 68 69 70 79 80 86 87 88 89 90 92 93 94
        101 102 103 104 108 109 111 112 114 115 118 121 122 123 124 125
        127 128 129 133 134 140 142 169 143 144 175 176 177 178 145 149
        150 160 153 162 154 163 186 188 189 155 190 156</index></_></decision_functions></opencv_ml_svm>
</opencv_storage>
