<?xml version="1.0"?>
<opencv_storage>
<opencv_ml_svm>
  <format>3</format>
  <svmType>C_SVC</svmType>
  <kernel>
    <type>RBF</type>
    <gamma>1.</gamma></kernel>
  <C>1.</C>
  <term_criteria><iterations>100</iterations></term_criteria>
  <var_count>2</var_count>
  <class_count>2</class_count>
  <class_labels type_id="opencv-matrix">
    <rows>2</rows>
    <cols>1</cols>
    <dt>i</dt>
    <data>
      -1 1</data></class_labels>
  <sv_total>200</sv_total>
  <support_vectors>
    <_>
      6.47445396e-03 1.82371825e-01</_>
    <_>
      1.69838704e-02 2.16466948e-01</_>
    <_>
      8.57813191e-03 3.09227228e-01</_>
    <_>
      1.18061143e-04 2.66827643e-01</_>
    <_>
      3.82714369e-03 3.34588259e-01</_>
    <_>
      4.41505574e-03 2.85682857e-01</_>
    <_>
      8.96698952e-01 2.17861295e-01</_>
    <_>
      9.52692330e-01 2.05421954e-01</_>
    <_>
      8.80379856e-01 1.50934979e-01</_>
    <_>
      8.80379856e-01 1.50934979e-01</_>
    <_>
      3.16865306e-04 3.02657247e-01</_>
    <_>
      0. 2.99507201e-01</_>
    <_>
      3.16865306e-04 3.02657247e-01</_>
    <_>
      7.48331426e-04 2.62450695e-01</_>
    <_>
      1.00360950e-03 2.85345018e-01</_>
    <_>
      0. 2.61195511e-01</_>
    <_>
      0. 2.61195511e-01</_>
    <_>
      1.18047220e-03 3.18889767e-01</_>
    <_>
      1.18047220e-03 3.18889767e-01</_>
    <_>
      8.28710914e-01 2.30618522e-01</_>
    <_>
      8.28710914e-01 2.30618522e-01</_>
    <_>
      1.21561682e-03 1.22383028e-01</_>
    <_>
      5.51949313e-04 1.38830289e-01</_>
    <_>
      5.51949313e-04 1.38830289e-01</_>
    <_>
      8.94996941e-01 1.96584970e-01</_>
    <_>
      7.10335514e-03 2.93543935e-01</_>
    <_>
      3.01034991e-02 4.14424866e-01</_>
    <_>
      1.40628796e-02 3.90859783e-01</_>
    <_>
      2.67633167e-03 1.20560564e-01</_>
    <_>
      2.67633167e-03 1.20560564e-01</_>
    <_>
      5.10870188e-04 3.46147031e-01</_>
    <_>
      1.91102081e-04 3.39589506e-01</_>
    <_>
      1.91102081e-04 3.39589506e-01</_>
    <_>
      0. 2.42576927e-01</_>
    <_>
      0. 2.42576927e-01</_>
    <_>
      8.52661979e-05 2.50754356e-01</_>
    <_>
      1.06602092e-04 1.57581747e-01</_>
    <_>
      1.15960813e-03 1.20030828e-01</_>
    <_>
      3.28979502e-03 2.79904127e-01</_>
    <_>
      9.40050185e-01 1.84435070e-01</_>
    <_>
      9.04952526e-01 1.86766744e-01</_>
    <_>
      9.33104157e-01 2.13800564e-01</_>
    <_>
      9.40050185e-01 1.84435070e-01</_>
    <_>
      9.40323591e-01 2.03165084e-01</_>
    <_>
      9.40323591e-01 2.03165084e-01</_>
    <_>
      9.33104157e-01 2.13800564e-01</_>
    <_>
      4.57403902e-03 1.19346954e-01</_>
    <_>
      4.57403902e-03 1.19346954e-01</_>
    <_>
      1.12247430e-02 3.42093945e-01</_>
    <_>
      8.49704385e-01 1.48718685e-01</_>
    <_>
      9.33979392e-01 2.08663106e-01</_>
    <_>
      1.67547496e-05 1.38743252e-01</_>
    <_>
      1.67547496e-05 1.38743252e-01</_>
    <_>
      8.53830338e-01 2.20924631e-01</_>
    <_>
      8.53830338e-01 2.20924631e-01</_>
    <_>
      9.25573349e-01 1.90509036e-01</_>
    <_>
      7.83376515e-01 1.42962113e-01</_>
    <_>
      1.10832660e-03 2.66445369e-01</_>
    <_>
      1.10832660e-03 2.66445369e-01</_>
    <_>
      7.95988739e-01 1.29268155e-01</_>
    <_>
      6.03170956e-05 1.37989596e-01</_>
    <_>
      9.29796040e-01 1.88105837e-01</_>
    <_>
      9.41255808e-01 1.64684132e-01</_>
    <_>
      4.84391749e-05 1.29437953e-01</_>
    <_>
      9.41255808e-01 1.64684132e-01</_>
    <_>
      4.84391749e-05 1.29437953e-01</_>
    <_>
      8.37432563e-01 1.72448888e-01</_>
    <_>
      8.37432563e-01 1.72448888e-01</_>
    <_>
      8.48295152e-01 1.65473685e-01</_>
    <_>
      8.48295152e-01 1.65473685e-01</_>
    <_>
      8.58342230e-01 2.09401786e-01</_>
    <_>
      4.72723286e-06 1.78632408e-01</_>
    <_>
      9.03779864e-01 1.72772333e-01</_>
    <_>
      8.59093487e-01 1.72778368e-01</_>
    <_>
      8.59093487e-01 1.72778368e-01</_>
    <_>
      9.02584314e-01 1.72100887e-01</_>
    <_>
      9.03779864e-01 1.72772333e-01</_>
    <_>
      8.53594661e-01 1.66472629e-01</_>
    <_>
      8.53594661e-01 1.66472629e-01</_>
    <_>
      9.07862365e-01 1.85132474e-01</_>
    <_>
      9.07862365e-01 1.85132474e-01</_>
    <_>
      9.16848719e-01 2.23228693e-01</_>
    <_>
      9.93006527e-01 2.03448892e-01</_>
    <_>
      9.78994370e-01 1.92829192e-01</_>
    <_>
      9.08263743e-01 1.76081344e-01</_>
    <_>
      9.16848719e-01 2.23228693e-01</_>
    <_>
      9.08263743e-01 1.76081344e-01</_>
    <_>
      9.43978190e-01 2.01415211e-01</_>
    <_>
      9.43978190e-01 2.01415211e-01</_>
    <_>
      9.61135626e-01 1.86560497e-01</_>
    <_>
      9.23155069e-01 1.74186543e-01</_>
    <_>
      9.23155069e-01 1.74186543e-01</_>
    <_>
      8.54375362e-01 1.87740460e-01</_>
    <_>
      9.93006527e-01 2.03448892e-01</_>
    <_>
      9.78994370e-01 1.92829192e-01</_>
    <_>
      9.61135626e-01 1.86560497e-01</_>
    <_>
      8.54375362e-01 1.87740460e-01</_>
    <_>
      8.39943230e-01 1.59329459e-01</_>
    <_>
      8.45453501e-01 1.39241219e-01</_>
    <_>
      8.42267036e-01 1.32569984e-01</_>
    <_>
      6.05414898e-05 1.49203137e-01</_>
    <_>
      6.05414898e-05 1.49203137e-01</_>
    <_>
      8.39943230e-01 1.59329459e-01</_>
    <_>
      8.45453501e-01 1.39241219e-01</_>
    <_>
      8.42267036e-01 1.32569984e-01</_>
    <_>
      8.43599141e-01 2.11785734e-01</_>
    <_>
      8.43599141e-01 2.11785734e-01</_>
    <_>
      8.34409833e-01 2.48733327e-01</_>
    <_>
      8.34409833e-01 2.48733327e-01</_>
    <_>
      8.47532570e-01 1.71119630e-01</_>
    <_>
      3.04299896e-03 1.21058762e-01</_>
    <_>
      8.53259027e-01 2.06561044e-01</_>
    <_>
      8.53259027e-01 2.06561044e-01</_>
    <_>
      9.21630883e-04 3.41845781e-01</_>
    <_>
      9.21630883e-04 3.41845781e-01</_>
    <_>
      5.09075064e-04 3.42527211e-01</_>
    <_>
      8.44219446e-01 1.86348289e-01</_>
    <_>
      8.44219446e-01 1.86348289e-01</_>
    <_>
      8.74111652e-01 1.82647735e-01</_>
    <_>
      9.13481295e-01 2.00394168e-01</_>
    <_>
      8.75562131e-01 1.43181518e-01</_>
    <_>
      9.13481295e-01 2.00394168e-01</_>
    <_>
      8.75562131e-01 1.43181518e-01</_>
    <_>
      8.46891940e-01 1.65482298e-01</_>
    <_>
      8.51501882e-01 1.83027193e-01</_>
    <_>
      8.51501882e-01 1.83027193e-01</_>
    <_>
      1.10012879e-04 1.60047829e-01</_>
    <_>
      8.59901961e-03 3.18276197e-01</_>
    <_>
      8.44722867e-01 1.81882307e-01</_>
    <_>
      8.44722867e-01 1.81882307e-01</_>
    <_>
      7.11478468e-04 1.39264226e-01</_>
    <_>
      7.11478468e-04 1.39264226e-01</_>
    <_>
      6.84985018e-04 1.24023654e-01</_>
    <_>
      3.84341984e-04 1.41366184e-01</_>
    <_>
      3.84341984e-04 1.41366184e-01</_>
    <_>
      3.06163129e-04 1.43803850e-01</_>
    <_>
      3.06163129e-04 1.43803850e-01</_>
    <_>
      8.07776395e-03 3.66942227e-01</_>
    <_>
      8.07776395e-03 3.66942227e-01</_>
    <_>
      1.76134301e-04 2.84293979e-01</_>
    <_>
      1.76134301e-04 2.84293979e-01</_>
    <_>
      1.25112496e-02 3.41526568e-01</_>
    <_>
      1.25112496e-02 3.41526568e-01</_>
    <_>
      3.50479432e-03 3.47251117e-01</_>
    <_>
      6.43322524e-03 3.54257524e-01</_>
    <_>
      6.43322524e-03 3.54257524e-01</_>
    <_>
      4.17432602e-04 3.32469553e-01</_>
    <_>
      8.54142606e-01 1.89325407e-01</_>
    <_>
      4.17432602e-04 3.32469553e-01</_>
    <_>
      1.52362902e-02 3.29402477e-01</_>
    <_>
      5.04581211e-03 3.41931790e-01</_>
    <_>
      1.81669340e-04 3.48803729e-01</_>
    <_>
      7.80273676e-01 2.24432245e-01</_>
    <_>
      1.81669340e-04 3.48803729e-01</_>
    <_>
      9.01285792e-04 3.44284773e-01</_>
    <_>
      8.49179685e-01 1.91672787e-01</_>
    <_>
      9.01285792e-04 3.44284773e-01</_>
    <_>
      2.57143984e-03 2.77370006e-01</_>
    <_>
      4.89464790e-01 3.54407191e-01</_>
    <_>
      2.86494242e-03 1.27385065e-01</_>
    <_>
      2.86494242e-03 1.27385065e-01</_>
    <_>
      3.55290431e-05 1.99485600e-01</_>
    <_>
      8.00732911e-01 2.85462976e-01</_>
    <_>
      5.75744221e-03 3.05624455e-01</_>
    <_>
      2.80537922e-02 4.15481061e-01</_>
    <_>
      8.59816194e-01 1.60286874e-01</_>
    <_>
      8.76929164e-01 1.76913530e-01</_>
    <_>
      8.59816194e-01 1.60286874e-01</_>
    <_>
      8.76929164e-01 1.76913530e-01</_>
    <_>
      4.24403770e-05 1.64398685e-01</_>
    <_>
      1.73980116e-05 1.88321680e-01</_>
    <_>
      8.06993365e-01 1.32004887e-01</_>
    <_>
      8.06993365e-01 1.32004887e-01</_>
    <_>
      1.41547702e-04 2.76580125e-01</_>
    <_>
      1.41547702e-04 2.76580125e-01</_>
    <_>
      8.07201207e-01 1.97253183e-01</_>
    <_>
      7.39602474e-05 1.37209475e-01</_>
    <_>
      8.89456093e-01 1.40472367e-01</_>
    <_>
      8.89456093e-01 1.40472367e-01</_>
    <_>
      7.39602474e-05 1.37209475e-01</_>
    <_>
      8.39839101e-01 1.57726929e-01</_>
    <_>
      1.16068521e-03 1.17403559e-01</_>
    <_>
      1.16068521e-03 1.17403559e-01</_>
    <_>
      9.32147435e-04 1.33842185e-01</_>
    <_>
      6.64885296e-03 1.20902836e-01</_>
    <_>
      1.43119961e-03 2.84152210e-01</_>
    <_>
      1.43119961e-03 2.84152210e-01</_>
    <_>
      1.89657777e-03 1.35576412e-01</_>
    <_>
      8.90567243e-01 1.95412606e-01</_>
    <_>
      8.90567243e-01 1.95412606e-01</_>
    <_>
      2.17748899e-03 1.27595022e-01</_>
    <_>
      2.17748899e-03 1.27595022e-01</_>
    <_>
      3.92853981e-03 1.26805261e-01</_>
    <_>
      3.92853981e-03 1.26805261e-01</_>
    <_>
      8.75536203e-01 2.00830743e-01</_>
    <_>
      8.75536203e-01 2.00830743e-01</_>
    <_>
      8.34031343e-01 2.19459906e-01</_>
    <_>
      1.05644678e-04 2.52644390e-01</_>
    <_>
      1.05644678e-04 2.52644390e-01</_>
    <_>
      3.86137108e-04 2.87101865e-01</_></support_vectors>
  <decision_functions>
    <_>
      <sv_count>200</sv_count>
      <rho>-5.8695062994956970e-02</rho>
      <alpha>
        1. 1. 1. 1. 1. 1. 1. 1. 1. 1. 1. 1. 1. 1. 1. 1. 1. 1. 1. 1. 1.
        1. 1. 1. 1. 1. 1. 1. 1. 1. 1. 1. 1. 1. 1. 1. 1. 1. 1. 1. 1. 1.
        1. 1. 1. 1. 1. 1. 1. 1. 1. 1. 1. 1. 1. 1. 1. 1. 1. 1. 1. 1. 1.
        1. 1. 1. 1. 1. 1. 1. 1. 1. 1. 1. 1. 1. 1. 1. 1. 1. 1. 1. 1. 1.
        1. 1. 1. 1. 1. 1. 1. 1. 1. 1. 1. 1. 1. 1. 1. 1. -1. -1. -1. -1.
        -1. -1. -1. -1. -1. -1. -1. -1. -1. -1. -1. -1. -1. -1. -1. -1.
        -1. -1. -1. -1. -1. -1. -1. -1. -1. -1. -1. -1. -1. -1. -1. -1.
        -1. -1. -1. -1. -1. -1. -1. -1. -1. -1. -1. -1. -1. -1. -1. -1.
        -1. -1. -1. -1. -1. -1. -1. -1. -1. -1. -1. -1. -1. -1. -1. -1.
        -1. -1. -1. -1. -1. -1. -1. -1. -1. -1. -1. -1. -1. -1. -1. -1.
        -1. -1. -1. -1. -1. -1. -1. -1. -1. -1. -1. -1. -1. -1. -1. -1.</alpha>
      <index>
        0 2 3 4 119 120 122 123 126 5 127 6 7 8 9 132 11 13 14 19 20 21
        22 23 25 26 27 135 136 30 141 142 36 37 149 152 38 155 157 39 40
        41 42 43 44 45 158 161 162 163 48 164 49 50 51 52 55 169 170 171
        172 56 57 58 59 60 61 62 63 64 65 175 178 180 181 182 183 70 185
        75 186 79 81 84 85 86 87 88 94 98 99 103 104 105 106 197 198 199
        110 115 1 10 12 15 16 17 18 24 28 29 31 32 33 34 35 46 47 53 54
        66 67 68 69 71 72 73 74 76 77 78 80 82 83 89 90 91 92 93 95 96
        97 100 101 102 107 108 109 111 112 113 114 116 117 118 121 153
        154 156 159 160 124 125 165 166 167 168 128 129 137 138 173 174
        130 176 177 179 184 139 187 188 133 140 189 131 190 191 192 193
        194 195 196 134 143 144 145 146 147 148 150 151</index></_></decision_functions></opencv_ml_svm>
</opencv_storage>
