<?xml version="1.0"?>
<opencv_storage>
<opencv_ml_svm>
  <format>3</format>
  <svmType>C_SVC</svmType>
  <kernel>
    <type>RBF</type>
    <gamma>1.</gamma></kernel>
  <C>1.</C>
  <term_criteria><iterations>100</iterations></term_criteria>
  <var_count>1</var_count>
  <class_count>2</class_count>
  <class_labels type_id="opencv-matrix">
    <rows>2</rows>
    <cols>1</cols>
    <dt>i</dt>
    <data>
      -1 1</data></class_labels>
  <sv_total>200</sv_total>
  <support_vectors>
    <_>
      1.82371825e-01</_>
    <_>
      2.16466948e-01</_>
    <_>
      1.21354274e-01</_>
    <_>
      1.21354274e-01</_>
    <_>
      3.42390895e-01</_>
    <_>
      3.42390895e-01</_>
    <_>
      3.39698792e-01</_>
    <_>
      3.39698792e-01</_>
    <_>
      1.45399287e-01</_>
    <_>
      3.34588259e-01</_>
    <_>
      1.19197816e-01</_>
    <_>
      1.47845075e-01</_>
    <_>
      1.19197816e-01</_>
    <_>
      1.19011335e-01</_>
    <_>
      1.19011335e-01</_>
    <_>
      3.50071579e-01</_>
    <_>
      3.50071579e-01</_>
    <_>
      3.57605666e-01</_>
    <_>
      1.03659786e-01</_>
    <_>
      1.03659786e-01</_>
    <_>
      1.47192657e-01</_>
    <_>
      1.05175786e-01</_>
    <_>
      1.05175786e-01</_>
    <_>
      1.11156762e-01</_>
    <_>
      1.21812619e-01</_>
    <_>
      1.11156762e-01</_>
    <_>
      4.14424866e-01</_>
    <_>
      3.90859783e-01</_>
    <_>
      1.20560564e-01</_>
    <_>
      1.17914200e-01</_>
    <_>
      3.36458772e-01</_>
    <_>
      3.36458772e-01</_>
    <_>
      1.20560564e-01</_>
    <_>
      1.17914200e-01</_>
    <_>
      1.17103614e-01</_>
    <_>
      1.20337829e-01</_>
    <_>
      3.46147031e-01</_>
    <_>
      1.17103614e-01</_>
    <_>
      3.37441772e-01</_>
    <_>
      3.37441772e-01</_>
    <_>
      3.39589506e-01</_>
    <_>
      3.39589506e-01</_>
    <_>
      1.15272537e-01</_>
    <_>
      1.19346954e-01</_>
    <_>
      1.19346954e-01</_>
    <_>
      1.14319876e-01</_>
    <_>
      1.11373737e-01</_>
    <_>
      3.42093945e-01</_>
    <_>
      1.11373737e-01</_>
    <_>
      1.19507179e-01</_>
    <_>
      1.19507179e-01</_>
    <_>
      1.14366427e-01</_>
    <_>
      1.15430653e-01</_>
    <_>
      1.15430653e-01</_>
    <_>
      1.15563050e-01</_>
    <_>
      1.15563050e-01</_>
    <_>
      1.08540192e-01</_>
    <_>
      1.08540192e-01</_>
    <_>
      3.50102425e-01</_>
    <_>
      3.38751525e-01</_>
    <_>
      3.38751525e-01</_>
    <_>
      1.56001404e-01</_>
    <_>
      1.15464859e-01</_>
    <_>
      1.17021881e-01</_>
    <_>
      1.17021881e-01</_>
    <_>
      1.18238933e-01</_>
    <_>
      1.15464859e-01</_>
    <_>
      1.18238933e-01</_>
    <_>
      3.45692515e-01</_>
    <_>
      3.41845781e-01</_>
    <_>
      3.41845781e-01</_>
    <_>
      3.42527211e-01</_>
    <_>
      3.37228149e-01</_>
    <_>
      3.37228149e-01</_>
    <_>
      3.83727133e-01</_>
    <_>
      3.83727133e-01</_>
    <_>
      1.21395372e-01</_>
    <_>
      1.21395372e-01</_>
    <_>
      1.18297681e-01</_>
    <_>
      1.18297681e-01</_>
    <_>
      3.43607932e-01</_>
    <_>
      3.26250196e-01</_>
    <_>
      3.26250196e-01</_>
    <_>
      3.34283024e-01</_>
    <_>
      3.34283024e-01</_>
    <_>
      3.42599779e-01</_>
    <_>
      3.42599779e-01</_>
    <_>
      3.64417553e-01</_>
    <_>
      1.14665754e-01</_>
    <_>
      1.35820165e-01</_>
    <_>
      1.12534188e-01</_>
    <_>
      1.12534188e-01</_>
    <_>
      1.10167295e-01</_>
    <_>
      1.10167295e-01</_>
    <_>
      3.66828889e-01</_>
    <_>
      3.66828889e-01</_>
    <_>
      3.50124687e-01</_>
    <_>
      3.50124687e-01</_>
    <_>
      1.11256205e-01</_>
    <_>
      1.11256205e-01</_>
    <_>
      3.65762264e-01</_>
    <_>
      3.65762264e-01</_>
    <_>
      3.33426446e-01</_>
    <_>
      3.66942227e-01</_>
    <_>
      3.66942227e-01</_>
    <_>
      3.42052490e-01</_>
    <_>
      3.42052490e-01</_>
    <_>
      1.10202059e-01</_>
    <_>
      1.10202059e-01</_>
    <_>
      1.77945301e-01</_>
    <_>
      3.41526568e-01</_>
    <_>
      3.41526568e-01</_>
    <_>
      3.31934601e-01</_>
    <_>
      3.31934601e-01</_>
    <_>
      3.66143733e-01</_>
    <_>
      3.66143733e-01</_>
    <_>
      3.42146724e-01</_>
    <_>
      3.47251117e-01</_>
    <_>
      3.42146724e-01</_>
    <_>
      3.47251117e-01</_>
    <_>
      3.47843349e-01</_>
    <_>
      1.13490522e-01</_>
    <_>
      3.47843349e-01</_>
    <_>
      3.54257524e-01</_>
    <_>
      1.13490522e-01</_>
    <_>
      3.54257524e-01</_>
    <_>
      3.39049608e-01</_>
    <_>
      3.39049608e-01</_>
    <_>
      3.32469553e-01</_>
    <_>
      1.16356805e-01</_>
    <_>
      1.20329581e-01</_>
    <_>
      3.33715349e-01</_>
    <_>
      1.16356805e-01</_>
    <_>
      1.20329581e-01</_>
    <_>
      3.33715349e-01</_>
    <_>
      3.27325284e-01</_>
    <_>
      3.29402477e-01</_>
    <_>
      1.19337350e-01</_>
    <_>
      3.28908950e-01</_>
    <_>
      3.28908950e-01</_>
    <_>
      3.41931790e-01</_>
    <_>
      3.41931790e-01</_>
    <_>
      3.48803729e-01</_>
    <_>
      3.48803729e-01</_>
    <_>
      3.44284773e-01</_>
    <_>
      3.44284773e-01</_>
    <_>
      3.33185285e-01</_>
    <_>
      3.33185285e-01</_>
    <_>
      3.31440240e-01</_>
    <_>
      3.54897231e-01</_>
    <_>
      3.54407191e-01</_>
    <_>
      1.17087230e-01</_>
    <_>
      3.54407191e-01</_>
    <_>
      1.17087230e-01</_>
    <_>
      1.14404708e-01</_>
    <_>
      1.18553162e-01</_>
    <_>
      1.14404708e-01</_>
    <_>
      3.42599779e-01</_>
    <_>
      1.18553162e-01</_>
    <_>
      1.20128192e-01</_>
    <_>
      3.42599779e-01</_>
    <_>
      1.20128192e-01</_>
    <_>
      3.36640358e-01</_>
    <_>
      3.36640358e-01</_>
    <_>
      4.15481061e-01</_>
    <_>
      1.16504654e-01</_>
    <_>
      1.16504654e-01</_>
    <_>
      1.13397293e-01</_>
    <_>
      1.13397293e-01</_>
    <_>
      3.39422733e-01</_>
    <_>
      3.39422733e-01</_>
    <_>
      3.24643910e-01</_>
    <_>
      3.27932894e-01</_>
    <_>
      3.27932894e-01</_>
    <_>
      3.44637156e-01</_>
    <_>
      3.44637156e-01</_>
    <_>
      3.24225187e-01</_>
    <_>
      1.18531160e-01</_>
    <_>
      1.20902836e-01</_>
    <_>
      3.27868551e-01</_>
    <_>
      1.14771560e-01</_>
    <_>
      1.11068584e-01</_>
    <_>
      1.14771560e-01</_>
    <_>
      1.11068584e-01</_>
    <_>
      1.07329369e-01</_>
    <_>
      3.47996205e-01</_>
    <_>
      1.14108883e-01</_>
    <_>
      3.47996205e-01</_>
    <_>
      1.14108883e-01</_>
    <_>
      1.16144158e-01</_>
    <_>
      1.16144158e-01</_>
    <_>
      1.31314591e-01</_>
    <_>
      1.14881754e-01</_>
    <_>
      1.14881754e-01</_>
    <_>
      1.15500838e-01</_>
    <_>
      1.15500838e-01</_>
    <_>
      1.13922082e-01</_>
    <_>
      1.13922082e-01</_>
    <_>
      1.16982952e-01</_>
    <_>
      1.16982952e-01</_></support_vectors>
  <decision_functions>
    <_>
      <sv_count>200</sv_count>
      <rho>-4.1855722665786743e-02</rho>
      <alpha>
        1. 1. 1. 1. 1. 1. 1. 1. 1. 1. 1. 1. 1. 1. 1. 1. 1. 1. 1. 1. 1.
        1. 1. 1. 1. 1. 1. 1. 1. 1. 1. 1. 1. 1. 1. 1. 1. 1. 1. 1. 1. 1.
        1. 1. 1. 1. 1. 1. 1. 1. 1. 1. 1. 1. 1. 1. 1. 1. 1. 1. 1. 1. 1.
        1. 1. 1. 1. 1. 1. 1. 1. 1. 1. 1. 1. 1. 1. 1. 1. 1. 1. 1. 1. 1.
        1. 1. 1. 1. 1. 1. 1. 1. 1. 1. 1. 1. 1. 1. 1. 1. -1. -1. -1. -1.
        -1. -1. -1. -1. -1. -1. -1. -1. -1. -1. -1. -1. -1. -1. -1. -1.
        -1. -1. -1. -1. -1. -1. -1. -1. -1. -1. -1. -1. -1. -1. -1. -1.
        -1. -1. -1. -1. -1. -1. -1. -1. -1. -1. -1. -1. -1. -1. -1. -1.
        -1. -1. -1. -1. -1. -1. -1. -1. -1. -1. -1. -1. -1. -1. -1. -1.
        -1. -1. -1. -1. -1. -1. -1. -1. -1. -1. -1. -1. -1. -1. -1. -1.
        -1. -1. -1. -1. -1. -1. -1. -1. -1. -1. -1. -1. -1. -1. -1. -1.</alpha>
      <index>
        0 4 5 8 9 80 81 82 85 86 11 15 16 17 87 18 19 88 89 90 91 20 21
        22 23 24 25 26 27 30 31 98 99 36 42 102 107 108 109 110 111 112
        113 114 115 121 124 135 136 137 138 139 148 149 150 152 154 156
        45 46 47 48 164 167 168 51 169 171 172 173 52 176 179 54 55 56
        57 58 180 182 184 61 62 66 185 186 187 188 189 190 68 191 192
        194 195 71 72 73 74 75 1 2 3 6 7 10 12 13 14 28 29 32 33 34 35
        37 38 39 40 41 43 44 49 50 53 59 60 63 64 65 67 69 70 76 77 78
        79 83 84 143 144 145 146 147 93 151 153 155 157 158 159 160 161
        162 163 165 166 94 95 100 101 103 104 105 106 170 174 175 177
        178 181 183 116 117 118 119 120 122 123 193 125 126 196 197 127
        128 129 130 131 132 133 134 96 97 92 198 199 140 141 142</index></_></decision_functions></opencv_ml_svm>
</opencv_storage>
