<?xml version="1.0"?>
<opencv_storage>
<opencv_ml_svm>
  <format>3</format>
  <svmType>C_SVC</svmType>
  <kernel>
    <type>RBF</type>
    <gamma>1.</gamma></kernel>
  <C>1.</C>
  <term_criteria><iterations>100</iterations></term_criteria>
  <var_count>3</var_count>
  <class_count>2</class_count>
  <class_labels type_id="opencv-matrix">
    <rows>2</rows>
    <cols>1</cols>
    <dt>i</dt>
    <data>
      -1 1</data></class_labels>
  <sv_total>200</sv_total>
  <support_vectors>
    <_>
      8.86861324e-01 1.53931573e-01 6.77330375e-01</_>
    <_>
      4.10958886e-01 1.68700457e-01 5.35067916e-01</_>
    <_>
      8.35714281e-01 1.89188182e-01 2.84053147e-01</_>
    <_>
      8.28767121e-01 1.25570208e-01 7.65704572e-01</_>
    <_>
      9.54545438e-01 1.21989265e-01 7.83769071e-01</_>
    <_>
      8.21917772e-01 1.94028825e-01 2.90085673e-01</_>
    <_>
      8.21917772e-01 1.94028825e-01 2.90085673e-01</_>
    <_>
      9.54545438e-01 1.21989265e-01 7.83769071e-01</_>
    <_>
      8.62204731e-01 1.45242095e-01 7.79069781e-01</_>
    <_>
      8.62204731e-01 1.45242095e-01 7.79069781e-01</_>
    <_>
      6.98795199e-01 1.95635989e-01 -2.07142830e-01</_>
    <_>
      6.12903237e-01 3.15492034e-01 -9.34782028e-02</_>
    <_>
      6.12903237e-01 3.15492034e-01 -9.34782028e-02</_>
    <_>
      7.44791627e-01 2.16890439e-01 -7.55952358e-01</_>
    <_>
      6.15853667e-01 2.30027318e-01 -7.60416627e-01</_>
    <_>
      8.42105269e-01 1.94620684e-01 -2.66203761e-01</_>
    <_>
      8.42105269e-01 1.94620684e-01 -2.66203761e-01</_>
    <_>
      7.57731974e-01 2.28414387e-01 -1.82291627e-01</_>
    <_>
      7.75193810e-01 2.21503913e-01 -2.67801881e-01</_>
    <_>
      6.95876300e-01 2.10380286e-01 -2.69841313e-01</_>
    <_>
      7.44791627e-01 2.16890439e-01 -7.55952358e-01</_>
    <_>
      6.15853667e-01 2.30027318e-01 -7.60416627e-01</_>
    <_>
      8.89423072e-01 1.92362905e-01 -3.21256042e-01</_>
    <_>
      8.70370388e-01 2.08883464e-01 -1.94375000e+01</_>
    <_>
      7.72727251e-01 2.18035579e-01 -1.09999990e+00</_>
    <_>
      8.89423072e-01 1.92362905e-01 -3.21256042e-01</_>
    <_>
      8.16091955e-01 2.28487775e-01 -3.21088457e+00</_>
    <_>
      7.09016383e-01 2.28426591e-01 -3.39285731e-01</_>
    <_>
      8.77192974e-01 2.08350956e-01 -4.83660102e-01</_>
    <_>
      8.04347813e-01 2.21305847e-01 -3.77500057e-01</_>
    <_>
      6.95876300e-01 2.10380286e-01 -2.69841313e-01</_>
    <_>
      8.70370388e-01 2.08883464e-01 -1.94375000e+01</_>
    <_>
      7.07792222e-01 2.39466667e-01 -3.30357122e+00</_>
    <_>
      8.47222209e-01 1.91220433e-01 -8.08333278e-01</_>
    <_>
      7.72727251e-01 2.18035579e-01 -1.09999990e+00</_>
    <_>
      7.07792222e-01 2.39466667e-01 -3.30357122e+00</_>
    <_>
      7.09016383e-01 2.28426591e-01 -3.39285731e-01</_>
    <_>
      8.77192974e-01 2.08350956e-01 -4.83660102e-01</_>
    <_>
      7.89473653e-01 2.05800548e-01 -1.49603176e+00</_>
    <_>
      7.89473653e-01 2.05800548e-01 -1.49603176e+00</_>
    <_>
      8.47222209e-01 1.91220433e-01 -8.08333278e-01</_>
    <_>
      9.04166698e-01 2.13728905e-01 -3.09999943e-01</_>
    <_>
      9.41666663e-01 2.03025267e-01 -2.78582931e-01</_>
    <_>
      7.53968239e-01 2.16554806e-01 -3.09440613e-01</_>
    <_>
      7.48062015e-01 2.13750258e-01 -1.34814858e-01</_>
    <_>
      7.53968239e-01 2.16554806e-01 -3.09440613e-01</_>
    <_>
      9.70588207e-01 1.34022042e-01 7.79687524e-01</_>
    <_>
      9.04166698e-01 2.13728905e-01 -3.09999943e-01</_>
    <_>
      9.41666663e-01 2.03025267e-01 -2.78582931e-01</_>
    <_>
      4.85849082e-01 2.05378339e-01 -1.91176414e-01</_>
    <_>
      6.23376608e-01 2.66329259e-01 -3.58730173e+00</_>
    <_>
      8.53448272e-01 2.10935503e-01 -2.64492750e-01</_>
    <_>
      7.57009327e-01 2.26078302e-01 -7.95976996e-01</_>
    <_>
      7.86585331e-01 2.23922446e-01 -1.16000009e+00</_>
    <_>
      7.86585331e-01 2.23922446e-01 -1.16000009e+00</_>
    <_>
      8.04123700e-01 2.08696485e-01 -3.61111164e-01</_>
    <_>
      8.53448272e-01 2.10935503e-01 -2.64492750e-01</_>
    <_>
      6.38157904e-01 3.05761099e-01 -5.35117388e-02</_>
    <_>
      9.02061880e-01 2.36408383e-01 -3.56854796e-01</_>
    <_>
      6.38157904e-01 3.05761099e-01 -5.35117388e-02</_>
    <_>
      9.02061880e-01 2.36408383e-01 -3.56854796e-01</_>
    <_>
      9.85714257e-01 1.89451635e-01 -3.79545450e-01</_>
    <_>
      8.88888896e-01 2.27605417e-01 -1.25446439e+00</_>
    <_>
      6.89873457e-01 2.34355003e-01 -1.46527767e+00</_>
    <_>
      8.92045438e-01 2.11377457e-01 -1.98333340e+01</_>
    <_>
      9.85714257e-01 1.89451635e-01 -3.79545450e-01</_>
    <_>
      8.88888896e-01 2.27605417e-01 -1.25446439e+00</_>
    <_>
      8.92045438e-01 2.11377457e-01 -1.98333340e+01</_>
    <_>
      7.31818199e-01 2.16764420e-01 -1.07407403e+00</_>
    <_>
      7.06666708e-01 2.32106447e-01 -3.71875048e-01</_>
    <_>
      8.55140209e-01 2.10021570e-01 -4.95370388e-01</_>
    <_>
      9.68750000e-01 1.82459086e-01 -5.49689412e-01</_>
    <_>
      8.55140209e-01 2.10021570e-01 -4.95370388e-01</_>
    <_>
      7.82608688e-01 2.36060366e-01 -4.08521295e-01</_>
    <_>
      8.05825233e-01 2.40687177e-01 -4.55200005e+00</_>
    <_>
      9.78494644e-01 1.91011027e-01 -6.70498610e-02</_>
    <_>
      7.87878752e-01 2.30931818e-01 -1.61875000e+01</_>
    <_>
      7.27272749e-01 2.35460252e-01 -3.28260851e+00</_>
    <_>
      7.30769217e-01 2.31895939e-01 -1.16000009e+00</_>
    <_>
      7.27272749e-01 2.35460252e-01 -3.28260851e+00</_>
    <_>
      7.30769217e-01 2.31895939e-01 -1.16000009e+00</_>
    <_>
      9.90445852e-01 1.18424110e-01 7.98491359e-01</_>
    <_>
      9.90445852e-01 1.18424110e-01 7.98491359e-01</_>
    <_>
      7.80991733e-01 2.26864502e-01 -1.53267980e+00</_>
    <_>
      5.39999962e-01 2.19844893e-01 -1.33333325e-01</_>
    <_>
      8.11320782e-01 2.18835995e-01 -1.59166670e+00</_>
    <_>
      6.46666646e-01 2.10605487e-01 -1.26339293e+00</_>
    <_>
      6.46666646e-01 2.10605487e-01 -1.26339293e+00</_>
    <_>
      9.87394929e-01 1.46087646e-01 7.81746030e-01</_>
    <_>
      9.87394929e-01 1.46087646e-01 7.81746030e-01</_>
    <_>
      8.77272725e-01 2.14085817e-01 -3.14229250e-01</_>
    <_>
      7.82051265e-01 2.79600084e-01 -3.65079403e-01</_>
    <_>
      8.33333313e-01 2.31404677e-01 -1.33035707e+00</_>
    <_>
      7.82051265e-01 2.79600084e-01 -3.65079403e-01</_>
    <_>
      8.19277108e-01 2.56202817e-01 -1.14935064e+00</_>
    <_>
      8.41880322e-01 2.01828778e-01 -4.25263166e-01</_>
    <_>
      9.71962631e-01 1.92072228e-01 -1.90740705e-01</_>
    <_>
      5.86419761e-01 2.31184646e-01 -1.43636370e+00</_>
    <_>
      8.09090912e-01 2.11049959e-01 -3.72222233e+00</_>
    <_>
      8.77272725e-01 2.14085817e-01 -3.14229250e-01</_>
    <_>
      8.33333313e-01 2.31404677e-01 -1.33035707e+00</_>
    <_>
      8.19277108e-01 2.56202817e-01 -1.14935064e+00</_>
    <_>
      6.14035130e-01 3.27715069e-01 -3.06837606e+00</_>
    <_>
      7.45614052e-01 2.55169392e-01 -7.93333359e+01</_>
    <_>
      8.52272749e-01 1.77077815e-01 2.70186365e-01</_>
    <_>
      7.35955060e-01 2.49438077e-01 -1.00666664e+02</_>
    <_>
      9.19270813e-01 1.13694720e-01 8.09618592e-01</_>
    <_>
      9.19270813e-01 1.13694720e-01 8.09618592e-01</_>
    <_>
      8.38888884e-01 1.83719084e-01 3.15972209e-01</_>
    <_>
      4.94791687e-01 1.63150176e-01 6.63434863e-01</_>
    <_>
      8.29896927e-01 1.99584767e-01 2.93706298e-01</_>
    <_>
      8.19444418e-01 1.38114423e-01 7.53931522e-01</_>
    <_>
      6.55172408e-01 2.10326314e-01 -2.20833302e-01</_>
    <_>
      8.37606847e-01 1.90175772e-01 -2.35294104e-01</_>
    <_>
      8.46153855e-01 1.80739418e-01 2.97482848e-01</_>
    <_>
      8.37606847e-01 1.90175772e-01 -2.35294104e-01</_>
    <_>
      6.26213551e-01 2.17501014e-01 -1.23200011e+00</_>
    <_>
      8.93203855e-01 1.93694010e-01 -3.76190424e-01</_>
    <_>
      8.46153855e-01 1.80739418e-01 2.97482848e-01</_>
    <_>
      6.26213551e-01 2.17501014e-01 -1.23200011e+00</_>
    <_>
      8.93203855e-01 1.93694010e-01 -3.76190424e-01</_>
    <_>
      9.96376812e-01 1.14366427e-01 7.52331018e-01</_>
    <_>
      9.59677398e-01 1.35685548e-01 7.79220760e-01</_>
    <_>
      9.59677398e-01 1.35685548e-01 7.79220760e-01</_>
    <_>
      9.47712421e-01 1.14478268e-01 7.88338423e-01</_>
    <_>
      9.96428549e-01 1.44745231e-01 7.56916106e-01</_>
    <_>
      9.62184846e-01 1.37845397e-01 7.67890751e-01</_>
    <_>
      9.62184846e-01 1.37845397e-01 7.67890751e-01</_>
    <_>
      8.33333313e-01 2.53388703e-01 -3.11594248e-01</_>
    <_>
      8.33333313e-01 2.53388703e-01 -3.11594248e-01</_>
    <_>
      8.37962985e-01 1.93076834e-01 2.77142882e-01</_>
    <_>
      8.37962985e-01 1.93076834e-01 2.77142882e-01</_>
    <_>
      8.22784781e-01 2.08762348e-01 2.97008574e-01</_>
    <_>
      9.65517223e-01 1.49761021e-01 7.69009233e-01</_>
    <_>
      9.65517223e-01 1.49761021e-01 7.69009233e-01</_>
    <_>
      9.52205896e-01 1.45016998e-01 7.68263161e-01</_>
    <_>
      9.84693885e-01 1.52143911e-01 7.80864179e-01</_>
    <_>
      9.91150439e-01 1.31190941e-01 8.06763291e-01</_>
    <_>
      9.77528095e-01 1.10167295e-01 7.87447035e-01</_>
    <_>
      9.77528095e-01 1.10167295e-01 7.87447035e-01</_>
    <_>
      8.30508471e-01 1.66390747e-01 7.34156847e-01</_>
    <_>
      9.42622960e-01 1.31602868e-01 7.95058131e-01</_>
    <_>
      9.42622960e-01 1.31602868e-01 7.95058131e-01</_>
    <_>
      9.88095224e-01 1.27517715e-01 7.75510192e-01</_>
    <_>
      7.84313738e-01 1.40495002e-01 7.60360360e-01</_>
    <_>
      9.95833337e-01 1.39831081e-01 7.88194418e-01</_>
    <_>
      9.85294104e-01 1.18876964e-01 7.83333302e-01</_>
    <_>
      9.95833337e-01 1.39831081e-01 7.88194418e-01</_>
    <_>
      9.85294104e-01 1.18876964e-01 7.83333302e-01</_>
    <_>
      9.45454538e-01 1.26157910e-01 7.79120862e-01</_>
    <_>
      9.45454538e-01 1.26157910e-01 7.79120862e-01</_>
    <_>
      9.74489808e-01 1.48236588e-01 8.04069757e-01</_>
    <_>
      9.74489808e-01 1.48236588e-01 8.04069757e-01</_>
    <_>
      7.76785731e-01 1.25852406e-01 7.65500009e-01</_>
    <_>
      7.76785731e-01 1.25852406e-01 7.65500009e-01</_>
    <_>
      9.57516313e-01 1.24381162e-01 7.92075455e-01</_>
    <_>
      9.89795923e-01 1.41094029e-01 7.79272735e-01</_>
    <_>
      9.57516313e-01 1.24381162e-01 7.92075455e-01</_>
    <_>
      9.89795923e-01 1.41094029e-01 7.79272735e-01</_>
    <_>
      9.95967746e-01 1.46412000e-01 7.74038434e-01</_>
    <_>
      9.95967746e-01 1.46412000e-01 7.74038434e-01</_>
    <_>
      9.93288577e-01 1.24913014e-01 7.66768277e-01</_>
    <_>
      9.31818187e-01 1.32333294e-01 7.88156271e-01</_>
    <_>
      9.93288577e-01 1.24913014e-01 7.66768277e-01</_>
    <_>
      9.85981286e-01 1.20329581e-01 7.75454521e-01</_>
    <_>
      9.85981286e-01 1.20329581e-01 7.75454521e-01</_>
    <_>
      9.86486495e-01 1.37341246e-01 7.65326321e-01</_>
    <_>
      9.49275374e-01 1.19337350e-01 8.04370463e-01</_>
    <_>
      9.49275374e-01 1.19337350e-01 8.04370463e-01</_>
    <_>
      9.08450723e-01 1.26423255e-01 7.73216009e-01</_>
    <_>
      9.18699205e-01 1.30456492e-01 8.04878056e-01</_>
    <_>
      9.46428597e-01 1.17087230e-01 7.74376392e-01</_>
    <_>
      9.46428597e-01 1.17087230e-01 7.74376392e-01</_>
    <_>
      6.01265788e-01 1.34021923e-01 7.37616062e-01</_>
    <_>
      9.73282456e-01 1.14404708e-01 7.79797971e-01</_>
    <_>
      8.52564096e-01 1.83602184e-01 2.82608688e-01</_>
    <_>
      9.96951222e-01 1.35535866e-01 7.56933749e-01</_>
    <_>
      9.96951222e-01 1.35535866e-01 7.56933749e-01</_>
    <_>
      9.37500000e-01 1.31382778e-01 7.80154467e-01</_>
    <_>
      9.37500000e-01 1.31382778e-01 7.80154467e-01</_>
    <_>
      9.80916023e-01 1.43250436e-01 7.66697586e-01</_>
    <_>
      9.80916023e-01 1.43250436e-01 7.66697586e-01</_>
    <_>
      9.75609779e-01 1.36744246e-01 7.60914743e-01</_>
    <_>
      9.75409865e-01 1.21095493e-01 7.84993410e-01</_>
    <_>
      9.75409865e-01 1.21095493e-01 7.84993410e-01</_>
    <_>
      8.41463447e-01 1.82395488e-01 3.08148146e-01</_>
    <_>
      8.41463447e-01 1.82395488e-01 3.08148146e-01</_>
    <_>
      9.85714257e-01 1.43759549e-01 7.82364011e-01</_>
    <_>
      9.85714257e-01 1.43759549e-01 7.82364011e-01</_>
    <_>
      2.86324799e-01 1.75815761e-01 3.11414421e-01</_>
    <_>
      9.96212125e-01 1.33315593e-01 7.76268125e-01</_>
    <_>
      9.71428573e-01 1.34597614e-01 7.91649938e-01</_>
    <_>
      9.81203020e-01 1.21861801e-01 7.91357994e-01</_>
    <_>
      9.71428573e-01 1.34597614e-01 7.91649938e-01</_>
    <_>
      9.81203020e-01 1.21861801e-01 7.91357994e-01</_>
    <_>
      8.47826123e-01 1.82455570e-01 2.89473712e-01</_>
    <_>
      9.68571424e-01 1.14881754e-01 7.92857170e-01</_>
    <_>
      9.68571424e-01 1.14881754e-01 7.92857170e-01</_>
    <_>
      8.16326499e-01 1.96405739e-01 2.90322602e-01</_>
    <_>
      9.65838492e-01 1.29481971e-01 8.03333342e-01</_></support_vectors>
  <decision_functions>
    <_>
      <sv_count>200</sv_count>
      <rho>2.5237918037247276e-01</rho>
      <alpha>
        1. 1. 1. 1. 1. 1. 1. 1. 1. 1. 1. 1. 1. 1. 1. 1. 1. 1. 1. 1. 1.
        1. 1. 1. 1. 1. 1. 1. 1. 1. 1. 1. 1. 1. 1. 1. 1. 1. 1. 1. 1. 1.
        1. 1. 1. 1. 1. 1. 1. 1. 1. 1. 1. 1. 1. 1. 1. 1. 1. 1. 1. 1. 1.
        1. 1. 1. 1. 1. 1. 1. 1. 1. 1. 1. 1. 1. 1. 1. 1. 1. 1. 1. 1. 1.
        1. 1. 1. 1. 1. 1. 1. 1. 1. 1. 1. 1. 1. 1. 1. 1. -1. -1. -1. -1.
        -1. -1. -1. -1. -1. -1. -1. -1. -1. -1. -1. -1. -1. -1. -1. -1.
        -1. -1. -1. -1. -1. -1. -1. -1. -1. -1. -1. -1. -1. -1. -1. -1.
        -1. -1. -1. -1. -1. -1. -1. -1. -1. -1. -1. -1. -1. -1. -1. -1.
        -1. -1. -1. -1. -1. -1. -1. -1. -1. -1. -1. -1. -1. -1. -1. -1.
        -1. -1. -1. -1. -1. -1. -1. -1. -1. -1. -1. -1. -1. -1. -1. -1.
        -1. -1. -1. -1. -1. -1. -1. -1. -1. -1. -1. -1. -1. -1. -1. -1.</alpha>
      <index>
        0 2 198 136 4 137 199 140 11 12 141 142 14 19 21 22 23 24 25 28
        30 31 32 33 34 35 37 38 39 40 143 42 43 44 45 46 48 146 148 151
        152 153 154 81 155 157 82 159 160 162 167 168 88 89 170 174 90
        91 92 93 94 95 96 97 98 99 100 101 102 103 104 105 106 107 108
        109 110 182 111 112 113 114 115 116 117 118 119 120 121 124 183
        184 125 128 129 130 187 189 190 196 1 3 5 6 7 8 9 10 13 15 16 17
        18 20 26 27 29 36 41 47 49 50 51 52 53 54 55 56 57 58 59 60 61
        62 63 64 65 66 67 68 69 70 71 72 73 74 75 76 77 78 79 80 83 84
        85 86 87 122 123 126 127 131 132 133 134 135 172 173 175 139 176
        177 178 179 180 181 144 145 185 186 156 147 158 138 149 188 150
        161 163 164 165 191 192 193 194 195 166 197 169 171</index></_></decision_functions></opencv_ml_svm>
</opencv_storage>
