<?xml version="1.0"?>
<opencv_storage>
<opencv_ml_svm>
  <format>3</format>
  <svmType>C_SVC</svmType>
  <kernel>
    <type>RBF</type>
    <gamma>1.</gamma></kernel>
  <C>1.</C>
  <term_criteria><iterations>100</iterations></term_criteria>
  <var_count>2</var_count>
  <class_count>2</class_count>
  <class_labels type_id="opencv-matrix">
    <rows>2</rows>
    <cols>1</cols>
    <dt>i</dt>
    <data>
      -1 1</data></class_labels>
  <sv_total>200</sv_total>
  <support_vectors>
    <_>
      8.86861324e-01 1.53931573e-01</_>
    <_>
      4.10958886e-01 1.68700457e-01</_>
    <_>
      3.94736826e-01 1.99526489e-01</_>
    <_>
      4.28571403e-01 1.67984128e-01</_>
    <_>
      3.69863033e-01 1.89822420e-01</_>
    <_>
      9.96062994e-01 1.34095460e-01</_>
    <_>
      3.90625000e-01 1.63137168e-01</_>
    <_>
      9.96062994e-01 1.34095460e-01</_>
    <_>
      3.90625000e-01 1.63137168e-01</_>
    <_>
      3.96103919e-01 1.85244575e-01</_>
    <_>
      3.75000000e-01 2.61577159e-01</_>
    <_>
      3.96103919e-01 1.85244575e-01</_>
    <_>
      4.01234567e-01 1.69826910e-01</_>
    <_>
      4.01234567e-01 1.69826910e-01</_>
    <_>
      3.66071403e-01 2.52188802e-01</_>
    <_>
      4.35483873e-01 3.00667256e-01</_>
    <_>
      4.35483873e-01 3.00667256e-01</_>
    <_>
      3.31081092e-01 1.61297515e-01</_>
    <_>
      3.31081092e-01 1.61297515e-01</_>
    <_>
      9.96551752e-01 1.69965059e-01</_>
    <_>
      9.96551752e-01 1.69965059e-01</_>
    <_>
      9.97093022e-01 1.35614753e-01</_>
    <_>
      9.97093022e-01 1.35614753e-01</_>
    <_>
      9.95145619e-01 1.29286140e-01</_>
    <_>
      9.95145619e-01 1.29286140e-01</_>
    <_>
      3.96103919e-01 1.60160452e-01</_>
    <_>
      4.01234567e-01 1.64548889e-01</_>
    <_>
      4.01234567e-01 1.64548889e-01</_>
    <_>
      3.96103919e-01 1.60160452e-01</_>
    <_>
      9.94117618e-01 1.21580571e-01</_>
    <_>
      9.94117618e-01 1.21580571e-01</_>
    <_>
      9.95999992e-01 1.30883366e-01</_>
    <_>
      9.95999992e-01 1.30883366e-01</_>
    <_>
      9.96710539e-01 1.43423229e-01</_>
    <_>
      9.96710539e-01 1.43423229e-01</_>
    <_>
      4.41860437e-01 3.13774556e-01</_>
    <_>
      4.41860437e-01 3.13774556e-01</_>
    <_>
      9.95689631e-01 1.26145899e-01</_>
    <_>
      3.65740716e-01 1.55355737e-01</_>
    <_>
      9.95689631e-01 1.26145899e-01</_>
    <_>
      3.65740716e-01 1.55355737e-01</_>
    <_>
      9.96969700e-01 1.37148902e-01</_>
    <_>
      9.96969700e-01 1.37148902e-01</_>
    <_>
      3.97849441e-01 2.83275545e-01</_>
    <_>
      3.97849441e-01 2.83275545e-01</_>
    <_>
      9.96503472e-01 1.29456192e-01</_>
    <_>
      9.95798290e-01 1.25769407e-01</_>
    <_>
      9.95798290e-01 1.25769407e-01</_>
    <_>
      3.98809552e-01 1.72587022e-01</_>
    <_>
      3.97196233e-01 1.82413012e-01</_>
    <_>
      9.96376812e-01 1.14366427e-01</_>
    <_>
      3.41463387e-01 1.64184183e-01</_>
    <_>
      3.41463387e-01 1.64184183e-01</_>
    <_>
      9.97041404e-01 1.25202119e-01</_>
    <_>
      3.97058845e-01 1.53780952e-01</_>
    <_>
      9.97041404e-01 1.25202119e-01</_>
    <_>
      4.40594077e-01 1.47044882e-01</_>
    <_>
      9.96753275e-01 1.26757056e-01</_>
    <_>
      4.40594077e-01 1.47044882e-01</_>
    <_>
      9.96753275e-01 1.26757056e-01</_>
    <_>
      3.64285707e-01 1.38101146e-01</_>
    <_>
      9.96575356e-01 1.42011717e-01</_>
    <_>
      9.96575356e-01 1.42011717e-01</_>
    <_>
      3.05555582e-01 1.47958055e-01</_>
    <_>
      9.96323526e-01 1.30599484e-01</_>
    <_>
      9.96323526e-01 1.30599484e-01</_>
    <_>
      9.95689631e-01 1.30557820e-01</_>
    <_>
      9.95689631e-01 1.30557820e-01</_>
    <_>
      3.54166687e-01 1.70850977e-01</_>
    <_>
      3.19672108e-01 2.07165673e-01</_>
    <_>
      9.96478856e-01 1.43527359e-01</_>
    <_>
      9.96478856e-01 1.43527359e-01</_>
    <_>
      4.13461566e-01 2.64084339e-01</_>
    <_>
      4.13461566e-01 2.64084339e-01</_>
    <_>
      9.93865013e-01 1.23942524e-01</_>
    <_>
      9.93865013e-01 1.23942524e-01</_>
    <_>
      9.96710539e-01 1.38656214e-01</_>
    <_>
      9.96710539e-01 1.38656214e-01</_>
    <_>
      9.92424250e-01 2.49393433e-01</_>
    <_>
      3.78640771e-01 3.64417553e-01</_>
    <_>
      1.89873397e-01 1.80834234e-01</_>
    <_>
      1.89873397e-01 1.80834234e-01</_>
    <_>
      9.96268630e-01 1.26270652e-01</_>
    <_>
      9.96268630e-01 1.26270652e-01</_>
    <_>
      2.33766258e-01 2.01355547e-01</_>
    <_>
      4.35483873e-01 2.30175406e-01</_>
    <_>
      5.04761934e-01 3.66828889e-01</_>
    <_>
      9.96951222e-01 1.66683286e-01</_>
    <_>
      9.96951222e-01 1.66683286e-01</_>
    <_>
      3.95348847e-01 2.02539995e-01</_>
    <_>
      9.96774197e-01 1.39261261e-01</_>
    <_>
      9.96774197e-01 1.39261261e-01</_>
    <_>
      4.34210539e-01 3.09144557e-01</_>
    <_>
      4.34210539e-01 3.09144557e-01</_>
    <_>
      4.69026566e-01 2.95922339e-01</_>
    <_>
      4.13636386e-01 1.96639955e-01</_>
    <_>
      9.95192289e-01 2.06548676e-01</_>
    <_>
      9.94845390e-01 2.16122270e-01</_>
    <_>
      9.94845390e-01 2.16122270e-01</_>
    <_>
      4.37500000e-01 3.25662404e-01</_>
    <_>
      4.08730149e-01 1.85230628e-01</_>
    <_>
      4.34426248e-01 3.12994659e-01</_>
    <_>
      9.94152069e-01 2.24258021e-01</_>
    <_>
      4.37500000e-01 3.25662404e-01</_>
    <_>
      4.08730149e-01 1.85230628e-01</_>
    <_>
      9.96183217e-01 1.32293254e-01</_>
    <_>
      9.94152069e-01 2.24258021e-01</_>
    <_>
      9.96183217e-01 1.32293254e-01</_>
    <_>
      4.11764681e-01 2.14233920e-01</_>
    <_>
      9.96987939e-01 1.45283818e-01</_>
    <_>
      9.96062994e-01 1.26862854e-01</_>
    <_>
      9.96062994e-01 1.26862854e-01</_>
    <_>
      9.96987939e-01 1.45283818e-01</_>
    <_>
      9.96212125e-01 1.33791894e-01</_>
    <_>
      9.95999992e-01 1.36608645e-01</_>
    <_>
      3.41772139e-01 1.43612638e-01</_>
    <_>
      3.41772139e-01 1.43612638e-01</_>
    <_>
      9.96428549e-01 1.34750158e-01</_>
    <_>
      9.97023821e-01 1.35890782e-01</_>
    <_>
      9.96428549e-01 1.34750158e-01</_>
    <_>
      9.97023821e-01 1.35890782e-01</_>
    <_>
      9.95283008e-01 1.33874327e-01</_>
    <_>
      3.42342317e-01 2.43864447e-01</_>
    <_>
      4.36507940e-01 2.85740077e-01</_>
    <_>
      4.36507940e-01 2.85740077e-01</_>
    <_>
      4.34426248e-01 3.02153438e-01</_>
    <_>
      4.22413766e-01 2.54987836e-01</_>
    <_>
      4.22413766e-01 2.54987836e-01</_>
    <_>
      9.93288577e-01 1.24913014e-01</_>
    <_>
      3.99999976e-01 1.72114342e-01</_>
    <_>
      9.93288577e-01 1.24913014e-01</_>
    <_>
      3.92156839e-01 1.57882348e-01</_>
    <_>
      3.92156839e-01 1.57882348e-01</_>
    <_>
      4.13043499e-01 3.27325284e-01</_>
    <_>
      3.89534891e-01 1.72652394e-01</_>
    <_>
      3.13953459e-01 1.66761667e-01</_>
    <_>
      3.13953459e-01 1.66761667e-01</_>
    <_>
      4.03409064e-01 1.63504943e-01</_>
    <_>
      3.71559620e-01 1.91195354e-01</_>
    <_>
      9.96323526e-01 1.32311374e-01</_>
    <_>
      9.96153831e-01 1.34204015e-01</_>
    <_>
      9.96153831e-01 1.34204015e-01</_>
    <_>
      3.39999974e-01 1.84971124e-01</_>
    <_>
      3.39999974e-01 1.84971124e-01</_>
    <_>
      3.72093022e-01 1.85220495e-01</_>
    <_>
      3.62745106e-01 2.85654783e-01</_>
    <_>
      3.62745106e-01 2.85654783e-01</_>
    <_>
      9.96951222e-01 1.35535866e-01</_>
    <_>
      4.25120771e-01 2.46859878e-01</_>
    <_>
      9.96951222e-01 1.35535866e-01</_>
    <_>
      3.29729736e-01 2.13711277e-01</_>
    <_>
      9.95833337e-01 1.26327559e-01</_>
    <_>
      9.95833337e-01 1.26327559e-01</_>
    <_>
      9.96428549e-01 1.25207081e-01</_>
    <_>
      9.96428549e-01 1.25207081e-01</_>
    <_>
      9.93670881e-01 1.27635375e-01</_>
    <_>
      9.93670881e-01 1.27635375e-01</_>
    <_>
      4.01234567e-01 1.71266571e-01</_>
    <_>
      3.96226406e-01 2.51219243e-01</_>
    <_>
      3.62903237e-01 2.51457185e-01</_>
    <_>
      4.23076928e-01 2.96023428e-01</_>
    <_>
      4.23076928e-01 2.96023428e-01</_>
    <_>
      3.96226406e-01 2.51219243e-01</_>
    <_>
      3.48214269e-01 2.58922666e-01</_>
    <_>
      3.99999976e-01 1.68916479e-01</_>
    <_>
      3.99999976e-01 1.68916479e-01</_>
    <_>
      9.96296287e-01 1.34249672e-01</_>
    <_>
      9.93421078e-01 1.23384602e-01</_>
    <_>
      9.93827164e-01 1.22249633e-01</_>
    <_>
      9.93827164e-01 1.22249633e-01</_>
    <_>
      9.96323526e-01 1.36433750e-01</_>
    <_>
      9.96093750e-01 1.33008018e-01</_>
    <_>
      9.96323526e-01 1.36433750e-01</_>
    <_>
      9.91279066e-01 1.14771560e-01</_>
    <_>
      9.96894419e-01 1.11068584e-01</_>
    <_>
      9.91279066e-01 1.14771560e-01</_>
    <_>
      9.96894419e-01 1.11068584e-01</_>
    <_>
      2.63636351e-01 2.33131751e-01</_>
    <_>
      2.63636351e-01 2.33131751e-01</_>
    <_>
      3.92473102e-01 2.08916128e-01</_>
    <_>
      3.73913050e-01 2.51686931e-01</_>
    <_>
      3.73913050e-01 2.51686931e-01</_>
    <_>
      2.86324799e-01 1.75815761e-01</_>
    <_>
      9.96212125e-01 1.33315593e-01</_>
    <_>
      4.28571403e-01 1.56494960e-01</_>
    <_>
      9.96598661e-01 1.35206833e-01</_>
    <_>
      9.96598661e-01 1.35206833e-01</_>
    <_>
      4.18604672e-01 2.75042087e-01</_>
    <_>
      4.18604672e-01 2.75042087e-01</_>
    <_>
      9.96453881e-01 1.36442855e-01</_>
    <_>
      9.96453881e-01 1.36442855e-01</_>
    <_>
      9.95454550e-01 1.29377753e-01</_>
    <_>
      9.95454550e-01 1.29377753e-01</_>
    <_>
      3.91304374e-01 2.77801275e-01</_>
    <_>
      3.47457647e-01 2.61318266e-01</_>
    <_>
      9.94791687e-01 1.32035062e-01</_>
    <_>
      9.96453881e-01 1.34599507e-01</_>
    <_>
      9.94791687e-01 1.32035062e-01</_>
    <_>
      9.96644318e-01 1.21622212e-01</_>
    <_>
      9.96644318e-01 1.21622212e-01</_></support_vectors>
  <decision_functions>
    <_>
      <sv_count>200</sv_count>
      <rho>1.8563973903656006e-01</rho>
      <alpha>
        1. 1. 1. 1. 1. 1. 1. 1. 1. 1. 1. 1. 1. 1. 1. 1. 1. 1. 1. 1. 1.
        1. 1. 1. 1. 1. 1. 1. 1. 1. 1. 1. 1. 1. 1. 1. 1. 1. 1. 1. 1. 1.
        1. 1. 1. 1. 1. 1. 1. 1. 1. 1. 1. 1. 1. 1. 1. 1. 1. 1. 1. 1. 1.
        1. 1. 1. 1. 1. 1. 1. 1. 1. 1. 1. 1. 1. 1. 1. 1. 1. 1. 1. 1. 1.
        1. 1. 1. 1. 1. 1. 1. 1. 1. 1. 1. 1. 1. 1. 1. 1. -1. -1. -1. -1.
        -1. -1. -1. -1. -1. -1. -1. -1. -1. -1. -1. -1. -1. -1. -1. -1.
        -1. -1. -1. -1. -1. -1. -1. -1. -1. -1. -1. -1. -1. -1. -1. -1.
        -1. -1. -1. -1. -1. -1. -1. -1. -1. -1. -1. -1. -1. -1. -1. -1.
        -1. -1. -1. -1. -1. -1. -1. -1. -1. -1. -1. -1. -1. -1. -1. -1.
        -1. -1. -1. -1. -1. -1. -1. -1. -1. -1. -1. -1. -1. -1. -1. -1.
        -1. -1. -1. -1. -1. -1. -1. -1. -1. -1. -1. -1. -1. -1. -1. -1.</alpha>
      <index>
        0 194 76 77 78 79 196 5 7 9 198 199 11 82 12 13 83 14 15 16 17
        18 19 20 89 90 91 95 24 100 101 33 102 104 34 106 109 110 111
        112 113 37 38 39 40 122 125 126 127 129 43 44 133 134 135 136
        137 138 45 139 140 141 142 143 46 47 144 48 49 50 158 162 54 163
        57 59 60 166 167 64 65 168 169 170 171 172 173 175 179 180 181
        182 183 68 187 188 72 73 191 192 1 2 3 4 6 8 10 21 22 23 25 26
        27 28 29 30 31 32 35 36 41 42 51 52 53 55 56 58 61 62 63 66 67
        69 70 71 74 75 80 81 86 99 103 105 107 145 146 147 148 149 150
        151 108 152 153 154 155 156 157 92 159 160 161 93 114 94 115 116
        84 117 118 164 165 119 120 121 123 124 96 97 174 98 176 128 85
        177 178 130 131 132 184 185 186 189 190 193 87 195 197 88</index></_></decision_functions></opencv_ml_svm>
</opencv_storage>
