<?xml version="1.0"?>
<opencv_storage>
<opencv_ml_svm>
  <format>3</format>
  <svmType>C_SVC</svmType>
  <kernel>
    <type>RBF</type>
    <gamma>1.</gamma></kernel>
  <C>1.</C>
  <term_criteria><iterations>100</iterations></term_criteria>
  <var_count>2</var_count>
  <class_count>2</class_count>
  <class_labels type_id="opencv-matrix">
    <rows>2</rows>
    <cols>1</cols>
    <dt>i</dt>
    <data>
      -1 1</data></class_labels>
  <sv_total>200</sv_total>
  <support_vectors>
    <_>
      1.66246325e-01 1.53931573e-01</_>
    <_>
      3.81193519e-01 1.68700457e-01</_>
    <_>
      1. 1.60618976e-01</_>
    <_>
      1.44928694e-03 2.22075433e-01</_>
    <_>
      1.44928694e-03 2.22075433e-01</_>
    <_>
      1. 1.40433908e-01</_>
    <_>
      1. 1.38556719e-01</_>
    <_>
      1. 1.40433908e-01</_>
    <_>
      1. 1.38556719e-01</_>
    <_>
      0. 2.04036325e-01</_>
    <_>
      0. 2.04036325e-01</_>
    <_>
      5.64971566e-03 2.33392149e-01</_>
    <_>
      0. 2.19731435e-01</_>
    <_>
      2.54452229e-03 2.09403828e-01</_>
    <_>
      2.54452229e-03 2.09403828e-01</_>
    <_>
      1. 1.92847505e-01</_>
    <_>
      1. 1.93446726e-01</_>
    <_>
      1. 1.73475772e-01</_>
    <_>
      1.31580234e-03 2.24510461e-01</_>
    <_>
      1.31580234e-03 2.24510461e-01</_>
    <_>
      1. 1.28964886e-01</_>
    <_>
      3.42464447e-03 1.66057765e-01</_>
    <_>
      1. 1.28964886e-01</_>
    <_>
      3.42464447e-03 1.66057765e-01</_>
    <_>
      3.47220898e-03 3.05503428e-01</_>
    <_>
      3.47220898e-03 3.05503428e-01</_>
    <_>
      1.69491768e-03 2.58355886e-01</_>
    <_>
      1.02040768e-02 2.85065830e-01</_>
    <_>
      3.44827771e-03 2.66329259e-01</_>
    <_>
      3.44827771e-03 2.66329259e-01</_>
    <_>
      1.73610449e-03 1.90591708e-01</_>
    <_>
      2.80898809e-03 2.34355003e-01</_>
    <_>
      2.80898809e-03 2.34355003e-01</_>
    <_>
      1.73610449e-03 1.90591708e-01</_>
    <_>
      0. 2.30792478e-01</_>
    <_>
      0. 2.30792478e-01</_>
    <_>
      1. 1.18424110e-01</_>
    <_>
      1. 1.18424110e-01</_>
    <_>
      1. 2.32887387e-01</_>
    <_>
      5.58659434e-03 1.69212759e-01</_>
    <_>
      0. 1.96387708e-01</_>
    <_>
      5.58659434e-03 1.69212759e-01</_>
    <_>
      0. 1.96387708e-01</_>
    <_>
      1. 1.99827224e-01</_>
    <_>
      0. 2.07696944e-01</_>
    <_>
      0. 2.07696944e-01</_>
    <_>
      1. 1.48400083e-01</_>
    <_>
      3.01206112e-03 2.19250500e-01</_>
    <_>
      5.66038489e-03 2.60828882e-01</_>
    <_>
      2.77778506e-03 2.99645603e-01</_>
    <_>
      2.77778506e-03 2.99645603e-01</_>
    <_>
      1.47929788e-03 1.90681994e-01</_>
    <_>
      1.47929788e-03 1.90681994e-01</_>
    <_>
      1. 2.31234834e-01</_>
    <_>
      1. 2.31234834e-01</_>
    <_>
      1. 2.18250751e-01</_>
    <_>
      1. 2.31166154e-01</_>
    <_>
      1. 2.31166154e-01</_>
    <_>
      1. 2.30924651e-01</_>
    <_>
      1. 2.45445728e-01</_>
    <_>
      1. 2.42299646e-01</_>
    <_>
      1. 2.45445728e-01</_>
    <_>
      1. 2.42299646e-01</_>
    <_>
      1. 2.39013433e-01</_>
    <_>
      1. 2.34852806e-01</_>
    <_>
      1. 2.20619753e-01</_>
    <_>
      1. 2.39013433e-01</_>
    <_>
      1. 1.58117563e-01</_>
    <_>
      1. 1.44096285e-01</_>
    <_>
      1. 1.44096285e-01</_>
    <_>
      1. 3.06959331e-01</_>
    <_>
      1. 2.48892963e-01</_>
    <_>
      1. 2.60488451e-01</_>
    <_>
      1. 2.48892963e-01</_>
    <_>
      1. 2.60488451e-01</_>
    <_>
      3.13478708e-03 1.94769427e-01</_>
    <_>
      0. 1.76986232e-01</_>
    <_>
      4.70218062e-03 1.67911395e-01</_>
    <_>
      0. 1.97574422e-01</_>
    <_>
      1. 2.42394239e-01</_>
    <_>
      1. 2.42394239e-01</_>
    <_>
      9.97386754e-01 1.26682058e-01</_>
    <_>
      1. 2.31360808e-01</_>
    <_>
      1. 2.87477344e-01</_>
    <_>
      1. 2.87477344e-01</_>
    <_>
      1. 1.65657118e-01</_>
    <_>
      1.68350339e-03 1.98446304e-01</_>
    <_>
      1. 1.74033061e-01</_>
    <_>
      1.29532814e-03 2.12135896e-01</_>
    <_>
      1.29532814e-03 2.12135896e-01</_>
    <_>
      1. 1.49662852e-01</_>
    <_>
      1. 1.51961908e-01</_>
    <_>
      1.25312805e-03 2.08928928e-01</_>
    <_>
      1.25312805e-03 2.08928928e-01</_>
    <_>
      1.96078420e-03 2.00946629e-01</_>
    <_>
      1.96078420e-03 2.00946629e-01</_>
    <_>
      1. 2.16044664e-01</_>
    <_>
      0. 2.29163378e-01</_>
    <_>
      0. 2.29163378e-01</_>
    <_>
      1.38887763e-03 1.92416564e-01</_>
    <_>
      1.38887763e-03 1.92416564e-01</_>
    <_>
      1.57728791e-03 2.07414120e-01</_>
    <_>
      1.47059560e-03 1.94467127e-01</_>
    <_>
      1.48808956e-03 2.31300026e-01</_>
    <_>
      1.48808956e-03 2.31300026e-01</_>
    <_>
      1.47059560e-03 1.94467127e-01</_>
    <_>
      1.64473057e-03 2.19992951e-01</_>
    <_>
      3.00300121e-03 2.23886982e-01</_>
    <_>
      3.07586789e-03 1.84175894e-01</_>
    <_>
      1. 2.05517352e-01</_>
    <_>
      0. 2.21706674e-01</_>
    <_>
      0. 2.21706674e-01</_>
    <_>
      1. 1.59967616e-01</_>
    <_>
      1. 1.59967616e-01</_>
    <_>
      1.43265724e-03 2.26605937e-01</_>
    <_>
      1.43265724e-03 2.26605937e-01</_>
    <_>
      1. 2.28052840e-01</_>
    <_>
      1.42857134e-02 3.27180177e-01</_>
    <_>
      1. 2.11680084e-01</_>
    <_>
      5.37633896e-03 1.67287529e-01</_>
    <_>
      1.42857134e-02 3.27180177e-01</_>
    <_>
      5.37633896e-03 1.67287529e-01</_>
    <_>
      2.43309140e-03 1.62677422e-01</_>
    <_>
      2.43309140e-03 1.62677422e-01</_>
    <_>
      1. 2.22287953e-01</_>
    <_>
      1.77934766e-03 3.33185285e-01</_>
    <_>
      1.77934766e-03 3.33185285e-01</_>
    <_>
      3.96826863e-03 2.21857309e-01</_>
    <_>
      3.96826863e-03 2.21857309e-01</_>
    <_>
      8.99279118e-03 2.77370006e-01</_>
    <_>
      1.83967054e-02 3.31440240e-01</_>
    <_>
      4.70218062e-03 2.04882711e-01</_>
    <_>
      5.10203838e-03 2.93629736e-01</_>
    <_>
      9.55028713e-01 3.54407191e-01</_>
    <_>
      4.16666269e-03 1.79775536e-01</_>
    <_>
      3.51288915e-03 2.25789756e-01</_>
    <_>
      3.51288915e-03 2.25789756e-01</_>
    <_>
      1. 1.47476897e-01</_>
    <_>
      1. 1.47476897e-01</_>
    <_>
      1. 1.45883322e-01</_>
    <_>
      1. 1.45883322e-01</_>
    <_>
      1. 1.83639005e-01</_>
    <_>
      1. 2.85462976e-01</_>
    <_>
      8.79061222e-03 2.70546466e-01</_>
    <_>
      3.54608893e-03 2.61799037e-01</_>
    <_>
      4.31033969e-03 1.96461722e-01</_>
    <_>
      1.53845549e-03 1.99796945e-01</_>
    <_>
      1.53845549e-03 1.99796945e-01</_>
    <_>
      1. 1.35535866e-01</_>
    <_>
      9.82157469e-01 2.09456369e-01</_>
    <_>
      1. 1.35535866e-01</_>
    <_>
      1.57234073e-03 1.92105085e-01</_>
    <_>
      1. 1.46117896e-01</_>
    <_>
      1. 1.38577878e-01</_>
    <_>
      1. 1.46117896e-01</_>
    <_>
      1.57234073e-03 1.92105085e-01</_>
    <_>
      1. 1.38577878e-01</_>
    <_>
      1. 1.49363458e-01</_>
    <_>
      1. 2.22251266e-01</_>
    <_>
      1. 1.24072447e-01</_>
    <_>
      1. 1.24072447e-01</_>
    <_>
      1.44091249e-03 2.43019059e-01</_>
    <_>
      1. 1.36384532e-01</_>
    <_>
      1. 1.36384532e-01</_>
    <_>
      1. 1.61428660e-01</_>
    <_>
      1.18201971e-03 2.05271930e-01</_>
    <_>
      1. 1.58246592e-01</_>
    <_>
      1. 1.57964781e-01</_>
    <_>
      1.39665604e-03 1.98719084e-01</_>
    <_>
      1. 1.46783173e-01</_>
    <_>
      1. 1.57964781e-01</_>
    <_>
      1. 1.46783173e-01</_>
    <_>
      1. 1.18531160e-01</_>
    <_>
      1. 1.18531160e-01</_>
    <_>
      1. 1.46992370e-01</_>
    <_>
      1. 2.40023032e-01</_>
    <_>
      1. 2.40023032e-01</_>
    <_>
      1. 2.04217151e-01</_>
    <_>
      8.62067938e-03 3.14584821e-01</_>
    <_>
      1. 1.64020881e-01</_>
    <_>
      1. 1.28658876e-01</_>
    <_>
      1. 1.28658876e-01</_>
    <_>
      1. 1.14771560e-01</_>
    <_>
      1. 2.26096004e-01</_>
    <_>
      1. 1.14771560e-01</_>
    <_>
      1. 1.35021180e-01</_>
    <_>
      1. 1.33309633e-01</_>
    <_>
      1. 1.35884419e-01</_>
    <_>
      1.46627426e-02 3.22436899e-01</_>
    <_>
      6.04230165e-03 2.62809932e-01</_>
    <_>
      6.04230165e-03 2.62809932e-01</_>
    <_>
      1. 1.81247383e-01</_>
    <_>
      1.45772099e-03 1.98245972e-01</_>
    <_>
      1.70066953e-03 2.05469668e-01</_>
    <_>
      9.94342327e-01 3.28520685e-01</_>
    <_>
      9.94342327e-01 3.28520685e-01</_>
    <_>
      1. 1.28792822e-01</_>
    <_>
      0. 2.08340138e-01</_>
    <_>
      5.78033924e-03 2.89663732e-01</_>
    <_>
      5.78033924e-03 2.89663732e-01</_></support_vectors>
  <decision_functions>
    <_>
      <sv_count>200</sv_count>
      <rho>-1.3001203536987305e-02</rho>
      <alpha>
        1. 1. 1. 1. 1. 1. 1. 1. 1. 1. 1. 1. 1. 1. 1. 1. 1. 1. 1. 1. 1.
        1. 1. 1. 1. 1. 1. 1. 1. 1. 1. 1. 1. 1. 1. 1. 1. 1. 1. 1. 1. 1.
        1. 1. 1. 1. 1. 1. 1. 1. 1. 1. 1. 1. 1. 1. 1. 1. 1. 1. 1. 1. 1.
        1. 1. 1. 1. 1. 1. 1. 1. 1. 1. 1. 1. 1. 1. 1. 1. 1. 1. 1. 1. 1.
        1. 1. 1. 1. 1. 1. 1. 1. 1. 1. 1. 1. 1. 1. 1. 1. -1. -1. -1. -1.
        -1. -1. -1. -1. -1. -1. -1. -1. -1. -1. -1. -1. -1. -1. -1. -1.
        -1. -1. -1. -1. -1. -1. -1. -1. -1. -1. -1. -1. -1. -1. -1. -1.
        -1. -1. -1. -1. -1. -1. -1. -1. -1. -1. -1. -1. -1. -1. -1. -1.
        -1. -1. -1. -1. -1. -1. -1. -1. -1. -1. -1. -1. -1. -1. -1. -1.
        -1. -1. -1. -1. -1. -1. -1. -1. -1. -1. -1. -1. -1. -1. -1. -1.
        -1. -1. -1. -1. -1. -1. -1. -1. -1. -1. -1. -1. -1. -1. -1. -1.</alpha>
      <index>
        0 197 3 4 87 198 199 91 6 8 9 10 11 12 13 14 16 94 95 18 19 101
        107 20 21 22 23 24 25 26 27 109 112 113 36 116 118 37 38 122 123
        43 124 46 47 48 127 128 129 130 131 132 133 64 134 135 136 141
        142 143 144 145 149 158 159 160 70 71 72 73 74 161 164 75 76 165
        77 166 167 168 170 78 173 79 177 80 81 178 179 82 180 181 182
        184 187 84 191 192 193 196 1 2 5 7 15 17 28 29 30 31 32 33 34 35
        39 40 41 42 44 45 49 50 51 52 53 54 55 56 57 58 59 60 61 62 63
        65 66 67 68 69 83 85 86 88 89 90 99 100 137 138 139 140 146 147
        148 150 151 152 153 154 155 156 92 93 157 162 110 163 111 114
        115 169 171 117 172 119 174 175 120 176 121 102 103 104 105 106
        183 185 96 186 188 189 190 97 108 194 195 98 125 126</index></_></decision_functions></opencv_ml_svm>
</opencv_storage>
