<?xml version="1.0"?>
<opencv_storage>
<opencv_ml_svm>
  <format>3</format>
  <svmType>C_SVC</svmType>
  <kernel>
    <type>RBF</type>
    <gamma>1.</gamma></kernel>
  <C>1.</C>
  <term_criteria><iterations>100</iterations></term_criteria>
  <var_count>3</var_count>
  <class_count>2</class_count>
  <class_labels type_id="opencv-matrix">
    <rows>2</rows>
    <cols>1</cols>
    <dt>i</dt>
    <data>
      -1 1</data></class_labels>
  <sv_total>200</sv_total>
  <support_vectors>
    <_>
      1.66246325e-01 1.53931573e-01 6.77330375e-01</_>
    <_>
      3.81193519e-01 1.68700457e-01 5.35067916e-01</_>
    <_>
      9.87680912e-01 1.95917740e-01 -1.57777786e-01</_>
    <_>
      3.37387621e-02 1.46325409e-01 7.25541115e-01</_>
    <_>
      3.37387621e-02 1.46325409e-01 7.25541115e-01</_>
    <_>
      8.69295895e-01 2.05072775e-01 2.30263174e-01</_>
    <_>
      1. 1.40433908e-01 7.06611574e-01</_>
    <_>
      1. 1.40433908e-01 7.06611574e-01</_>
    <_>
      4.92040813e-02 1.71948940e-01 7.27922082e-01</_>
    <_>
      1.64980263e-01 3.15492034e-01 -9.34782028e-02</_>
    <_>
      6.23706400e-01 1.37497529e-01 7.77502060e-01</_>
    <_>
      1. 1.60778895e-01 6.88265324e-01</_>
    <_>
      1. 1.50934979e-01 7.44584203e-01</_>
    <_>
      1. 1.50934979e-01 7.44584203e-01</_>
    <_>
      2.50000000e-01 2.30027318e-01 -7.60416627e-01</_>
    <_>
      6.33561611e-02 1.94620684e-01 -2.66203761e-01</_>
    <_>
      1.47260278e-01 2.10954279e-01 -5.37037015e-01</_>
    <_>
      3.06372643e-02 2.10781276e-01 -9.86111164e-02</_>
    <_>
      1.55086845e-01 2.28414387e-01 -1.82291627e-01</_>
    <_>
      1.56250000e-02 2.21503913e-01 -2.67801881e-01</_>
    <_>
      2.50000000e-01 2.30027318e-01 -7.60416627e-01</_>
    <_>
      7.67701924e-01 1.92362905e-01 -3.21256042e-01</_>
    <_>
      3.44264627e-01 2.18035579e-01 -1.09999990e+00</_>
    <_>
      2.50605345e-01 2.28487775e-01 -3.21088457e+00</_>
    <_>
      1.42156869e-01 1.98706448e-01 -1.66666627e-01</_>
    <_>
      3.06372643e-02 2.10781276e-01 -9.86111164e-02</_>
    <_>
      1.42156869e-01 1.98706448e-01 -1.66666627e-01</_>
    <_>
      1.65441185e-01 2.08350956e-01 -4.83660102e-01</_>
    <_>
      3.29228282e-01 2.39466667e-01 -3.30357122e+00</_>
    <_>
      2.83582211e-02 1.91220433e-01 -8.08333278e-01</_>
    <_>
      7.75400996e-02 2.21707404e-01 -1.11111164e-01</_>
    <_>
      3.44264627e-01 2.18035579e-01 -1.09999990e+00</_>
    <_>
      3.29228282e-01 2.39466667e-01 -3.30357122e+00</_>
    <_>
      1.65441185e-01 2.08350956e-01 -4.83660102e-01</_>
    <_>
      1.16573036e-01 2.05800548e-01 -1.49603176e+00</_>
    <_>
      1.16573036e-01 2.05800548e-01 -1.49603176e+00</_>
    <_>
      2.83582211e-02 1.91220433e-01 -8.08333278e-01</_>
    <_>
      7.75400996e-02 2.21707404e-01 -1.11111164e-01</_>
    <_>
      3.20197046e-02 2.13728905e-01 -3.09999943e-01</_>
    <_>
      2.46876776e-02 2.03025267e-01 -2.78582931e-01</_>
    <_>
      9.25925374e-03 2.16554806e-01 -3.09440613e-01</_>
    <_>
      1.28865838e-02 2.13750258e-01 -1.34814858e-01</_>
    <_>
      9.25925374e-03 2.16554806e-01 -3.09440613e-01</_>
    <_>
      3.20197046e-02 2.13728905e-01 -3.09999943e-01</_>
    <_>
      2.46876776e-02 2.03025267e-01 -2.78582931e-01</_>
    <_>
      1.28865838e-02 2.13750258e-01 -1.34814858e-01</_>
    <_>
      9.68682468e-01 1.51421681e-01 7.36609340e-01</_>
    <_>
      9.68682468e-01 1.51421681e-01 7.36609340e-01</_>
    <_>
      9.50413227e-01 1.25787050e-01 7.68531799e-01</_>
    <_>
      4.65322435e-02 1.50101110e-01 7.36842096e-01</_>
    <_>
      5.30473590e-02 1.69789448e-01 6.92242146e-01</_>
    <_>
      1.68506593e-01 2.05378339e-01 -1.91176414e-01</_>
    <_>
      1.11464858e-02 1.75973400e-01 -6.60427809e-01</_>
    <_>
      1.24999881e-02 2.18804359e-01 -1.69407845e-01</_>
    <_>
      3.44827771e-03 2.66329259e-01 -3.58730173e+00</_>
    <_>
      4.58333194e-02 2.11650252e-01 -1.23051953e+00</_>
    <_>
      3.91600728e-02 2.10935503e-01 -2.64492750e-01</_>
    <_>
      1.19565219e-01 2.23922446e-01 -1.16000009e+00</_>
    <_>
      1.19565219e-01 2.23922446e-01 -1.16000009e+00</_>
    <_>
      1.12318844e-01 2.08696485e-01 -3.61111164e-01</_>
    <_>
      4.58333194e-02 2.11650252e-01 -1.23051953e+00</_>
    <_>
      7.35294223e-02 3.05761099e-01 -5.35117388e-02</_>
    <_>
      1.78678691e-01 2.13132158e-01 -4.24479127e-01</_>
    <_>
      1.02941096e-02 2.36408383e-01 -3.56854796e-01</_>
    <_>
      1.78678691e-01 2.13132158e-01 -4.24479127e-01</_>
    <_>
      1.02941096e-02 2.36408383e-01 -3.56854796e-01</_>
    <_>
      5.53935766e-02 2.00530261e-01 -9.28571463e-01</_>
    <_>
      1.20209068e-01 2.27605417e-01 -1.25446439e+00</_>
    <_>
      1.31756753e-01 2.44281501e-01 -4.27777767e-01</_>
    <_>
      1.02104992e-01 1.96883157e-01 -1.44231319e-02</_>
    <_>
      9.69063163e-01 2.41528198e-01 -3.58333349e-01</_>
    <_>
      1.20209068e-01 2.27605417e-01 -1.25446439e+00</_>
    <_>
      7.71428645e-02 2.16584742e-01 -1.69166660e+00</_>
    <_>
      7.71428645e-02 2.16584742e-01 -1.63963914e-01</_>
    <_>
      7.71428645e-02 2.16584742e-01 -1.63963914e-01</_>
    <_>
      9.90252495e-01 2.15499938e-01 -2.39130259e-02</_>
    <_>
      2.26562500e-01 2.33340874e-01 -7.74193525e-01</_>
    <_>
      2.73358703e-01 2.14563251e-01 -3.34693861e+00</_>
    <_>
      6.54149175e-01 2.32106447e-01 -3.71875048e-01</_>
    <_>
      9.20245051e-03 2.10021570e-01 -4.95370388e-01</_>
    <_>
      2.73358703e-01 2.14563251e-01 -3.34693861e+00</_>
    <_>
      1.45896643e-01 2.36060366e-01 -4.08521295e-01</_>
    <_>
      9.96778846e-01 1.35815591e-01 7.43842363e-01</_>
    <_>
      1.62337720e-02 2.10785583e-01 -1.47727251e-01</_>
    <_>
      1.62337720e-02 2.10785583e-01 -1.47727251e-01</_>
    <_>
      5.43849230e-01 1.57487139e-01 7.46976733e-01</_>
    <_>
      6.78261459e-01 1.41605824e-01 7.72868216e-01</_>
    <_>
      2.13113457e-01 2.09039390e-01 -1.22272730e+00</_>
    <_>
      3.44950259e-02 1.95575058e-01 -7.75861740e-02</_>
    <_>
      1. 1.18424110e-01 7.98491359e-01</_>
    <_>
      3.44950259e-02 1.95575058e-01 -7.75861740e-02</_>
    <_>
      5.40618598e-02 1.87124729e-01 -1.00694418e-01</_>
    <_>
      1. 1.18424110e-01 7.98491359e-01</_>
    <_>
      8.09312761e-02 2.21883178e-01 -2.44744778e-01</_>
    <_>
      3.64545882e-02 2.18568131e-01 -8.96358490e-01</_>
    <_>
      1.01156056e-01 2.18835995e-01 -1.59166670e+00</_>
    <_>
      4.20212984e-01 2.10605487e-01 -1.26339293e+00</_>
    <_>
      4.20212984e-01 2.10605487e-01 -1.26339293e+00</_>
    <_>
      1. 1.51346713e-01 7.05000043e-01</_>
    <_>
      7.30409861e-01 1.33907571e-01 7.40476191e-01</_>
    <_>
      1. 1.51346713e-01 7.05000043e-01</_>
    <_>
      4.49103117e-03 2.14085817e-01 -3.14229250e-01</_>
    <_>
      2.13414639e-01 2.79600084e-01 -3.65079403e-01</_>
    <_>
      2.18562871e-01 2.31404677e-01 -1.33035707e+00</_>
    <_>
      2.13414639e-01 2.79600084e-01 -3.65079403e-01</_>
    <_>
      8.98203254e-03 2.56202817e-01 -1.14935064e+00</_>
    <_>
      2.16763020e-02 2.01828778e-01 -4.25263166e-01</_>
    <_>
      7.08092451e-02 1.92072228e-01 -1.90740705e-01</_>
    <_>
      2.41740197e-01 2.31184646e-01 -1.43636370e+00</_>
    <_>
      1.73410475e-02 2.11049959e-01 -3.72222233e+00</_>
    <_>
      4.49103117e-03 2.14085817e-01 -3.14229250e-01</_>
    <_>
      2.18562871e-01 2.31404677e-01 -1.33035707e+00</_>
    <_>
      8.98203254e-03 2.56202817e-01 -1.14935064e+00</_>
    <_>
      2.74390250e-01 3.27715069e-01 -3.06837606e+00</_>
    <_>
      8.80965889e-01 1.80953756e-01 6.02466822e-01</_>
    <_>
      2.60462821e-01 1.13694720e-01 8.09618592e-01</_>
    <_>
      7.46514857e-01 1.27008736e-01 7.63513505e-01</_>
    <_>
      9.90189552e-01 1.43002793e-01 7.17881918e-01</_>
    <_>
      9.90189552e-01 1.43002793e-01 7.17881918e-01</_>
    <_>
      1.34680271e-02 2.10326314e-01 -2.20833302e-01</_>
    <_>
      1.28031045e-01 1.90175772e-01 -2.35294104e-01</_>
    <_>
      1.28031045e-01 1.90175772e-01 -2.35294104e-01</_>
    <_>
      8.52459073e-02 2.17501014e-01 -1.23200011e+00</_>
    <_>
      1.70467794e-01 1.93694010e-01 -3.76190424e-01</_>
    <_>
      8.52459073e-02 2.17501014e-01 -1.23200011e+00</_>
    <_>
      8.99390280e-02 2.22743452e-01 -2.53411531e-02</_>
    <_>
      1.70467794e-01 1.93694010e-01 -3.76190424e-01</_>
    <_>
      9.97386754e-01 1.26682058e-01 7.13703692e-01</_>
    <_>
      9.97386754e-01 1.26682058e-01 7.13703692e-01</_>
    <_>
      6.94444776e-03 1.79242834e-01 7.74193406e-02</_>
    <_>
      6.39798939e-01 1.27398223e-01 7.51157403e-01</_>
    <_>
      9.29204583e-01 2.03886226e-01 6.54166698e-01</_>
    <_>
      8.95248890e-01 1.73752442e-01 6.17038846e-01</_>
    <_>
      9.61252570e-01 1.21395372e-01 7.39517808e-01</_>
    <_>
      1. 1.62990227e-01 7.08152175e-01</_>
    <_>
      1. 1.76004887e-01 7.32317090e-01</_>
    <_>
      9.24591005e-01 2.14138046e-01 6.75862074e-01</_>
    <_>
      9.94977653e-01 1.41582862e-01 7.47404814e-01</_>
    <_>
      9.85912681e-01 1.35744095e-01 7.37037063e-01</_>
    <_>
      9.70122457e-01 1.57272384e-01 7.46078432e-01</_>
    <_>
      9.70122457e-01 1.57272384e-01 7.46078432e-01</_>
    <_>
      9.21052694e-02 1.55252457e-01 7.31168866e-01</_>
    <_>
      1.00331366e-01 1.21088818e-01 7.59468436e-01</_>
    <_>
      9.90484059e-01 1.53200865e-01 7.30360031e-01</_>
    <_>
      9.90484059e-01 1.53200865e-01 7.30360031e-01</_>
    <_>
      9.96447146e-01 1.39261261e-01 7.56504059e-01</_>
    <_>
      9.96447146e-01 1.39261261e-01 7.56504059e-01</_>
    <_>
      2.05969214e-02 1.21069260e-01 7.47983873e-01</_>
    <_>
      9.07880068e-02 1.26157910e-01 7.79120862e-01</_>
    <_>
      9.07880068e-02 1.26157910e-01 7.79120862e-01</_>
    <_>
      7.01823771e-01 1.48236588e-01 8.04069757e-01</_>
    <_>
      9.66882646e-01 1.32391572e-01 7.50000000e-01</_>
    <_>
      9.66882646e-01 1.32391572e-01 7.50000000e-01</_>
    <_>
      9.92508411e-01 1.39315113e-01 7.61180699e-01</_>
    <_>
      1. 1.55589134e-01 7.22926855e-01</_>
    <_>
      9.92508411e-01 1.39315113e-01 7.61180699e-01</_>
    <_>
      9.96503949e-01 1.61630362e-01 7.27920234e-01</_>
    <_>
      9.71504152e-01 1.40244648e-01 7.32600689e-01</_>
    <_>
      9.71504152e-01 1.40244648e-01 7.32600689e-01</_>
    <_>
      3.69017929e-01 1.38198838e-01 7.69999981e-01</_>
    <_>
      2.24367738e-01 1.24913014e-01 7.66768277e-01</_>
    <_>
      9.43530321e-01 1.32333294e-01 7.88156271e-01</_>
    <_>
      7.35278308e-01 1.37341246e-01 7.65326321e-01</_>
    <_>
      9.28339005e-01 1.60594493e-01 7.72577465e-01</_>
    <_>
      1. 1.67262346e-01 7.21354127e-01</_>
    <_>
      9.57908154e-01 1.42748743e-01 7.62872636e-01</_>
    <_>
      6.26534879e-01 1.26423255e-01 7.73216009e-01</_>
    <_>
      5.60939670e-01 1.30456492e-01 8.04878056e-01</_>
    <_>
      6.22343123e-01 1.17087230e-01 7.74376392e-01</_>
    <_>
      9.66861427e-01 1.52527168e-01 7.48364091e-01</_>
    <_>
      9.66861427e-01 1.52527168e-01 7.48364091e-01</_>
    <_>
      1. 1.35535866e-01 7.56933749e-01</_>
    <_>
      1. 1.35535866e-01 7.56933749e-01</_>
    <_>
      9.94028211e-01 1.54405549e-01 7.15079367e-01</_>
    <_>
      9.85636652e-01 1.60636216e-01 7.19696999e-01</_>
    <_>
      9.94028211e-01 1.54405549e-01 7.15079367e-01</_>
    <_>
      9.61458325e-01 1.31382778e-01 7.80154467e-01</_>
    <_>
      9.61458325e-01 1.31382778e-01 7.80154467e-01</_>
    <_>
      3.08780551e-01 1.43250436e-01 7.66697586e-01</_>
    <_>
      1. 1.49363458e-01 7.21866965e-01</_>
    <_>
      8.98801267e-01 2.08635002e-01 6.57031238e-01</_>
    <_>
      9.30555582e-01 1.86753631e-01 6.47826076e-01</_>
    <_>
      8.86120260e-01 1.73521712e-01 6.14617944e-01</_>
    <_>
      9.62799847e-01 1.43759549e-01 7.82364011e-01</_>
    <_>
      9.62799847e-01 1.43759549e-01 7.82364011e-01</_>
    <_>
      1. 1.14771560e-01 7.32580066e-01</_>
    <_>
      1. 1.14771560e-01 7.32580066e-01</_>
    <_>
      9.60702538e-01 1.62014008e-01 7.61412561e-01</_>
    <_>
      1. 1.56773001e-01 7.14350343e-01</_>
    <_>
      9.88165617e-01 1.32370621e-01 7.49505937e-01</_>
    <_>
      3.13606799e-01 1.21861801e-01 7.91357994e-01</_>
    <_>
      9.77696300e-01 1.22980326e-01 7.27871954e-01</_>
    <_>
      8.99401307e-01 1.71861008e-01 6.17886186e-01</_>
    <_>
      8.81085277e-01 1.80363253e-01 6.05351210e-01</_>
    <_>
      8.81085277e-01 1.80363253e-01 6.05351210e-01</_>
    <_>
      8.97625387e-01 1.64865449e-01 6.15433693e-01</_>
    <_>
      8.22974443e-01 1.14881754e-01 7.92857170e-01</_>
    <_>
      8.83431196e-01 1.96938381e-01 6.11904740e-01</_>
    <_>
      2.95704931e-01 1.51777685e-01 7.62499988e-01</_>
    <_>
      9.65875864e-01 1.29481971e-01 8.03333342e-01</_></support_vectors>
  <decision_functions>
    <_>
      <sv_count>200</sv_count>
      <rho>2.3014498960204188e-01</rho>
      <alpha>
        1. 1. 1. 1. 1. 1. 1. 1. 1. 1. 1. 1. 1. 1. 1. 1. 1. 1. 1. 1. 1.
        1. 1. 1. 1. 1. 1. 1. 1. 1. 1. 1. 1. 1. 1. 1. 1. 1. 1. 1. 1. 1.
        1. 1. 1. 1. 1. 1. 1. 1. 1. 1. 1. 1. 1. 1. 1. 1. 1. 1. 1. 1. 1.
        1. 1. 1. 1. 1. 1. 1. 1. 1. 1. 1. 1. 1. 1. 1. 1. 1. 1. 1. 1. 1.
        1. 1. 1. 1. 1. 1. 1. 1. 1. 1. 1. 1. 1. 1. 1. 1. -1. -1. -1. -1.
        -1. -1. -1. -1. -1. -1. -1. -1. -1. -1. -1. -1. -1. -1. -1. -1.
        -1. -1. -1. -1. -1. -1. -1. -1. -1. -1. -1. -1. -1. -1. -1. -1.
        -1. -1. -1. -1. -1. -1. -1. -1. -1. -1. -1. -1. -1. -1. -1. -1.
        -1. -1. -1. -1. -1. -1. -1. -1. -1. -1. -1. -1. -1. -1. -1. -1.
        -1. -1. -1. -1. -1. -1. -1. -1. -1. -1. -1. -1. -1. -1. -1. -1.
        -1. -1. -1. -1. -1. -1. -1. -1. -1. -1. -1. -1. -1. -1. -1. -1.</alpha>
      <index>
        0 2 137 199 5 138 8 9 10 11 12 13 141 142 14 17 20 21 22 24 25
        26 27 28 29 30 31 32 33 34 35 36 37 145 39 40 41 42 146 147 44
        45 49 150 153 154 155 82 89 156 92 159 161 99 163 164 165 167
        101 102 103 104 105 106 107 108 109 110 111 112 113 114 115 119
        120 121 122 123 124 125 126 181 127 128 182 129 183 130 185 186
        187 188 189 134 192 135 136 196 197 198 1 3 4 6 7 15 16 18 19 23
        38 43 46 47 48 50 51 52 53 54 55 56 57 58 59 60 61 62 63 64 65
        66 67 68 69 70 71 72 73 74 75 76 77 78 79 80 81 83 84 85 86 87
        88 90 91 93 94 95 96 97 98 100 116 117 118 131 132 133 168 169
        170 171 172 173 174 175 151 176 152 177 178 179 139 180 140 157
        158 148 184 149 160 143 190 191 162 144 193 194 195 166</index></_></decision_functions></opencv_ml_svm>
</opencv_storage>
