<?xml version="1.0"?>
<opencv_storage>
<opencv_ml_svm>
  <format>3</format>
  <svmType>C_SVC</svmType>
  <kernel>
    <type>RBF</type>
    <gamma>1.</gamma></kernel>
  <C>1.</C>
  <term_criteria><iterations>100</iterations></term_criteria>
  <var_count>2</var_count>
  <class_count>2</class_count>
  <class_labels type_id="opencv-matrix">
    <rows>2</rows>
    <cols>1</cols>
    <dt>i</dt>
    <data>
      -1 1</data></class_labels>
  <sv_total>200</sv_total>
  <support_vectors>
    <_>
      1.66246325e-01 6.77330375e-01</_>
    <_>
      3.81193519e-01 5.35067916e-01</_>
    <_>
      9.87680912e-01 -1.57777786e-01</_>
    <_>
      4.75783467e-01 7.65704572e-01</_>
    <_>
      3.37387621e-02 7.25541115e-01</_>
    <_>
      3.37387621e-02 7.25541115e-01</_>
    <_>
      1. 7.06611574e-01</_>
    <_>
      8.95522535e-02 -3.11827898e-01</_>
    <_>
      1.40692651e-01 7.73013115e-01</_>
    <_>
      4.92040813e-02 7.27922082e-01</_>
    <_>
      1.40692651e-01 7.73013115e-01</_>
    <_>
      6.23706400e-01 7.77502060e-01</_>
    <_>
      1. 7.44584203e-01</_>
    <_>
      1. 7.44584203e-01</_>
    <_>
      5.54998815e-02 -7.55952358e-01</_>
    <_>
      2.50000000e-01 -7.60416627e-01</_>
    <_>
      1.46489114e-01 -7.66917348e-01</_>
    <_>
      1.47260278e-01 -5.37037015e-01</_>
    <_>
      3.06372643e-02 -9.86111164e-02</_>
    <_>
      1.56250000e-02 -2.67801881e-01</_>
    <_>
      1.56250000e-02 -2.67801881e-01</_>
    <_>
      5.54998815e-02 -7.55952358e-01</_>
    <_>
      2.50000000e-01 -7.60416627e-01</_>
    <_>
      7.67701924e-01 -3.21256042e-01</_>
    <_>
      3.44264627e-01 -1.09999990e+00</_>
    <_>
      7.67701924e-01 -3.21256042e-01</_>
    <_>
      2.50605345e-01 -3.21088457e+00</_>
    <_>
      1.42156869e-01 -1.66666627e-01</_>
    <_>
      3.06372643e-02 -9.86111164e-02</_>
    <_>
      1.42156869e-01 -1.66666627e-01</_>
    <_>
      1.65441185e-01 -4.83660102e-01</_>
    <_>
      3.29228282e-01 -3.30357122e+00</_>
    <_>
      2.83582211e-02 -8.08333278e-01</_>
    <_>
      7.75400996e-02 -1.11111164e-01</_>
    <_>
      3.44264627e-01 -1.09999990e+00</_>
    <_>
      3.29228282e-01 -3.30357122e+00</_>
    <_>
      1.65441185e-01 -4.83660102e-01</_>
    <_>
      1.16573036e-01 -1.49603176e+00</_>
    <_>
      1.16573036e-01 -1.49603176e+00</_>
    <_>
      2.83582211e-02 -8.08333278e-01</_>
    <_>
      7.75400996e-02 -1.11111164e-01</_>
    <_>
      3.20197046e-02 -3.09999943e-01</_>
    <_>
      2.46876776e-02 -2.78582931e-01</_>
    <_>
      9.25925374e-03 -3.09440613e-01</_>
    <_>
      1.28865838e-02 -1.34814858e-01</_>
    <_>
      9.25925374e-03 -3.09440613e-01</_>
    <_>
      2.46876776e-02 -2.78582931e-01</_>
    <_>
      1.28865838e-02 -1.34814858e-01</_>
    <_>
      9.68682468e-01 7.36609340e-01</_>
    <_>
      9.68682468e-01 7.36609340e-01</_>
    <_>
      9.50413227e-01 7.68531799e-01</_>
    <_>
      4.65322435e-02 7.36842096e-01</_>
    <_>
      1.68506593e-01 -1.91176414e-01</_>
    <_>
      1.68506593e-01 -1.91176414e-01</_>
    <_>
      1.24999881e-02 -1.69407845e-01</_>
    <_>
      3.44827771e-03 -3.58730173e+00</_>
    <_>
      1.24999881e-02 -1.69407845e-01</_>
    <_>
      1.16666675e-01 -1.20833325e+00</_>
    <_>
      1.16666675e-01 -1.20833325e+00</_>
    <_>
      1.12318844e-01 -3.61111164e-01</_>
    <_>
      1.78678691e-01 -4.24479127e-01</_>
    <_>
      1.02941096e-02 -3.56854796e-01</_>
    <_>
      1.02941096e-02 -3.56854796e-01</_>
    <_>
      1.08196735e-01 -1.12500000e+00</_>
    <_>
      1.20209068e-01 -1.25446439e+00</_>
    <_>
      1.31756753e-01 -4.27777767e-01</_>
    <_>
      9.69063163e-01 -3.58333349e-01</_>
    <_>
      9.69063163e-01 -3.58333349e-01</_>
    <_>
      2.80898809e-03 -1.46527767e+00</_>
    <_>
      1.20209068e-01 -1.25446439e+00</_>
    <_>
      7.71428645e-02 -1.63963914e-01</_>
    <_>
      7.71428645e-02 -1.63963914e-01</_>
    <_>
      6.27890348e-01 -4.36666608e-01</_>
    <_>
      9.90252495e-01 -2.39130259e-02</_>
    <_>
      2.73358703e-01 -3.34693861e+00</_>
    <_>
      6.54149175e-01 -3.71875048e-01</_>
    <_>
      9.20245051e-03 -4.95370388e-01</_>
    <_>
      2.73358703e-01 -3.34693861e+00</_>
    <_>
      1.45896643e-01 -4.08521295e-01</_>
    <_>
      9.96778846e-01 7.43842363e-01</_>
    <_>
      1.73076928e-01 -8.52307677e-01</_>
    <_>
      1.62337720e-02 -1.47727251e-01</_>
    <_>
      6.78261459e-01 7.72868216e-01</_>
    <_>
      6.78261459e-01 7.72868216e-01</_>
    <_>
      2.13113457e-01 -1.22272730e+00</_>
    <_>
      1. 7.98491359e-01</_>
    <_>
      2.13113457e-01 -1.22272730e+00</_>
    <_>
      5.40618598e-02 -1.00694418e-01</_>
    <_>
      5.40618598e-02 -1.00694418e-01</_>
    <_>
      1. 7.98491359e-01</_>
    <_>
      7.55667686e-03 -3.77622366e-01</_>
    <_>
      1.66240335e-02 -6.80555105e-02</_>
    <_>
      3.21022004e-01 -4.26900625e-01</_>
    <_>
      3.56878310e-01 -1.33333325e-01</_>
    <_>
      1.01156056e-01 -1.59166670e+00</_>
    <_>
      4.20212984e-01 -1.26339293e+00</_>
    <_>
      1.01156056e-01 -1.59166670e+00</_>
    <_>
      1.46547705e-01 7.26572514e-01</_>
    <_>
      6.93152905e-01 7.60891557e-01</_>
    <_>
      6.64318204e-01 7.50000000e-01</_>
    <_>
      4.49103117e-03 -3.14229250e-01</_>
    <_>
      2.13414639e-01 -3.65079403e-01</_>
    <_>
      2.18562871e-01 -1.33035707e+00</_>
    <_>
      2.13414639e-01 -3.65079403e-01</_>
    <_>
      8.98203254e-03 -1.14935064e+00</_>
    <_>
      2.16763020e-02 -4.25263166e-01</_>
    <_>
      7.08092451e-02 -1.90740705e-01</_>
    <_>
      2.41740197e-01 -1.43636370e+00</_>
    <_>
      1.73410475e-02 -3.72222233e+00</_>
    <_>
      4.49103117e-03 -3.14229250e-01</_>
    <_>
      2.18562871e-01 -1.33035707e+00</_>
    <_>
      8.98203254e-03 -1.14935064e+00</_>
    <_>
      2.74390250e-01 -3.06837606e+00</_>
    <_>
      2.60462821e-01 8.09618592e-01</_>
    <_>
      9.90189552e-01 7.17881918e-01</_>
    <_>
      9.90189552e-01 7.17881918e-01</_>
    <_>
      1.34680271e-02 -2.20833302e-01</_>
    <_>
      1.28031045e-01 -2.35294104e-01</_>
    <_>
      1.28031045e-01 -2.35294104e-01</_>
    <_>
      8.52459073e-02 -1.23200011e+00</_>
    <_>
      1.70467794e-01 -3.76190424e-01</_>
    <_>
      8.52459073e-02 -1.23200011e+00</_>
    <_>
      1.70467794e-01 -3.76190424e-01</_>
    <_>
      8.31842244e-01 7.88338423e-01</_>
    <_>
      6.78255081e-01 7.76744187e-01</_>
    <_>
      6.49974585e-01 -3.11594248e-01</_>
    <_>
      6.49974585e-01 -3.11594248e-01</_>
    <_>
      1.02088153e-01 7.55477905e-01</_>
    <_>
      1.02088153e-01 7.55477905e-01</_>
    <_>
      1. 7.08152175e-01</_>
    <_>
      1. 7.32317090e-01</_>
    <_>
      6.44593835e-01 7.80864179e-01</_>
    <_>
      8.41641903e-01 8.06763291e-01</_>
    <_>
      9.94977653e-01 7.47404814e-01</_>
    <_>
      1.61653459e-02 6.91476107e-01</_>
    <_>
      9.94977653e-01 7.47404814e-01</_>
    <_>
      1.61653459e-02 6.91476107e-01</_>
    <_>
      6.14501595e-01 7.55080223e-01</_>
    <_>
      4.93080974e-01 7.95058131e-01</_>
    <_>
      9.70122457e-01 7.46078432e-01</_>
    <_>
      9.70122457e-01 7.46078432e-01</_>
    <_>
      1.00331366e-01 7.59468436e-01</_>
    <_>
      9.90484059e-01 7.30360031e-01</_>
    <_>
      1.00331366e-01 7.59468436e-01</_>
    <_>
      9.90484059e-01 7.30360031e-01</_>
    <_>
      1. 7.06168830e-01</_>
    <_>
      9.96447146e-01 7.56504059e-01</_>
    <_>
      9.96447146e-01 7.56504059e-01</_>
    <_>
      2.05969214e-02 7.47983873e-01</_>
    <_>
      5.06475568e-01 7.88194418e-01</_>
    <_>
      9.07880068e-02 7.79120862e-01</_>
    <_>
      9.07880068e-02 7.79120862e-01</_>
    <_>
      7.01823771e-01 8.04069757e-01</_>
    <_>
      9.35163677e-01 7.29838729e-01</_>
    <_>
      9.66882646e-01 7.50000000e-01</_>
    <_>
      9.66882646e-01 7.50000000e-01</_>
    <_>
      8.78862441e-01 2.16073811e-01</_>
    <_>
      9.92508411e-01 7.61180699e-01</_>
    <_>
      1. 7.22926855e-01</_>
    <_>
      9.92508411e-01 7.61180699e-01</_>
    <_>
      6.80454135e-01 7.61481464e-01</_>
    <_>
      9.71504152e-01 7.32600689e-01</_>
    <_>
      9.71504152e-01 7.32600689e-01</_>
    <_>
      9.43530321e-01 7.88156271e-01</_>
    <_>
      7.35278308e-01 7.65326321e-01</_>
    <_>
      1. 7.21354127e-01</_>
    <_>
      6.26534879e-01 7.73216009e-01</_>
    <_>
      5.60939670e-01 8.04878056e-01</_>
    <_>
      6.22343123e-01 7.74376392e-01</_>
    <_>
      6.22343123e-01 7.74376392e-01</_>
    <_>
      9.66861427e-01 7.48364091e-01</_>
    <_>
      9.66861427e-01 7.48364091e-01</_>
    <_>
      1. 7.56933749e-01</_>
    <_>
      1. 7.56933749e-01</_>
    <_>
      9.94028211e-01 7.15079367e-01</_>
    <_>
      9.85636652e-01 7.19696999e-01</_>
    <_>
      9.94028211e-01 7.15079367e-01</_>
    <_>
      9.61458325e-01 7.80154467e-01</_>
    <_>
      9.61458325e-01 7.80154467e-01</_>
    <_>
      1. 7.21866965e-01</_>
    <_>
      9.81507897e-01 7.54454613e-01</_>
    <_>
      1.47983134e-01 7.50360727e-01</_>
    <_>
      9.62799847e-01 7.82364011e-01</_>
    <_>
      9.62799847e-01 7.82364011e-01</_>
    <_>
      1. 7.32580066e-01</_>
    <_>
      1. 7.32580066e-01</_>
    <_>
      4.76190448e-02 7.19298244e-01</_>
    <_>
      1. 7.14350343e-01</_>
    <_>
      9.37050343e-01 7.76268125e-01</_>
    <_>
      8.43549013e-01 7.91649938e-01</_>
    <_>
      9.77696300e-01 7.27871954e-01</_>
    <_>
      8.43549013e-01 7.91649938e-01</_>
    <_>
      6.75666034e-01 7.51666665e-01</_>
    <_>
      8.22974443e-01 7.92857170e-01</_>
    <_>
      6.73578978e-01 7.46616542e-01</_>
    <_>
      3.41614783e-02 7.08255172e-01</_>
    <_>
      6.78526759e-01 7.48376608e-01</_>
    <_>
      6.89625561e-01 7.60784328e-01</_>
    <_>
      6.89625561e-01 7.60784328e-01</_>
    <_>
      9.65875864e-01 8.03333342e-01</_></support_vectors>
  <decision_functions>
    <_>
      <sv_count>200</sv_count>
      <rho>2.2613406580408490e-01</rho>
      <alpha>
        1. 1. 1. 1. 1. 1. 1. 1. 1. 1. 1. 1. 1. 1. 1. 1. 1. 1. 1. 1. 1.
        1. 1. 1. 1. 1. 1. 1. 1. 1. 1. 1. 1. 1. 1. 1. 1. 1. 1. 1. 1. 1.
        1. 1. 1. 1. 1. 1. 1. 1. 1. 1. 1. 1. 1. 1. 1. 1. 1. 1. 1. 1. 1.
        1. 1. 1. 1. 1. 1. 1. 1. 1. 1. 1. 1. 1. 1. 1. 1. 1. 1. 1. 1. 1.
        1. 1. 1. 1. 1. 1. 1. 1. 1. 1. 1. 1. 1. 1. 1. 1. -1. -1. -1. -1.
        -1. -1. -1. -1. -1. -1. -1. -1. -1. -1. -1. -1. -1. -1. -1. -1.
        -1. -1. -1. -1. -1. -1. -1. -1. -1. -1. -1. -1. -1. -1. -1. -1.
        -1. -1. -1. -1. -1. -1. -1. -1. -1. -1. -1. -1. -1. -1. -1. -1.
        -1. -1. -1. -1. -1. -1. -1. -1. -1. -1. -1. -1. -1. -1. -1. -1.
        -1. -1. -1. -1. -1. -1. -1. -1. -1. -1. -1. -1. -1. -1. -1. -1.
        -1. -1. -1. -1. -1. -1. -1. -1. -1. -1. -1. -1. -1. -1. -1. -1.</alpha>
      <index>
        0 131 2 132 133 199 135 9 137 138 11 12 13 141 143 15 18 22 23
        24 25 27 28 29 30 31 32 33 34 35 36 37 38 39 40 145 146 42 43 44
        45 147 148 46 47 51 152 153 156 157 158 159 160 79 85 89 163 165
        98 167 100 101 102 103 104 105 106 107 108 109 110 111 112 113
        116 117 118 119 120 121 122 123 124 180 125 126 181 182 184 185
        186 187 188 127 129 192 130 193 194 195 1 3 4 5 6 7 8 10 14 16
        17 19 20 21 26 41 48 49 50 52 53 54 55 56 57 58 59 60 61 62 63
        64 65 66 67 68 69 70 71 72 73 74 75 76 77 78 80 81 82 83 84 86
        87 88 90 91 92 93 94 95 96 97 99 114 115 128 134 136 169 170 171
        172 173 174 175 176 154 177 155 178 179 139 149 140 161 162 150
        183 151 142 189 190 191 164 144 196 197 198 166 168</index></_></decision_functions></opencv_ml_svm>
</opencv_storage>
