<?xml version="1.0"?>
<opencv_storage>
<opencv_ml_svm>
  <format>3</format>
  <svmType>C_SVC</svmType>
  <kernel>
    <type>RBF</type>
    <gamma>1.</gamma></kernel>
  <C>1.</C>
  <term_criteria><iterations>100</iterations></term_criteria>
  <var_count>1</var_count>
  <class_count>2</class_count>
  <class_labels type_id="opencv-matrix">
    <rows>2</rows>
    <cols>1</cols>
    <dt>i</dt>
    <data>
      -1 1</data></class_labels>
  <sv_total>200</sv_total>
  <support_vectors>
    <_>
      1.53931573e-01</_>
    <_>
      1.68700457e-01</_>
    <_>
      1.19051762e-01</_>
    <_>
      1.19051762e-01</_>
    <_>
      1.19197816e-01</_>
    <_>
      1.19197816e-01</_>
    <_>
      1.19011335e-01</_>
    <_>
      1.19011335e-01</_>
    <_>
      3.50071579e-01</_>
    <_>
      3.50071579e-01</_>
    <_>
      3.57605666e-01</_>
    <_>
      1.18076161e-01</_>
    <_>
      1.18076161e-01</_>
    <_>
      1.16923101e-01</_>
    <_>
      1.03659786e-01</_>
    <_>
      1.16923101e-01</_>
    <_>
      1.03659786e-01</_>
    <_>
      3.34656298e-01</_>
    <_>
      3.34656298e-01</_>
    <_>
      1.18670680e-01</_>
    <_>
      1.18402384e-01</_>
    <_>
      1.18402384e-01</_>
    <_>
      1.17507339e-01</_>
    <_>
      1.17507339e-01</_>
    <_>
      1.15625359e-01</_>
    <_>
      1.15920976e-01</_>
    <_>
      1.14085361e-01</_>
    <_>
      3.37355345e-01</_>
    <_>
      3.37355345e-01</_>
    <_>
      3.50584984e-01</_>
    <_>
      3.50584984e-01</_>
    <_>
      3.33348095e-01</_>
    <_>
      3.43653470e-01</_>
    <_>
      3.43653470e-01</_>
    <_>
      3.30144703e-01</_>
    <_>
      3.30144703e-01</_>
    <_>
      3.27715069e-01</_>
    <_>
      1.13694720e-01</_>
    <_>
      1.13694720e-01</_>
    <_>
      1.13657914e-01</_>
    <_>
      1.13657914e-01</_>
    <_>
      1.14366427e-01</_>
    <_>
      1.14478268e-01</_>
    <_>
      1.13050312e-01</_>
    <_>
      1.13050312e-01</_>
    <_>
      1.14900649e-01</_>
    <_>
      1.17131285e-01</_>
    <_>
      1.14900649e-01</_>
    <_>
      1.07141338e-01</_>
    <_>
      1.19945146e-01</_>
    <_>
      1.07141338e-01</_>
    <_>
      1.19945146e-01</_>
    <_>
      1.13546535e-01</_>
    <_>
      1.14709578e-01</_>
    <_>
      1.13546535e-01</_>
    <_>
      1.14709578e-01</_>
    <_>
      3.31896126e-01</_>
    <_>
      3.31896126e-01</_>
    <_>
      3.31266612e-01</_>
    <_>
      3.31266612e-01</_>
    <_>
      3.53766590e-01</_>
    <_>
      3.53766590e-01</_>
    <_>
      1.06796071e-01</_>
    <_>
      1.06796071e-01</_>
    <_>
      1.20025702e-01</_>
    <_>
      1.16471566e-01</_>
    <_>
      1.20025702e-01</_>
    <_>
      1.17154106e-01</_>
    <_>
      1.18679598e-01</_>
    <_>
      1.16471566e-01</_>
    <_>
      1.17154106e-01</_>
    <_>
      1.15871333e-01</_>
    <_>
      1.15871333e-01</_>
    <_>
      3.45692515e-01</_>
    <_>
      3.41845781e-01</_>
    <_>
      3.41845781e-01</_>
    <_>
      3.42527211e-01</_>
    <_>
      3.37228149e-01</_>
    <_>
      3.37228149e-01</_>
    <_>
      3.83727133e-01</_>
    <_>
      3.83727133e-01</_>
    <_>
      1.18297681e-01</_>
    <_>
      1.18297681e-01</_>
    <_>
      1.99295625e-01</_>
    <_>
      3.43607932e-01</_>
    <_>
      3.26250196e-01</_>
    <_>
      3.26250196e-01</_>
    <_>
      3.34283024e-01</_>
    <_>
      3.34283024e-01</_>
    <_>
      3.42599779e-01</_>
    <_>
      3.42599779e-01</_>
    <_>
      3.23886842e-01</_>
    <_>
      3.64417553e-01</_>
    <_>
      1.14665754e-01</_>
    <_>
      1.12534188e-01</_>
    <_>
      1.12534188e-01</_>
    <_>
      1.10167295e-01</_>
    <_>
      1.10167295e-01</_>
    <_>
      3.66828889e-01</_>
    <_>
      3.66828889e-01</_>
    <_>
      3.50124687e-01</_>
    <_>
      3.50124687e-01</_>
    <_>
      1.11256205e-01</_>
    <_>
      3.23912591e-01</_>
    <_>
      1.11256205e-01</_>
    <_>
      3.65762264e-01</_>
    <_>
      3.65762264e-01</_>
    <_>
      3.33426446e-01</_>
    <_>
      2.98819780e-01</_>
    <_>
      3.66942227e-01</_>
    <_>
      3.66942227e-01</_>
    <_>
      3.42052490e-01</_>
    <_>
      3.42052490e-01</_>
    <_>
      1.10202059e-01</_>
    <_>
      1.10202059e-01</_>
    <_>
      3.41526568e-01</_>
    <_>
      3.41526568e-01</_>
    <_>
      3.31934601e-01</_>
    <_>
      3.31934601e-01</_>
    <_>
      3.66143733e-01</_>
    <_>
      3.66143733e-01</_>
    <_>
      3.42146724e-01</_>
    <_>
      3.47251117e-01</_>
    <_>
      3.42146724e-01</_>
    <_>
      3.47251117e-01</_>
    <_>
      3.47843349e-01</_>
    <_>
      1.13490522e-01</_>
    <_>
      3.47843349e-01</_>
    <_>
      3.54257524e-01</_>
    <_>
      1.13490522e-01</_>
    <_>
      3.54257524e-01</_>
    <_>
      3.39049608e-01</_>
    <_>
      3.39049608e-01</_>
    <_>
      1.16356805e-01</_>
    <_>
      3.33715349e-01</_>
    <_>
      1.16356805e-01</_>
    <_>
      3.33715349e-01</_>
    <_>
      3.27325284e-01</_>
    <_>
      3.29402477e-01</_>
    <_>
      3.28908950e-01</_>
    <_>
      3.28908950e-01</_>
    <_>
      3.41931790e-01</_>
    <_>
      3.41931790e-01</_>
    <_>
      3.48803729e-01</_>
    <_>
      3.48803729e-01</_>
    <_>
      3.44284773e-01</_>
    <_>
      3.44284773e-01</_>
    <_>
      3.31440240e-01</_>
    <_>
      3.54897231e-01</_>
    <_>
      3.54407191e-01</_>
    <_>
      1.17087230e-01</_>
    <_>
      3.54407191e-01</_>
    <_>
      1.17087230e-01</_>
    <_>
      1.14404708e-01</_>
    <_>
      1.18553162e-01</_>
    <_>
      1.14404708e-01</_>
    <_>
      3.42599779e-01</_>
    <_>
      1.18553162e-01</_>
    <_>
      1.20128192e-01</_>
    <_>
      3.42599779e-01</_>
    <_>
      1.20128192e-01</_>
    <_>
      3.36640358e-01</_>
    <_>
      3.36640358e-01</_>
    <_>
      4.15481061e-01</_>
    <_>
      1.16504654e-01</_>
    <_>
      1.16504654e-01</_>
    <_>
      1.13397293e-01</_>
    <_>
      1.13397293e-01</_>
    <_>
      3.39422733e-01</_>
    <_>
      3.39422733e-01</_>
    <_>
      3.24643910e-01</_>
    <_>
      3.27932894e-01</_>
    <_>
      3.27932894e-01</_>
    <_>
      3.44637156e-01</_>
    <_>
      3.44637156e-01</_>
    <_>
      3.24225187e-01</_>
    <_>
      1.18531160e-01</_>
    <_>
      3.27868551e-01</_>
    <_>
      1.14771560e-01</_>
    <_>
      1.11068584e-01</_>
    <_>
      1.14771560e-01</_>
    <_>
      1.11068584e-01</_>
    <_>
      1.07329369e-01</_>
    <_>
      3.47996205e-01</_>
    <_>
      1.14108883e-01</_>
    <_>
      3.47996205e-01</_>
    <_>
      1.14108883e-01</_>
    <_>
      1.16144158e-01</_>
    <_>
      1.16144158e-01</_>
    <_>
      1.14881754e-01</_>
    <_>
      1.14881754e-01</_>
    <_>
      1.15500838e-01</_>
    <_>
      1.15500838e-01</_>
    <_>
      1.13922082e-01</_>
    <_>
      1.16730064e-01</_>
    <_>
      1.13922082e-01</_>
    <_>
      1.16730064e-01</_>
    <_>
      1.72216088e-01</_>
    <_>
      1.16982952e-01</_>
    <_>
      1.16982952e-01</_></support_vectors>
  <decision_functions>
    <_>
      <sv_count>200</sv_count>
      <rho>2.1525561809539795e-02</rho>
      <alpha>
        1. 1. 1. 1. 1. 1. 1. 1. 1. 1. 1. 1. 1. 1. 1. 1. 1. 1. 1. 1. 1.
        1. 1. 1. 1. 1. 1. 1. 1. 1. 1. 1. 1. 1. 1. 1. 1. 1. 1. 1. 1. 1.
        1. 1. 1. 1. 1. 1. 1. 1. 1. 1. 1. 1. 1. 1. 1. 1. 1. 1. 1. 1. 1.
        1. 1. 1. 1. 1. 1. 1. 1. 1. 1. 1. 1. 1. 1. 1. 1. 1. 1. 1. 1. 1.
        1. 1. 1. 1. 1. 1. 1. 1. 1. 1. 1. 1. 1. 1. 1. 1. -1. -1. -1. -1.
        -1. -1. -1. -1. -1. -1. -1. -1. -1. -1. -1. -1. -1. -1. -1. -1.
        -1. -1. -1. -1. -1. -1. -1. -1. -1. -1. -1. -1. -1. -1. -1. -1.
        -1. -1. -1. -1. -1. -1. -1. -1. -1. -1. -1. -1. -1. -1. -1. -1.
        -1. -1. -1. -1. -1. -1. -1. -1. -1. -1. -1. -1. -1. -1. -1. -1.
        -1. -1. -1. -1. -1. -1. -1. -1. -1. -1. -1. -1. -1. -1. -1. -1.
        -1. -1. -1. -1. -1. -1. -1. -1. -1. -1. -1. -1. -1. -1. -1. -1.</alpha>
      <index>
        0 91 92 93 8 9 10 94 95 13 14 15 16 102 103 104 107 108 24 25 26
        113 114 115 116 117 118 119 120 126 129 137 138 139 140 31 147
        148 149 34 151 153 155 35 36 37 38 39 40 163 166 41 167 168 170
        171 172 42 43 44 45 47 175 52 53 54 55 177 56 57 58 59 65 69 73
        178 180 182 76 77 78 79 80 183 184 185 186 187 188 83 84 85 86
        89 90 189 191 192 194 196 1 2 3 4 5 6 7 11 12 17 18 19 20 21 22
        23 27 28 29 30 32 33 46 48 49 50 51 60 61 62 63 64 66 67 68 70
        71 72 74 75 81 82 87 88 152 154 99 156 157 158 159 105 106 160
        109 110 111 112 97 161 162 164 165 100 101 169 173 174 176 96
        179 121 181 122 123 124 125 127 128 130 131 132 133 134 135 136
        141 142 143 144 145 190 146 193 195 197 98 198 199 150</index></_></decision_functions></opencv_ml_svm>
</opencv_storage>
