<?xml version="1.0"?>
<opencv_storage>
<opencv_ml_svm>
  <format>3</format>
  <svmType>C_SVC</svmType>
  <kernel>
    <type>RBF</type>
    <gamma>1.</gamma></kernel>
  <C>1.</C>
  <term_criteria><iterations>100</iterations></term_criteria>
  <var_count>2</var_count>
  <class_count>2</class_count>
  <class_labels type_id="opencv-matrix">
    <rows>2</rows>
    <cols>1</cols>
    <dt>i</dt>
    <data>
      -1 1</data></class_labels>
  <sv_total>200</sv_total>
  <support_vectors>
    <_>
      1.53931573e-01 6.77330375e-01</_>
    <_>
      1.68700457e-01 5.35067916e-01</_>
    <_>
      1.95917740e-01 -1.57777786e-01</_>
    <_>
      1.25570208e-01 7.65704572e-01</_>
    <_>
      1.21989265e-01 7.83769071e-01</_>
    <_>
      1.25570208e-01 7.65704572e-01</_>
    <_>
      1.21989265e-01 7.83769071e-01</_>
    <_>
      1.45242095e-01 7.79069781e-01</_>
    <_>
      1.45242095e-01 7.79069781e-01</_>
    <_>
      1.95635989e-01 -2.07142830e-01</_>
    <_>
      2.12188601e-01 -3.11827898e-01</_>
    <_>
      2.12188601e-01 -3.11827898e-01</_>
    <_>
      1.63878843e-01 7.73013115e-01</_>
    <_>
      1.63878843e-01 7.73013115e-01</_>
    <_>
      3.15492034e-01 -9.34782028e-02</_>
    <_>
      1.37497529e-01 7.77502060e-01</_>
    <_>
      1.37497529e-01 7.77502060e-01</_>
    <_>
      1.70465589e-01 7.66986072e-01</_>
    <_>
      2.30027318e-01 -7.60416627e-01</_>
    <_>
      1.94620684e-01 -2.66203761e-01</_>
    <_>
      2.06411868e-01 -7.66917348e-01</_>
    <_>
      2.21503913e-01 -2.67801881e-01</_>
    <_>
      2.21503913e-01 -2.67801881e-01</_>
    <_>
      2.10380286e-01 -2.69841313e-01</_>
    <_>
      2.30027318e-01 -7.60416627e-01</_>
    <_>
      1.92362905e-01 -3.21256042e-01</_>
    <_>
      2.18035579e-01 -1.09999990e+00</_>
    <_>
      1.92362905e-01 -3.21256042e-01</_>
    <_>
      2.28426591e-01 -3.39285731e-01</_>
    <_>
      1.98706448e-01 -1.66666627e-01</_>
    <_>
      1.98706448e-01 -1.66666627e-01</_>
    <_>
      2.08350956e-01 -4.83660102e-01</_>
    <_>
      2.10380286e-01 -2.69841313e-01</_>
    <_>
      1.91220433e-01 -8.08333278e-01</_>
    <_>
      2.21707404e-01 -1.11111164e-01</_>
    <_>
      2.18035579e-01 -1.09999990e+00</_>
    <_>
      2.28426591e-01 -3.39285731e-01</_>
    <_>
      2.08350956e-01 -4.83660102e-01</_>
    <_>
      2.05800548e-01 -1.49603176e+00</_>
    <_>
      2.05800548e-01 -1.49603176e+00</_>
    <_>
      1.91220433e-01 -8.08333278e-01</_>
    <_>
      2.21707404e-01 -1.11111164e-01</_>
    <_>
      2.13728905e-01 -3.09999943e-01</_>
    <_>
      2.33797044e-01 -1.05882359e+00</_>
    <_>
      2.03025267e-01 -2.78582931e-01</_>
    <_>
      2.16554806e-01 -3.09440613e-01</_>
    <_>
      2.13750258e-01 -1.34814858e-01</_>
    <_>
      2.16554806e-01 -3.09440613e-01</_>
    <_>
      1.34022042e-01 7.79687524e-01</_>
    <_>
      2.13728905e-01 -3.09999943e-01</_>
    <_>
      2.03025267e-01 -2.78582931e-01</_>
    <_>
      2.13750258e-01 -1.34814858e-01</_>
    <_>
      1.34022042e-01 7.79687524e-01</_>
    <_>
      1.25787050e-01 7.68531799e-01</_>
    <_>
      2.09230825e-01 -1.46464705e-01</_>
    <_>
      2.09230825e-01 -1.46464705e-01</_>
    <_>
      2.05378339e-01 -1.91176414e-01</_>
    <_>
      2.05378339e-01 -1.91176414e-01</_>
    <_>
      1.89004257e-01 -5.18716574e-01</_>
    <_>
      1.96050808e-01 -1.20833325e+00</_>
    <_>
      2.10935503e-01 -2.64492750e-01</_>
    <_>
      2.10935503e-01 -2.64492750e-01</_>
    <_>
      2.36408383e-01 -3.56854796e-01</_>
    <_>
      2.36408383e-01 -3.56854796e-01</_>
    <_>
      2.25047499e-01 -1.12499952e-01</_>
    <_>
      1.89451635e-01 -3.79545450e-01</_>
    <_>
      2.25047499e-01 -1.12499952e-01</_>
    <_>
      2.00530261e-01 -9.28571463e-01</_>
    <_>
      2.27605417e-01 -1.25446439e+00</_>
    <_>
      2.44281501e-01 -4.27777767e-01</_>
    <_>
      2.41528198e-01 -3.58333349e-01</_>
    <_>
      2.41528198e-01 -3.58333349e-01</_>
    <_>
      2.34355003e-01 -1.46527767e+00</_>
    <_>
      2.34355003e-01 -1.46527767e+00</_>
    <_>
      2.27605417e-01 -1.25446439e+00</_>
    <_>
      1.96251199e-01 -4.36666608e-01</_>
    <_>
      2.33340874e-01 -7.74193525e-01</_>
    <_>
      2.33340874e-01 -7.74193525e-01</_>
    <_>
      2.10021570e-01 -4.95370388e-01</_>
    <_>
      2.22364485e-01 -2.42884278e-01</_>
    <_>
      2.12098628e-01 -4.18660283e-01</_>
    <_>
      1.41605824e-01 7.72868216e-01</_>
    <_>
      2.31895939e-01 -1.16000009e+00</_>
    <_>
      1.41605824e-01 7.72868216e-01</_>
    <_>
      2.31895939e-01 -1.16000009e+00</_>
    <_>
      1.18424110e-01 7.98491359e-01</_>
    <_>
      2.12604463e-01 -1.08173132e-01</_>
    <_>
      2.12604463e-01 -1.08173132e-01</_>
    <_>
      1.27604678e-01 7.76000023e-01</_>
    <_>
      1.87124729e-01 -1.00694418e-01</_>
    <_>
      1.87124729e-01 -1.00694418e-01</_>
    <_>
      1.18424110e-01 7.98491359e-01</_>
    <_>
      1.27604678e-01 7.76000023e-01</_>
    <_>
      1.48030743e-01 7.77950287e-01</_>
    <_>
      2.21883178e-01 -2.44744778e-01</_>
    <_>
      2.26864502e-01 -1.53267980e+00</_>
    <_>
      2.19844893e-01 -1.33333325e-01</_>
    <_>
      2.10605487e-01 -1.26339293e+00</_>
    <_>
      2.19844893e-01 -1.33333325e-01</_>
    <_>
      2.10605487e-01 -1.26339293e+00</_>
    <_>
      1.56315356e-01 7.73148179e-01</_>
    <_>
      1.56315356e-01 7.73148179e-01</_>
    <_>
      1.46087646e-01 7.81746030e-01</_>
    <_>
      1.46087646e-01 7.81746030e-01</_>
    <_>
      2.14085817e-01 -3.14229250e-01</_>
    <_>
      2.79600084e-01 -3.65079403e-01</_>
    <_>
      2.31404677e-01 -1.33035707e+00</_>
    <_>
      2.79600084e-01 -3.65079403e-01</_>
    <_>
      2.56202817e-01 -1.14935064e+00</_>
    <_>
      2.01828778e-01 -4.25263166e-01</_>
    <_>
      1.92072228e-01 -1.90740705e-01</_>
    <_>
      2.31184646e-01 -1.43636370e+00</_>
    <_>
      2.14085817e-01 -3.14229250e-01</_>
    <_>
      2.31404677e-01 -1.33035707e+00</_>
    <_>
      2.56202817e-01 -1.14935064e+00</_>
    <_>
      1.13694720e-01 8.09618592e-01</_>
    <_>
      1.27008736e-01 7.63513505e-01</_>
    <_>
      1.13694720e-01 8.09618592e-01</_>
    <_>
      1.27008736e-01 7.63513505e-01</_>
    <_>
      1.48485735e-01 7.63869166e-01</_>
    <_>
      1.48485735e-01 7.63869166e-01</_>
    <_>
      1.80176795e-01 -1.08333349e-01</_>
    <_>
      1.18459851e-01 7.76893795e-01</_>
    <_>
      2.10326314e-01 -2.20833302e-01</_>
    <_>
      1.18459851e-01 7.76893795e-01</_>
    <_>
      1.90175772e-01 -2.35294104e-01</_>
    <_>
      1.90175772e-01 -2.35294104e-01</_>
    <_>
      2.17501014e-01 -1.23200011e+00</_>
    <_>
      1.93694010e-01 -3.76190424e-01</_>
    <_>
      2.17501014e-01 -1.23200011e+00</_>
    <_>
      1.93694010e-01 -3.76190424e-01</_>
    <_>
      1.35685548e-01 7.79220760e-01</_>
    <_>
      1.35685548e-01 7.79220760e-01</_>
    <_>
      1.14478268e-01 7.88338423e-01</_>
    <_>
      1.26903653e-01 7.76744187e-01</_>
    <_>
      1.26903653e-01 7.76744187e-01</_>
    <_>
      1.37845397e-01 7.67890751e-01</_>
    <_>
      1.37845397e-01 7.67890751e-01</_>
    <_>
      2.53388703e-01 -3.11594248e-01</_>
    <_>
      2.24655092e-01 -9.51557159e-02</_>
    <_>
      2.53388703e-01 -3.11594248e-01</_>
    <_>
      1.49761021e-01 7.69009233e-01</_>
    <_>
      1.49761021e-01 7.69009233e-01</_>
    <_>
      1.45016998e-01 7.68263161e-01</_>
    <_>
      1.45016998e-01 7.68263161e-01</_>
    <_>
      1.52143911e-01 7.80864179e-01</_>
    <_>
      1.31190941e-01 8.06763291e-01</_>
    <_>
      1.10167295e-01 7.87447035e-01</_>
    <_>
      1.10167295e-01 7.87447035e-01</_>
    <_>
      1.31602868e-01 7.95058131e-01</_>
    <_>
      1.31602868e-01 7.95058131e-01</_>
    <_>
      1.39831081e-01 7.88194418e-01</_>
    <_>
      1.18876964e-01 7.83333302e-01</_>
    <_>
      1.39831081e-01 7.88194418e-01</_>
    <_>
      1.18876964e-01 7.83333302e-01</_>
    <_>
      1.26157910e-01 7.79120862e-01</_>
    <_>
      1.26157910e-01 7.79120862e-01</_>
    <_>
      1.48236588e-01 8.04069757e-01</_>
    <_>
      1.48236588e-01 8.04069757e-01</_>
    <_>
      1.55589640e-01 7.71286249e-01</_>
    <_>
      1.24381162e-01 7.92075455e-01</_>
    <_>
      1.41094029e-01 7.79272735e-01</_>
    <_>
      1.24381162e-01 7.92075455e-01</_>
    <_>
      1.41094029e-01 7.79272735e-01</_>
    <_>
      1.46412000e-01 7.74038434e-01</_>
    <_>
      1.46412000e-01 7.74038434e-01</_>
    <_>
      1.24913014e-01 7.66768277e-01</_>
    <_>
      1.32333294e-01 7.88156271e-01</_>
    <_>
      1.24913014e-01 7.66768277e-01</_>
    <_>
      1.20329581e-01 7.75454521e-01</_>
    <_>
      1.20329581e-01 7.75454521e-01</_>
    <_>
      1.37341246e-01 7.65326321e-01</_>
    <_>
      1.19337350e-01 8.04370463e-01</_>
    <_>
      1.19337350e-01 8.04370463e-01</_>
    <_>
      1.60594493e-01 7.72577465e-01</_>
    <_>
      1.60594493e-01 7.72577465e-01</_>
    <_>
      1.26423255e-01 7.73216009e-01</_>
    <_>
      1.26423255e-01 7.73216009e-01</_>
    <_>
      1.30456492e-01 8.04878056e-01</_>
    <_>
      1.17087230e-01 7.74376392e-01</_>
    <_>
      1.17087230e-01 7.74376392e-01</_>
    <_>
      1.14404708e-01 7.79797971e-01</_>
    <_>
      1.14404708e-01 7.79797971e-01</_>
    <_>
      1.31382778e-01 7.80154467e-01</_>
    <_>
      1.31382778e-01 7.80154467e-01</_>
    <_>
      1.43250436e-01 7.66697586e-01</_>
    <_>
      1.43250436e-01 7.66697586e-01</_>
    <_>
      1.21095493e-01 7.84993410e-01</_>
    <_>
      1.21095493e-01 7.84993410e-01</_>
    <_>
      1.43759549e-01 7.82364011e-01</_>
    <_>
      1.43759549e-01 7.82364011e-01</_>
    <_>
      1.33315593e-01 7.76268125e-01</_>
    <_>
      1.34597614e-01 7.91649938e-01</_>
    <_>
      1.21861801e-01 7.91357994e-01</_>
    <_>
      1.34597614e-01 7.91649938e-01</_>
    <_>
      1.21861801e-01 7.91357994e-01</_>
    <_>
      1.14881754e-01 7.92857170e-01</_>
    <_>
      1.14881754e-01 7.92857170e-01</_>
    <_>
      1.13922082e-01 7.60784328e-01</_>
    <_>
      1.29481971e-01 8.03333342e-01</_></support_vectors>
  <decision_functions>
    <_>
      <sv_count>200</sv_count>
      <rho>1.4680094993673265e-01</rho>
      <alpha>
        1. 1. 1. 1. 1. 1. 1. 1. 1. 1. 1. 1. 1. 1. 1. 1. 1. 1. 1. 1. 1.
        1. 1. 1. 1. 1. 1. 1. 1. 1. 1. 1. 1. 1. 1. 1. 1. 1. 1. 1. 1. 1.
        1. 1. 1. 1. 1. 1. 1. 1. 1. 1. 1. 1. 1. 1. 1. 1. 1. 1. 1. 1. 1.
        1. 1. 1. 1. 1. 1. 1. 1. 1. 1. 1. 1. 1. 1. 1. 1. 1. 1. 1. 1. 1.
        1. 1. 1. 1. 1. 1. 1. 1. 1. 1. 1. 1. 1. 1. 1. 1. -1. -1. -1. -1.
        -1. -1. -1. -1. -1. -1. -1. -1. -1. -1. -1. -1. -1. -1. -1. -1.
        -1. -1. -1. -1. -1. -1. -1. -1. -1. -1. -1. -1. -1. -1. -1. -1.
        -1. -1. -1. -1. -1. -1. -1. -1. -1. -1. -1. -1. -1. -1. -1. -1.
        -1. -1. -1. -1. -1. -1. -1. -1. -1. -1. -1. -1. -1. -1. -1. -1.
        -1. -1. -1. -1. -1. -1. -1. -1. -1. -1. -1. -1. -1. -1. -1. -1.
        -1. -1. -1. -1. -1. -1. -1. -1. -1. -1. -1. -1. -1. -1. -1. -1.</alpha>
      <index>
        0 145 2 4 146 199 14 149 15 16 150 17 18 23 24 25 26 27 29 30 31
        32 33 34 35 37 38 39 40 41 44 45 46 47 48 50 51 52 152 154 157
        158 159 85 86 87 88 160 162 91 92 164 165 93 167 172 173 174 175
        100 101 102 103 178 181 182 104 105 106 107 108 109 110 111 112
        113 114 115 117 121 122 123 124 125 126 127 128 129 130 133 187
        188 134 135 138 139 140 189 191 196 1 3 5 6 7 8 9 10 11 12 13 19
        20 21 22 28 36 42 43 49 53 54 55 56 57 58 59 60 61 62 63 64 65
        66 67 68 69 70 71 72 73 74 75 76 77 78 79 80 81 82 83 84 89 90
        94 95 96 97 98 99 116 118 119 120 131 132 136 137 141 142 143
        144 180 148 183 184 185 186 151 161 153 163 147 155 190 156 166
        168 169 170 192 193 194 195 171 197 198 176 177 179</index></_></decision_functions></opencv_ml_svm>
</opencv_storage>
