<?xml version="1.0"?>
<opencv_storage>
<opencv_ml_svm>
  <format>3</format>
  <svmType>C_SVC</svmType>
  <kernel>
    <type>RBF</type>
    <gamma>1.</gamma></kernel>
  <C>1.</C>
  <term_criteria><iterations>100</iterations></term_criteria>
  <var_count>2</var_count>
  <class_count>2</class_count>
  <class_labels type_id="opencv-matrix">
    <rows>2</rows>
    <cols>1</cols>
    <dt>i</dt>
    <data>
      -1 1</data></class_labels>
  <sv_total>200</sv_total>
  <support_vectors>
    <_>
      1.66246325e-01 8.86861324e-01</_>
    <_>
      3.81193519e-01 4.10958886e-01</_>
    <_>
      2.06489563e-02 9.80620146e-01</_>
    <_>
      2.06489563e-02 9.80620146e-01</_>
    <_>
      2.41855681e-02 9.74637687e-01</_>
    <_>
      9.45413411e-01 5.07936478e-01</_>
    <_>
      6.12744689e-03 9.05737698e-01</_>
    <_>
      2.19072104e-02 9.48412716e-01</_>
    <_>
      2.19072104e-02 9.48412716e-01</_>
    <_>
      2.50965357e-02 9.51086938e-01</_>
    <_>
      3.42464447e-03 9.80000019e-01</_>
    <_>
      3.42464447e-03 9.80000019e-01</_>
    <_>
      9.55712616e-01 5.07575750e-01</_>
    <_>
      9.55712616e-01 5.07575750e-01</_>
    <_>
      1.74215436e-03 8.88349533e-01</_>
    <_>
      3.62318754e-03 9.18367326e-01</_>
    <_>
      1.74215436e-03 8.88349533e-01</_>
    <_>
      3.62318754e-03 9.18367326e-01</_>
    <_>
      1.34328306e-02 9.67479706e-01</_>
    <_>
      1.51515007e-03 9.32038844e-01</_>
    <_>
      2.11640298e-02 9.95575249e-01</_>
    <_>
      9.95007873e-01 5.26315808e-01</_>
    <_>
      9.95007873e-01 5.26315808e-01</_>
    <_>
      9.80630577e-01 5.42635679e-01</_>
    <_>
      9.80630577e-01 5.42635679e-01</_>
    <_>
      1.34328306e-02 9.67479706e-01</_>
    <_>
      4.48206067e-03 8.88000011e-01</_>
    <_>
      1.79104507e-02 9.72477078e-01</_>
    <_>
      1.51515007e-03 9.32038844e-01</_>
    <_>
      2.11640298e-02 9.95575249e-01</_>
    <_>
      1.68350339e-03 8.87254894e-01</_>
    <_>
      9.72653687e-01 5.09708762e-01</_>
    <_>
      9.72653687e-01 5.09708762e-01</_>
    <_>
      9.72547352e-01 5.36842108e-01</_>
    <_>
      9.72547352e-01 5.36842108e-01</_>
    <_>
      1.79104507e-02 9.72477078e-01</_>
    <_>
      1.68350339e-03 8.87254894e-01</_>
    <_>
      1. 5.69306970e-01</_>
    <_>
      9.79761899e-01 5.90909123e-01</_>
    <_>
      9.79761899e-01 5.90909123e-01</_>
    <_>
      1. 5.69306970e-01</_>
    <_>
      1. 6.13861382e-01</_>
    <_>
      1. 6.13861382e-01</_>
    <_>
      9.91714776e-01 6.21212125e-01</_>
    <_>
      9.93709147e-01 6.29629612e-01</_>
    <_>
      9.93709147e-01 6.29629612e-01</_>
    <_>
      9.91714776e-01 6.21212125e-01</_>
    <_>
      8.54700804e-03 9.37007904e-01</_>
    <_>
      5.58659434e-03 9.75177288e-01</_>
    <_>
      8.54700804e-03 9.37007904e-01</_>
    <_>
      5.58659434e-03 9.75177288e-01</_>
    <_>
      9.92407680e-01 5.76271176e-01</_>
    <_>
      3.01206112e-03 9.15887833e-01</_>
    <_>
      3.62318754e-02 9.93902445e-01</_>
    <_>
      3.62318754e-02 9.93902445e-01</_>
    <_>
      1.46583021e-02 9.92537320e-01</_>
    <_>
      1.46583021e-02 9.92537320e-01</_>
    <_>
      1.47929788e-03 9.78448272e-01</_>
    <_>
      1.47929788e-03 9.78448272e-01</_>
    <_>
      1.03550255e-02 9.48717952e-01</_>
    <_>
      1.03550255e-02 9.48717952e-01</_>
    <_>
      9.90426481e-01 5.27777791e-01</_>
    <_>
      9.79984283e-01 5.95588207e-01</_>
    <_>
      9.90426481e-01 5.27777791e-01</_>
    <_>
      9.95642662e-01 6.20879114e-01</_>
    <_>
      9.95642662e-01 6.20879114e-01</_>
    <_>
      1. 6.02112651e-01</_>
    <_>
      9.93567467e-01 5.04065037e-01</_>
    <_>
      8.52271914e-03 9.52755928e-01</_>
    <_>
      8.52271914e-03 9.52755928e-01</_>
    <_>
      9.29358959e-01 4.66942132e-01</_>
    <_>
      6.94444776e-03 9.67032969e-01</_>
    <_>
      1.27392411e-02 9.54128444e-01</_>
    <_>
      1. 5.17857134e-01</_>
    <_>
      9.39836144e-01 5.12987018e-01</_>
    <_>
      9.39836144e-01 5.12987018e-01</_>
    <_>
      9.84639585e-01 5.90000033e-01</_>
    <_>
      9.84639585e-01 5.90000033e-01</_>
    <_>
      9.43682313e-01 4.97835517e-01</_>
    <_>
      1. 5.81967235e-01</_>
    <_>
      1. 5.90163946e-01</_>
    <_>
      1. 5.90163946e-01</_>
    <_>
      1. 6.27358496e-01</_>
    <_>
      9.46566284e-01 3.41463387e-01</_>
    <_>
      9.43682313e-01 4.97835517e-01</_>
    <_>
      1. 6.27358496e-01</_>
    <_>
      9.46566284e-01 3.41463387e-01</_>
    <_>
      9.92526293e-01 4.91228044e-01</_>
    <_>
      9.92526293e-01 4.91228044e-01</_>
    <_>
      1. 6.35416627e-01</_>
    <_>
      1. 6.35416627e-01</_>
    <_>
      8.62461329e-01 3.97058845e-01</_>
    <_>
      9.12925839e-01 2.67676771e-01</_>
    <_>
      9.12925839e-01 2.67676771e-01</_>
    <_>
      1. 6.20253205e-01</_>
    <_>
      1. 6.20253205e-01</_>
    <_>
      9.86919343e-01 6.07954502e-01</_>
    <_>
      9.86919343e-01 6.07954502e-01</_>
    <_>
      9.63388145e-01 5.49019575e-01</_>
    <_>
      9.63388145e-01 5.49019575e-01</_>
    <_>
      0. 9.05737698e-01</_>
    <_>
      1.37194991e-02 9.79508221e-01</_>
    <_>
      4.70218062e-03 9.07692313e-01</_>
    <_>
      0. 8.83495152e-01</_>
    <_>
      9.65390086e-01 4.70149279e-01</_>
    <_>
      9.65390086e-01 4.70149279e-01</_>
    <_>
      1. 6.40625000e-01</_>
    <_>
      1. 6.40625000e-01</_>
    <_>
      1.89573467e-02 9.56521749e-01</_>
    <_>
      1.89573467e-02 9.56521749e-01</_>
    <_>
      3.60110700e-02 9.92125988e-01</_>
    <_>
      3.60110700e-02 9.92125988e-01</_>
    <_>
      9.80736732e-01 5.72463751e-01</_>
    <_>
      9.80736732e-01 5.72463751e-01</_>
    <_>
      9.77271020e-01 5.80357134e-01</_>
    <_>
      9.68962550e-01 4.13461566e-01</_>
    <_>
      9.45630431e-01 5.07812500e-01</_>
    <_>
      9.68962550e-01 4.13461566e-01</_>
    <_>
      9.45630431e-01 5.07812500e-01</_>
    <_>
      9.56906378e-01 5.44715405e-01</_>
    <_>
      1.61653459e-02 9.56375837e-01</_>
    <_>
      7.87660480e-03 9.39597309e-01</_>
    <_>
      7.42575526e-03 9.72656250e-01</_>
    <_>
      7.42575526e-03 9.72656250e-01</_>
    <_>
      3.98772955e-02 9.85436916e-01</_>
    <_>
      1.90217495e-02 9.58677709e-01</_>
    <_>
      8.89741302e-01 4.44444418e-01</_>
    <_>
      8.89741302e-01 4.44444418e-01</_>
    <_>
      2.47160792e-02 9.81884062e-01</_>
    <_>
      2.47160792e-02 9.81884062e-01</_>
    <_>
      1.80135071e-02 9.67741966e-01</_>
    <_>
      1.80135071e-02 9.67741966e-01</_>
    <_>
      2.05969214e-02 9.62732911e-01</_>
    <_>
      9.29186583e-01 4.34210539e-01</_>
    <_>
      9.29186583e-01 4.34210539e-01</_>
    <_>
      1.57728791e-03 8.90909076e-01</_>
    <_>
      3.53260934e-02 9.78070199e-01</_>
    <_>
      9.49691415e-01 4.60869551e-01</_>
    <_>
      1.58959627e-02 9.68181849e-01</_>
    <_>
      2.05696225e-02 9.95192289e-01</_>
    <_>
      1.58959627e-02 9.68181849e-01</_>
    <_>
      2.05696225e-02 9.95192289e-01</_>
    <_>
      3.78056765e-02 9.87068951e-01</_>
    <_>
      9.47812974e-01 5.06250024e-01</_>
    <_>
      3.78056765e-02 9.87068951e-01</_>
    <_>
      7.00533390e-03 9.27083313e-01</_>
    <_>
      7.00533390e-03 9.27083313e-01</_>
    <_>
      1. 8.75000000e-01</_>
    <_>
      1.32894814e-02 9.64285731e-01</_>
    <_>
      1. 7.63157904e-01</_>
    <_>
      1. 6.27906978e-01</_>
    <_>
      1. 6.27906978e-01</_>
    <_>
      7.22020864e-03 9.18604672e-01</_>
    <_>
      7.22020864e-03 9.18604672e-01</_>
    <_>
      2.43309140e-03 9.73154366e-01</_>
    <_>
      2.43309140e-03 9.73154366e-01</_>
    <_>
      4.77707386e-03 9.46601927e-01</_>
    <_>
      9.51539457e-01 3.13953459e-01</_>
    <_>
      8.23456049e-03 9.42857146e-01</_>
    <_>
      4.77707386e-03 9.46601927e-01</_>
    <_>
      9.51539457e-01 3.13953459e-01</_>
    <_>
      8.23456049e-03 9.42857146e-01</_>
    <_>
      8.89679790e-03 9.53125000e-01</_>
    <_>
      2.08333433e-02 9.61956501e-01</_>
    <_>
      1. 8.20224702e-01</_>
    <_>
      1.19047761e-02 9.95833337e-01</_>
    <_>
      1.19047761e-02 9.95833337e-01</_>
    <_>
      1.52224898e-02 9.38016534e-01</_>
    <_>
      1.52224898e-02 9.38016534e-01</_>
    <_>
      9.69082654e-01 5.51401854e-01</_>
    <_>
      9.69082654e-01 5.51401854e-01</_>
    <_>
      5.15463948e-03 9.09523785e-01</_>
    <_>
      5.15463948e-03 9.09523785e-01</_>
    <_>
      3.96825373e-02 9.83660102e-01</_>
    <_>
      9.77641046e-01 4.85074639e-01</_>
    <_>
      9.77641046e-01 4.85074639e-01</_>
    <_>
      9.18201208e-01 4.23076928e-01</_>
    <_>
      9.18201208e-01 4.23076928e-01</_>
    <_>
      5.71429729e-03 9.69026566e-01</_>
    <_>
      2.59433985e-02 9.57983196e-01</_>
    <_>
      5.23561239e-03 9.91869926e-01</_>
    <_>
      1.18201971e-03 9.07563031e-01</_>
    <_>
      2.20049024e-02 9.72222209e-01</_>
    <_>
      2.20049024e-02 9.72222209e-01</_>
    <_>
      1. 5.51470578e-01</_>
    <_>
      1. 5.51470578e-01</_>
    <_>
      9.13072050e-01 4.55882370e-01</_>
    <_>
      9.13072050e-01 4.55882370e-01</_>
    <_>
      1. 8.94117653e-01</_>
    <_>
      9.61319089e-01 5.05813956e-01</_>
    <_>
      9.41261113e-01 4.18604672e-01</_>
    <_>
      9.41261113e-01 4.18604672e-01</_>
    <_>
      2.15320885e-02 9.50980365e-01</_>
    <_>
      2.15320885e-02 9.50980365e-01</_>
    <_>
      9.86947954e-01 6.09243691e-01</_>
    <_>
      9.86947954e-01 6.09243691e-01</_>
    <_>
      7.33137131e-03 9.70833361e-01</_>
    <_>
      7.97470331e-01 3.47457647e-01</_>
    <_>
      0. 8.36283207e-01</_>
    <_>
      7.73045421e-03 9.09448802e-01</_></support_vectors>
  <decision_functions>
    <_>
      <sv_count>200</sv_count>
      <rho>8.0442726612091064e-02</rho>
      <alpha>
        1. 1. 1. 1. 1. 1. 1. 1. 1. 1. 1. 1. 1. 1. 1. 1. 1. 1. 1. 1. 1.
        1. 1. 1. 1. 1. 1. 1. 1. 1. 1. 1. 1. 1. 1. 1. 1. 1. 1. 1. 1. 1.
        1. 1. 1. 1. 1. 1. 1. 1. 1. 1. 1. 1. 1. 1. 1. 1. 1. 1. 1. 1. 1.
        1. 1. 1. 1. 1. 1. 1. 1. 1. 1. 1. 1. 1. 1. 1. 1. 1. 1. 1. 1. 1.
        1. 1. 1. 1. 1. 1. 1. 1. 1. 1. 1. 1. 1. 1. 1. 1. -1. -1. -1. -1.
        -1. -1. -1. -1. -1. -1. -1. -1. -1. -1. -1. -1. -1. -1. -1. -1.
        -1. -1. -1. -1. -1. -1. -1. -1. -1. -1. -1. -1. -1. -1. -1. -1.
        -1. -1. -1. -1. -1. -1. -1. -1. -1. -1. -1. -1. -1. -1. -1. -1.
        -1. -1. -1. -1. -1. -1. -1. -1. -1. -1. -1. -1. -1. -1. -1. -1.
        -1. -1. -1. -1. -1. -1. -1. -1. -1. -1. -1. -1. -1. -1. -1. -1.
        -1. -1. -1. -1. -1. -1. -1. -1. -1. -1. -1. -1. -1. -1. -1. -1.</alpha>
      <index>
        0 197 198 119 199 4 121 125 126 127 7 132 8 9 135 136 137 10 11
        142 143 144 145 146 12 13 148 21 22 23 24 41 42 44 45 154 155 51
        52 157 160 162 163 164 165 166 64 65 66 67 167 168 171 172 71 72
        73 74 75 173 79 80 81 87 88 89 90 178 91 179 180 100 101 181 102
        182 103 183 184 185 186 187 188 106 107 108 109 110 111 189 112
        113 190 191 114 115 117 192 193 196 1 2 3 5 6 14 15 16 17 18 19
        20 25 26 27 28 29 30 31 32 33 34 35 36 37 38 39 40 43 46 47 48
        49 50 53 54 55 56 57 58 59 60 61 62 63 68 69 70 76 77 78 82 83
        84 85 86 92 93 94 95 96 97 98 99 104 105 116 118 120 147 130 169
        170 149 131 122 150 151 123 174 175 152 133 176 177 134 153 124
        138 139 140 141 156 158 159 161 194 195 128 129</index></_></decision_functions></opencv_ml_svm>
</opencv_storage>
