<?xml version="1.0"?>
<opencv_storage>
<opencv_ml_svm>
  <format>3</format>
  <svmType>C_SVC</svmType>
  <kernel>
    <type>RBF</type>
    <gamma>1.</gamma></kernel>
  <C>1.</C>
  <term_criteria><iterations>100</iterations></term_criteria>
  <var_count>3</var_count>
  <class_count>2</class_count>
  <class_labels type_id="opencv-matrix">
    <rows>2</rows>
    <cols>1</cols>
    <dt>i</dt>
    <data>
      -1 1</data></class_labels>
  <sv_total>200</sv_total>
  <support_vectors>
    <_>
      1.66246325e-01 8.86861324e-01 6.77330375e-01</_>
    <_>
      3.81193519e-01 4.10958886e-01 5.35067916e-01</_>
    <_>
      5.41419148e-01 9.54545438e-01 7.83769071e-01</_>
    <_>
      3.37387621e-02 9.79865789e-01 7.25541115e-01</_>
    <_>
      3.37387621e-02 9.79865789e-01 7.25541115e-01</_>
    <_>
      7.42403030e-01 9.02777791e-01 7.71929860e-01</_>
    <_>
      1.67169899e-01 5.61538458e-01 -6.45833373e-01</_>
    <_>
      1. 8.62962961e-01 7.06611574e-01</_>
    <_>
      1. 8.62962961e-01 7.06611574e-01</_>
    <_>
      1.64980263e-01 6.12903237e-01 -9.34782028e-02</_>
    <_>
      1.64980263e-01 6.12903237e-01 -9.34782028e-02</_>
    <_>
      1. 9.96710539e-01 7.44584203e-01</_>
    <_>
      1. 9.96710539e-01 7.44584203e-01</_>
    <_>
      2.50000000e-01 6.15853667e-01 -7.60416627e-01</_>
    <_>
      6.33561611e-02 8.42105269e-01 -2.66203761e-01</_>
    <_>
      3.06372643e-02 7.99180329e-01 -9.86111164e-02</_>
    <_>
      4.28994000e-02 7.03252077e-01 -9.96913552e-01</_>
    <_>
      2.50000000e-01 6.15853667e-01 -7.60416627e-01</_>
    <_>
      7.67701924e-01 8.89423072e-01 -3.21256042e-01</_>
    <_>
      3.44264627e-01 7.72727251e-01 -1.09999990e+00</_>
    <_>
      3.06372643e-02 7.99180329e-01 -9.86111164e-02</_>
    <_>
      1.65441185e-01 8.77192974e-01 -4.83660102e-01</_>
    <_>
      2.83582211e-02 8.47222209e-01 -8.08333278e-01</_>
    <_>
      7.75400996e-02 6.94444418e-01 -1.11111164e-01</_>
    <_>
      3.44264627e-01 7.72727251e-01 -1.09999990e+00</_>
    <_>
      9.81925249e-01 6.37681127e-01 1.40056014e-02</_>
    <_>
      1.65441185e-01 8.77192974e-01 -4.83660102e-01</_>
    <_>
      1.16573036e-01 7.89473653e-01 -1.49603176e+00</_>
    <_>
      1.16573036e-01 7.89473653e-01 -1.49603176e+00</_>
    <_>
      3.03429961e-02 7.73809552e-01 -8.01470637e-01</_>
    <_>
      2.83582211e-02 8.47222209e-01 -8.08333278e-01</_>
    <_>
      7.75400996e-02 6.94444418e-01 -1.11111164e-01</_>
    <_>
      3.20197046e-02 9.04166698e-01 -3.09999943e-01</_>
    <_>
      2.46876776e-02 9.41666663e-01 -2.78582931e-01</_>
    <_>
      9.25925374e-03 7.53968239e-01 -3.09440613e-01</_>
    <_>
      1.28865838e-02 7.48062015e-01 -1.34814858e-01</_>
    <_>
      9.25925374e-03 7.53968239e-01 -3.09440613e-01</_>
    <_>
      3.20197046e-02 9.04166698e-01 -3.09999943e-01</_>
    <_>
      2.46876776e-02 9.41666663e-01 -2.78582931e-01</_>
    <_>
      1.28865838e-02 7.48062015e-01 -1.34814858e-01</_>
    <_>
      9.68682468e-01 9.70149279e-01 7.36609340e-01</_>
    <_>
      9.68682468e-01 9.70149279e-01 7.36609340e-01</_>
    <_>
      9.50413227e-01 9.03703690e-01 7.68531799e-01</_>
    <_>
      4.65322435e-02 9.51612890e-01 7.36842096e-01</_>
    <_>
      4.58333194e-02 7.52032518e-01 -1.23051953e+00</_>
    <_>
      1.12318844e-01 8.04123700e-01 -3.61111164e-01</_>
    <_>
      4.58333194e-02 7.52032518e-01 -1.23051953e+00</_>
    <_>
      7.35294223e-02 6.38157904e-01 -5.35117388e-02</_>
    <_>
      1.02941096e-02 9.02061880e-01 -3.56854796e-01</_>
    <_>
      9.15915966e-02 8.83495152e-01 -7.69005895e-01</_>
    <_>
      1.12318844e-01 8.04123700e-01 -3.61111164e-01</_>
    <_>
      1.02941096e-02 9.02061880e-01 -3.56854796e-01</_>
    <_>
      2.21574336e-01 5.69620252e-01 -1.12499952e-01</_>
    <_>
      9.67261791e-02 9.85714257e-01 -3.79545450e-01</_>
    <_>
      1.20209068e-01 8.88888896e-01 -1.25446439e+00</_>
    <_>
      9.69063163e-01 7.32876718e-01 -3.58333349e-01</_>
    <_>
      2.80898809e-03 6.89873457e-01 -1.46527767e+00</_>
    <_>
      2.80898809e-03 6.89873457e-01 -1.46527767e+00</_>
    <_>
      9.67261791e-02 9.85714257e-01 -3.79545450e-01</_>
    <_>
      7.71428645e-02 7.69911528e-01 -1.63963914e-01</_>
    <_>
      5.76371849e-02 7.31818199e-01 -1.07407403e+00</_>
    <_>
      6.27890348e-01 8.66279066e-01 -4.36666608e-01</_>
    <_>
      4.55927849e-03 7.64150977e-01 -2.42884278e-01</_>
    <_>
      1.62337720e-02 6.99115038e-01 -1.47727251e-01</_>
    <_>
      9.72653687e-01 5.09708762e-01 2.01298714e-01</_>
    <_>
      9.72653687e-01 5.09708762e-01 2.01298714e-01</_>
    <_>
      2.13113457e-01 8.24999988e-01 -1.22272730e+00</_>
    <_>
      1. 9.90445852e-01 7.98491359e-01</_>
    <_>
      5.40618598e-02 7.78301895e-01 -1.00694418e-01</_>
    <_>
      1. 9.90445852e-01 7.98491359e-01</_>
    <_>
      2.79379159e-01 7.91666687e-01 -9.51951981e-01</_>
    <_>
      8.09312761e-02 7.96747983e-01 -2.44744778e-01</_>
    <_>
      7.55667686e-03 7.72727251e-01 -3.77622366e-01</_>
    <_>
      8.09312761e-02 7.96747983e-01 -2.44744778e-01</_>
    <_>
      1.66240335e-02 8.69918704e-01 -6.80555105e-02</_>
    <_>
      7.55667686e-03 7.72727251e-01 -3.77622366e-01</_>
    <_>
      3.21022004e-01 7.28395104e-01 -4.26900625e-01</_>
    <_>
      5.63380122e-03 7.15447187e-01 -3.82353067e-02</_>
    <_>
      1.72364682e-01 8.57894719e-01 -6.13888860e-01</_>
    <_>
      8.30815732e-02 7.45454550e-01 -8.78136158e-02</_>
    <_>
      1.01156056e-01 8.11320782e-01 -1.59166670e+00</_>
    <_>
      4.20212984e-01 6.46666646e-01 -1.26339293e+00</_>
    <_>
      8.30815732e-02 7.45454550e-01 -8.78136158e-02</_>
    <_>
      4.20212984e-01 6.46666646e-01 -1.26339293e+00</_>
    <_>
      1. 9.91452992e-01 7.05000043e-01</_>
    <_>
      1. 9.91452992e-01 7.05000043e-01</_>
    <_>
      1.12573087e-01 6.18421078e-01 -3.23128700e-02</_>
    <_>
      5.01569271e-01 9.87394929e-01 7.81746030e-01</_>
    <_>
      1.46583021e-02 9.92537320e-01 6.18781090e-01</_>
    <_>
      5.01569271e-01 9.87394929e-01 7.81746030e-01</_>
    <_>
      1.46583021e-02 9.92537320e-01 6.18781090e-01</_>
    <_>
      6.64318204e-01 9.78417277e-01 7.50000000e-01</_>
    <_>
      4.49103117e-03 8.77272725e-01 -3.14229250e-01</_>
    <_>
      2.13414639e-01 7.82051265e-01 -3.65079403e-01</_>
    <_>
      2.18562871e-01 8.33333313e-01 -1.33035707e+00</_>
    <_>
      2.13414639e-01 7.82051265e-01 -3.65079403e-01</_>
    <_>
      8.98203254e-03 8.19277108e-01 -1.14935064e+00</_>
    <_>
      2.16763020e-02 8.41880322e-01 -4.25263166e-01</_>
    <_>
      7.08092451e-02 9.71962631e-01 -1.90740705e-01</_>
    <_>
      2.41740197e-01 5.86419761e-01 -1.43636370e+00</_>
    <_>
      4.49103117e-03 8.77272725e-01 -3.14229250e-01</_>
    <_>
      2.18562871e-01 8.33333313e-01 -1.33035707e+00</_>
    <_>
      8.98203254e-03 8.19277108e-01 -1.14935064e+00</_>
    <_>
      2.60462821e-01 9.19270813e-01 8.09618592e-01</_>
    <_>
      1. 5.17857134e-01 2.76881695e-01</_>
    <_>
      9.90189552e-01 9.54545438e-01 7.17881918e-01</_>
    <_>
      7.04983652e-01 9.60714281e-01 7.17117131e-01</_>
    <_>
      6.53519750e-01 9.76608157e-01 7.76893795e-01</_>
    <_>
      1.34680271e-02 6.55172408e-01 -2.20833302e-01</_>
    <_>
      1.28031045e-01 8.37606847e-01 -2.35294104e-01</_>
    <_>
      1.28031045e-01 8.37606847e-01 -2.35294104e-01</_>
    <_>
      8.52459073e-02 6.26213551e-01 -1.23200011e+00</_>
    <_>
      1.70467794e-01 8.93203855e-01 -3.76190424e-01</_>
    <_>
      8.52459073e-02 6.26213551e-01 -1.23200011e+00</_>
    <_>
      1.70467794e-01 8.93203855e-01 -3.76190424e-01</_>
    <_>
      5.02389491e-01 9.96376812e-01 7.52331018e-01</_>
    <_>
      6.94444776e-03 7.47706413e-01 7.74193406e-02</_>
    <_>
      2.36686468e-02 9.33774829e-01 7.01086998e-01</_>
    <_>
      5.01983404e-01 9.72000003e-01 7.59999990e-01</_>
    <_>
      5.01983404e-01 9.72000003e-01 7.59999990e-01</_>
    <_>
      1. 9.96153831e-01 6.70468211e-01</_>
    <_>
      2.63157785e-02 7.05882311e-01 8.33333135e-02</_>
    <_>
      4.69725490e-01 9.96350348e-01 7.42662430e-01</_>
    <_>
      1. 9.53488350e-01 7.08152175e-01</_>
    <_>
      1. 9.70297039e-01 7.32317090e-01</_>
    <_>
      9.68962550e-01 4.13461566e-01 3.04347813e-01</_>
    <_>
      4.50335860e-01 9.96710539e-01 7.65500784e-01</_>
    <_>
      7.26190448e-01 9.61267591e-01 7.65704572e-01</_>
    <_>
      9.95304763e-01 8.31858397e-01 7.05882311e-01</_>
    <_>
      9.95304763e-01 8.31858397e-01 7.05882311e-01</_>
    <_>
      8.41641903e-01 9.91150439e-01 8.06763291e-01</_>
    <_>
      1.61653459e-02 9.56375837e-01 6.91476107e-01</_>
    <_>
      1.61653459e-02 9.56375837e-01 6.91476107e-01</_>
    <_>
      4.73168403e-01 9.41605866e-01 7.76276290e-01</_>
    <_>
      7.35106349e-01 9.91150439e-01 7.30519474e-01</_>
    <_>
      3.80426645e-01 9.77528095e-01 7.87447035e-01</_>
    <_>
      9.70122457e-01 9.83695626e-01 7.46078432e-01</_>
    <_>
      9.70122457e-01 9.83695626e-01 7.46078432e-01</_>
    <_>
      1.00331366e-01 9.62184846e-01 7.59468436e-01</_>
    <_>
      9.90484059e-01 9.53642368e-01 7.30360031e-01</_>
    <_>
      9.90484059e-01 9.53642368e-01 7.30360031e-01</_>
    <_>
      1. 9.95967746e-01 6.80873156e-01</_>
    <_>
      9.96447146e-01 9.96774197e-01 7.56504059e-01</_>
    <_>
      9.96447146e-01 9.96774197e-01 7.56504059e-01</_>
    <_>
      2.05969214e-02 9.62732911e-01 7.47983873e-01</_>
    <_>
      5.06475568e-01 9.95833337e-01 7.88194418e-01</_>
    <_>
      8.41324985e-01 3.77192974e-01 1.83035731e-01</_>
    <_>
      5.06475568e-01 9.95833337e-01 7.88194418e-01</_>
    <_>
      9.07880068e-02 9.45454538e-01 7.79120862e-01</_>
    <_>
      9.07880068e-02 9.45454538e-01 7.79120862e-01</_>
    <_>
      2.05696225e-02 9.95192289e-01 5.98051906e-01</_>
    <_>
      9.33411598e-01 9.96183217e-01 7.44623661e-01</_>
    <_>
      9.66882646e-01 9.41605866e-01 7.50000000e-01</_>
    <_>
      9.66882646e-01 9.41605866e-01 7.50000000e-01</_>
    <_>
      9.90056813e-01 8.75796199e-01 7.26829290e-01</_>
    <_>
      9.92508411e-01 9.58677709e-01 7.61180699e-01</_>
    <_>
      9.76523459e-01 9.87804890e-01 7.25000024e-01</_>
    <_>
      1. 9.95098054e-01 7.22926855e-01</_>
    <_>
      9.92508411e-01 9.58677709e-01 7.61180699e-01</_>
    <_>
      9.96503949e-01 9.96031761e-01 7.27920234e-01</_>
    <_>
      9.43530321e-01 9.31818187e-01 7.88156271e-01</_>
    <_>
      7.35278308e-01 9.86486495e-01 7.65326321e-01</_>
    <_>
      9.57908154e-01 9.95412827e-01 7.62872636e-01</_>
    <_>
      9.57908154e-01 9.95412827e-01 7.62872636e-01</_>
    <_>
      9.66861427e-01 9.48275864e-01 7.48364091e-01</_>
    <_>
      9.66861427e-01 9.48275864e-01 7.48364091e-01</_>
    <_>
      1. 9.96951222e-01 7.56933749e-01</_>
    <_>
      1. 9.96951222e-01 7.56933749e-01</_>
    <_>
      9.94028211e-01 9.94252861e-01 7.15079367e-01</_>
    <_>
      9.85636652e-01 9.94897962e-01 7.19696999e-01</_>
    <_>
      9.94028211e-01 9.94252861e-01 7.15079367e-01</_>
    <_>
      9.85636652e-01 9.94897962e-01 7.19696999e-01</_>
    <_>
      9.61458325e-01 9.37500000e-01 7.80154467e-01</_>
    <_>
      9.61458325e-01 9.37500000e-01 7.80154467e-01</_>
    <_>
      1. 9.39516127e-01 7.21866965e-01</_>
    <_>
      9.77641046e-01 4.85074639e-01 2.54999995e-01</_>
    <_>
      9.77641046e-01 4.85074639e-01 2.54999995e-01</_>
    <_>
      5.71429729e-03 9.69026566e-01 6.28205121e-01</_>
    <_>
      5.23561239e-03 9.91869926e-01 5.41062832e-01</_>
    <_>
      9.62799847e-01 9.85714257e-01 7.82364011e-01</_>
    <_>
      9.62799847e-01 9.85714257e-01 7.82364011e-01</_>
    <_>
      1. 9.91279066e-01 7.32580066e-01</_>
    <_>
      4.41862375e-01 2.86324799e-01 3.11414421e-01</_>
    <_>
      4.76190448e-02 9.68468487e-01 7.19298244e-01</_>
    <_>
      5.99362969e-01 2.28260875e-01 1.78660035e-01</_>
    <_>
      1. 9.16030526e-01 7.14350343e-01</_>
    <_>
      9.37050343e-01 9.96212125e-01 7.76268125e-01</_>
    <_>
      1. 9.96062994e-01 6.88246369e-01</_>
    <_>
      9.42276955e-01 9.37888205e-01 7.73321688e-01</_>
    <_>
      7.27526605e-01 9.47058797e-01 7.52177060e-01</_>
    <_>
      9.77696300e-01 9.80487823e-01 7.27871954e-01</_>
    <_>
      6.98598862e-01 9.63157892e-01 7.12418318e-01</_>
    <_>
      9.41261113e-01 4.18604672e-01 1.66666687e-01</_>
    <_>
      9.41261113e-01 4.18604672e-01 1.66666687e-01</_>
    <_>
      8.22974443e-01 9.68571424e-01 7.92857170e-01</_>
    <_>
      5.20588219e-01 9.92424250e-01 7.68136561e-01</_>
    <_>
      9.90338743e-01 9.24137950e-01 7.47933865e-01</_>
    <_>
      7.33137131e-03 9.70833361e-01 6.32065177e-01</_>
    <_>
      7.97470331e-01 3.47457647e-01 1.89999998e-01</_>
    <_>
      9.65875864e-01 9.65838492e-01 8.03333342e-01</_></support_vectors>
  <decision_functions>
    <_>
      <sv_count>200</sv_count>
      <rho>1.8542100721970201e-01</rho>
      <alpha>
        1. 1. 1. 1. 1. 1. 1. 1. 1. 1. 1. 1. 1. 1. 1. 1. 1. 1. 1. 1. 1.
        1. 1. 1. 1. 1. 1. 1. 1. 1. 1. 1. 1. 1. 1. 1. 1. 1. 1. 1. 1. 1.
        1. 1. 1. 1. 1. 1. 1. 1. 1. 1. 1. 1. 1. 1. 1. 1. 1. 1. 1. 1. 1.
        1. 1. 1. 1. 1. 1. 1. 1. 1. 1. 1. 1. 1. 1. 1. 1. 1. 1. 1. 1. 1.
        1. 1. 1. 1. 1. 1. 1. 1. 1. 1. 1. 1. 1. 1. 1. 1. -1. -1. -1. -1.
        -1. -1. -1. -1. -1. -1. -1. -1. -1. -1. -1. -1. -1. -1. -1. -1.
        -1. -1. -1. -1. -1. -1. -1. -1. -1. -1. -1. -1. -1. -1. -1. -1.
        -1. -1. -1. -1. -1. -1. -1. -1. -1. -1. -1. -1. -1. -1. -1. -1.
        -1. -1. -1. -1. -1. -1. -1. -1. -1. -1. -1. -1. -1. -1. -1. -1.
        -1. -1. -1. -1. -1. -1. -1. -1. -1. -1. -1. -1. -1. -1. -1. -1.
        -1. -1. -1. -1. -1. -1. -1. -1. -1. -1. -1. -1. -1. -1. -1. -1.</alpha>
      <index>
        0 198 126 127 128 129 5 130 199 133 134 9 10 11 12 138 13 15 17
        18 19 141 20 21 22 23 24 25 26 27 28 30 31 142 33 34 35 36 143
        144 38 39 43 154 155 157 158 67 159 69 160 86 162 87 163 89 92
        93 94 95 96 97 98 99 100 101 102 103 104 107 108 109 110 111 112
        113 114 115 177 178 116 179 117 181 182 183 120 185 186 187 188
        191 123 192 193 124 125 195 196 197 1 2 3 4 6 7 8 14 16 29 32 37
        40 41 42 44 45 46 47 48 49 50 51 52 53 54 55 56 57 58 59 60 61
        62 63 64 65 66 68 70 71 72 73 74 75 76 77 78 79 80 81 82 83 84
        85 88 90 91 105 106 118 119 121 122 131 132 151 164 135 165 166
        167 168 169 170 171 152 172 153 173 174 156 175 176 136 145 146
        137 147 148 180 149 150 139 184 189 190 161 140 194</index></_></decision_functions></opencv_ml_svm>
</opencv_storage>
