<?xml version="1.0"?>
<opencv_storage>
<opencv_ml_svm>
  <format>3</format>
  <svmType>C_SVC</svmType>
  <kernel>
    <type>RBF</type>
    <gamma>1.</gamma></kernel>
  <C>1.</C>
  <term_criteria><iterations>100</iterations></term_criteria>
  <var_count>3</var_count>
  <class_count>2</class_count>
  <class_labels type_id="opencv-matrix">
    <rows>2</rows>
    <cols>1</cols>
    <dt>i</dt>
    <data>
      -1 1</data></class_labels>
  <sv_total>200</sv_total>
  <support_vectors>
    <_>
      2.61027515e-01 2.46303193e-02 6.47445396e-03</_>
    <_>
      5.12087882e-01 2.14244761e-02 1.69838704e-02</_>
    <_>
      1.81159377e-03 9.33318026e-03 1.81358191e-03</_>
    <_>
      9.31677222e-03 4.18704178e-04 7.48054916e-03</_>
    <_>
      2.79329717e-02 3.16262455e-03 3.11742742e-02</_>
    <_>
      2.54452229e-03 5.81458304e-03 1.20061822e-02</_>
    <_>
      2.54452229e-03 5.81458304e-03 1.20061822e-02</_>
    <_>
      9.83891010e-01 8.33704650e-01 8.96698952e-01</_>
    <_>
      1. 8.82307708e-01 9.52692330e-01</_>
    <_>
      1. 7.88300991e-01 8.80379856e-01</_>
    <_>
      1. 8.81182492e-01 8.52389753e-01</_>
    <_>
      1. 7.88300991e-01 8.80379856e-01</_>
    <_>
      1.51976943e-03 1.79412702e-04 2.30943449e-04</_>
    <_>
      1.51976943e-03 1.79412702e-04 2.30943449e-04</_>
    <_>
      1. 8.37901950e-01 8.28710914e-01</_>
    <_>
      1. 8.37901950e-01 8.28710914e-01</_>
    <_>
      1. 8.63069534e-01 8.67237449e-01</_>
    <_>
      1. 8.04256499e-01 8.21731627e-01</_>
    <_>
      9.91377652e-01 9.13698792e-01 8.94996941e-01</_>
    <_>
      1.04166567e-02 2.61503109e-03 1.79260527e-03</_>
    <_>
      6.90609217e-03 3.61323613e-03 3.03325767e-04</_>
    <_>
      3.71748209e-03 4.67822189e-03 1.08171143e-02</_>
    <_>
      1.87265873e-03 1.29807892e-03 3.46454373e-03</_>
    <_>
      3.21543217e-03 7.06134539e-04 5.10870188e-04</_>
    <_>
      5.57619333e-03 3.38014285e-03 7.35257100e-03</_>
    <_>
      5.57619333e-03 3.38014285e-03 7.35257100e-03</_>
    <_>
      8.28728080e-03 3.97573411e-03 3.03325767e-04</_>
    <_>
      8.28728080e-03 3.97573411e-03 3.03325767e-04</_>
    <_>
      3.46019864e-03 6.86621573e-03 7.76307331e-03</_>
    <_>
      1.52438879e-03 1.41080830e-03 1.08799618e-03</_>
    <_>
      1.51976943e-03 1.41080830e-03 1.08799618e-03</_>
    <_>
      1.21951103e-02 0. 0.</_>
    <_>
      1.52438879e-03 1.41080830e-03 1.08799618e-03</_>
    <_>
      3.03950906e-03 0. 0.</_>
    <_>
      1.52438879e-03 0. 0.</_>
    <_>
      1.51976943e-03 1.41080830e-03 1.08799618e-03</_>
    <_>
      3.03950906e-03 0. 0.</_>
    <_>
      1.51515007e-03 0. 0.</_>
    <_>
      1.51515007e-03 0. 0.</_>
    <_>
      1.52438879e-03 0. 0.</_>
    <_>
      7.50750303e-03 0. 0.</_>
    <_>
      4.90197539e-03 0. 2.56311687e-05</_>
    <_>
      2.92396545e-03 0. 5.76701277e-05</_>
    <_>
      1.88679099e-02 0. 6.65346452e-04</_>
    <_>
      1.47058964e-02 0. 2.56311687e-05</_>
    <_>
      2.92396545e-03 0. 5.76701277e-05</_>
    <_>
      3.27870250e-03 0. 2.59104010e-04</_>
    <_>
      1.49253011e-03 6.08583353e-03 1.34313246e-03</_>
    <_>
      1.73610449e-03 3.19444425e-02 4.34640497e-02</_>
    <_>
      1.93452239e-02 0. 0.</_>
    <_>
      1.74215436e-03 0. 0.</_>
    <_>
      3.45821381e-02 0. 0.</_>
    <_>
      3.62318754e-03 0. 0.</_>
    <_>
      1.74215436e-03 0. 0.</_>
    <_>
      4.00763452e-02 0. 0.</_>
    <_>
      3.62318754e-03 0. 0.</_>
    <_>
      0. 0. 6.79420657e-04</_>
    <_>
      0. 0. 6.79420657e-04</_>
    <_>
      1.51515007e-03 0. 4.69923616e-05</_>
    <_>
      4.48206067e-03 2.99401185e-03 5.45998430e-03</_>
    <_>
      1.51515007e-03 0. 4.69923616e-05</_>
    <_>
      9.96767998e-01 9.44923937e-01 9.40050185e-01</_>
    <_>
      9.96767998e-01 9.44923937e-01 9.40050185e-01</_>
    <_>
      9.96911407e-01 9.45059180e-01 9.40323591e-01</_>
    <_>
      9.96911407e-01 9.45059180e-01 9.40323591e-01</_>
    <_>
      1. 9.08754528e-01 7.22905755e-01</_>
    <_>
      1. 9.08754528e-01 7.22905755e-01</_>
    <_>
      4.33525443e-03 7.70712912e-04 1.24674151e-03</_>
    <_>
      1.44508779e-02 7.70712912e-04 1.24674151e-03</_>
    <_>
      1.42857134e-02 1.12044821e-04 8.09212564e-04</_>
    <_>
      1. 3.96207310e-02 8.68605077e-02</_>
    <_>
      1. 2.12921739e-01 3.08576763e-01</_>
    <_>
      1. 1.34991035e-01 1.77569464e-01</_>
    <_>
      1. 9.83569585e-03 5.52636236e-02</_>
    <_>
      9.81935143e-01 8.43255460e-01 8.35574627e-01</_>
    <_>
      8.47458839e-03 2.41253059e-03 2.03602985e-02</_>
    <_>
      9.81935143e-01 8.43255460e-01 8.35574627e-01</_>
    <_>
      1.58730149e-02 1.02044100e-06 2.77433405e-03</_>
    <_>
      9.95851576e-01 9.24139619e-01 8.53830338e-01</_>
    <_>
      9.95851576e-01 9.24139619e-01 8.53830338e-01</_>
    <_>
      9.97052014e-01 9.30137515e-01 8.33754480e-01</_>
    <_>
      1. 9.18969452e-01 8.09777379e-01</_>
    <_>
      1. 9.20829237e-01 8.11581790e-01</_>
    <_>
      9.85345721e-01 9.06571388e-01 8.04082572e-01</_>
    <_>
      9.97052014e-01 9.30137515e-01 8.33754480e-01</_>
    <_>
      1. 9.18969452e-01 8.09777379e-01</_>
    <_>
      1. 9.20829237e-01 8.11581790e-01</_>
    <_>
      9.85345721e-01 9.06571388e-01 8.04082572e-01</_>
    <_>
      1.19047761e-02 4.72521456e-03 2.68218555e-05</_>
    <_>
      9.67175603e-01 9.32842910e-01 9.29796040e-01</_>
    <_>
      1. 9.11413133e-01 9.41255808e-01</_>
    <_>
      9.97163534e-01 8.43547344e-01 8.48295152e-01</_>
    <_>
      9.96757627e-01 8.25353622e-01 8.16289783e-01</_>
    <_>
      9.94572222e-01 8.21260691e-01 8.22956920e-01</_>
    <_>
      9.86861348e-01 8.51317108e-01 8.70167911e-01</_>
    <_>
      9.97163534e-01 8.43547344e-01 8.48295152e-01</_>
    <_>
      9.96757627e-01 8.25353622e-01 8.16289783e-01</_>
    <_>
      9.94572222e-01 8.21260691e-01 8.22956920e-01</_>
    <_>
      9.86861348e-01 8.51317108e-01 8.70167911e-01</_>
    <_>
      1. 8.73841703e-01 8.75067174e-01</_>
    <_>
      9.72424865e-01 8.26742113e-01 8.58342230e-01</_>
    <_>
      1. 8.73841703e-01 8.75067174e-01</_>
    <_>
      9.93082225e-01 8.58600199e-01 9.03779864e-01</_>
    <_>
      9.86281991e-01 6.96788192e-01 9.02584314e-01</_>
    <_>
      9.93082225e-01 8.58600199e-01 9.03779864e-01</_>
    <_>
      9.89383698e-01 8.20696294e-01 9.07862365e-01</_>
    <_>
      9.89383698e-01 8.20696294e-01 9.07862365e-01</_>
    <_>
      1. 9.53052580e-01 9.16848719e-01</_>
    <_>
      1. 9.58918095e-01 9.93006527e-01</_>
    <_>
      1. 9.66179490e-01 9.78994370e-01</_>
    <_>
      1. 9.53052580e-01 9.16848719e-01</_>
    <_>
      9.89828110e-01 9.47636425e-01 9.43978190e-01</_>
    <_>
      9.89828110e-01 9.47636425e-01 9.43978190e-01</_>
    <_>
      9.96648669e-01 9.49117064e-01 9.61135626e-01</_>
    <_>
      9.78782594e-01 8.94146025e-01 9.23155069e-01</_>
    <_>
      9.78782594e-01 8.94146025e-01 9.23155069e-01</_>
    <_>
      9.85489726e-01 8.59093308e-01 8.54375362e-01</_>
    <_>
      1. 9.58918095e-01 9.93006527e-01</_>
    <_>
      1. 9.66179490e-01 9.78994370e-01</_>
    <_>
      9.96648669e-01 9.49117064e-01 9.61135626e-01</_>
    <_>
      9.85489726e-01 8.59093308e-01 8.54375362e-01</_>
    <_>
      4.36046720e-03 4.11667192e-04 6.57517288e-04</_>
    <_>
      9.90992665e-01 8.61492395e-01 8.45344067e-01</_>
    <_>
      7.72628188e-03 9.55756847e-03 1.96608319e-03</_>
    <_>
      9.90364134e-01 9.10876036e-01 8.11655760e-01</_>
    <_>
      9.90364134e-01 9.10876036e-01 8.11655760e-01</_>
    <_>
      1. 9.57103729e-01 8.07007730e-01</_>
    <_>
      1. 9.57103729e-01 8.07007730e-01</_>
    <_>
      9.95709181e-01 8.59033108e-01 8.92856359e-01</_>
    <_>
      9.90577281e-01 8.22312772e-01 8.44219446e-01</_>
    <_>
      9.90577281e-01 8.22312772e-01 8.44219446e-01</_>
    <_>
      1. 8.15319955e-01 8.21818173e-01</_>
    <_>
      1. 8.53203356e-01 8.74111652e-01</_>
    <_>
      1. 8.53203356e-01 8.74111652e-01</_>
    <_>
      1. 9.04183626e-01 9.13481295e-01</_>
    <_>
      1. 8.59417021e-01 8.75562131e-01</_>
    <_>
      1. 9.04183626e-01 9.13481295e-01</_>
    <_>
      1. 5.61303377e-01 7.18523502e-01</_>
    <_>
      1. 7.86641777e-01 8.46891940e-01</_>
    <_>
      1. 8.25044036e-01 8.51501882e-01</_>
    <_>
      1. 8.25044036e-01 8.51501882e-01</_>
    <_>
      4.93422151e-03 1.23869209e-03 7.03772763e-03</_>
    <_>
      4.93422151e-03 1.23869209e-03 7.03772763e-03</_>
    <_>
      7.87660480e-03 3.40121391e-04 4.98334120e-04</_>
    <_>
      1.25312805e-03 1.44241629e-02 9.69381872e-05</_>
    <_>
      6.18812442e-03 5.52822929e-03 2.21342198e-04</_>
    <_>
      1.25312805e-03 1.44241629e-02 9.69381872e-05</_>
    <_>
      7.42575526e-03 1.99523922e-02 1.24404003e-04</_>
    <_>
      7.42575526e-03 1.99523922e-02 1.24404003e-04</_>
    <_>
      1.38887763e-03 2.62151967e-04 2.73102400e-04</_>
    <_>
      1.38887763e-03 2.62151967e-04 2.73102400e-04</_>
    <_>
      3.00300121e-03 9.61647369e-03 7.84961134e-03</_>
    <_>
      1. 8.13516915e-01 8.14892530e-01</_>
    <_>
      1. 4.07471836e-01 5.92068851e-01</_>
    <_>
      6.74584508e-03 2.10437849e-02 9.32347961e-03</_>
    <_>
      0. 1.28533011e-02 1.66437104e-02</_>
    <_>
      7.13017583e-03 5.60361054e-03 5.35425683e-03</_>
    <_>
      9.67741013e-03 0. 0.</_>
    <_>
      9.96486008e-01 8.46787751e-01 8.23394656e-01</_>
    <_>
      9.67741013e-03 0. 0.</_>
    <_>
      1. 8.09675336e-01 8.54142606e-01</_>
    <_>
      1.11111104e-02 2.74955155e-03 3.89755098e-03</_>
    <_>
      3.96826863e-03 1.20214140e-02 1.39383704e-03</_>
    <_>
      3.96826863e-03 1.20214140e-02 1.39383704e-03</_>
    <_>
      8.99279118e-03 6.72811456e-03 1.50814059e-03</_>
    <_>
      7.32600689e-03 8.16145726e-03 1.81748357e-03</_>
    <_>
      1.61870420e-02 1.43334258e-03 3.09342955e-04</_>
    <_>
      8.99279118e-03 6.72811456e-03 1.50814059e-03</_>
    <_>
      8.99279118e-03 1.96254207e-03 2.57143984e-03</_>
    <_>
      5.01671433e-03 9.90822539e-03 1.21164322e-03</_>
    <_>
      5.01671433e-03 9.90822539e-03 1.21164322e-03</_>
    <_>
      1. 8.13814759e-01 8.00732911e-01</_>
    <_>
      4.31033969e-03 6.75152813e-04 1.10145910e-02</_>
    <_>
      9.86263275e-01 8.45126867e-01 8.59816194e-01</_>
    <_>
      9.91091132e-01 8.61975908e-01 8.76929164e-01</_>
    <_>
      9.86263275e-01 8.45126867e-01 8.59816194e-01</_>
    <_>
      9.91091132e-01 8.61975908e-01 8.76929164e-01</_>
    <_>
      1.44091249e-03 6.38405466e-03 6.29612617e-03</_>
    <_>
      6.52742386e-03 7.00434530e-03 8.37030588e-04</_>
    <_>
      9.95538354e-01 7.85108089e-01 8.89456093e-01</_>
    <_>
      5.23561239e-03 6.37136749e-04 8.01559538e-03</_>
    <_>
      5.91015816e-03 2.55696912e-04 1.46576976e-02</_>
    <_>
      1.18201971e-03 3.39978538e-03 1.42874513e-02</_>
    <_>
      8.04290175e-03 4.18956252e-03 1.06178736e-03</_>
    <_>
      1. 8.65619719e-01 8.75536203e-01</_>
    <_>
      1. 8.49231482e-01 8.30217242e-01</_>
    <_>
      1. 8.65619719e-01 8.75536203e-01</_>
    <_>
      9.95107532e-01 8.17502439e-01 8.34031343e-01</_>
    <_>
      9.95107532e-01 8.17502439e-01 8.34031343e-01</_>
    <_>
      9.97389019e-01 8.48447621e-01 8.46284568e-01</_>
    <_>
      1.44091249e-03 3.71925510e-03 9.62966494e-03</_>
    <_>
      1.44091249e-03 3.71925510e-03 9.62966494e-03</_>
    <_>
      7.38334656e-03 5.78565430e-03 4.35204618e-03</_>
    <_>
      1.45772099e-03 1.06486753e-02 1.82495860e-03</_>
    <_>
      1.28939748e-02 3.77281045e-04 4.20239009e-03</_>
    <_>
      9.95757937e-01 8.44928324e-01 7.98424065e-01</_>
    <_>
      8.76346231e-03 7.17546046e-03 1.91243493e-03</_>
    <_>
      1.08040869e-02 4.07607155e-03 3.59111116e-03</_>
    <_>
      1.08040869e-02 4.07607155e-03 3.59111116e-03</_>
    <_>
      0. 9.86125413e-03 9.48285498e-03</_></support_vectors>
  <decision_functions>
    <_>
      <sv_count>200</sv_count>
      <rho>-7.9985085874795914e-02</rho>
      <alpha>
        1. 1. 1. 1. 1. 1. 1. 1. 1. 1. 1. 1. 1. 1. 1. 1. 1. 1. 1. 1. 1.
        1. 1. 1. 1. 1. 1. 1. 1. 1. 1. 1. 1. 1. 1. 1. 1. 1. 1. 1. 1. 1.
        1. 1. 1. 1. 1. 1. 1. 1. 1. 1. 1. 1. 1. 1. 1. 1. 1. 1. 1. 1. 1.
        1. 1. 1. 1. 1. 1. 1. 1. 1. 1. 1. 1. 1. 1. 1. 1. 1. 1. 1. 1. 1.
        1. 1. 1. 1. 1. 1. 1. 1. 1. 1. 1. 1. 1. 1. 1. 1. -1. -1. -1. -1.
        -1. -1. -1. -1. -1. -1. -1. -1. -1. -1. -1. -1. -1. -1. -1. -1.
        -1. -1. -1. -1. -1. -1. -1. -1. -1. -1. -1. -1. -1. -1. -1. -1.
        -1. -1. -1. -1. -1. -1. -1. -1. -1. -1. -1. -1. -1. -1. -1. -1.
        -1. -1. -1. -1. -1. -1. -1. -1. -1. -1. -1. -1. -1. -1. -1. -1.
        -1. -1. -1. -1. -1. -1. -1. -1. -1. -1. -1. -1. -1. -1. -1. -1.
        -1. -1. -1. -1. -1. -1. -1. -1. -1. -1. -1. -1. -1. -1. -1. -1.</alpha>
      <index>
        0 131 199 133 134 135 3 138 5 6 7 8 9 10 11 141 142 143 14 15 16
        17 19 20 21 22 151 23 24 25 26 27 152 153 28 156 158 161 162 163
        164 165 166 167 168 169 170 61 62 63 64 65 66 67 68 69 72 73 171
        172 74 77 83 87 88 177 89 90 178 180 181 182 94 183 98 99 100
        101 103 105 107 110 111 112 118 121 122 123 185 189 126 127 128
        192 193 194 195 196 197 198 1 2 4 12 13 18 29 30 31 32 33 34 35
        36 37 38 39 40 41 42 43 44 45 46 47 48 49 50 51 52 53 54 55 56
        57 58 59 60 70 71 75 76 78 79 80 81 82 84 85 86 91 92 93 95 96
        97 102 104 106 108 109 113 114 115 116 117 119 120 124 125 129
        130 132 136 137 139 140 173 174 175 176 144 145 146 147 148 179
        154 155 157 184 186 187 188 159 190 149 191 150 160</index></_></decision_functions></opencv_ml_svm>
</opencv_storage>
