<?xml version="1.0"?>
<opencv_storage>
<opencv_ml_svm>
  <format>3</format>
  <svmType>C_SVC</svmType>
  <kernel>
    <type>RBF</type>
    <gamma>1.</gamma></kernel>
  <C>1.</C>
  <term_criteria><iterations>100</iterations></term_criteria>
  <var_count>1</var_count>
  <class_count>2</class_count>
  <class_labels type_id="opencv-matrix">
    <rows>2</rows>
    <cols>1</cols>
    <dt>i</dt>
    <data>
      -1 1</data></class_labels>
  <sv_total>200</sv_total>
  <support_vectors>
    <_>
      2.46303193e-02</_>
    <_>
      2.14244761e-02</_>
    <_>
      8.38109374e-01</_>
    <_>
      8.38109374e-01</_>
    <_>
      9.91970883e-05</_>
    <_>
      7.52617343e-05</_>
    <_>
      1.13333910e-04</_>
    <_>
      0.</_>
    <_>
      0.</_>
    <_>
      0.</_>
    <_>
      0.</_>
    <_>
      0.</_>
    <_>
      0.</_>
    <_>
      0.</_>
    <_>
      0.</_>
    <_>
      0.</_>
    <_>
      0.</_>
    <_>
      1.32462796e-04</_>
    <_>
      0.</_>
    <_>
      0.</_>
    <_>
      1.12944959e-04</_>
    <_>
      1.43612135e-06</_>
    <_>
      0.</_>
    <_>
      0.</_>
    <_>
      0.</_>
    <_>
      0.</_>
    <_>
      8.37901950e-01</_>
    <_>
      8.37901950e-01</_>
    <_>
      1.27934472e-04</_>
    <_>
      8.45407069e-01</_>
    <_>
      8.45407069e-01</_>
    <_>
      9.13698792e-01</_>
    <_>
      4.93666703e-05</_>
    <_>
      1.08953784e-04</_>
    <_>
      0.</_>
    <_>
      0.</_>
    <_>
      7.30617344e-01</_>
    <_>
      0.</_>
    <_>
      0.</_>
    <_>
      0.</_>
    <_>
      0.</_>
    <_>
      0.</_>
    <_>
      0.</_>
    <_>
      0.</_>
    <_>
      0.</_>
    <_>
      0.</_>
    <_>
      0.</_>
    <_>
      0.</_>
    <_>
      0.</_>
    <_>
      0.</_>
    <_>
      0.</_>
    <_>
      0.</_>
    <_>
      0.</_>
    <_>
      0.</_>
    <_>
      0.</_>
    <_>
      0.</_>
    <_>
      0.</_>
    <_>
      0.</_>
    <_>
      0.</_>
    <_>
      0.</_>
    <_>
      0.</_>
    <_>
      0.</_>
    <_>
      0.</_>
    <_>
      0.</_>
    <_>
      0.</_>
    <_>
      0.</_>
    <_>
      1.18554810e-04</_>
    <_>
      9.44923937e-01</_>
    <_>
      1.35294598e-04</_>
    <_>
      9.25016940e-01</_>
    <_>
      9.44923937e-01</_>
    <_>
      9.45059180e-01</_>
    <_>
      9.45059180e-01</_>
    <_>
      9.25016940e-01</_>
    <_>
      1.85335975e-05</_>
    <_>
      1.85335975e-05</_>
    <_>
      0.</_>
    <_>
      1.12044821e-04</_>
    <_>
      1.12044821e-04</_>
    <_>
      0.</_>
    <_>
      0.</_>
    <_>
      1.12044821e-04</_>
    <_>
      1.12044821e-04</_>
    <_>
      1.30102545e-01</_>
    <_>
      8.43255460e-01</_>
    <_>
      8.43255460e-01</_>
    <_>
      3.21440020e-05</_>
    <_>
      1.02044100e-06</_>
    <_>
      3.37828315e-05</_>
    <_>
      8.65780830e-01</_>
    <_>
      9.45064247e-01</_>
    <_>
      9.24139619e-01</_>
    <_>
      9.24139619e-01</_>
    <_>
      9.30137515e-01</_>
    <_>
      9.18969452e-01</_>
    <_>
      9.20829237e-01</_>
    <_>
      9.30137515e-01</_>
    <_>
      9.18969452e-01</_>
    <_>
      9.20829237e-01</_>
    <_>
      8.69292259e-01</_>
    <_>
      9.32842910e-01</_>
    <_>
      8.51500299e-05</_>
    <_>
      8.35938811e-01</_>
    <_>
      8.43547344e-01</_>
    <_>
      8.25353622e-01</_>
    <_>
      8.51317108e-01</_>
    <_>
      8.43547344e-01</_>
    <_>
      8.25353622e-01</_>
    <_>
      8.51317108e-01</_>
    <_>
      4.03011545e-05</_>
    <_>
      8.38146031e-01</_>
    <_>
      8.38146031e-01</_>
    <_>
      8.91434014e-01</_>
    <_>
      3.60825470e-05</_>
    <_>
      3.60825470e-05</_>
    <_>
      8.26226234e-01</_>
    <_>
      8.58600199e-01</_>
    <_>
      8.58600199e-01</_>
    <_>
      8.36980104e-01</_>
    <_>
      8.36980104e-01</_>
    <_>
      8.43399584e-01</_>
    <_>
      8.43399584e-01</_>
    <_>
      9.53052580e-01</_>
    <_>
      9.58918095e-01</_>
    <_>
      9.66179490e-01</_>
    <_>
      9.40862775e-01</_>
    <_>
      9.53052580e-01</_>
    <_>
      9.40862775e-01</_>
    <_>
      9.47636425e-01</_>
    <_>
      9.47636425e-01</_>
    <_>
      9.49117064e-01</_>
    <_>
      8.94146025e-01</_>
    <_>
      8.94146025e-01</_>
    <_>
      8.59093308e-01</_>
    <_>
      9.58918095e-01</_>
    <_>
      9.66179490e-01</_>
    <_>
      9.49117064e-01</_>
    <_>
      8.65077913e-01</_>
    <_>
      8.59093308e-01</_>
    <_>
      2.39353568e-07</_>
    <_>
      2.39353568e-07</_>
    <_>
      2.91412944e-05</_>
    <_>
      1.29879219e-04</_>
    <_>
      1.04118793e-04</_>
    <_>
      8.38391304e-01</_>
    <_>
      9.10876036e-01</_>
    <_>
      9.10876036e-01</_>
    <_>
      9.57103729e-01</_>
    <_>
      9.57103729e-01</_>
    <_>
      8.51766169e-01</_>
    <_>
      8.51766169e-01</_>
    <_>
      8.99165094e-01</_>
    <_>
      8.59033108e-01</_>
    <_>
      8.66136968e-01</_>
    <_>
      8.59033108e-01</_>
    <_>
      9.49635214e-05</_>
    <_>
      9.49635214e-05</_>
    <_>
      8.25524151e-01</_>
    <_>
      8.25524151e-01</_>
    <_>
      2.30976184e-05</_>
    <_>
      2.30976184e-05</_>
    <_>
      8.37737446e-07</_>
    <_>
      9.48288871e-05</_>
    <_>
      9.48288871e-05</_>
    <_>
      8.53203356e-01</_>
    <_>
      8.53203356e-01</_>
    <_>
      8.59417021e-01</_>
    <_>
      9.04183626e-01</_>
    <_>
      3.59030346e-05</_>
    <_>
      1.22429337e-04</_>
    <_>
      8.25044036e-01</_>
    <_>
      8.25044036e-01</_>
    <_>
      8.96879077e-01</_>
    <_>
      1.02682672e-04</_>
    <_>
      8.40088010e-01</_>
    <_>
      8.40088010e-01</_>
    <_>
      4.21748446e-05</_>
    <_>
      1.25421269e-04</_>
    <_>
      8.46787751e-01</_>
    <_>
      6.73929826e-05</_>
    <_>
      9.90100962e-05</_>
    <_>
      9.90100962e-05</_>
    <_>
      7.89791957e-05</_>
    <_>
      7.92858627e-05</_>
    <_>
      8.45126867e-01</_>
    <_>
      8.61975908e-01</_>
    <_>
      8.45126867e-01</_>
    <_>
      8.61975908e-01</_>
    <_>
      8.61925066e-01</_>
    <_>
      8.61925066e-01</_>
    <_>
      8.28679919e-01</_>
    <_>
      8.28679919e-01</_>
    <_>
      8.58802736e-01</_>
    <_>
      5.04138407e-05</_>
    <_>
      5.04138407e-05</_>
    <_>
      8.65619719e-01</_>
    <_>
      8.65619719e-01</_>
    <_>
      8.40832233e-01</_>
    <_>
      8.40832233e-01</_>
    <_>
      8.44928324e-01</_></support_vectors>
  <decision_functions>
    <_>
      <sv_count>200</sv_count>
      <rho>-1.5301080048084259e-01</rho>
      <alpha>
        1. 1. 1. 1. 1. 1. 1. 1. 1. 1. 1. 1. 1. 1. 1. 1. 1. 1. 1. 1. 1.
        1. 1. 1. 1. 1. 1. 1. 1. 1. 1. 1. 1. 1. 1. 1. 1. 1. 1. 1. 1. 1.
        1. 1. 1. 1. 1. 1. 1. 1. 1. 1. 1. 1. 1. 1. 1. 1. 1. 1. 1. 1. 1.
        1. 1. 1. 1. 1. 1. 1. 1. 1. 1. 1. 1. 1. 1. 1. 1. 1. 1. 1. 1. 1.
        1. 1. 1. 1. 1. 1. 1. 1. 1. 1. 1. 1. 1. 1. 1. 1. -1. -1. -1. -1.
        -1. -1. -1. -1. -1. -1. -1. -1. -1. -1. -1. -1. -1. -1. -1. -1.
        -1. -1. -1. -1. -1. -1. -1. -1. -1. -1. -1. -1. -1. -1. -1. -1.
        -1. -1. -1. -1. -1. -1. -1. -1. -1. -1. -1. -1. -1. -1. -1. -1.
        -1. -1. -1. -1. -1. -1. -1. -1. -1. -1. -1. -1. -1. -1. -1. -1.
        -1. -1. -1. -1. -1. -1. -1. -1. -1. -1. -1. -1. -1. -1. -1. -1.
        -1. -1. -1. -1. -1. -1. -1. -1. -1. -1. -1. -1. -1. -1. -1. -1.</alpha>
      <index>
        0 165 166 4 5 6 168 169 17 172 173 20 174 175 21 26 27 28 29 30
        32 176 33 177 178 179 180 181 66 182 67 68 69 70 71 72 73 183 74
        75 76 77 78 79 80 81 82 83 84 86 87 88 89 90 99 100 101 102 105
        108 109 112 113 114 115 188 189 191 122 125 126 127 128 129 135
        192 193 194 141 142 143 144 147 148 151 152 153 154 155 156 157
        158 159 197 198 160 199 161 162 163 1 2 3 7 8 9 10 11 12 13 14
        15 16 18 19 22 23 24 25 31 34 35 36 37 38 39 40 41 42 43 44 45
        46 47 48 49 50 51 52 53 54 55 56 57 58 59 60 61 62 63 64 65 85
        91 92 93 94 95 96 97 98 103 104 106 107 110 111 116 117 118 119
        120 121 123 124 130 131 132 133 134 136 137 138 139 140 145 146
        149 150 164 167 170 171 184 185 186 187 190 195 196</index></_></decision_functions></opencv_ml_svm>
</opencv_storage>
