<?xml version="1.0"?>
<opencv_storage>
<opencv_ml_svm>
  <format>3</format>
  <svmType>C_SVC</svmType>
  <kernel>
    <type>RBF</type>
    <gamma>1.</gamma></kernel>
  <C>1.</C>
  <term_criteria><iterations>100</iterations></term_criteria>
  <var_count>3</var_count>
  <class_count>2</class_count>
  <class_labels type_id="opencv-matrix">
    <rows>2</rows>
    <cols>1</cols>
    <dt>i</dt>
    <data>
      -1 1</data></class_labels>
  <sv_total>200</sv_total>
  <support_vectors>
    <_>
      3.21537405e-02 6.47445396e-03 1.82371825e-01</_>
    <_>
      1.59371775e-02 1.69838704e-02 2.16466948e-01</_>
    <_>
      9.43626761e-01 3.48360747e-01 2.05618799e-01</_>
    <_>
      5.53923985e-03 8.57813191e-03 3.09227228e-01</_>
    <_>
      5.88510535e-04 7.48054916e-03 2.62579560e-01</_>
    <_>
      2.77264160e-03 4.41505574e-03 2.85682857e-01</_>
    <_>
      7.78071344e-01 8.96698952e-01 2.17861295e-01</_>
    <_>
      8.19806516e-01 9.52692330e-01 2.05421954e-01</_>
    <_>
      7.15890884e-01 8.80379856e-01 1.50934979e-01</_>
    <_>
      1.02371513e-03 3.62106395e-04 2.28814736e-01</_>
    <_>
      1.02371513e-03 3.62106395e-04 2.28814736e-01</_>
    <_>
      1.30493263e-05 2.06778917e-04 1.90336809e-01</_>
    <_>
      1.99627969e-03 3.16865306e-04 3.02657247e-01</_>
    <_>
      4.66805231e-03 0. 2.99507201e-01</_>
    <_>
      1.33150141e-03 1.21745132e-02 2.99292475e-01</_>
    <_>
      1.93654979e-03 1.00360950e-03 2.85345018e-01</_>
    <_>
      0. 0. 2.61195511e-01</_>
    <_>
      0. 0. 2.61195511e-01</_>
    <_>
      8.19320500e-01 8.28710914e-01 2.30618522e-01</_>
    <_>
      6.96638541e-04 1.87413840e-04 2.31941134e-01</_>
    <_>
      6.96638541e-04 1.87413840e-04 2.31941134e-01</_>
    <_>
      3.95591574e-04 2.00925348e-03 2.38489792e-01</_>
    <_>
      3.99720448e-05 2.76707672e-03 1.68752432e-01</_>
    <_>
      9.17010844e-01 8.94996941e-01 1.96584970e-01</_>
    <_>
      1.95876472e-02 1.40628796e-02 3.90859783e-01</_>
    <_>
      2.15606927e-03 5.10870188e-04 3.46147031e-01</_>
    <_>
      2.53823218e-05 6.28553622e-04 2.74630845e-01</_>
    <_>
      2.53823218e-05 1.47878379e-03 3.37441772e-01</_>
    <_>
      2.53823218e-05 1.47878379e-03 3.37441772e-01</_>
    <_>
      2.31328493e-04 1.91102081e-04 3.39589506e-01</_>
    <_>
      2.31328493e-04 1.91102081e-04 3.39589506e-01</_>
    <_>
      2.68375181e-04 4.93846193e-04 1.71260312e-01</_>
    <_>
      2.68375181e-04 4.93846193e-04 1.71260312e-01</_>
    <_>
      6.28733193e-04 1.08402499e-04 2.43718162e-01</_>
    <_>
      0. 0. 2.25837111e-01</_>
    <_>
      0. 0. 2.19389200e-01</_>
    <_>
      0. 0. 2.42576927e-01</_>
    <_>
      0. 0. 2.32146204e-01</_>
    <_>
      0. 0. 2.42576927e-01</_>
    <_>
      0. 0. 2.27792352e-01</_>
    <_>
      1.84915581e-04 2.96289771e-04 1.52107209e-01</_>
    <_>
      1.84915581e-04 2.96289771e-04 1.52107209e-01</_>
    <_>
      0. 8.52661979e-05 2.50754356e-01</_>
    <_>
      0. 8.52661979e-05 2.50754356e-01</_>
    <_>
      2.25351367e-04 6.52911607e-04 1.89209342e-01</_>
    <_>
      2.69073783e-03 8.96902638e-04 1.44032434e-01</_>
    <_>
      2.69073783e-03 8.96902638e-04 1.44032434e-01</_>
    <_>
      0. 0. 2.29195714e-01</_>
    <_>
      0. 0. 2.16690555e-01</_>
    <_>
      0. 0. 2.16690555e-01</_>
    <_>
      0. 0. 2.35916883e-01</_>
    <_>
      0. 0. 2.13908374e-01</_>
    <_>
      0. 0. 2.38351002e-01</_>
    <_>
      0. 0. 2.40130007e-01</_>
    <_>
      0. 0. 2.38351002e-01</_>
    <_>
      0. 0. 2.16229260e-01</_>
    <_>
      0. 0. 2.11769581e-01</_>
    <_>
      0. 0. 2.16229260e-01</_>
    <_>
      0. 0. 2.11769581e-01</_>
    <_>
      7.84825504e-01 8.54786575e-01 1.77812710e-01</_>
    <_>
      0. 8.89016883e-05 1.96823016e-01</_>
    <_>
      3.45865883e-05 2.73401587e-04 2.06869066e-01</_>
    <_>
      1.84780947e-04 4.92769119e-04 2.13583976e-01</_>
    <_>
      2.19367532e-04 2.19367532e-04 2.31607780e-01</_>
    <_>
      3.09364477e-05 1.60486554e-04 2.22904027e-01</_>
    <_>
      7.83111453e-01 9.04952526e-01 1.86766744e-01</_>
    <_>
      7.98656046e-01 9.33104157e-01 2.13800564e-01</_>
    <_>
      3.45865883e-05 2.73401587e-04 2.06869066e-01</_>
    <_>
      9.03807878e-01 7.22905755e-01 1.89903751e-01</_>
    <_>
      9.03807878e-01 7.22905755e-01 1.89903751e-01</_>
    <_>
      0. 4.00160061e-05 2.18457058e-01</_>
    <_>
      1.09554944e-03 8.09212564e-04 2.35428095e-01</_>
    <_>
      1.09554944e-03 8.09212564e-04 2.35428095e-01</_>
    <_>
      0. 0. 2.37805769e-01</_>
    <_>
      0. 0. 2.22182691e-01</_>
    <_>
      1.09554944e-03 8.09212564e-04 2.31859967e-01</_>
    <_>
      8.54938030e-01 8.49704385e-01 1.48718685e-01</_>
    <_>
      8.14144671e-01 8.35574627e-01 1.89540774e-01</_>
    <_>
      8.54938030e-01 8.49704385e-01 1.48718685e-01</_>
    <_>
      8.14144671e-01 8.35574627e-01 1.89540774e-01</_>
    <_>
      7.40917504e-01 9.33979392e-01 2.08663106e-01</_>
    <_>
      8.56911778e-01 8.18230867e-01 1.59262821e-01</_>
    <_>
      8.98190141e-01 8.53830338e-01 2.20924631e-01</_>
    <_>
      8.98190141e-01 8.53830338e-01 2.20924631e-01</_>
    <_>
      9.12647545e-01 8.33754480e-01 2.11730495e-01</_>
    <_>
      9.14458275e-01 8.09777379e-01 1.95510209e-01</_>
    <_>
      9.16204929e-01 8.11581790e-01 1.99681550e-01</_>
    <_>
      9.00843024e-01 8.04082572e-01 1.73791140e-01</_>
    <_>
      3.04611981e-01 2.21701222e-04 1.95615634e-01</_>
    <_>
      9.12647545e-01 8.33754480e-01 2.11730495e-01</_>
    <_>
      9.14458275e-01 8.09777379e-01 1.95510209e-01</_>
    <_>
      9.16204929e-01 8.11581790e-01 1.99681550e-01</_>
    <_>
      9.00843024e-01 8.04082572e-01 1.73791140e-01</_>
    <_>
      2.06315861e-04 5.57092251e-04 2.00259283e-01</_>
    <_>
      8.41885269e-01 7.92356789e-01 1.92856163e-01</_>
    <_>
      8.63891482e-01 8.21960807e-01 2.03395054e-01</_>
    <_>
      9.13942337e-01 9.29796040e-01 1.88105837e-01</_>
    <_>
      8.86226714e-01 7.89329231e-01 2.09608689e-01</_>
    <_>
      8.37663293e-01 9.41255808e-01 1.64684132e-01</_>
    <_>
      8.37663293e-01 9.41255808e-01 1.64684132e-01</_>
    <_>
      8.49711597e-01 7.96552181e-01 1.61193117e-01</_>
    <_>
      8.35311651e-01 8.48295152e-01 1.65473685e-01</_>
    <_>
      8.31777513e-01 8.16289783e-01 2.05731258e-01</_>
    <_>
      8.28097939e-01 8.70167911e-01 1.87479153e-01</_>
    <_>
      8.35311651e-01 8.48295152e-01 1.65473685e-01</_>
    <_>
      8.31777513e-01 8.16289783e-01 2.05731258e-01</_>
    <_>
      8.50211740e-01 7.99353838e-01 1.91417873e-01</_>
    <_>
      8.81430089e-01 8.91677141e-01 2.09856778e-01</_>
    <_>
      8.50211740e-01 7.99353838e-01 1.91417873e-01</_>
    <_>
      9.15494740e-01 8.80635440e-01 2.06604183e-01</_>
    <_>
      8.90308678e-01 8.75067174e-01 2.07357615e-01</_>
    <_>
      8.09582055e-01 8.39136243e-01 1.90148428e-01</_>
    <_>
      8.26148868e-01 8.58342230e-01 2.09401786e-01</_>
    <_>
      8.81430089e-01 8.91677141e-01 2.09856778e-01</_>
    <_>
      9.15494740e-01 8.80635440e-01 2.06604183e-01</_>
    <_>
      5.17283618e-01 1.96326766e-02 1.43572405e-01</_>
    <_>
      6.87390149e-01 9.65606049e-03 1.65918678e-01</_>
    <_>
      7.99243808e-01 9.03779864e-01 1.72772333e-01</_>
    <_>
      7.99243808e-01 9.03779864e-01 1.72772333e-01</_>
    <_>
      3.28273396e-04 1.43731805e-03 2.27912888e-01</_>
    <_>
      7.58723855e-01 9.07862365e-01 1.85132474e-01</_>
    <_>
      7.58723855e-01 9.07862365e-01 1.85132474e-01</_>
    <_>
      9.05489624e-01 9.16848719e-01 2.23228693e-01</_>
    <_>
      9.08169270e-01 9.93006527e-01 2.03448892e-01</_>
    <_>
      9.34054017e-01 9.78994370e-01 1.92829192e-01</_>
    <_>
      9.05489624e-01 9.16848719e-01 2.23228693e-01</_>
    <_>
      8.86121571e-01 9.43978190e-01 2.01415211e-01</_>
    <_>
      8.86121571e-01 9.43978190e-01 2.01415211e-01</_>
    <_>
      8.87748957e-01 9.61135626e-01 1.86560497e-01</_>
    <_>
      8.56753170e-01 9.23155069e-01 1.74186543e-01</_>
    <_>
      8.56753170e-01 9.23155069e-01 1.74186543e-01</_>
    <_>
      8.03647399e-01 8.54375362e-01 1.87740460e-01</_>
    <_>
      9.08169270e-01 9.93006527e-01 2.03448892e-01</_>
    <_>
      9.34054017e-01 9.78994370e-01 1.92829192e-01</_>
    <_>
      8.87748957e-01 9.61135626e-01 1.86560497e-01</_>
    <_>
      8.03647399e-01 8.54375362e-01 1.87740460e-01</_>
    <_>
      6.53494596e-02 8.42823720e-05 1.59300521e-01</_>
    <_>
      8.23380768e-01 8.39943230e-01 1.59329459e-01</_>
    <_>
      7.88009465e-01 8.45453501e-01 1.39241219e-01</_>
    <_>
      8.23380768e-01 8.39943230e-01 1.59329459e-01</_>
    <_>
      4.75658337e-03 7.58358091e-03 2.87552953e-01</_>
    <_>
      9.15874124e-01 8.11655760e-01 1.85637683e-01</_>
    <_>
      9.15874124e-01 8.11655760e-01 1.85637683e-01</_>
    <_>
      9.81478930e-01 8.07007730e-01 1.90068290e-01</_>
    <_>
      8.83676350e-01 7.65349150e-01 1.94147795e-01</_>
    <_>
      9.81478930e-01 8.07007730e-01 1.90068290e-01</_>
    <_>
      8.32846045e-01 8.53259027e-01 2.06561044e-01</_>
    <_>
      8.32846045e-01 8.53259027e-01 2.06561044e-01</_>
    <_>
      9.05411839e-01 8.77715290e-01 1.69271976e-01</_>
    <_>
      8.50043416e-01 8.92856359e-01 1.93663955e-01</_>
    <_>
      2.36660824e-04 1.67505606e-03 1.58712104e-01</_>
    <_>
      8.42345005e-04 9.21630883e-04 3.41845781e-01</_>
    <_>
      8.42345005e-04 9.21630883e-04 3.41845781e-01</_>
    <_>
      5.43296663e-03 5.09075064e-04 3.42527211e-01</_>
    <_>
      8.21135283e-01 8.44219446e-01 1.86348289e-01</_>
    <_>
      8.21135283e-01 8.44219446e-01 1.86348289e-01</_>
    <_>
      8.36763322e-01 8.74111652e-01 1.82647735e-01</_>
    <_>
      8.83887231e-01 9.13481295e-01 2.00394168e-01</_>
    <_>
      8.48292530e-01 8.75562131e-01 1.43181518e-01</_>
    <_>
      8.83887231e-01 9.13481295e-01 2.00394168e-01</_>
    <_>
      8.18235695e-01 8.51501882e-01 1.83027193e-01</_>
    <_>
      8.18235695e-01 8.51501882e-01 1.83027193e-01</_>
    <_>
      6.29920606e-03 8.59901961e-03 3.18276197e-01</_>
    <_>
      2.44140625e-04 8.93087941e-04 1.87884599e-01</_>
    <_>
      3.07988172e-04 8.31933110e-04 2.14122936e-01</_>
    <_>
      9.52866510e-04 4.98334120e-04 1.42929599e-01</_>
    <_>
      0. 0. 2.07413629e-01</_>
    <_>
      0. 0. 2.07413629e-01</_>
    <_>
      1.52121147e-03 1.07108923e-02 1.21069260e-01</_>
    <_>
      9.86687187e-03 8.07776395e-03 3.66942227e-01</_>
    <_>
      8.48396480e-01 8.23394656e-01 1.62756756e-01</_>
    <_>
      0. 0. 2.18923301e-01</_>
    <_>
      6.78687007e-04 3.47720867e-04 2.16273099e-01</_>
    <_>
      1.74219464e-03 1.25112496e-02 3.41526568e-01</_>
    <_>
      1.74219464e-03 1.25112496e-02 3.41526568e-01</_>
    <_>
      6.57625403e-03 3.45546342e-02 3.66143733e-01</_>
    <_>
      8.20438147e-01 8.54142606e-01 1.89325407e-01</_>
    <_>
      4.30752616e-03 1.81669340e-04 3.48803729e-01</_>
    <_>
      8.10525298e-01 8.37397397e-01 1.71487048e-01</_>
    <_>
      4.30752616e-03 1.81669340e-04 3.48803729e-01</_>
    <_>
      5.03599877e-04 9.01285792e-04 3.44284773e-01</_>
    <_>
      5.03599877e-04 9.01285792e-04 3.44284773e-01</_>
    <_>
      2.89139082e-03 2.57143984e-03 2.77370006e-01</_>
    <_>
      3.15871136e-03 5.75744221e-03 3.05624455e-01</_>
    <_>
      1.30136525e-02 2.80537922e-02 4.15481061e-01</_>
    <_>
      7.84179151e-01 8.59816194e-01 1.60286874e-01</_>
    <_>
      8.03374290e-01 8.76929164e-01 1.76913530e-01</_>
    <_>
      7.84179151e-01 8.59816194e-01 1.60286874e-01</_>
    <_>
      8.03374290e-01 8.76929164e-01 1.76913530e-01</_>
    <_>
      1.80735870e-03 4.24403770e-05 1.64398685e-01</_>
    <_>
      9.59658137e-05 2.54771300e-03 2.31320143e-01</_>
    <_>
      1.08439126e-03 6.11189287e-04 1.60073370e-01</_>
    <_>
      8.34387898e-01 8.04812312e-01 2.02991888e-01</_>
    <_>
      8.37883294e-01 8.75536203e-01 2.00830743e-01</_>
    <_>
      8.37883294e-01 8.75536203e-01 2.00830743e-01</_>
    <_>
      8.95892620e-01 8.77768040e-01 1.95775554e-01</_>
    <_>
      7.04977009e-03 3.86137108e-04 2.87101865e-01</_>
    <_>
      4.21501609e-04 4.21501609e-04 2.97153562e-01</_>
    <_>
      4.21501609e-04 4.21501609e-04 2.97153562e-01</_>
    <_>
      9.73391056e-04 7.13453104e-04 2.33709157e-01</_></support_vectors>
  <decision_functions>
    <_>
      <sv_count>200</sv_count>
      <rho>-8.0134823918342590e-02</rho>
      <alpha>
        1. 1. 1. 1. 1. 1. 1. 1. 1. 1. 1. 1. 1. 1. 1. 1. 1. 1. 1. 1. 1.
        1. 1. 1. 1. 1. 1. 1. 1. 1. 1. 1. 1. 1. 1. 1. 1. 1. 1. 1. 1. 1.
        1. 1. 1. 1. 1. 1. 1. 1. 1. 1. 1. 1. 1. 1. 1. 1. 1. 1. 1. 1. 1.
        1. 1. 1. 1. 1. 1. 1. 1. 1. 1. 1. 1. 1. 1. 1. 1. 1. 1. 1. 1. 1.
        1. 1. 1. 1. 1. 1. 1. 1. 1. 1. 1. 1. 1. 1. 1. 1. -1. -1. -1. -1.
        -1. -1. -1. -1. -1. -1. -1. -1. -1. -1. -1. -1. -1. -1. -1. -1.
        -1. -1. -1. -1. -1. -1. -1. -1. -1. -1. -1. -1. -1. -1. -1. -1.
        -1. -1. -1. -1. -1. -1. -1. -1. -1. -1. -1. -1. -1. -1. -1. -1.
        -1. -1. -1. -1. -1. -1. -1. -1. -1. -1. -1. -1. -1. -1. -1. -1.
        -1. -1. -1. -1. -1. -1. -1. -1. -1. -1. -1. -1. -1. -1. -1. -1.
        -1. -1. -1. -1. -1. -1. -1. -1. -1. -1. -1. -1. -1. -1. -1. -1.</alpha>
      <index>
        0 3 157 158 4 5 162 163 6 7 8 9 164 10 165 13 14 15 18 19 20 21
        22 24 168 25 33 40 41 44 170 172 173 174 59 175 178 182 61 62 63
        64 65 66 67 68 69 70 71 72 73 74 75 183 184 76 77 78 80 81 87 88
        92 189 93 94 95 96 97 98 99 190 100 103 107 109 110 111 112 113
        114 116 119 120 122 125 126 127 133 138 140 195 196 143 144 145
        148 149 153 199 1 2 11 12 16 17 23 26 27 28 29 30 31 32 34 35 36
        37 38 39 42 43 45 46 47 48 49 50 51 52 53 54 55 56 57 58 60 79
        82 83 84 85 86 89 90 91 101 102 104 105 106 108 115 117 118 121
        123 124 128 129 130 131 132 134 135 136 137 139 141 142 146 147
        150 151 152 154 155 156 159 179 180 181 160 161 185 186 187 188
        169 191 192 193 194 171 166 167 197 198 176 177</index></_></decision_functions></opencv_ml_svm>
</opencv_storage>
