<?xml version="1.0"?>
<opencv_storage>
<opencv_ml_svm>
  <format>3</format>
  <svmType>C_SVC</svmType>
  <kernel>
    <type>RBF</type>
    <gamma>1.</gamma></kernel>
  <C>1.</C>
  <term_criteria><iterations>100</iterations></term_criteria>
  <var_count>4</var_count>
  <class_count>2</class_count>
  <class_labels type_id="opencv-matrix">
    <rows>2</rows>
    <cols>1</cols>
    <dt>i</dt>
    <data>
      -1 1</data></class_labels>
  <sv_total>200</sv_total>
  <support_vectors>
    <_>
      2.61027515e-01 2.46303193e-02 6.47445396e-03 1.82371825e-01</_>
    <_>
      5.12087882e-01 2.14244761e-02 1.69838704e-02 2.16466948e-01</_>
    <_>
      0. 8.57717451e-03 1.44997388e-02 1.66393086e-01</_>
    <_>
      6.83060288e-03 2.24472303e-02 1.98862776e-02 1.59036830e-01</_>
    <_>
      3.08641791e-03 1.11031421e-02 1.03585077e-02 1.82018682e-01</_>
    <_>
      9.31677222e-03 4.18704178e-04 7.48054916e-03 2.62579560e-01</_>
    <_>
      1.65015459e-03 0. 3.81931439e-02 2.14233905e-01</_>
    <_>
      2.54452229e-03 5.81458304e-03 1.20061822e-02 2.09403828e-01</_>
    <_>
      9.83891010e-01 8.33704650e-01 8.96698952e-01 2.17861295e-01</_>
    <_>
      1. 8.82307708e-01 9.52692330e-01 2.05421954e-01</_>
    <_>
      1. 7.88300991e-01 8.80379856e-01 1.50934979e-01</_>
    <_>
      5.91716170e-03 2.45940373e-05 1.89242128e-03 2.06969634e-01</_>
    <_>
      8.98203254e-03 8.58397980e-05 5.95867168e-04 1.80968657e-01</_>
    <_>
      1.51976943e-03 1.79412702e-04 2.30943449e-04 1.89693347e-01</_>
    <_>
      1.62241757e-02 2.36333828e-04 2.06778917e-04 1.90336809e-01</_>
    <_>
      8.98203254e-03 8.58397980e-05 5.95867168e-04 1.80968657e-01</_>
    <_>
      1.51976943e-03 1.79412702e-04 2.30943449e-04 1.89693347e-01</_>
    <_>
      1. 3.15408135e-04 0. 2.99507201e-01</_>
    <_>
      1. 8.37901950e-01 8.28710914e-01 2.30618522e-01</_>
    <_>
      9.91377652e-01 9.13698792e-01 8.94996941e-01 1.96584970e-01</_>
    <_>
      1.58730149e-03 5.23882825e-03 2.29347683e-02 2.22821653e-01</_>
    <_>
      1.04166567e-02 2.61503109e-03 1.79260527e-03 2.19117403e-01</_>
    <_>
      6.90609217e-03 3.61323613e-03 3.03325767e-04 1.83147937e-01</_>
    <_>
      3.71748209e-03 4.67822189e-03 1.08171143e-02 2.02144206e-01</_>
    <_>
      1.87265873e-03 1.29807892e-03 3.46454373e-03 2.22998768e-01</_>
    <_>
      3.21543217e-03 7.06134539e-04 5.10870188e-04 3.46147031e-01</_>
    <_>
      5.57619333e-03 3.38014285e-03 7.35257100e-03 2.15773553e-01</_>
    <_>
      5.57619333e-03 3.38014285e-03 7.35257100e-03 2.15773553e-01</_>
    <_>
      8.28728080e-03 3.97573411e-03 3.03325767e-04 2.12976813e-01</_>
    <_>
      8.28728080e-03 3.97573411e-03 3.03325767e-04 2.12976813e-01</_>
    <_>
      6.38976693e-03 0. 1.47878379e-03 3.37441772e-01</_>
    <_>
      1.09375119e-02 0. 1.48699339e-03 2.70266891e-01</_>
    <_>
      1. 9.64808464e-02 1.10060811e-01 2.20594466e-01</_>
    <_>
      3.46019864e-03 6.86621573e-03 7.76307331e-03 2.28703707e-01</_>
    <_>
      1.21951103e-02 0. 0. 2.42576927e-01</_>
    <_>
      3.03950906e-03 0. 0. 2.31027827e-01</_>
    <_>
      1.52438879e-03 0. 0. 2.21279770e-01</_>
    <_>
      1.51515007e-03 0. 0. 2.32146204e-01</_>
    <_>
      1.51515007e-03 0. 0. 2.32146204e-01</_>
    <_>
      1.52438879e-03 0. 0. 2.21279770e-01</_>
    <_>
      4.90197539e-03 0. 2.56311687e-05 2.44360253e-01</_>
    <_>
      2.92396545e-03 0. 5.76701277e-05 2.32602313e-01</_>
    <_>
      2.92396545e-03 0. 5.76701277e-05 2.32602313e-01</_>
    <_>
      3.27870250e-03 0. 2.59104010e-04 2.33090982e-01</_>
    <_>
      2.34604180e-02 0. 3.92493035e-04 2.20974281e-01</_>
    <_>
      2.08333433e-02 4.76849126e-03 1.15658026e-02 2.43134320e-01</_>
    <_>
      8.92856717e-03 6.62357127e-03 9.18088388e-03 1.75255463e-01</_>
    <_>
      1.58730149e-03 1.96700916e-03 2.68709334e-03 2.02981368e-01</_>
    <_>
      1.21212006e-02 1.85507978e-03 2.38491874e-03 2.97752291e-01</_>
    <_>
      1.58730149e-03 1.96700916e-03 2.68709334e-03 2.02981368e-01</_>
    <_>
      1. 1.61228999e-01 1.81518853e-01 1.84635013e-01</_>
    <_>
      1.74215436e-03 0. 0. 2.18138665e-01</_>
    <_>
      3.62318754e-03 0. 0. 2.15376824e-01</_>
    <_>
      1.74215436e-03 0. 0. 2.18138665e-01</_>
    <_>
      4.55927849e-03 7.21761098e-05 3.62525840e-04 2.11479500e-01</_>
    <_>
      1.34328306e-02 7.21761098e-05 4.35965194e-04 1.86760858e-01</_>
    <_>
      0. 0. 6.79420657e-04 2.30792478e-01</_>
    <_>
      0. 0. 6.79420657e-04 2.30792478e-01</_>
    <_>
      1.51515007e-03 0. 4.69923616e-05 2.16669798e-01</_>
    <_>
      1.79104507e-02 0. 8.89016883e-05 1.96823016e-01</_>
    <_>
      1.51515007e-03 0. 4.69923616e-05 2.16669798e-01</_>
    <_>
      1.68350339e-03 1.36000523e-03 3.27395136e-03 2.12098628e-01</_>
    <_>
      1.68350339e-03 1.36000523e-03 3.27395136e-03 2.12098628e-01</_>
    <_>
      1. 3.47382963e-01 4.09434527e-01 1.18424110e-01</_>
    <_>
      9.96767998e-01 9.44923937e-01 9.40050185e-01 1.84435070e-01</_>
    <_>
      9.96808410e-01 8.67613077e-01 8.49574089e-01 1.82328850e-01</_>
    <_>
      9.96767998e-01 9.44923937e-01 9.40050185e-01 1.84435070e-01</_>
    <_>
      9.96911407e-01 9.45059180e-01 9.40323591e-01 2.03165084e-01</_>
    <_>
      9.96911407e-01 9.45059180e-01 9.40323591e-01 2.03165084e-01</_>
    <_>
      1. 9.08754528e-01 7.22905755e-01 1.89903751e-01</_>
    <_>
      1. 9.08754528e-01 7.22905755e-01 1.89903751e-01</_>
    <_>
      4.33525443e-03 7.70712912e-04 1.24674151e-03 2.31466681e-01</_>
    <_>
      1.44508779e-02 7.70712912e-04 1.24674151e-03 2.24698350e-01</_>
    <_>
      1.42857134e-02 1.12044821e-04 8.09212564e-04 2.31859967e-01</_>
    <_>
      9.97133493e-01 8.80836844e-01 8.49704385e-01 1.48718685e-01</_>
    <_>
      8.47458839e-03 2.41253059e-03 2.03602985e-02 1.86391056e-01</_>
    <_>
      9.97133493e-01 8.80836844e-01 8.49704385e-01 1.48718685e-01</_>
    <_>
      9.81935143e-01 8.43255460e-01 8.35574627e-01 1.89540774e-01</_>
    <_>
      1.58730149e-02 1.02044100e-06 2.77433405e-03 2.15707228e-01</_>
    <_>
      9.84309852e-01 9.45064247e-01 9.33979392e-01 2.08663106e-01</_>
    <_>
      9.95851576e-01 9.24139619e-01 8.53830338e-01 2.20924631e-01</_>
    <_>
      9.95851576e-01 9.24139619e-01 8.53830338e-01 2.20924631e-01</_>
    <_>
      9.97052014e-01 9.30137515e-01 8.33754480e-01 2.11730495e-01</_>
    <_>
      1. 9.18969452e-01 8.09777379e-01 1.95510209e-01</_>
    <_>
      1. 9.20829237e-01 8.11581790e-01 1.99681550e-01</_>
    <_>
      9.85345721e-01 9.06571388e-01 8.04082572e-01 1.73791140e-01</_>
    <_>
      9.88796949e-01 8.75447035e-01 9.25573349e-01 1.90509036e-01</_>
    <_>
      9.97052014e-01 9.30137515e-01 8.33754480e-01 2.11730495e-01</_>
    <_>
      1. 9.18969452e-01 8.09777379e-01 1.95510209e-01</_>
    <_>
      1. 9.20829237e-01 8.11581790e-01 1.99681550e-01</_>
    <_>
      9.85345721e-01 9.06571388e-01 8.04082572e-01 1.73791140e-01</_>
    <_>
      1.19047761e-02 4.72521456e-03 2.68218555e-05 2.21203059e-01</_>
    <_>
      9.89802897e-01 2.80390121e-02 1.69905126e-02 2.80655056e-01</_>
    <_>
      9.89764988e-01 8.71999502e-01 8.25919569e-01 2.25809708e-01</_>
    <_>
      1. 9.11413133e-01 9.41255808e-01 1.64684132e-01</_>
    <_>
      1. 8.35938811e-01 7.96552181e-01 1.61193117e-01</_>
    <_>
      9.97163534e-01 8.43547344e-01 8.48295152e-01 1.65473685e-01</_>
    <_>
      9.96757627e-01 8.25353622e-01 8.16289783e-01 2.05731258e-01</_>
    <_>
      9.94572222e-01 8.21260691e-01 8.22956920e-01 1.74362883e-01</_>
    <_>
      9.97163534e-01 8.43547344e-01 8.48295152e-01 1.65473685e-01</_>
    <_>
      9.96757627e-01 8.25353622e-01 8.16289783e-01 2.05731258e-01</_>
    <_>
      9.92960513e-01 8.84500563e-01 8.46965730e-01 1.85031161e-01</_>
    <_>
      1. 8.91434014e-01 8.80635440e-01 2.06604183e-01</_>
    <_>
      9.65659618e-01 7.95949101e-01 8.33883286e-01 1.78148165e-01</_>
    <_>
      9.93082225e-01 8.58600199e-01 9.03779864e-01 1.72772333e-01</_>
    <_>
      9.93082225e-01 8.58600199e-01 9.03779864e-01 1.72772333e-01</_>
    <_>
      1. 9.10462797e-01 8.83717120e-01 1.85508117e-01</_>
    <_>
      9.88310277e-01 7.87432492e-01 8.14402282e-01 1.67030767e-01</_>
    <_>
      9.89383698e-01 8.20696294e-01 9.07862365e-01 1.85132474e-01</_>
    <_>
      9.89383698e-01 8.20696294e-01 9.07862365e-01 1.85132474e-01</_>
    <_>
      1. 9.53052580e-01 9.16848719e-01 2.23228693e-01</_>
    <_>
      1. 9.58918095e-01 9.93006527e-01 2.03448892e-01</_>
    <_>
      1. 9.66179490e-01 9.78994370e-01 1.92829192e-01</_>
    <_>
      9.89828110e-01 9.47636425e-01 9.43978190e-01 2.01415211e-01</_>
    <_>
      9.89828110e-01 9.47636425e-01 9.43978190e-01 2.01415211e-01</_>
    <_>
      9.96648669e-01 9.49117064e-01 9.61135626e-01 1.86560497e-01</_>
    <_>
      9.78782594e-01 8.94146025e-01 9.23155069e-01 1.74186543e-01</_>
    <_>
      9.78782594e-01 8.94146025e-01 9.23155069e-01 1.74186543e-01</_>
    <_>
      9.85489726e-01 8.59093308e-01 8.54375362e-01 1.87740460e-01</_>
    <_>
      1. 9.58918095e-01 9.93006527e-01 2.03448892e-01</_>
    <_>
      1. 9.66179490e-01 9.78994370e-01 1.92829192e-01</_>
    <_>
      9.96648669e-01 9.49117064e-01 9.61135626e-01 1.86560497e-01</_>
    <_>
      9.85489726e-01 8.59093308e-01 8.54375362e-01 1.87740460e-01</_>
    <_>
      4.36046720e-03 4.11667192e-04 6.57517288e-04 1.92887977e-01</_>
    <_>
      7.72628188e-03 9.55756847e-03 1.96608319e-03 2.08000273e-01</_>
    <_>
      9.95781600e-01 7.99668074e-01 8.43599141e-01 2.11785734e-01</_>
    <_>
      9.90364134e-01 9.10876036e-01 8.11655760e-01 1.85637683e-01</_>
    <_>
      9.90364134e-01 9.10876036e-01 8.11655760e-01 1.85637683e-01</_>
    <_>
      1. 9.57103729e-01 8.07007730e-01 1.90068290e-01</_>
    <_>
      1. 9.57103729e-01 8.07007730e-01 1.90068290e-01</_>
    <_>
      9.95709181e-01 8.59033108e-01 8.92856359e-01 1.93663955e-01</_>
    <_>
      1. 8.01940203e-01 8.32495213e-01 1.76438794e-01</_>
    <_>
      1. 8.25524151e-01 8.49141479e-01 1.64727777e-01</_>
    <_>
      9.90577281e-01 8.22312772e-01 8.44219446e-01 1.86348289e-01</_>
    <_>
      9.90577281e-01 8.22312772e-01 8.44219446e-01 1.86348289e-01</_>
    <_>
      9.95792806e-01 8.13611448e-01 8.42372060e-01 1.75306574e-01</_>
    <_>
      1. 8.53203356e-01 8.74111652e-01 1.82647735e-01</_>
    <_>
      1. 8.53203356e-01 8.74111652e-01 1.82647735e-01</_>
    <_>
      1. 9.04183626e-01 9.13481295e-01 2.00394168e-01</_>
    <_>
      1. 8.59417021e-01 8.75562131e-01 1.43181518e-01</_>
    <_>
      1. 9.04183626e-01 9.13481295e-01 2.00394168e-01</_>
    <_>
      1. 8.59417021e-01 8.75562131e-01 1.43181518e-01</_>
    <_>
      1. 8.25044036e-01 8.51501882e-01 1.83027193e-01</_>
    <_>
      1. 8.25044036e-01 8.51501882e-01 1.83027193e-01</_>
    <_>
      2.10728049e-02 2.94392314e-02 5.18553471e-03 1.50910988e-01</_>
    <_>
      4.93422151e-03 1.23869209e-03 7.03772763e-03 2.12148905e-01</_>
    <_>
      4.93422151e-03 1.23869209e-03 7.03772763e-03 2.12148905e-01</_>
    <_>
      1.40407979e-02 1.68067180e-02 4.80203062e-06 2.16080040e-01</_>
    <_>
      7.87660480e-03 3.40121391e-04 4.98334120e-04 1.42929599e-01</_>
    <_>
      1.25312805e-03 1.44241629e-02 9.69381872e-05 2.08928928e-01</_>
    <_>
      7.42575526e-03 1.99523922e-02 1.24404003e-04 1.98008657e-01</_>
    <_>
      0. 1.91176478e-02 1.91176478e-02 2.29163378e-01</_>
    <_>
      1.38887763e-03 2.62151967e-04 2.73102400e-04 1.92416564e-01</_>
    <_>
      1.38887763e-03 2.62151967e-04 2.73102400e-04 1.92416564e-01</_>
    <_>
      3.00300121e-03 9.61647369e-03 7.84961134e-03 2.23886982e-01</_>
    <_>
      1. 8.13516915e-01 8.14892530e-01 1.95838347e-01</_>
    <_>
      1. 7.71255553e-01 8.03911030e-01 2.03965053e-01</_>
    <_>
      7.13017583e-03 5.60361054e-03 5.35425683e-03 1.91963002e-01</_>
    <_>
      9.95064795e-01 7.80231774e-01 8.49801540e-01 2.06574351e-01</_>
    <_>
      1. 8.09675336e-01 8.54142606e-01 1.89325407e-01</_>
    <_>
      1. 8.09675336e-01 8.54142606e-01 1.89325407e-01</_>
    <_>
      1.11111104e-02 2.74955155e-03 3.89755098e-03 2.01684296e-01</_>
    <_>
      3.96826863e-03 1.20214140e-02 1.39383704e-03 2.21857309e-01</_>
    <_>
      3.96826863e-03 1.20214140e-02 1.39383704e-03 2.21857309e-01</_>
    <_>
      8.99279118e-03 6.72811456e-03 1.50814059e-03 2.24894583e-01</_>
    <_>
      7.32600689e-03 8.16145726e-03 1.81748357e-03 2.09996477e-01</_>
    <_>
      1.61870420e-02 1.43334258e-03 3.09342955e-04 2.19334409e-01</_>
    <_>
      8.99279118e-03 6.72811456e-03 1.50814059e-03 2.24894583e-01</_>
    <_>
      8.99279118e-03 1.96254207e-03 2.57143984e-03 2.77370006e-01</_>
    <_>
      5.01671433e-03 9.90822539e-03 1.21164322e-03 1.95632577e-01</_>
    <_>
      5.01671433e-03 9.90822539e-03 1.21164322e-03 1.95632577e-01</_>
    <_>
      1.17924511e-02 3.56563483e-03 6.08430756e-03 2.40325063e-01</_>
    <_>
      1. 8.13814759e-01 8.00732911e-01 2.85462976e-01</_>
    <_>
      4.31033969e-03 6.75152813e-04 1.10145910e-02 1.96461722e-01</_>
    <_>
      1.53845549e-03 4.43178229e-03 4.17790515e-03 1.99796945e-01</_>
    <_>
      1.53845549e-03 4.43178229e-03 4.17790515e-03 1.99796945e-01</_>
    <_>
      1. 5.34976184e-01 5.87780714e-01 1.35535866e-01</_>
    <_>
      9.86263275e-01 8.45126867e-01 8.59816194e-01 1.60286874e-01</_>
    <_>
      9.91091132e-01 8.61975908e-01 8.76929164e-01 1.76913530e-01</_>
    <_>
      9.86263275e-01 8.45126867e-01 8.59816194e-01 1.60286874e-01</_>
    <_>
      9.91091132e-01 8.61975908e-01 8.76929164e-01 1.76913530e-01</_>
    <_>
      1.44091249e-03 6.38405466e-03 6.29612617e-03 2.43019059e-01</_>
    <_>
      6.52742386e-03 7.00434530e-03 8.37030588e-04 2.20249176e-01</_>
    <_>
      9.95538354e-01 7.85108089e-01 8.89456093e-01 1.40472367e-01</_>
    <_>
      9.95538354e-01 7.85108089e-01 8.89456093e-01 1.40472367e-01</_>
    <_>
      5.23561239e-03 6.37136749e-04 8.01559538e-03 1.94674030e-01</_>
    <_>
      5.91015816e-03 2.55696912e-04 1.46576976e-02 2.24459231e-01</_>
    <_>
      1.18201971e-03 3.39978538e-03 1.42874513e-02 2.05271930e-01</_>
    <_>
      8.04290175e-03 4.18956252e-03 1.06178736e-03 1.77918658e-01</_>
    <_>
      9.87638950e-01 8.38924766e-01 8.55058908e-01 1.84575632e-01</_>
    <_>
      1. 8.65619719e-01 8.75536203e-01 2.00830743e-01</_>
    <_>
      1. 8.65619719e-01 8.75536203e-01 2.00830743e-01</_>
    <_>
      9.95107532e-01 8.17502439e-01 8.34031343e-01 2.19459906e-01</_>
    <_>
      9.95107532e-01 8.17502439e-01 8.34031343e-01 2.19459906e-01</_>
    <_>
      7.38334656e-03 5.78565430e-03 4.35204618e-03 1.80854410e-01</_>
    <_>
      1.45772099e-03 1.06486753e-02 1.82495860e-03 1.98245972e-01</_>
    <_>
      1.28939748e-02 3.77281045e-04 4.20239009e-03 1.95482373e-01</_>
    <_>
      1.08040869e-02 4.07607155e-03 3.59111116e-03 2.29946822e-01</_>
    <_>
      1.08040869e-02 4.07607155e-03 3.59111116e-03 2.29946822e-01</_>
    <_>
      0. 9.86125413e-03 9.48285498e-03 2.08340138e-01</_></support_vectors>
  <decision_functions>
    <_>
      <sv_count>200</sv_count>
      <rho>-9.0702030807733536e-02</rho>
      <alpha>
        1. 1. 1. 1. 1. 1. 1. 1. 1. 1. 1. 1. 1. 1. 1. 1. 1. 1. 1. 1. 1.
        1. 1. 1. 1. 1. 1. 1. 1. 1. 1. 1. 1. 1. 1. 1. 1. 1. 1. 1. 1. 1.
        1. 1. 1. 1. 1. 1. 1. 1. 1. 1. 1. 1. 1. 1. 1. 1. 1. 1. 1. 1. 1.
        1. 1. 1. 1. 1. 1. 1. 1. 1. 1. 1. 1. 1. 1. 1. 1. 1. 1. 1. 1. 1.
        1. 1. 1. 1. 1. 1. 1. 1. 1. 1. 1. 1. 1. 1. 1. 1. -1. -1. -1. -1.
        -1. -1. -1. -1. -1. -1. -1. -1. -1. -1. -1. -1. -1. -1. -1. -1.
        -1. -1. -1. -1. -1. -1. -1. -1. -1. -1. -1. -1. -1. -1. -1. -1.
        -1. -1. -1. -1. -1. -1. -1. -1. -1. -1. -1. -1. -1. -1. -1. -1.
        -1. -1. -1. -1. -1. -1. -1. -1. -1. -1. -1. -1. -1. -1. -1. -1.
        -1. -1. -1. -1. -1. -1. -1. -1. -1. -1. -1. -1. -1. -1. -1. -1.
        -1. -1. -1. -1. -1. -1. -1. -1. -1. -1. -1. -1. -1. -1. -1. -1.</alpha>
      <index>
        0 135 199 137 138 139 141 2 5 7 8 9 10 145 146 148 17 18 21 22
        23 24 154 25 26 27 28 29 155 156 32 33 157 63 158 160 161 162
        163 164 165 166 167 168 169 170 64 65 66 67 68 69 70 71 72 73
        171 172 173 74 76 78 79 85 86 90 91 181 93 94 95 182 184 185 186
        187 188 101 102 103 106 107 108 110 113 114 120 189 123 124 125
        128 129 130 194 132 195 196 197 198 1 3 4 6 11 12 13 14 15 16 19
        20 30 31 34 35 36 37 38 39 40 41 42 43 44 45 46 47 48 49 50 51
        52 53 54 55 56 57 58 59 60 61 62 75 77 80 81 82 83 84 87 88 89
        92 96 97 98 99 100 104 105 109 111 112 115 116 117 118 119 121
        122 126 127 131 133 134 136 140 142 143 174 175 176 177 178 179
        180 149 150 144 183 151 190 191 192 193 152 153 147 159</index></_></decision_functions></opencv_ml_svm>
</opencv_storage>
