<?xml version="1.0"?>
<opencv_storage>
<opencv_ml_svm>
  <format>3</format>
  <svmType>C_SVC</svmType>
  <kernel>
    <type>RBF</type>
    <gamma>1.</gamma></kernel>
  <C>1.</C>
  <term_criteria><iterations>100</iterations></term_criteria>
  <var_count>3</var_count>
  <class_count>2</class_count>
  <class_labels type_id="opencv-matrix">
    <rows>2</rows>
    <cols>1</cols>
    <dt>i</dt>
    <data>
      -1 1</data></class_labels>
  <sv_total>200</sv_total>
  <support_vectors>
    <_>
      1.66246325e-01 8.86861324e-01 1.53931573e-01</_>
    <_>
      3.81193519e-01 4.10958886e-01 1.68700457e-01</_>
    <_>
      3.37387621e-02 9.79865789e-01 1.46325409e-01</_>
    <_>
      2.06489563e-02 9.80620146e-01 1.76003635e-01</_>
    <_>
      2.06489563e-02 9.80620146e-01 1.76003635e-01</_>
    <_>
      3.37387621e-02 9.79865789e-01 1.46325409e-01</_>
    <_>
      2.41855681e-02 9.74637687e-01 1.57519996e-01</_>
    <_>
      1.84615254e-02 9.43661988e-01 1.49731815e-01</_>
    <_>
      2.19072104e-02 9.48412716e-01 1.93390191e-01</_>
    <_>
      1.84615254e-02 9.43661988e-01 1.49731815e-01</_>
    <_>
      2.19072104e-02 9.48412716e-01 1.93390191e-01</_>
    <_>
      2.50965357e-02 9.51086938e-01 2.04786360e-01</_>
    <_>
      3.42464447e-03 9.80000019e-01 1.66057765e-01</_>
    <_>
      3.42464447e-03 9.80000019e-01 1.66057765e-01</_>
    <_>
      8.53243470e-03 9.10852730e-01 1.57941312e-01</_>
    <_>
      9.55712616e-01 5.07575750e-01 1.92256287e-01</_>
    <_>
      9.55712616e-01 5.07575750e-01 1.92256287e-01</_>
    <_>
      1.11464858e-02 8.98148179e-01 1.75973400e-01</_>
    <_>
      1.83946490e-02 9.52586234e-01 1.72809497e-01</_>
    <_>
      1.83946490e-02 9.52586234e-01 1.72809497e-01</_>
    <_>
      1.74215436e-03 8.88349533e-01 2.18138665e-01</_>
    <_>
      3.62318754e-03 9.18367326e-01 2.15376824e-01</_>
    <_>
      3.62318754e-03 9.18367326e-01 2.15376824e-01</_>
    <_>
      1.34328306e-02 9.67479706e-01 1.86760858e-01</_>
    <_>
      1.51515007e-03 9.32038844e-01 2.16669798e-01</_>
    <_>
      2.11640298e-02 9.95575249e-01 1.81274846e-01</_>
    <_>
      9.95007873e-01 5.26315808e-01 1.80221453e-01</_>
    <_>
      9.95007873e-01 5.26315808e-01 1.80221453e-01</_>
    <_>
      9.80630577e-01 5.42635679e-01 1.82063818e-01</_>
    <_>
      9.80630577e-01 5.42635679e-01 1.82063818e-01</_>
    <_>
      1.34328306e-02 9.67479706e-01 1.86760858e-01</_>
    <_>
      1.51515007e-03 9.32038844e-01 2.16669798e-01</_>
    <_>
      2.11640298e-02 9.95575249e-01 1.81274846e-01</_>
    <_>
      1.68350339e-03 8.87254894e-01 2.12098628e-01</_>
    <_>
      9.91789460e-01 6.36363626e-01 2.27117807e-01</_>
    <_>
      9.72653687e-01 5.09708762e-01 2.09524468e-01</_>
    <_>
      9.72653687e-01 5.09708762e-01 2.09524468e-01</_>
    <_>
      9.72547352e-01 5.36842108e-01 2.16365650e-01</_>
    <_>
      9.72547352e-01 5.36842108e-01 2.16365650e-01</_>
    <_>
      9.91789460e-01 6.36363626e-01 2.27117807e-01</_>
    <_>
      1. 5.69306970e-01 2.07568914e-01</_>
    <_>
      9.79761899e-01 5.90909123e-01 1.53362632e-01</_>
    <_>
      9.79761899e-01 5.90909123e-01 1.53362632e-01</_>
    <_>
      1. 5.69306970e-01 2.07568914e-01</_>
    <_>
      1. 6.13861382e-01 1.91011027e-01</_>
    <_>
      1. 6.13861382e-01 1.91011027e-01</_>
    <_>
      9.91714776e-01 6.21212125e-01 1.85527489e-01</_>
    <_>
      9.93709147e-01 6.29629612e-01 2.15940028e-01</_>
    <_>
      9.93709147e-01 6.29629612e-01 2.15940028e-01</_>
    <_>
      9.91714776e-01 6.21212125e-01 1.85527489e-01</_>
    <_>
      8.54700804e-03 9.37007904e-01 1.81319177e-01</_>
    <_>
      5.58659434e-03 9.75177288e-01 1.69212759e-01</_>
    <_>
      8.54700804e-03 9.37007904e-01 1.81319177e-01</_>
    <_>
      7.12251663e-03 9.09482777e-01 1.90607429e-01</_>
    <_>
      5.58659434e-03 9.75177288e-01 1.69212759e-01</_>
    <_>
      1. 6.54545426e-01 1.61989570e-01</_>
    <_>
      1. 6.54545426e-01 1.61989570e-01</_>
    <_>
      9.92407680e-01 5.76271176e-01 1.71684831e-01</_>
    <_>
      3.01206112e-03 9.15887833e-01 2.19250500e-01</_>
    <_>
      1.46583021e-02 9.92537320e-01 1.54520765e-01</_>
    <_>
      1.46583021e-02 9.92537320e-01 1.54520765e-01</_>
    <_>
      1.47929788e-03 9.78448272e-01 1.90681994e-01</_>
    <_>
      1.47929788e-03 9.78448272e-01 1.90681994e-01</_>
    <_>
      1.03550255e-02 9.48717952e-01 1.91818327e-01</_>
    <_>
      1.03550255e-02 9.48717952e-01 1.91818327e-01</_>
    <_>
      9.90426481e-01 5.27777791e-01 2.02846140e-01</_>
    <_>
      9.79984283e-01 5.95588207e-01 1.87523738e-01</_>
    <_>
      9.90426481e-01 5.27777791e-01 2.02846140e-01</_>
    <_>
      9.95642662e-01 6.20879114e-01 1.93249658e-01</_>
    <_>
      9.95642662e-01 6.20879114e-01 1.93249658e-01</_>
    <_>
      1. 6.02112651e-01 1.86304390e-01</_>
    <_>
      9.93861616e-01 6.39999986e-01 2.26218939e-01</_>
    <_>
      9.93567467e-01 5.04065037e-01 1.88909709e-01</_>
    <_>
      8.52271914e-03 9.52755928e-01 1.79416403e-01</_>
    <_>
      8.52271914e-03 9.52755928e-01 1.79416403e-01</_>
    <_>
      9.29358959e-01 4.66942132e-01 1.75181046e-01</_>
    <_>
      6.94444776e-03 9.67032969e-01 1.84480518e-01</_>
    <_>
      1.27392411e-02 9.54128444e-01 1.78817675e-01</_>
    <_>
      1. 5.17857134e-01 1.87724933e-01</_>
    <_>
      9.84639585e-01 5.90000033e-01 2.70033002e-01</_>
    <_>
      9.84639585e-01 5.90000033e-01 2.70033002e-01</_>
    <_>
      9.43682313e-01 4.97835517e-01 2.05078557e-01</_>
    <_>
      9.53312993e-01 5.56603789e-01 2.93572217e-01</_>
    <_>
      1. 5.81967235e-01 3.06959331e-01</_>
    <_>
      1. 5.90163946e-01 2.48892963e-01</_>
    <_>
      1. 5.90163946e-01 2.48892963e-01</_>
    <_>
      1. 6.27358496e-01 2.16110259e-01</_>
    <_>
      9.46566284e-01 3.41463387e-01 1.64184183e-01</_>
    <_>
      9.43682313e-01 4.97835517e-01 2.05078557e-01</_>
    <_>
      1. 6.27358496e-01 2.16110259e-01</_>
    <_>
      9.46566284e-01 3.41463387e-01 1.64184183e-01</_>
    <_>
      9.92526293e-01 4.91228044e-01 1.61072686e-01</_>
    <_>
      9.92526293e-01 4.91228044e-01 1.61072686e-01</_>
    <_>
      1. 6.35416627e-01 1.86200112e-01</_>
    <_>
      1. 6.35416627e-01 1.86200112e-01</_>
    <_>
      8.62461329e-01 3.97058845e-01 1.53780952e-01</_>
    <_>
      7.64652610e-01 2.22891569e-01 1.74479112e-01</_>
    <_>
      9.12925839e-01 2.67676771e-01 1.51569307e-01</_>
    <_>
      9.12925839e-01 2.67676771e-01 1.51569307e-01</_>
    <_>
      1. 6.20253205e-01 1.91045672e-01</_>
    <_>
      1. 6.20253205e-01 1.91045672e-01</_>
    <_>
      9.86919343e-01 6.07954502e-01 1.98160410e-01</_>
    <_>
      9.86919343e-01 6.07954502e-01 1.98160410e-01</_>
    <_>
      9.63388145e-01 5.49019575e-01 1.78123668e-01</_>
    <_>
      9.63388145e-01 5.49019575e-01 1.78123668e-01</_>
    <_>
      0. 9.05737698e-01 1.76986232e-01</_>
    <_>
      1.37194991e-02 9.79508221e-01 1.68540120e-01</_>
    <_>
      4.70218062e-03 9.07692313e-01 1.67911395e-01</_>
    <_>
      0. 8.83495152e-01 1.97574422e-01</_>
    <_>
      9.65390086e-01 4.70149279e-01 2.65456170e-01</_>
    <_>
      9.65390086e-01 4.70149279e-01 2.65456170e-01</_>
    <_>
      9.51324344e-01 5.67567587e-01 3.09079379e-01</_>
    <_>
      1. 6.40625000e-01 1.87704369e-01</_>
    <_>
      1. 6.40625000e-01 1.87704369e-01</_>
    <_>
      1.89573467e-02 9.56521749e-01 1.94941089e-01</_>
    <_>
      1.89573467e-02 9.56521749e-01 1.94941089e-01</_>
    <_>
      3.60110700e-02 9.92125988e-01 1.81947649e-01</_>
    <_>
      3.60110700e-02 9.92125988e-01 1.81947649e-01</_>
    <_>
      9.80736732e-01 5.72463751e-01 1.80249542e-01</_>
    <_>
      9.80736732e-01 5.72463751e-01 1.80249542e-01</_>
    <_>
      9.77271020e-01 5.80357134e-01 2.38996536e-01</_>
    <_>
      9.68962550e-01 4.13461566e-01 2.64084339e-01</_>
    <_>
      9.77271020e-01 5.80357134e-01 2.38996536e-01</_>
    <_>
      9.68962550e-01 4.13461566e-01 2.64084339e-01</_>
    <_>
      5.14137745e-03 8.98496270e-01 1.87852129e-01</_>
    <_>
      5.14137745e-03 8.98496270e-01 1.87852129e-01</_>
    <_>
      1.61653459e-02 9.56375837e-01 1.50642961e-01</_>
    <_>
      1.61653459e-02 9.56375837e-01 1.50642961e-01</_>
    <_>
      7.87660480e-03 9.39597309e-01 1.42929599e-01</_>
    <_>
      7.42575526e-03 9.72656250e-01 1.98008657e-01</_>
    <_>
      7.42575526e-03 9.72656250e-01 1.98008657e-01</_>
    <_>
      1.90217495e-02 9.58677709e-01 1.79044887e-01</_>
    <_>
      2.47160792e-02 9.81884062e-01 1.81437895e-01</_>
    <_>
      2.47160792e-02 9.81884062e-01 1.81437895e-01</_>
    <_>
      1.80135071e-02 9.67741966e-01 1.83049783e-01</_>
    <_>
      1.80135071e-02 9.67741966e-01 1.83049783e-01</_>
    <_>
      2.05969214e-02 9.62732911e-01 1.21069260e-01</_>
    <_>
      9.29186583e-01 4.34210539e-01 3.09144557e-01</_>
    <_>
      9.29186583e-01 4.34210539e-01 3.09144557e-01</_>
    <_>
      1.57728791e-03 8.90909076e-01 2.07414120e-01</_>
    <_>
      3.53260934e-02 9.78070199e-01 1.44883245e-01</_>
    <_>
      9.49691415e-01 4.60869551e-01 2.32427537e-01</_>
    <_>
      2.05696225e-02 9.95192289e-01 2.06548676e-01</_>
    <_>
      2.05696225e-02 9.95192289e-01 2.06548676e-01</_>
    <_>
      3.78056765e-02 9.87068951e-01 1.67684555e-01</_>
    <_>
      9.47812974e-01 5.06250024e-01 1.96833119e-01</_>
    <_>
      3.78056765e-02 9.87068951e-01 1.67684555e-01</_>
    <_>
      7.00533390e-03 9.27083313e-01 2.19827309e-01</_>
    <_>
      7.00533390e-03 9.27083313e-01 2.19827309e-01</_>
    <_>
      1.32894814e-02 9.64285731e-01 1.62303090e-01</_>
    <_>
      1. 6.27906978e-01 2.23402575e-01</_>
    <_>
      1. 6.27906978e-01 2.23402575e-01</_>
    <_>
      2.43309140e-03 9.73154366e-01 1.62677422e-01</_>
    <_>
      2.43309140e-03 9.73154366e-01 1.62677422e-01</_>
    <_>
      2.77008414e-02 9.61038947e-01 1.54479161e-01</_>
    <_>
      2.77008414e-02 9.61038947e-01 1.54479161e-01</_>
    <_>
      4.77707386e-03 9.46601927e-01 2.19907433e-01</_>
    <_>
      9.51539457e-01 3.13953459e-01 1.66761667e-01</_>
    <_>
      4.77707386e-03 9.46601927e-01 2.19907433e-01</_>
    <_>
      9.51539457e-01 3.13953459e-01 1.66761667e-01</_>
    <_>
      8.89679790e-03 9.53125000e-01 2.20746249e-01</_>
    <_>
      2.08333433e-02 9.61956501e-01 2.08134189e-01</_>
    <_>
      1.19047761e-02 9.95833337e-01 1.62439138e-01</_>
    <_>
      1.19047761e-02 9.95833337e-01 1.62439138e-01</_>
    <_>
      1.52224898e-02 9.38016534e-01 2.14618638e-01</_>
    <_>
      1.52224898e-02 9.38016534e-01 2.14618638e-01</_>
    <_>
      9.69082654e-01 5.51401854e-01 2.36272052e-01</_>
    <_>
      9.69082654e-01 5.51401854e-01 2.36272052e-01</_>
    <_>
      9.74919558e-01 5.78651667e-01 2.66143113e-01</_>
    <_>
      9.74919558e-01 5.78651667e-01 2.66143113e-01</_>
    <_>
      5.15463948e-03 9.09523785e-01 2.01652616e-01</_>
    <_>
      5.15463948e-03 9.09523785e-01 2.01652616e-01</_>
    <_>
      3.96825373e-02 9.83660102e-01 1.50417894e-01</_>
    <_>
      9.77641046e-01 4.85074639e-01 2.08855271e-01</_>
    <_>
      9.77641046e-01 4.85074639e-01 2.08855271e-01</_>
    <_>
      9.18201208e-01 4.23076928e-01 2.96023428e-01</_>
    <_>
      9.88487720e-01 6.43939376e-01 2.90984273e-01</_>
    <_>
      5.71429729e-03 9.69026566e-01 1.81594342e-01</_>
    <_>
      2.59433985e-02 9.57983196e-01 2.15850458e-01</_>
    <_>
      5.23561239e-03 9.91869926e-01 1.94674030e-01</_>
    <_>
      1.18201971e-03 9.07563031e-01 2.05271930e-01</_>
    <_>
      2.20049024e-02 9.72222209e-01 1.56664267e-01</_>
    <_>
      2.20049024e-02 9.72222209e-01 1.56664267e-01</_>
    <_>
      1. 5.51470578e-01 2.10793689e-01</_>
    <_>
      1. 5.51470578e-01 2.10793689e-01</_>
    <_>
      9.13072050e-01 4.55882370e-01 2.10854411e-01</_>
    <_>
      9.13072050e-01 4.55882370e-01 2.10854411e-01</_>
    <_>
      1.01239979e-02 9.24242437e-01 1.64323494e-01</_>
    <_>
      1.01239979e-02 9.24242437e-01 1.64323494e-01</_>
    <_>
      4.41862375e-01 2.86324799e-01 1.75815761e-01</_>
    <_>
      9.61319089e-01 5.05813956e-01 1.72144249e-01</_>
    <_>
      9.41261113e-01 4.18604672e-01 2.75042087e-01</_>
    <_>
      9.41261113e-01 4.18604672e-01 2.75042087e-01</_>
    <_>
      2.15320885e-02 9.50980365e-01 1.89112425e-01</_>
    <_>
      2.15320885e-02 9.50980365e-01 1.89112425e-01</_>
    <_>
      9.86947954e-01 6.09243691e-01 2.23675683e-01</_>
    <_>
      9.86947954e-01 6.09243691e-01 2.23675683e-01</_>
    <_>
      7.33137131e-03 9.70833361e-01 1.89395785e-01</_>
    <_>
      7.97470331e-01 3.47457647e-01 2.61318266e-01</_>
    <_>
      7.73045421e-03 9.09448802e-01 1.62801966e-01</_></support_vectors>
  <decision_functions>
    <_>
      <sv_count>200</sv_count>
      <rho>7.6249822974205017e-02</rho>
      <alpha>
        1. 1. 1. 1. 1. 1. 1. 1. 1. 1. 1. 1. 1. 1. 1. 1. 1. 1. 1. 1. 1.
        1. 1. 1. 1. 1. 1. 1. 1. 1. 1. 1. 1. 1. 1. 1. 1. 1. 1. 1. 1. 1.
        1. 1. 1. 1. 1. 1. 1. 1. 1. 1. 1. 1. 1. 1. 1. 1. 1. 1. 1. 1. 1.
        1. 1. 1. 1. 1. 1. 1. 1. 1. 1. 1. 1. 1. 1. 1. 1. 1. 1. 1. 1. 1.
        1. 1. 1. 1. 1. 1. 1. 1. 1. 1. 1. 1. 1. 1. 1. 1. -1. -1. -1. -1.
        -1. -1. -1. -1. -1. -1. -1. -1. -1. -1. -1. -1. -1. -1. -1. -1.
        -1. -1. -1. -1. -1. -1. -1. -1. -1. -1. -1. -1. -1. -1. -1. -1.
        -1. -1. -1. -1. -1. -1. -1. -1. -1. -1. -1. -1. -1. -1. -1. -1.
        -1. -1. -1. -1. -1. -1. -1. -1. -1. -1. -1. -1. -1. -1. -1. -1.
        -1. -1. -1. -1. -1. -1. -1. -1. -1. -1. -1. -1. -1. -1. -1. -1.
        -1. -1. -1. -1. -1. -1. -1. -1. -1. -1. -1. -1. -1. -1. -1. -1.</alpha>
      <index>
        0 198 199 6 128 131 8 136 10 11 139 140 141 12 13 144 145 146 14
        147 148 15 16 149 26 27 28 29 44 45 47 48 152 153 57 58 157 159
        160 161 162 163 68 69 70 71 72 164 165 168 169 170 171 76 77 78
        172 82 83 84 85 91 92 93 94 176 177 95 178 179 105 106 180 107
        181 108 182 183 184 185 186 112 113 114 115 116 117 189 190 118
        119 191 192 120 121 122 123 193 194 197 1 2 3 4 5 7 9 17 18 19
        20 21 22 23 24 25 30 31 32 33 34 35 36 37 38 39 40 41 42 43 46
        49 50 51 52 53 54 55 56 59 60 61 62 63 64 65 66 67 73 74 75 79
        80 81 86 87 88 89 90 96 97 98 99 100 101 102 103 104 109 110 111
        124 125 126 127 134 166 167 135 129 150 151 130 173 174 137 175
        138 187 188 142 143 154 155 156 158 195 196 132 133</index></_></decision_functions></opencv_ml_svm>
</opencv_storage>
