<?xml version="1.0"?>
<opencv_storage>
<opencv_ml_svm>
  <format>3</format>
  <svmType>C_SVC</svmType>
  <kernel>
    <type>RBF</type>
    <gamma>1.</gamma></kernel>
  <C>1.</C>
  <term_criteria><iterations>100</iterations></term_criteria>
  <var_count>1</var_count>
  <class_count>2</class_count>
  <class_labels type_id="opencv-matrix">
    <rows>2</rows>
    <cols>1</cols>
    <dt>i</dt>
    <data>
      -1 1</data></class_labels>
  <sv_total>200</sv_total>
  <support_vectors>
    <_>
      8.86861324e-01</_>
    <_>
      4.10958886e-01</_>
    <_>
      4.10958886e-01</_>
    <_>
      9.96794879e-01</_>
    <_>
      3.42105269e-01</_>
    <_>
      9.96350348e-01</_>
    <_>
      9.96376812e-01</_>
    <_>
      3.94736826e-01</_>
    <_>
      3.94736826e-01</_>
    <_>
      4.12162185e-01</_>
    <_>
      4.28571403e-01</_>
    <_>
      3.90625000e-01</_>
    <_>
      3.90625000e-01</_>
    <_>
      3.96103919e-01</_>
    <_>
      3.96103919e-01</_>
    <_>
      4.01234567e-01</_>
    <_>
      4.01234567e-01</_>
    <_>
      4.68085110e-01</_>
    <_>
      4.18918908e-01</_>
    <_>
      3.66071403e-01</_>
    <_>
      3.31081092e-01</_>
    <_>
      3.31081092e-01</_>
    <_>
      9.96710539e-01</_>
    <_>
      9.96710539e-01</_>
    <_>
      2.88888872e-01</_>
    <_>
      9.96551752e-01</_>
    <_>
      9.96551752e-01</_>
    <_>
      9.97093022e-01</_>
    <_>
      9.97093022e-01</_>
    <_>
      9.96350348e-01</_>
    <_>
      3.96103919e-01</_>
    <_>
      4.01234567e-01</_>
    <_>
      9.96710539e-01</_>
    <_>
      9.96710539e-01</_>
    <_>
      9.96212125e-01</_>
    <_>
      9.96212125e-01</_>
    <_>
      4.16666687e-01</_>
    <_>
      4.16666687e-01</_>
    <_>
      3.65740716e-01</_>
    <_>
      3.65740716e-01</_>
    <_>
      9.96969700e-01</_>
    <_>
      9.96969700e-01</_>
    <_>
      4.21686769e-01</_>
    <_>
      3.96907210e-01</_>
    <_>
      3.96907210e-01</_>
    <_>
      3.97849441e-01</_>
    <_>
      3.97849441e-01</_>
    <_>
      4.05172408e-01</_>
    <_>
      9.96503472e-01</_>
    <_>
      4.10000026e-01</_>
    <_>
      4.27007318e-01</_>
    <_>
      4.27007318e-01</_>
    <_>
      4.15492952e-01</_>
    <_>
      4.15492952e-01</_>
    <_>
      3.98809552e-01</_>
    <_>
      3.97196233e-01</_>
    <_>
      9.96376812e-01</_>
    <_>
      9.97041404e-01</_>
    <_>
      3.97058845e-01</_>
    <_>
      2.22891569e-01</_>
    <_>
      9.97041404e-01</_>
    <_>
      9.96753275e-01</_>
    <_>
      9.96753275e-01</_>
    <_>
      3.64285707e-01</_>
    <_>
      9.96428549e-01</_>
    <_>
      9.96428549e-01</_>
    <_>
      9.96402860e-01</_>
    <_>
      9.96428549e-01</_>
    <_>
      9.96428549e-01</_>
    <_>
      9.96402860e-01</_>
    <_>
      9.96575356e-01</_>
    <_>
      9.96575356e-01</_>
    <_>
      3.99999976e-01</_>
    <_>
      3.54166687e-01</_>
    <_>
      3.99999976e-01</_>
    <_>
      9.96710539e-01</_>
    <_>
      9.96710539e-01</_>
    <_>
      9.96350348e-01</_>
    <_>
      9.96350348e-01</_>
    <_>
      9.96478856e-01</_>
    <_>
      9.96478856e-01</_>
    <_>
      4.13461566e-01</_>
    <_>
      4.13461566e-01</_>
    <_>
      9.96376812e-01</_>
    <_>
      9.96376812e-01</_>
    <_>
      9.96710539e-01</_>
    <_>
      9.96428549e-01</_>
    <_>
      9.96710539e-01</_>
    <_>
      9.96453881e-01</_>
    <_>
      3.78640771e-01</_>
    <_>
      4.12844062e-01</_>
    <_>
      1.89873397e-01</_>
    <_>
      1.89873397e-01</_>
    <_>
      4.04494405e-01</_>
    <_>
      9.96428549e-01</_>
    <_>
      9.96428549e-01</_>
    <_>
      2.53086448e-01</_>
    <_>
      4.08450723e-01</_>
    <_>
      9.96527791e-01</_>
    <_>
      9.96527791e-01</_>
    <_>
      9.96621609e-01</_>
    <_>
      9.96527791e-01</_>
    <_>
      9.96527791e-01</_>
    <_>
      9.96376812e-01</_>
    <_>
      9.96951222e-01</_>
    <_>
      9.96951222e-01</_>
    <_>
      3.97058845e-01</_>
    <_>
      9.96376812e-01</_>
    <_>
      4.25000012e-01</_>
    <_>
      3.97058845e-01</_>
    <_>
      3.95348847e-01</_>
    <_>
      9.96428549e-01</_>
    <_>
      9.96428549e-01</_>
    <_>
      9.96774197e-01</_>
    <_>
      9.96774197e-01</_>
    <_>
      4.13636386e-01</_>
    <_>
      3.77192974e-01</_>
    <_>
      4.08730149e-01</_>
    <_>
      3.70786488e-01</_>
    <_>
      4.08730149e-01</_>
    <_>
      4.20560777e-01</_>
    <_>
      4.20560777e-01</_>
    <_>
      9.96987939e-01</_>
    <_>
      9.96987939e-01</_>
    <_>
      9.96323526e-01</_>
    <_>
      9.96323526e-01</_>
    <_>
      9.96428549e-01</_>
    <_>
      9.97023821e-01</_>
    <_>
      9.96428549e-01</_>
    <_>
      9.97023821e-01</_>
    <_>
      9.96212125e-01</_>
    <_>
      3.42342317e-01</_>
    <_>
      4.22413766e-01</_>
    <_>
      4.22413766e-01</_>
    <_>
      3.99999976e-01</_>
    <_>
      9.96402860e-01</_>
    <_>
      9.96402860e-01</_>
    <_>
      4.13043499e-01</_>
    <_>
      3.33333313e-01</_>
    <_>
      3.89534891e-01</_>
    <_>
      3.13953459e-01</_>
    <_>
      9.96478856e-01</_>
    <_>
      3.13953459e-01</_>
    <_>
      9.96478856e-01</_>
    <_>
      9.96240616e-01</_>
    <_>
      4.03409064e-01</_>
    <_>
      9.96240616e-01</_>
    <_>
      3.71559620e-01</_>
    <_>
      2.64044940e-01</_>
    <_>
      3.39999974e-01</_>
    <_>
      3.39999974e-01</_>
    <_>
      3.72093022e-01</_>
    <_>
      9.96428549e-01</_>
    <_>
      9.96428549e-01</_>
    <_>
      9.96951222e-01</_>
    <_>
      9.96296287e-01</_>
    <_>
      9.96296287e-01</_>
    <_>
      9.96951222e-01</_>
    <_>
      4.50819671e-01</_>
    <_>
      9.96428549e-01</_>
    <_>
      9.96428549e-01</_>
    <_>
      9.96774197e-01</_>
    <_>
      9.96551752e-01</_>
    <_>
      9.96551752e-01</_>
    <_>
      3.96226406e-01</_>
    <_>
      3.96226406e-01</_>
    <_>
      3.48214269e-01</_>
    <_>
      3.99999976e-01</_>
    <_>
      3.78048778e-01</_>
    <_>
      9.96503472e-01</_>
    <_>
      3.78048778e-01</_>
    <_>
      9.96323526e-01</_>
    <_>
      3.87755096e-01</_>
    <_>
      9.96323526e-01</_>
    <_>
      4.26229537e-01</_>
    <_>
      4.26229537e-01</_>
    <_>
      3.93333316e-01</_>
    <_>
      9.96894419e-01</_>
    <_>
      9.96894419e-01</_>
    <_>
      3.62318814e-01</_>
    <_>
      3.92473102e-01</_>
    <_>
      3.73913050e-01</_>
    <_>
      3.73913050e-01</_>
    <_>
      2.86324799e-01</_>
    <_>
      9.96598661e-01</_>
    <_>
      9.96598661e-01</_>
    <_>
      4.18604672e-01</_>
    <_>
      4.18604672e-01</_>
    <_>
      4.02438998e-01</_>
    <_>
      4.02438998e-01</_>
    <_>
      9.96453881e-01</_>
    <_>
      9.96453881e-01</_>
    <_>
      3.47457647e-01</_>
    <_>
      9.96527791e-01</_>
    <_>
      9.96453881e-01</_>
    <_>
      9.96527791e-01</_>
    <_>
      9.96323526e-01</_>
    <_>
      9.96323526e-01</_>
    <_>
      9.96644318e-01</_>
    <_>
      9.96644318e-01</_></support_vectors>
  <decision_functions>
    <_>
      <sv_count>200</sv_count>
      <rho>1.3743978738784790e-01</rho>
      <alpha>
        1. 1. 1. 1. 1. 1. 1. 1. 1. 1. 1. 1. 1. 1. 1. 1. 1. 1. 1. 1. 1.
        1. 1. 1. 1. 1. 1. 1. 1. 1. 1. 1. 1. 1. 1. 1. 1. 1. 1. 1. 1. 1.
        1. 1. 1. 1. 1. 1. 1. 1. 1. 1. 1. 1. 1. 1. 1. 1. 1. 1. 1. 1. 1.
        1. 1. 1. 1. 1. 1. 1. 1. 1. 1. 1. 1. 1. 1. 1. 1. 1. 1. 1. 1. 1.
        1. 1. 1. 1. 1. 1. 1. 1. 1. 1. 1. 1. 1. 1. 1. 1. -1. -1. -1. -1.
        -1. -1. -1. -1. -1. -1. -1. -1. -1. -1. -1. -1. -1. -1. -1. -1.
        -1. -1. -1. -1. -1. -1. -1. -1. -1. -1. -1. -1. -1. -1. -1. -1.
        -1. -1. -1. -1. -1. -1. -1. -1. -1. -1. -1. -1. -1. -1. -1. -1.
        -1. -1. -1. -1. -1. -1. -1. -1. -1. -1. -1. -1. -1. -1. -1. -1.
        -1. -1. -1. -1. -1. -1. -1. -1. -1. -1. -1. -1. -1. -1. -1. -1.
        -1. -1. -1. -1. -1. -1. -1. -1. -1. -1. -1. -1. -1. -1. -1. -1.</alpha>
      <index>
        0 3 192 5 6 85 86 87 88 89 193 194 195 90 13 198 199 14 15 16 19
        20 21 22 23 99 25 26 100 101 102 110 113 114 115 29 117 32 119
        33 122 123 38 39 131 42 132 133 134 135 136 45 46 137 139 140
        142 145 147 48 149 150 50 51 151 152 153 54 161 55 162 56 163
        164 165 58 166 61 62 169 63 64 65 66 67 68 69 180 181 182 183 73
        75 76 186 187 81 82 83 84 1 2 4 7 8 9 10 11 12 17 18 24 27 28 30
        31 34 35 36 37 40 41 43 44 47 49 52 53 57 59 60 70 71 72 74 77
        78 79 80 91 92 93 108 118 109 120 121 111 112 154 155 156 157
        158 159 160 97 98 124 125 126 127 116 167 128 168 170 129 96 171
        172 173 130 174 175 94 176 177 178 179 184 185 138 188 189 141
        190 191 143 144 146 95 103 104 148 196 197 105 106 107</index></_></decision_functions></opencv_ml_svm>
</opencv_storage>
