<?xml version="1.0"?>
<opencv_storage>
<opencv_ml_svm>
  <format>3</format>
  <svmType>C_SVC</svmType>
  <kernel>
    <type>RBF</type>
    <gamma>1.</gamma></kernel>
  <C>1.</C>
  <term_criteria><iterations>100</iterations></term_criteria>
  <var_count>1</var_count>
  <class_count>2</class_count>
  <class_labels type_id="opencv-matrix">
    <rows>2</rows>
    <cols>1</cols>
    <dt>i</dt>
    <data>
      -1 1</data></class_labels>
  <sv_total>200</sv_total>
  <support_vectors>
    <_>
      6.77330375e-01</_>
    <_>
      5.35067916e-01</_>
    <_>
      -1.57777786e-01</_>
    <_>
      7.65704572e-01</_>
    <_>
      7.83769071e-01</_>
    <_>
      7.65704572e-01</_>
    <_>
      7.83769071e-01</_>
    <_>
      7.79069781e-01</_>
    <_>
      7.79069781e-01</_>
    <_>
      -3.11827898e-01</_>
    <_>
      -3.11827898e-01</_>
    <_>
      7.73013115e-01</_>
    <_>
      7.73013115e-01</_>
    <_>
      7.77502060e-01</_>
    <_>
      7.77502060e-01</_>
    <_>
      -7.60416627e-01</_>
    <_>
      -7.66917348e-01</_>
    <_>
      -1.82291627e-01</_>
    <_>
      -2.67801881e-01</_>
    <_>
      -2.67801881e-01</_>
    <_>
      -2.69841313e-01</_>
    <_>
      -7.60416627e-01</_>
    <_>
      -3.21256042e-01</_>
    <_>
      -1.09999990e+00</_>
    <_>
      -3.21256042e-01</_>
    <_>
      -3.39285731e-01</_>
    <_>
      -1.01851821e-01</_>
    <_>
      -1.01851821e-01</_>
    <_>
      -1.66666627e-01</_>
    <_>
      -1.66666627e-01</_>
    <_>
      -4.83660102e-01</_>
    <_>
      -2.69841313e-01</_>
    <_>
      -8.08333278e-01</_>
    <_>
      -1.11111164e-01</_>
    <_>
      -1.09999990e+00</_>
    <_>
      -3.39285731e-01</_>
    <_>
      -4.83660102e-01</_>
    <_>
      -1.49603176e+00</_>
    <_>
      -1.49603176e+00</_>
    <_>
      -8.08333278e-01</_>
    <_>
      -1.11111164e-01</_>
    <_>
      -3.09999943e-01</_>
    <_>
      -2.78582931e-01</_>
    <_>
      -3.09440613e-01</_>
    <_>
      -1.34814858e-01</_>
    <_>
      -3.09440613e-01</_>
    <_>
      7.79687524e-01</_>
    <_>
      -3.09999943e-01</_>
    <_>
      -2.78582931e-01</_>
    <_>
      -1.34814858e-01</_>
    <_>
      7.79687524e-01</_>
    <_>
      7.68531799e-01</_>
    <_>
      -1.46464705e-01</_>
    <_>
      -1.91176414e-01</_>
    <_>
      -5.22807002e-01</_>
    <_>
      -1.69407845e-01</_>
    <_>
      -1.20833325e+00</_>
    <_>
      -1.23051953e+00</_>
    <_>
      -2.64492750e-01</_>
    <_>
      -1.23051953e+00</_>
    <_>
      -2.64492750e-01</_>
    <_>
      -3.56854796e-01</_>
    <_>
      -7.69005895e-01</_>
    <_>
      -3.56854796e-01</_>
    <_>
      -7.69005895e-01</_>
    <_>
      -1.12499952e-01</_>
    <_>
      -1.12499952e-01</_>
    <_>
      -1.12500000e+00</_>
    <_>
      -1.25446439e+00</_>
    <_>
      -1.46527767e+00</_>
    <_>
      -1.46527767e+00</_>
    <_>
      -1.63963914e-01</_>
    <_>
      -1.07407403e+00</_>
    <_>
      -4.36666608e-01</_>
    <_>
      -4.36666608e-01</_>
    <_>
      -3.71875048e-01</_>
    <_>
      -3.71875048e-01</_>
    <_>
      -4.95370388e-01</_>
    <_>
      -2.42884278e-01</_>
    <_>
      -2.42884278e-01</_>
    <_>
      -4.18660283e-01</_>
    <_>
      7.72868216e-01</_>
    <_>
      7.72868216e-01</_>
    <_>
      7.98491359e-01</_>
    <_>
      -1.08173132e-01</_>
    <_>
      -1.08173132e-01</_>
    <_>
      7.76000023e-01</_>
    <_>
      -4.02564049e-01</_>
    <_>
      7.98491359e-01</_>
    <_>
      7.76000023e-01</_>
    <_>
      7.77950287e-01</_>
    <_>
      -2.44744778e-01</_>
    <_>
      -1.53267980e+00</_>
    <_>
      -1.33333325e-01</_>
    <_>
      -9.19753075e-01</_>
    <_>
      -1.26339293e+00</_>
    <_>
      -1.33333325e-01</_>
    <_>
      -1.26339293e+00</_>
    <_>
      7.81746030e-01</_>
    <_>
      7.81746030e-01</_>
    <_>
      -3.14229250e-01</_>
    <_>
      -3.65079403e-01</_>
    <_>
      -1.33035707e+00</_>
    <_>
      -3.65079403e-01</_>
    <_>
      -1.14935064e+00</_>
    <_>
      -4.25263166e-01</_>
    <_>
      -1.90740705e-01</_>
    <_>
      -1.43636370e+00</_>
    <_>
      -3.14229250e-01</_>
    <_>
      -1.33035707e+00</_>
    <_>
      -1.14935064e+00</_>
    <_>
      8.09618592e-01</_>
    <_>
      7.63513505e-01</_>
    <_>
      8.09618592e-01</_>
    <_>
      7.63513505e-01</_>
    <_>
      7.63869166e-01</_>
    <_>
      7.63869166e-01</_>
    <_>
      -1.08333349e-01</_>
    <_>
      7.76893795e-01</_>
    <_>
      -2.20833302e-01</_>
    <_>
      -1.08333349e-01</_>
    <_>
      7.76893795e-01</_>
    <_>
      -2.35294104e-01</_>
    <_>
      -2.35294104e-01</_>
    <_>
      -1.23200011e+00</_>
    <_>
      -3.76190424e-01</_>
    <_>
      -1.23200011e+00</_>
    <_>
      -3.76190424e-01</_>
    <_>
      7.79220760e-01</_>
    <_>
      7.79220760e-01</_>
    <_>
      7.74603188e-01</_>
    <_>
      7.74603188e-01</_>
    <_>
      -1.03515625e-01</_>
    <_>
      7.88338423e-01</_>
    <_>
      7.76744187e-01</_>
    <_>
      7.76744187e-01</_>
    <_>
      7.67890751e-01</_>
    <_>
      7.67890751e-01</_>
    <_>
      -3.11594248e-01</_>
    <_>
      -3.11594248e-01</_>
    <_>
      7.69009233e-01</_>
    <_>
      7.69009233e-01</_>
    <_>
      7.68263161e-01</_>
    <_>
      7.68263161e-01</_>
    <_>
      7.80864179e-01</_>
    <_>
      8.06763291e-01</_>
    <_>
      7.76276290e-01</_>
    <_>
      7.76276290e-01</_>
    <_>
      7.87447035e-01</_>
    <_>
      7.87447035e-01</_>
    <_>
      7.95058131e-01</_>
    <_>
      7.95058131e-01</_>
    <_>
      7.75510192e-01</_>
    <_>
      7.75510192e-01</_>
    <_>
      7.88194418e-01</_>
    <_>
      7.83333302e-01</_>
    <_>
      7.88194418e-01</_>
    <_>
      7.83333302e-01</_>
    <_>
      7.79120862e-01</_>
    <_>
      7.79120862e-01</_>
    <_>
      8.04069757e-01</_>
    <_>
      8.04069757e-01</_>
    <_>
      7.92075455e-01</_>
    <_>
      7.79272735e-01</_>
    <_>
      7.92075455e-01</_>
    <_>
      7.79272735e-01</_>
    <_>
      7.74038434e-01</_>
    <_>
      7.74038434e-01</_>
    <_>
      7.66768277e-01</_>
    <_>
      7.88156271e-01</_>
    <_>
      7.66768277e-01</_>
    <_>
      7.75454521e-01</_>
    <_>
      7.75454521e-01</_>
    <_>
      7.65326321e-01</_>
    <_>
      8.04370463e-01</_>
    <_>
      8.04370463e-01</_>
    <_>
      7.73216009e-01</_>
    <_>
      7.73216009e-01</_>
    <_>
      8.04878056e-01</_>
    <_>
      7.74376392e-01</_>
    <_>
      7.74376392e-01</_>
    <_>
      7.79797971e-01</_>
    <_>
      7.79797971e-01</_>
    <_>
      7.80154467e-01</_>
    <_>
      7.80154467e-01</_>
    <_>
      7.66697586e-01</_>
    <_>
      7.66697586e-01</_>
    <_>
      7.84993410e-01</_>
    <_>
      7.84993410e-01</_>
    <_>
      7.82364011e-01</_>
    <_>
      7.82364011e-01</_>
    <_>
      7.76268125e-01</_>
    <_>
      7.61243999e-01</_>
    <_>
      7.91649938e-01</_>
    <_>
      7.91357994e-01</_>
    <_>
      7.91649938e-01</_>
    <_>
      7.91357994e-01</_>
    <_>
      7.92857170e-01</_>
    <_>
      7.92857170e-01</_>
    <_>
      8.03333342e-01</_></support_vectors>
  <decision_functions>
    <_>
      <sv_count>200</sv_count>
      <rho>1.5386673575267196e-01</rho>
      <alpha>
        1. 1. 1. 1. 1. 1. 1. 1. 1. 1. 1. 1. 1. 1. 1. 1. 1. 1. 1. 1. 1.
        1. 1. 1. 1. 1. 1. 1. 1. 1. 1. 1. 1. 1. 1. 1. 1. 1. 1. 1. 1. 1.
        1. 1. 1. 1. 1. 1. 1. 1. 1. 1. 1. 1. 1. 1. 1. 1. 1. 1. 1. 1. 1.
        1. 1. 1. 1. 1. 1. 1. 1. 1. 1. 1. 1. 1. 1. 1. 1. 1. 1. 1. 1. 1.
        1. 1. 1. 1. 1. 1. 1. 1. 1. 1. 1. 1. 1. 1. 1. 1. -1. -1. -1. -1.
        -1. -1. -1. -1. -1. -1. -1. -1. -1. -1. -1. -1. -1. -1. -1. -1.
        -1. -1. -1. -1. -1. -1. -1. -1. -1. -1. -1. -1. -1. -1. -1. -1.
        -1. -1. -1. -1. -1. -1. -1. -1. -1. -1. -1. -1. -1. -1. -1. -1.
        -1. -1. -1. -1. -1. -1. -1. -1. -1. -1. -1. -1. -1. -1. -1. -1.
        -1. -1. -1. -1. -1. -1. -1. -1. -1. -1. -1. -1. -1. -1. -1. -1.
        -1. -1. -1. -1. -1. -1. -1. -1. -1. -1. -1. -1. -1. -1. -1. -1.</alpha>
      <index>
        0 144 2 4 145 199 146 147 150 13 14 151 15 20 21 22 23 24 28 29
        30 31 32 33 34 36 37 38 39 40 152 153 42 43 44 45 46 48 49 50
        155 157 160 161 83 84 85 86 162 164 88 89 166 167 90 169 174 175
        98 99 178 181 182 100 101 102 103 104 105 106 107 108 109 110
        111 113 117 118 119 120 121 122 123 124 125 126 127 130 131 132
        133 187 188 134 135 138 139 189 191 197 1 3 5 6 7 8 9 10 11 12
        16 17 18 19 25 26 27 35 41 47 51 52 53 54 55 56 57 58 59 60 61
        62 63 64 65 66 67 68 69 70 71 72 73 74 75 76 77 78 79 80 81 82
        87 91 92 93 94 95 96 97 112 114 115 116 128 129 136 137 140 141
        142 143 180 149 183 184 185 186 154 163 156 165 148 158 190 159
        168 170 171 192 172 193 194 195 196 173 198 176 177 179</index></_></decision_functions></opencv_ml_svm>
</opencv_storage>
