<?xml version="1.0"?>
<opencv_storage>
<opencv_ml_svm>
  <format>3</format>
  <svmType>C_SVC</svmType>
  <kernel>
    <type>RBF</type>
    <gamma>1.</gamma></kernel>
  <C>1.</C>
  <term_criteria><iterations>100</iterations></term_criteria>
  <var_count>1</var_count>
  <class_count>2</class_count>
  <class_labels type_id="opencv-matrix">
    <rows>2</rows>
    <cols>1</cols>
    <dt>i</dt>
    <data>
      -1 1</data></class_labels>
  <sv_total>200</sv_total>
  <support_vectors>
    <_>
      1.66246325e-01</_>
    <_>
      3.81193519e-01</_>
    <_>
      1.</_>
    <_>
      1.</_>
    <_>
      9.83453393e-01</_>
    <_>
      1.</_>
    <_>
      1.</_>
    <_>
      1.44928694e-03</_>
    <_>
      1.</_>
    <_>
      1.44928694e-03</_>
    <_>
      1.</_>
    <_>
      1.</_>
    <_>
      1.</_>
    <_>
      1.</_>
    <_>
      1.</_>
    <_>
      1.47491693e-03</_>
    <_>
      1.47491693e-03</_>
    <_>
      1.65015459e-03</_>
    <_>
      1.65015459e-03</_>
    <_>
      1.</_>
    <_>
      1.</_>
    <_>
      1.</_>
    <_>
      1.</_>
    <_>
      1.</_>
    <_>
      1.</_>
    <_>
      1.</_>
    <_>
      0.</_>
    <_>
      0.</_>
    <_>
      0.</_>
    <_>
      1.</_>
    <_>
      2.54452229e-03</_>
    <_>
      2.54452229e-03</_>
    <_>
      1.</_>
    <_>
      1.</_>
    <_>
      1.</_>
    <_>
      1.</_>
    <_>
      1.</_>
    <_>
      1.</_>
    <_>
      1.</_>
    <_>
      1.</_>
    <_>
      1.</_>
    <_>
      1.31580234e-03</_>
    <_>
      1.</_>
    <_>
      1.</_>
    <_>
      1.</_>
    <_>
      1.31580234e-03</_>
    <_>
      1.</_>
    <_>
      1.</_>
    <_>
      1.</_>
    <_>
      1.</_>
    <_>
      1.</_>
    <_>
      3.42464447e-03</_>
    <_>
      3.42464447e-03</_>
    <_>
      3.47220898e-03</_>
    <_>
      3.47220898e-03</_>
    <_>
      1.69491768e-03</_>
    <_>
      1.73610449e-03</_>
    <_>
      1.73610449e-03</_>
    <_>
      1.74215436e-03</_>
    <_>
      1.74215436e-03</_>
    <_>
      0.</_>
    <_>
      0.</_>
    <_>
      1.51515007e-03</_>
    <_>
      1.51515007e-03</_>
    <_>
      1.68350339e-03</_>
    <_>
      1.</_>
    <_>
      1.</_>
    <_>
      1.68350339e-03</_>
    <_>
      1.</_>
    <_>
      1.</_>
    <_>
      1.</_>
    <_>
      1.</_>
    <_>
      1.</_>
    <_>
      1.</_>
    <_>
      1.</_>
    <_>
      1.</_>
    <_>
      1.</_>
    <_>
      1.</_>
    <_>
      1.</_>
    <_>
      1.</_>
    <_>
      1.</_>
    <_>
      1.</_>
    <_>
      0.</_>
    <_>
      0.</_>
    <_>
      0.</_>
    <_>
      0.</_>
    <_>
      1.</_>
    <_>
      1.</_>
    <_>
      3.01206112e-03</_>
    <_>
      1.</_>
    <_>
      1.</_>
    <_>
      1.</_>
    <_>
      1.47929788e-03</_>
    <_>
      1.47929788e-03</_>
    <_>
      4.49103117e-03</_>
    <_>
      4.99999523e-03</_>
    <_>
      4.99999523e-03</_>
    <_>
      4.49103117e-03</_>
    <_>
      1.</_>
    <_>
      1.</_>
    <_>
      1.</_>
    <_>
      3.13478708e-03</_>
    <_>
      0.</_>
    <_>
      4.70218062e-03</_>
    <_>
      0.</_>
    <_>
      1.</_>
    <_>
      1.68350339e-03</_>
    <_>
      1.68350339e-03</_>
    <_>
      1.</_>
    <_>
      1.</_>
    <_>
      1.</_>
    <_>
      1.</_>
    <_>
      1.</_>
    <_>
      1.</_>
    <_>
      1.</_>
    <_>
      1.</_>
    <_>
      1.</_>
    <_>
      1.</_>
    <_>
      1.</_>
    <_>
      1.</_>
    <_>
      1.</_>
    <_>
      1.</_>
    <_>
      1.</_>
    <_>
      1.</_>
    <_>
      1.</_>
    <_>
      1.</_>
    <_>
      1.</_>
    <_>
      1.</_>
    <_>
      1.</_>
    <_>
      1.</_>
    <_>
      1.</_>
    <_>
      1.</_>
    <_>
      1.29532814e-03</_>
    <_>
      1.</_>
    <_>
      1.29532814e-03</_>
    <_>
      1.</_>
    <_>
      1.</_>
    <_>
      1.</_>
    <_>
      4.93422151e-03</_>
    <_>
      4.93422151e-03</_>
    <_>
      1.25312805e-03</_>
    <_>
      1.25312805e-03</_>
    <_>
      1.96078420e-03</_>
    <_>
      1.96078420e-03</_>
    <_>
      0.</_>
    <_>
      0.</_>
    <_>
      1.38887763e-03</_>
    <_>
      1.38887763e-03</_>
    <_>
      1.57728791e-03</_>
    <_>
      1.47059560e-03</_>
    <_>
      1.48808956e-03</_>
    <_>
      1.48808956e-03</_>
    <_>
      1.47059560e-03</_>
    <_>
      1.64473057e-03</_>
    <_>
      3.00300121e-03</_>
    <_>
      1.64473057e-03</_>
    <_>
      0.</_>
    <_>
      1.44508481e-03</_>
    <_>
      0.</_>
    <_>
      1.44508481e-03</_>
    <_>
      1.43265724e-03</_>
    <_>
      1.43265724e-03</_>
    <_>
      2.43309140e-03</_>
    <_>
      2.43309140e-03</_>
    <_>
      1.77934766e-03</_>
    <_>
      1.77934766e-03</_>
    <_>
      3.96826863e-03</_>
    <_>
      3.96826863e-03</_>
    <_>
      4.70218062e-03</_>
    <_>
      5.01671433e-03</_>
    <_>
      5.01671433e-03</_>
    <_>
      5.10203838e-03</_>
    <_>
      4.16666269e-03</_>
    <_>
      3.51288915e-03</_>
    <_>
      3.51288915e-03</_>
    <_>
      3.54608893e-03</_>
    <_>
      4.31033969e-03</_>
    <_>
      1.53845549e-03</_>
    <_>
      1.53845549e-03</_>
    <_>
      5.15463948e-03</_>
    <_>
      1.57234073e-03</_>
    <_>
      1.57234073e-03</_>
    <_>
      1.44091249e-03</_>
    <_>
      1.18201971e-03</_>
    <_>
      1.39665604e-03</_>
    <_>
      1.44091249e-03</_>
    <_>
      1.44091249e-03</_>
    <_>
      1.45772099e-03</_>
    <_>
      1.70066953e-03</_>
    <_>
      1.</_>
    <_>
      1.</_>
    <_>
      1.</_>
    <_>
      1.</_>
    <_>
      1.</_>
    <_>
      1.</_>
    <_>
      1.</_>
    <_>
      0.</_>
    <_>
      1.</_>
    <_>
      1.</_>
    <_>
      1.</_></support_vectors>
  <decision_functions>
    <_>
      <sv_count>200</sv_count>
      <rho>-1.8122047185897827e-03</rho>
      <alpha>
        1. 1. 1. 1. 1. 1. 1. 1. 1. 1. 1. 1. 1. 1. 1. 1. 1. 1. 1. 1. 1.
        1. 1. 1. 1. 1. 1. 1. 1. 1. 1. 1. 1. 1. 1. 1. 1. 1. 1. 1. 1. 1.
        1. 1. 1. 1. 1. 1. 1. 1. 1. 1. 1. 1. 1. 1. 1. 1. 1. 1. 1. 1. 1.
        1. 1. 1. 1. 1. 1. 1. 1. 1. 1. 1. 1. 1. 1. 1. 1. 1. 1. 1. 1. 1.
        1. 1. 1. 1. 1. 1. 1. 1. 1. 1. 1. 1. 1. 1. 1. 1. -1. -1. -1. -1.
        -1. -1. -1. -1. -1. -1. -1. -1. -1. -1. -1. -1. -1. -1. -1. -1.
        -1. -1. -1. -1. -1. -1. -1. -1. -1. -1. -1. -1. -1. -1. -1. -1.
        -1. -1. -1. -1. -1. -1. -1. -1. -1. -1. -1. -1. -1. -1. -1. -1.
        -1. -1. -1. -1. -1. -1. -1. -1. -1. -1. -1. -1. -1. -1. -1. -1.
        -1. -1. -1. -1. -1. -1. -1. -1. -1. -1. -1. -1. -1. -1. -1. -1.
        -1. -1. -1. -1. -1. -1. -1. -1. -1. -1. -1. -1. -1. -1. -1. -1.</alpha>
      <index>
        0 189 105 4 190 191 108 192 193 194 109 110 111 112 113 114 115
        116 6 195 117 196 118 7 8 9 10 119 120 121 122 123 11 124 125 12
        13 126 14 127 128 129 130 131 133 197 198 199 135 136 21 137 23
        25 138 139 26 27 28 30 31 142 143 41 45 148 154 51 52 53 54 55
        162 163 88 166 167 168 169 170 171 94 95 96 97 172 173 174 175
        176 179 182 101 102 183 103 184 104 187 188 1 2 3 5 15 16 17 18
        19 20 22 24 29 32 33 34 35 36 37 38 39 40 42 43 44 46 47 48 49
        50 56 57 58 59 60 61 62 63 64 65 66 67 68 69 70 71 72 73 74 75
        76 77 78 79 80 81 82 83 84 85 86 87 89 90 91 92 93 98 99 100 106
        107 132 134 146 147 177 178 180 181 140 141 156 157 158 159 160
        161 149 150 151 152 153 155 185 186 144 145 164 165</index></_></decision_functions></opencv_ml_svm>
</opencv_storage>
