<?xml version="1.0"?>
<opencv_storage>
<opencv_ml_svm>
  <format>3</format>
  <svmType>C_SVC</svmType>
  <kernel>
    <type>RBF</type>
    <gamma>1.</gamma></kernel>
  <C>1.</C>
  <term_criteria><iterations>100</iterations></term_criteria>
  <var_count>4</var_count>
  <class_count>2</class_count>
  <class_labels type_id="opencv-matrix">
    <rows>2</rows>
    <cols>1</cols>
    <dt>i</dt>
    <data>
      -1 1</data></class_labels>
  <sv_total>200</sv_total>
  <support_vectors>
    <_>
      1.66246325e-01 8.86861324e-01 1.53931573e-01 6.77330375e-01</_>
    <_>
      3.81193519e-01 4.10958886e-01 1.68700457e-01 5.35067916e-01</_>
    <_>
      5.41419148e-01 9.54545438e-01 1.21989265e-01 7.83769071e-01</_>
    <_>
      3.37387621e-02 9.79865789e-01 1.46325409e-01 7.25541115e-01</_>
    <_>
      3.37387621e-02 9.79865789e-01 1.46325409e-01 7.25541115e-01</_>
    <_>
      7.42403030e-01 9.02777791e-01 1.30582362e-01 7.71929860e-01</_>
    <_>
      1.67169899e-01 5.61538458e-01 2.98052162e-01 -6.45833373e-01</_>
    <_>
      1. 8.62962961e-01 1.40433908e-01 7.06611574e-01</_>
    <_>
      1. 8.62962961e-01 1.40433908e-01 7.06611574e-01</_>
    <_>
      8.95522535e-02 7.31481493e-01 2.12188601e-01 -3.11827898e-01</_>
    <_>
      1.64980263e-01 6.12903237e-01 3.15492034e-01 -9.34782028e-02</_>
    <_>
      1.64980263e-01 6.12903237e-01 3.15492034e-01 -9.34782028e-02</_>
    <_>
      1. 9.96710539e-01 1.50934979e-01 7.44584203e-01</_>
    <_>
      1. 9.96710539e-01 1.50934979e-01 7.44584203e-01</_>
    <_>
      9.43854392e-01 9.70339000e-01 1.70465589e-01 7.66986072e-01</_>
    <_>
      2.50000000e-01 6.15853667e-01 2.30027318e-01 -7.60416627e-01</_>
    <_>
      6.33561611e-02 8.42105269e-01 1.94620684e-01 -2.66203761e-01</_>
    <_>
      3.06372643e-02 7.99180329e-01 2.10781276e-01 -9.86111164e-02</_>
    <_>
      1.55086845e-01 7.57731974e-01 2.28414387e-01 -1.82291627e-01</_>
    <_>
      4.28994000e-02 7.03252077e-01 2.11168528e-01 -9.96913552e-01</_>
    <_>
      2.50000000e-01 6.15853667e-01 2.30027318e-01 -7.60416627e-01</_>
    <_>
      7.67701924e-01 8.89423072e-01 1.92362905e-01 -3.21256042e-01</_>
    <_>
      3.44264627e-01 7.72727251e-01 2.18035579e-01 -1.09999990e+00</_>
    <_>
      1.42156869e-01 9.49999988e-01 1.98706448e-01 -1.66666627e-01</_>
    <_>
      3.06372643e-02 7.99180329e-01 2.10781276e-01 -9.86111164e-02</_>
    <_>
      1.65441185e-01 8.77192974e-01 2.08350956e-01 -4.83660102e-01</_>
    <_>
      2.83582211e-02 8.47222209e-01 1.91220433e-01 -8.08333278e-01</_>
    <_>
      7.75400996e-02 6.94444418e-01 2.21707404e-01 -1.11111164e-01</_>
    <_>
      3.44264627e-01 7.72727251e-01 2.18035579e-01 -1.09999990e+00</_>
    <_>
      9.81925249e-01 6.37681127e-01 2.18777537e-01 1.40056014e-02</_>
    <_>
      1.65441185e-01 8.77192974e-01 2.08350956e-01 -4.83660102e-01</_>
    <_>
      1.16573036e-01 7.89473653e-01 2.05800548e-01 -1.49603176e+00</_>
    <_>
      1.16573036e-01 7.89473653e-01 2.05800548e-01 -1.49603176e+00</_>
    <_>
      3.03429961e-02 7.73809552e-01 2.08471969e-01 -8.01470637e-01</_>
    <_>
      2.83582211e-02 8.47222209e-01 1.91220433e-01 -8.08333278e-01</_>
    <_>
      7.75400996e-02 6.94444418e-01 2.21707404e-01 -1.11111164e-01</_>
    <_>
      3.20197046e-02 9.04166698e-01 2.13728905e-01 -3.09999943e-01</_>
    <_>
      2.46876776e-02 9.41666663e-01 2.03025267e-01 -2.78582931e-01</_>
    <_>
      9.25925374e-03 7.53968239e-01 2.16554806e-01 -3.09440613e-01</_>
    <_>
      1.28865838e-02 7.48062015e-01 2.13750258e-01 -1.34814858e-01</_>
    <_>
      9.25925374e-03 7.53968239e-01 2.16554806e-01 -3.09440613e-01</_>
    <_>
      2.46876776e-02 9.41666663e-01 2.03025267e-01 -2.78582931e-01</_>
    <_>
      1.28865838e-02 7.48062015e-01 2.13750258e-01 -1.34814858e-01</_>
    <_>
      9.68682468e-01 9.70149279e-01 1.51421681e-01 7.36609340e-01</_>
    <_>
      9.68682468e-01 9.70149279e-01 1.51421681e-01 7.36609340e-01</_>
    <_>
      9.95518446e-01 9.95145619e-01 1.29286140e-01 6.63418293e-01</_>
    <_>
      9.50413227e-01 9.03703690e-01 1.25787050e-01 7.68531799e-01</_>
    <_>
      9.50413227e-01 9.03703690e-01 1.25787050e-01 7.68531799e-01</_>
    <_>
      4.65322435e-02 9.51612890e-01 1.50101110e-01 7.36842096e-01</_>
    <_>
      1.24999881e-02 7.39837408e-01 2.18804359e-01 -1.69407845e-01</_>
    <_>
      1.24999881e-02 7.39837408e-01 2.18804359e-01 -1.69407845e-01</_>
    <_>
      4.58333194e-02 7.52032518e-01 2.11650252e-01 -1.23051953e+00</_>
    <_>
      3.91600728e-02 8.53448272e-01 2.10935503e-01 -2.64492750e-01</_>
    <_>
      1.19565219e-01 7.86585331e-01 2.23922446e-01 -1.16000009e+00</_>
    <_>
      9.34579968e-03 6.82926834e-01 2.38542870e-01 3.85487676e-02</_>
    <_>
      7.35294223e-02 6.38157904e-01 3.05761099e-01 -5.35117388e-02</_>
    <_>
      1.78678691e-01 9.02061880e-01 2.13132158e-01 -4.24479127e-01</_>
    <_>
      1.78678691e-01 9.02061880e-01 2.13132158e-01 -4.24479127e-01</_>
    <_>
      7.35294223e-02 6.38157904e-01 3.05761099e-01 -5.35117388e-02</_>
    <_>
      6.80156708e-01 9.49999988e-01 1.71281546e-01 7.38624334e-01</_>
    <_>
      2.21574336e-01 5.69620252e-01 2.25047499e-01 -1.12499952e-01</_>
    <_>
      9.67261791e-02 9.85714257e-01 1.89451635e-01 -3.79545450e-01</_>
    <_>
      1.02040768e-02 7.14285731e-01 2.17858225e-01 -1.02083325e+00</_>
    <_>
      1.20209068e-01 8.88888896e-01 2.27605417e-01 -1.25446439e+00</_>
    <_>
      9.69063163e-01 7.32876718e-01 2.41528198e-01 -3.58333349e-01</_>
    <_>
      2.80898809e-03 6.89873457e-01 2.34355003e-01 -1.46527767e+00</_>
    <_>
      2.80898809e-03 6.89873457e-01 2.34355003e-01 -1.46527767e+00</_>
    <_>
      9.67261791e-02 9.85714257e-01 1.89451635e-01 -3.79545450e-01</_>
    <_>
      7.71428645e-02 7.69911528e-01 2.16584742e-01 -1.63963914e-01</_>
    <_>
      6.27890348e-01 8.66279066e-01 1.96251199e-01 -4.36666608e-01</_>
    <_>
      9.20245051e-03 8.55140209e-01 2.10021570e-01 -4.95370388e-01</_>
    <_>
      4.55927849e-03 7.64150977e-01 2.22364485e-01 -2.42884278e-01</_>
    <_>
      1.45896643e-01 7.82608688e-01 2.36060366e-01 -4.08521295e-01</_>
    <_>
      9.96778846e-01 9.81481493e-01 1.35815591e-01 7.43842363e-01</_>
    <_>
      1.62337720e-02 6.99115038e-01 2.10785583e-01 -1.47727251e-01</_>
    <_>
      1.62337720e-02 6.99115038e-01 2.10785583e-01 -1.47727251e-01</_>
    <_>
      9.50900912e-02 7.88288295e-01 2.27280051e-01 -6.69191957e-01</_>
    <_>
      1.66167676e-01 9.78494644e-01 1.91011027e-01 -6.70498610e-02</_>
    <_>
      2.13113457e-01 8.24999988e-01 2.09039390e-01 -1.22272730e+00</_>
    <_>
      1. 9.90445852e-01 1.18424110e-01 7.98491359e-01</_>
    <_>
      1.66167676e-01 9.78494644e-01 1.91011027e-01 -6.70498610e-02</_>
    <_>
      2.13113457e-01 8.24999988e-01 2.09039390e-01 -1.22272730e+00</_>
    <_>
      1. 9.90445852e-01 1.18424110e-01 7.98491359e-01</_>
    <_>
      6.22129202e-01 9.42148745e-01 1.48030743e-01 7.77950287e-01</_>
    <_>
      7.55667686e-03 7.72727251e-01 2.25646958e-01 -3.77622366e-01</_>
    <_>
      1.66240335e-02 8.69918704e-01 2.10049778e-01 -6.80555105e-02</_>
    <_>
      7.55667686e-03 7.72727251e-01 2.25646958e-01 -3.77622366e-01</_>
    <_>
      2.01788694e-01 8.77451003e-01 1.83251038e-01 -5.63888907e-01</_>
    <_>
      4.31653857e-02 7.17948675e-01 2.06642240e-01 -5.57276011e-02</_>
    <_>
      1.01156056e-01 8.11320782e-01 2.18835995e-01 -1.59166670e+00</_>
    <_>
      4.20212984e-01 6.46666646e-01 2.10605487e-01 -1.26339293e+00</_>
    <_>
      9.77278471e-01 9.90476191e-01 1.69725358e-01 7.33630955e-01</_>
    <_>
      4.20212984e-01 6.46666646e-01 2.10605487e-01 -1.26339293e+00</_>
    <_>
      1. 9.91452992e-01 1.51346713e-01 7.05000043e-01</_>
    <_>
      1. 9.91452992e-01 1.51346713e-01 7.05000043e-01</_>
    <_>
      1.12573087e-01 6.18421078e-01 3.33348095e-01 -3.23128700e-02</_>
    <_>
      6.64318204e-01 9.78417277e-01 1.47927850e-01 7.50000000e-01</_>
    <_>
      4.49103117e-03 8.77272725e-01 2.14085817e-01 -3.14229250e-01</_>
    <_>
      2.13414639e-01 7.82051265e-01 2.79600084e-01 -3.65079403e-01</_>
    <_>
      2.18562871e-01 8.33333313e-01 2.31404677e-01 -1.33035707e+00</_>
    <_>
      2.13414639e-01 7.82051265e-01 2.79600084e-01 -3.65079403e-01</_>
    <_>
      8.98203254e-03 8.19277108e-01 2.56202817e-01 -1.14935064e+00</_>
    <_>
      2.16763020e-02 8.41880322e-01 2.01828778e-01 -4.25263166e-01</_>
    <_>
      7.08092451e-02 9.71962631e-01 1.92072228e-01 -1.90740705e-01</_>
    <_>
      2.41740197e-01 5.86419761e-01 2.31184646e-01 -1.43636370e+00</_>
    <_>
      4.49103117e-03 8.77272725e-01 2.14085817e-01 -3.14229250e-01</_>
    <_>
      2.18562871e-01 8.33333313e-01 2.31404677e-01 -1.33035707e+00</_>
    <_>
      8.98203254e-03 8.19277108e-01 2.56202817e-01 -1.14935064e+00</_>
    <_>
      3.41893703e-01 9.83870983e-01 1.42436638e-01 7.22506404e-01</_>
    <_>
      2.60462821e-01 9.19270813e-01 1.13694720e-01 8.09618592e-01</_>
    <_>
      7.46514857e-01 9.15384591e-01 1.27008736e-01 7.63513505e-01</_>
    <_>
      2.60462821e-01 9.19270813e-01 1.13694720e-01 8.09618592e-01</_>
    <_>
      3.01385611e-01 8.89312983e-01 1.64375246e-01 7.42424250e-01</_>
    <_>
      9.90189552e-01 9.54545438e-01 1.43002793e-01 7.17881918e-01</_>
    <_>
      9.90189552e-01 9.54545438e-01 1.43002793e-01 7.17881918e-01</_>
    <_>
      6.53519750e-01 9.76608157e-01 1.18459851e-01 7.76893795e-01</_>
    <_>
      1.34680271e-02 6.55172408e-01 2.10326314e-01 -2.20833302e-01</_>
    <_>
      2.45049417e-01 9.03225780e-01 1.29779503e-01 7.37117529e-01</_>
    <_>
      1.28031045e-01 8.37606847e-01 1.90175772e-01 -2.35294104e-01</_>
    <_>
      1.28031045e-01 8.37606847e-01 1.90175772e-01 -2.35294104e-01</_>
    <_>
      8.52459073e-02 6.26213551e-01 2.17501014e-01 -1.23200011e+00</_>
    <_>
      1.70467794e-01 8.93203855e-01 1.93694010e-01 -3.76190424e-01</_>
    <_>
      8.52459073e-02 6.26213551e-01 2.17501014e-01 -1.23200011e+00</_>
    <_>
      1.70467794e-01 8.93203855e-01 1.93694010e-01 -3.76190424e-01</_>
    <_>
      3.93395424e-01 9.59677398e-01 1.35685548e-01 7.79220760e-01</_>
    <_>
      6.94444776e-03 7.47706413e-01 1.79242834e-01 7.74193406e-02</_>
    <_>
      6.94444776e-03 7.47706413e-01 1.79242834e-01 7.74193406e-02</_>
    <_>
      3.20039630e-01 8.83333325e-01 1.51186168e-01 7.46848702e-01</_>
    <_>
      3.20039630e-01 8.83333325e-01 1.51186168e-01 7.46848702e-01</_>
    <_>
      6.95012093e-01 9.35000002e-01 1.48245320e-01 7.55482435e-01</_>
    <_>
      2.63157785e-02 7.05882311e-01 2.43121758e-01 8.33333135e-02</_>
    <_>
      1. 9.70297039e-01 1.76004887e-01 7.32317090e-01</_>
    <_>
      9.91195679e-01 9.95689631e-01 1.48379490e-01 6.96560204e-01</_>
    <_>
      9.95304763e-01 8.31858397e-01 1.54730126e-01 7.05882311e-01</_>
    <_>
      9.90003824e-01 7.57425725e-01 1.53033718e-01 6.65151477e-01</_>
    <_>
      9.94977653e-01 9.80198026e-01 1.41582862e-01 7.47404814e-01</_>
    <_>
      1.61653459e-02 9.56375837e-01 1.50642961e-01 6.91476107e-01</_>
    <_>
      4.73168403e-01 9.41605866e-01 1.12534188e-01 7.76276290e-01</_>
    <_>
      9.86989975e-01 8.75000000e-01 1.54720739e-01 7.26359367e-01</_>
    <_>
      9.70122457e-01 9.83695626e-01 1.57272384e-01 7.46078432e-01</_>
    <_>
      9.70122457e-01 9.83695626e-01 1.57272384e-01 7.46078432e-01</_>
    <_>
      1.00331366e-01 9.62184846e-01 1.21088818e-01 7.59468436e-01</_>
    <_>
      9.90484059e-01 9.53642368e-01 1.53200865e-01 7.30360031e-01</_>
    <_>
      9.90484059e-01 9.53642368e-01 1.53200865e-01 7.30360031e-01</_>
    <_>
      1. 9.95967746e-01 1.64801791e-01 6.80873156e-01</_>
    <_>
      3.44106376e-01 9.81481493e-01 1.27409250e-01 7.46153831e-01</_>
    <_>
      9.96447146e-01 9.96774197e-01 1.39261261e-01 7.56504059e-01</_>
    <_>
      9.96447146e-01 9.96774197e-01 1.39261261e-01 7.56504059e-01</_>
    <_>
      2.05969214e-02 9.62732911e-01 1.21069260e-01 7.47983873e-01</_>
    <_>
      9.07880068e-02 9.45454538e-01 1.26157910e-01 7.79120862e-01</_>
    <_>
      9.07880068e-02 9.45454538e-01 1.26157910e-01 7.79120862e-01</_>
    <_>
      3.18834692e-01 8.93939376e-01 1.39818206e-01 7.31492400e-01</_>
    <_>
      9.33411598e-01 9.96183217e-01 1.32293254e-01 7.44623661e-01</_>
    <_>
      9.66882646e-01 9.41605866e-01 1.32391572e-01 7.50000000e-01</_>
    <_>
      9.66882646e-01 9.41605866e-01 1.32391572e-01 7.50000000e-01</_>
    <_>
      9.92508411e-01 9.58677709e-01 1.39315113e-01 7.61180699e-01</_>
    <_>
      9.76523459e-01 9.87804890e-01 1.59609526e-01 7.25000024e-01</_>
    <_>
      1. 9.95098054e-01 1.55589134e-01 7.22926855e-01</_>
    <_>
      9.92508411e-01 9.58677709e-01 1.39315113e-01 7.61180699e-01</_>
    <_>
      9.96503949e-01 9.96031761e-01 1.61630362e-01 7.27920234e-01</_>
    <_>
      3.69017929e-01 9.60431635e-01 1.38198838e-01 7.69999981e-01</_>
    <_>
      3.03621233e-01 8.50678742e-01 1.69012815e-01 7.24985719e-01</_>
    <_>
      9.43530321e-01 9.31818187e-01 1.32333294e-01 7.88156271e-01</_>
    <_>
      1. 9.85849082e-01 1.67262346e-01 7.21354127e-01</_>
    <_>
      6.11285269e-02 6.62162185e-01 3.44284773e-01 2.12418437e-02</_>
    <_>
      9.57908154e-01 9.95412827e-01 1.42748743e-01 7.62872636e-01</_>
    <_>
      9.90642428e-01 9.66666639e-01 1.53453887e-01 7.09401727e-01</_>
    <_>
      6.22343123e-01 9.46428597e-01 1.17087230e-01 7.74376392e-01</_>
    <_>
      9.88027155e-01 9.96153831e-01 1.34204015e-01 7.07317114e-01</_>
    <_>
      1. 9.92753625e-01 1.94484115e-01 6.42857134e-01</_>
    <_>
      9.66861427e-01 9.48275864e-01 1.52527168e-01 7.48364091e-01</_>
    <_>
      9.66861427e-01 9.48275864e-01 1.52527168e-01 7.48364091e-01</_>
    <_>
      1. 9.96951222e-01 1.35535866e-01 7.56933749e-01</_>
    <_>
      1. 9.96951222e-01 1.35535866e-01 7.56933749e-01</_>
    <_>
      9.94028211e-01 9.94252861e-01 1.54405549e-01 7.15079367e-01</_>
    <_>
      9.85636652e-01 9.94897962e-01 1.60636216e-01 7.19696999e-01</_>
    <_>
      9.94028211e-01 9.94252861e-01 1.54405549e-01 7.15079367e-01</_>
    <_>
      9.85636652e-01 9.94897962e-01 1.60636216e-01 7.19696999e-01</_>
    <_>
      9.61458325e-01 9.37500000e-01 1.31382778e-01 7.80154467e-01</_>
    <_>
      9.61458325e-01 9.37500000e-01 1.31382778e-01 7.80154467e-01</_>
    <_>
      9.42812502e-01 5.70469797e-01 2.92158127e-01 1.79487169e-01</_>
    <_>
      1. 9.39516127e-01 1.49363458e-01 7.21866965e-01</_>
    <_>
      3.90835702e-02 6.51162803e-01 3.07325751e-01 6.18420839e-02</_>
    <_>
      9.62799847e-01 9.85714257e-01 1.43759549e-01 7.82364011e-01</_>
    <_>
      3.90835702e-02 6.51162803e-01 3.07325751e-01 6.18420839e-02</_>
    <_>
      9.62799847e-01 9.85714257e-01 1.43759549e-01 7.82364011e-01</_>
    <_>
      1. 9.91279066e-01 1.14771560e-01 7.32580066e-01</_>
    <_>
      3.71080458e-01 8.75000000e-01 1.31837353e-01 7.50443280e-01</_>
    <_>
      1. 9.91279066e-01 1.14771560e-01 7.32580066e-01</_>
    <_>
      4.41862375e-01 2.86324799e-01 1.75815761e-01 3.11414421e-01</_>
    <_>
      5.99362969e-01 2.28260875e-01 1.76077619e-01 1.78660035e-01</_>
    <_>
      1. 9.16030526e-01 1.56773001e-01 7.14350343e-01</_>
    <_>
      8.43549013e-01 9.71428573e-01 1.34597614e-01 7.91649938e-01</_>
    <_>
      9.77696300e-01 9.80487823e-01 1.22980326e-01 7.27871954e-01</_>
    <_>
      8.47394943e-01 9.24778759e-01 1.41278371e-01 7.50745416e-01</_>
    <_>
      8.22974443e-01 9.68571424e-01 1.14881754e-01 7.92857170e-01</_>
    <_>
      8.76346231e-03 8.70078743e-01 1.67651653e-01 6.88098490e-01</_>
    <_>
      7.97470331e-01 3.47457647e-01 2.61318266e-01 1.89999998e-01</_>
    <_>
      3.75579804e-01 8.60139847e-01 1.30424768e-01 7.33042598e-01</_>
    <_>
      9.65875864e-01 9.65838492e-01 1.29481971e-01 8.03333342e-01</_></support_vectors>
  <decision_functions>
    <_>
      <sv_count>200</sv_count>
      <rho>2.0955087267793715e-01</rho>
      <alpha>
        1. 1. 1. 1. 1. 1. 1. 1. 1. 1. 1. 1. 1. 1. 1. 1. 1. 1. 1. 1. 1.
        1. 1. 1. 1. 1. 1. 1. 1. 1. 1. 1. 1. 1. 1. 1. 1. 1. 1. 1. 1. 1.
        1. 1. 1. 1. 1. 1. 1. 1. 1. 1. 1. 1. 1. 1. 1. 1. 1. 1. 1. 1. 1.
        1. 1. 1. 1. 1. 1. 1. 1. 1. 1. 1. 1. 1. 1. 1. 1. 1. 1. 1. 1. 1.
        1. 1. 1. 1. 1. 1. 1. 1. 1. 1. 1. 1. 1. 1. 1. 1. -1. -1. -1. -1.
        -1. -1. -1. -1. -1. -1. -1. -1. -1. -1. -1. -1. -1. -1. -1. -1.
        -1. -1. -1. -1. -1. -1. -1. -1. -1. -1. -1. -1. -1. -1. -1. -1.
        -1. -1. -1. -1. -1. -1. -1. -1. -1. -1. -1. -1. -1. -1. -1. -1.
        -1. -1. -1. -1. -1. -1. -1. -1. -1. -1. -1. -1. -1. -1. -1. -1.
        -1. -1. -1. -1. -1. -1. -1. -1. -1. -1. -1. -1. -1. -1. -1. -1.
        -1. -1. -1. -1. -1. -1. -1. -1. -1. -1. -1. -1. -1. -1. -1. -1.</alpha>
      <index>
        0 197 133 5 198 134 135 199 137 10 11 12 13 138 14 141 15 17 20
        21 22 144 23 24 25 26 27 28 29 30 31 32 34 35 146 37 38 39 40
        147 148 41 42 45 46 48 59 155 157 158 73 79 159 82 83 160 161
        162 91 163 95 165 168 169 97 98 99 100 101 102 103 104 105 106
        107 108 109 111 112 115 116 118 119 120 121 122 123 182 125 126
        183 184 186 188 189 191 194 131 195 196 1 2 3 4 6 7 8 9 16 18 19
        33 36 43 44 47 49 50 51 52 53 54 55 56 57 58 60 61 62 63 64 65
        66 67 68 69 70 71 72 74 75 76 77 78 80 81 84 85 86 87 88 89 90
        92 93 94 96 110 113 114 117 124 127 128 129 130 132 136 167 145
        152 170 171 172 173 174 175 176 177 153 178 154 179 180 181 156
        139 140 149 185 150 187 142 190 192 193 143 164 166 151</index></_></decision_functions></opencv_ml_svm>
</opencv_storage>
