<?xml version="1.0"?>
<opencv_storage>
<opencv_ml_svm>
  <format>3</format>
  <svmType>C_SVC</svmType>
  <kernel>
    <type>RBF</type>
    <gamma>1.</gamma></kernel>
  <C>1.</C>
  <term_criteria><iterations>100</iterations></term_criteria>
  <var_count>2</var_count>
  <class_count>2</class_count>
  <class_labels type_id="opencv-matrix">
    <rows>2</rows>
    <cols>1</cols>
    <dt>i</dt>
    <data>
      -1 1</data></class_labels>
  <sv_total>200</sv_total>
  <support_vectors>
    <_>
      8.86861324e-01 6.77330375e-01</_>
    <_>
      4.10958886e-01 5.35067916e-01</_>
    <_>
      8.90804589e-01 -1.57777786e-01</_>
    <_>
      9.54545438e-01 7.83769071e-01</_>
    <_>
      9.54545438e-01 7.83769071e-01</_>
    <_>
      8.62204731e-01 7.79069781e-01</_>
    <_>
      8.62204731e-01 7.79069781e-01</_>
    <_>
      6.98795199e-01 -2.07142830e-01</_>
    <_>
      9.40217376e-01 7.73013115e-01</_>
    <_>
      9.40217376e-01 7.73013115e-01</_>
    <_>
      7.82407403e-01 2.99459457e-01</_>
    <_>
      7.44791627e-01 -7.55952358e-01</_>
    <_>
      6.15853667e-01 -7.60416627e-01</_>
    <_>
      8.42105269e-01 -2.66203761e-01</_>
    <_>
      8.42105269e-01 -2.66203761e-01</_>
    <_>
      8.44827592e-01 -5.37037015e-01</_>
    <_>
      7.75193810e-01 -2.67801881e-01</_>
    <_>
      6.95876300e-01 -2.69841313e-01</_>
    <_>
      7.03252077e-01 -9.96913552e-01</_>
    <_>
      6.15853667e-01 -7.60416627e-01</_>
    <_>
      8.89423072e-01 -3.21256042e-01</_>
    <_>
      8.70370388e-01 -1.94375000e+01</_>
    <_>
      7.72727251e-01 -1.09999990e+00</_>
    <_>
      8.89423072e-01 -3.21256042e-01</_>
    <_>
      8.16091955e-01 -3.21088457e+00</_>
    <_>
      7.09016383e-01 -3.39285731e-01</_>
    <_>
      9.49999988e-01 -1.66666627e-01</_>
    <_>
      9.49999988e-01 -1.66666627e-01</_>
    <_>
      8.77192974e-01 -4.83660102e-01</_>
    <_>
      8.04347813e-01 -3.77500057e-01</_>
    <_>
      6.95876300e-01 -2.69841313e-01</_>
    <_>
      8.70370388e-01 -1.94375000e+01</_>
    <_>
      7.07792222e-01 -3.30357122e+00</_>
    <_>
      8.47222209e-01 -8.08333278e-01</_>
    <_>
      7.72727251e-01 -1.09999990e+00</_>
    <_>
      7.07792222e-01 -3.30357122e+00</_>
    <_>
      7.09016383e-01 -3.39285731e-01</_>
    <_>
      8.77192974e-01 -4.83660102e-01</_>
    <_>
      7.89473653e-01 -1.49603176e+00</_>
    <_>
      7.89473653e-01 -1.49603176e+00</_>
    <_>
      8.47222209e-01 -8.08333278e-01</_>
    <_>
      9.04166698e-01 -3.09999943e-01</_>
    <_>
      9.41666663e-01 -2.78582931e-01</_>
    <_>
      7.53968239e-01 -3.09440613e-01</_>
    <_>
      7.53968239e-01 -3.09440613e-01</_>
    <_>
      9.58904088e-01 -4.17582989e-02</_>
    <_>
      9.04166698e-01 -3.09999943e-01</_>
    <_>
      9.41666663e-01 -2.78582931e-01</_>
    <_>
      5.67708373e-01 6.86554611e-01</_>
    <_>
      4.85849082e-01 -1.91176414e-01</_>
    <_>
      9.44134057e-01 -4.31818128e-01</_>
    <_>
      6.23376608e-01 -3.58730173e+00</_>
    <_>
      7.52032518e-01 -1.23051953e+00</_>
    <_>
      8.53448272e-01 -2.64492750e-01</_>
    <_>
      7.86585331e-01 -1.16000009e+00</_>
    <_>
      8.04123700e-01 -3.61111164e-01</_>
    <_>
      8.53448272e-01 -2.64492750e-01</_>
    <_>
      9.02061880e-01 -3.56854796e-01</_>
    <_>
      8.04123700e-01 -3.61111164e-01</_>
    <_>
      9.02061880e-01 -3.56854796e-01</_>
    <_>
      9.85714257e-01 -3.79545450e-01</_>
    <_>
      8.88888896e-01 -1.25446439e+00</_>
    <_>
      6.89873457e-01 -1.46527767e+00</_>
    <_>
      6.89873457e-01 -1.46527767e+00</_>
    <_>
      8.92045438e-01 -1.98333340e+01</_>
    <_>
      9.85714257e-01 -3.79545450e-01</_>
    <_>
      8.88888896e-01 -1.25446439e+00</_>
    <_>
      8.05555582e-01 -1.69166660e+00</_>
    <_>
      7.84722209e-01 2.98913062e-01</_>
    <_>
      8.92045438e-01 -1.98333340e+01</_>
    <_>
      7.31818199e-01 -1.07407403e+00</_>
    <_>
      8.66279066e-01 -4.36666608e-01</_>
    <_>
      7.06666708e-01 -3.71875048e-01</_>
    <_>
      8.55140209e-01 -4.95370388e-01</_>
    <_>
      9.23469365e-01 -8.52307677e-01</_>
    <_>
      8.05825233e-01 -4.55200005e+00</_>
    <_>
      8.56209159e-01 7.72868216e-01</_>
    <_>
      9.78494644e-01 -6.70498610e-02</_>
    <_>
      7.87878752e-01 -1.61875000e+01</_>
    <_>
      7.27272749e-01 -3.28260851e+00</_>
    <_>
      7.30769217e-01 -1.16000009e+00</_>
    <_>
      7.27272749e-01 -3.28260851e+00</_>
    <_>
      9.90445852e-01 7.98491359e-01</_>
    <_>
      9.78494644e-01 -6.70498610e-02</_>
    <_>
      9.90445852e-01 7.98491359e-01</_>
    <_>
      3.65740716e-01 5.43364644e-01</_>
    <_>
      7.44094491e-01 -8.31168890e-01</_>
    <_>
      5.39999962e-01 -1.33333325e-01</_>
    <_>
      6.46666646e-01 -1.26339293e+00</_>
    <_>
      7.89473653e-01 3.07692289e-01</_>
    <_>
      6.46666646e-01 -1.26339293e+00</_>
    <_>
      7.89473653e-01 3.07692289e-01</_>
    <_>
      9.87394929e-01 7.81746030e-01</_>
    <_>
      9.87394929e-01 7.81746030e-01</_>
    <_>
      8.77272725e-01 -3.14229250e-01</_>
    <_>
      7.82051265e-01 -3.65079403e-01</_>
    <_>
      8.33333313e-01 -1.33035707e+00</_>
    <_>
      7.82051265e-01 -3.65079403e-01</_>
    <_>
      8.19277108e-01 -1.14935064e+00</_>
    <_>
      8.41880322e-01 -4.25263166e-01</_>
    <_>
      9.71962631e-01 -1.90740705e-01</_>
    <_>
      5.86419761e-01 -1.43636370e+00</_>
    <_>
      8.09090912e-01 -3.72222233e+00</_>
    <_>
      8.77272725e-01 -3.14229250e-01</_>
    <_>
      8.33333313e-01 -1.33035707e+00</_>
    <_>
      8.19277108e-01 -1.14935064e+00</_>
    <_>
      6.14035130e-01 -3.06837606e+00</_>
    <_>
      7.45614052e-01 -7.93333359e+01</_>
    <_>
      7.35955060e-01 -1.00666664e+02</_>
    <_>
      9.19270813e-01 8.09618592e-01</_>
    <_>
      9.19270813e-01 8.09618592e-01</_>
    <_>
      4.94791687e-01 6.63434863e-01</_>
    <_>
      6.55172408e-01 -2.20833302e-01</_>
    <_>
      8.37606847e-01 -2.35294104e-01</_>
    <_>
      8.37606847e-01 -2.35294104e-01</_>
    <_>
      6.26213551e-01 -1.23200011e+00</_>
    <_>
      8.93203855e-01 -3.76190424e-01</_>
    <_>
      6.26213551e-01 -1.23200011e+00</_>
    <_>
      8.93203855e-01 -3.76190424e-01</_>
    <_>
      9.59677398e-01 7.79220760e-01</_>
    <_>
      9.59677398e-01 7.79220760e-01</_>
    <_>
      9.47712421e-01 7.88338423e-01</_>
    <_>
      3.64285707e-01 5.97972989e-01</_>
    <_>
      8.33333313e-01 -3.11594248e-01</_>
    <_>
      8.33333313e-01 -3.11594248e-01</_>
    <_>
      2.28260875e-01 5.54079652e-01</_>
    <_>
      2.28260875e-01 5.54079652e-01</_>
    <_>
      9.65517223e-01 7.69009233e-01</_>
    <_>
      4.92187500e-01 5.33834577e-01</_>
    <_>
      7.85714269e-01 3.13043475e-01</_>
    <_>
      9.84693885e-01 7.80864179e-01</_>
    <_>
      9.91150439e-01 8.06763291e-01</_>
    <_>
      9.77528095e-01 7.87447035e-01</_>
    <_>
      9.77528095e-01 7.87447035e-01</_>
    <_>
      9.42622960e-01 7.95058131e-01</_>
    <_>
      9.42622960e-01 7.95058131e-01</_>
    <_>
      9.95833337e-01 7.88194418e-01</_>
    <_>
      9.85294104e-01 7.83333302e-01</_>
    <_>
      9.95833337e-01 7.88194418e-01</_>
    <_>
      9.85294104e-01 7.83333302e-01</_>
    <_>
      9.45454538e-01 7.79120862e-01</_>
    <_>
      9.45454538e-01 7.79120862e-01</_>
    <_>
      9.74489808e-01 8.04069757e-01</_>
    <_>
      9.74489808e-01 8.04069757e-01</_>
    <_>
      7.76785731e-01 7.65500009e-01</_>
    <_>
      7.76785731e-01 7.65500009e-01</_>
    <_>
      7.88732409e-01 3.10096145e-01</_>
    <_>
      7.91304350e-01 3.03728044e-01</_>
    <_>
      7.88888872e-01 2.96491206e-01</_>
    <_>
      8.35227251e-01 7.25657880e-01</_>
    <_>
      9.57516313e-01 7.92075455e-01</_>
    <_>
      9.89795923e-01 7.79272735e-01</_>
    <_>
      9.57516313e-01 7.92075455e-01</_>
    <_>
      9.89795923e-01 7.79272735e-01</_>
    <_>
      9.95967746e-01 7.74038434e-01</_>
    <_>
      9.95967746e-01 7.74038434e-01</_>
    <_>
      7.85714269e-01 3.10606062e-01</_>
    <_>
      9.93288577e-01 7.66768277e-01</_>
    <_>
      9.31818187e-01 7.88156271e-01</_>
    <_>
      9.93288577e-01 7.66768277e-01</_>
    <_>
      9.85981286e-01 7.75454521e-01</_>
    <_>
      9.85981286e-01 7.75454521e-01</_>
    <_>
      9.86486495e-01 7.65326321e-01</_>
    <_>
      9.49275374e-01 8.04370463e-01</_>
    <_>
      9.49275374e-01 8.04370463e-01</_>
    <_>
      3.13953459e-01 4.91379321e-01</_>
    <_>
      9.08450723e-01 7.73216009e-01</_>
    <_>
      9.18699205e-01 8.04878056e-01</_>
    <_>
      9.46428597e-01 7.74376392e-01</_>
    <_>
      4.93506491e-01 6.72222257e-01</_>
    <_>
      9.46428597e-01 7.74376392e-01</_>
    <_>
      6.01265788e-01 7.37616062e-01</_>
    <_>
      9.73282456e-01 7.79797971e-01</_>
    <_>
      9.75177288e-01 7.33137846e-01</_>
    <_>
      7.90322602e-01 3.03571403e-01</_>
    <_>
      7.90322602e-01 3.03571403e-01</_>
    <_>
      7.88235307e-01 2.99187005e-01</_>
    <_>
      9.37500000e-01 7.80154467e-01</_>
    <_>
      9.37500000e-01 7.80154467e-01</_>
    <_>
      9.80916023e-01 7.66697586e-01</_>
    <_>
      9.80916023e-01 7.66697586e-01</_>
    <_>
      9.75609779e-01 7.60914743e-01</_>
    <_>
      7.86956549e-01 2.98701286e-01</_>
    <_>
      9.75409865e-01 7.84993410e-01</_>
    <_>
      9.75409865e-01 7.84993410e-01</_>
    <_>
      7.89772749e-01 3.02556813e-01</_>
    <_>
      9.85714257e-01 7.82364011e-01</_>
    <_>
      9.85714257e-01 7.82364011e-01</_>
    <_>
      2.86324799e-01 3.11414421e-01</_>
    <_>
      7.92372882e-01 2.94191897e-01</_>
    <_>
      9.96212125e-01 7.76268125e-01</_>
    <_>
      7.86585331e-01 3.06878328e-01</_>
    <_>
      9.71428573e-01 7.91649938e-01</_>
    <_>
      9.81203020e-01 7.91357994e-01</_>
    <_>
      9.71428573e-01 7.91649938e-01</_>
    <_>
      9.81203020e-01 7.91357994e-01</_>
    <_>
      9.68571424e-01 7.92857170e-01</_>
    <_>
      9.76190448e-01 7.43707061e-01</_>
    <_>
      9.68571424e-01 7.92857170e-01</_>
    <_>
      9.65838492e-01 8.03333342e-01</_></support_vectors>
  <decision_functions>
    <_>
      <sv_count>200</sv_count>
      <rho>4.3184632558783276e-01</rho>
      <alpha>
        1. 1. 1. 1. 1. 1. 1. 1. 1. 1. 1. 1. 1. 1. 1. 1. 1. 1. 1. 1. 1.
        1. 1. 1. 1. 1. 1. 1. 1. 1. 1. 1. 1. 1. 1. 1. 1. 1. 1. 1. 1. 1.
        1. 1. 1. 1. 1. 1. 1. 1. 1. 1. 1. 1. 1. 1. 1. 1. 1. 1. 1. 1. 1.
        1. 1. 1. 1. 1. 1. 1. 1. 1. 1. 1. 1. 1. 1. 1. 1. 1. 1. 1. 1. 1.
        1. 1. 1. 1. 1. 1. 1. 1. 1. 1. 1. 1. 1. 1. 1. 1. -1. -1. -1. -1.
        -1. -1. -1. -1. -1. -1. -1. -1. -1. -1. -1. -1. -1. -1. -1. -1.
        -1. -1. -1. -1. -1. -1. -1. -1. -1. -1. -1. -1. -1. -1. -1. -1.
        -1. -1. -1. -1. -1. -1. -1. -1. -1. -1. -1. -1. -1. -1. -1. -1.
        -1. -1. -1. -1. -1. -1. -1. -1. -1. -1. -1. -1. -1. -1. -1. -1.
        -1. -1. -1. -1. -1. -1. -1. -1. -1. -1. -1. -1. -1. -1. -1. -1.
        -1. -1. -1. -1. -1. -1. -1. -1. -1. -1. -1. -1. -1. -1. -1. -1.</alpha>
      <index>
        0 130 2 3 131 199 134 135 10 12 17 19 20 21 22 23 26 27 28 30 31
        32 33 34 35 37 38 39 40 42 43 44 47 137 139 142 143 48 144 145
        146 147 148 149 82 150 152 84 85 154 155 156 158 89 163 164 165
        92 93 167 172 94 95 96 97 98 99 100 101 102 103 104 105 106 107
        108 109 173 110 111 181 112 113 114 115 116 182 117 118 121 183
        184 122 185 123 124 186 188 190 196 1 4 5 6 7 8 9 11 13 14 15 16
        18 24 25 29 36 41 45 46 49 50 51 52 53 54 55 56 57 58 59 60 61
        62 63 64 65 66 67 68 69 70 71 72 73 74 75 76 77 78 79 80 81 83
        86 87 88 90 91 119 120 125 126 127 128 129 169 170 171 133 174
        175 176 177 178 179 180 136 151 138 153 132 140 187 141 157 189
        159 191 160 161 192 193 194 195 162 197 198 166 168</index></_></decision_functions></opencv_ml_svm>
</opencv_storage>
