<?xml version="1.0"?>
<opencv_storage>
<opencv_ml_svm>
  <format>3</format>
  <svmType>C_SVC</svmType>
  <kernel>
    <type>RBF</type>
    <gamma>1.</gamma></kernel>
  <C>1.</C>
  <term_criteria><iterations>100</iterations></term_criteria>
  <var_count>3</var_count>
  <class_count>2</class_count>
  <class_labels type_id="opencv-matrix">
    <rows>2</rows>
    <cols>1</cols>
    <dt>i</dt>
    <data>
      -1 1</data></class_labels>
  <sv_total>200</sv_total>
  <support_vectors>
    <_>
      3.21537405e-02 2.46303193e-02 6.47445396e-03</_>
    <_>
      1.59371775e-02 2.14244761e-02 1.69838704e-02</_>
    <_>
      1.54872518e-02 1.27022475e-01 6.32270992e-01</_>
    <_>
      9.43626761e-01 8.38109374e-01 3.48360747e-01</_>
    <_>
      7.78071344e-01 8.33704650e-01 8.96698952e-01</_>
    <_>
      7.70664871e-01 8.81182492e-01 8.52389753e-01</_>
    <_>
      2.87583302e-04 4.65841847e-04 3.34981293e-03</_>
    <_>
      1.02371513e-03 2.35995115e-03 3.62106395e-04</_>
    <_>
      1.02371513e-03 2.35995115e-03 3.62106395e-04</_>
    <_>
      5.38545810e-02 6.60496124e-04 1.66004673e-01</_>
    <_>
      0. 0. 0.</_>
    <_>
      0. 0. 0.</_>
    <_>
      8.19320500e-01 8.37901950e-01 8.28710914e-01</_>
    <_>
      1.51570639e-04 4.13782458e-04 2.06879270e-03</_>
    <_>
      8.48209136e-04 1.27934472e-04 2.25620647e-03</_>
    <_>
      6.96638541e-04 2.85847986e-04 1.87413840e-04</_>
    <_>
      6.96638541e-04 2.85847986e-04 1.87413840e-04</_>
    <_>
      1.56040571e-03 1.49129226e-03 9.07927868e-04</_>
    <_>
      1.56040571e-03 1.49129226e-03 9.07927868e-04</_>
    <_>
      6.81260077e-04 4.37777664e-04 9.16604418e-04</_>
    <_>
      6.81260077e-04 4.37777664e-04 9.16604418e-04</_>
    <_>
      8.72679770e-01 9.07467484e-01 8.96557987e-01</_>
    <_>
      1.95791203e-04 1.46520277e-03 2.18368229e-03</_>
    <_>
      8.29653084e-01 8.57930362e-01 8.48534584e-01</_>
    <_>
      9.17010844e-01 9.13698792e-01 8.94996941e-01</_>
    <_>
      5.80098093e-01 2.51870245e-01 4.45781052e-02</_>
    <_>
      2.15606927e-03 7.06134539e-04 5.10870188e-04</_>
    <_>
      0. 0. 0.</_>
    <_>
      0. 0. 0.</_>
    <_>
      8.55090562e-04 2.24453790e-04 9.30546783e-04</_>
    <_>
      3.81402409e-04 1.85740972e-03 1.09246385e-03</_>
    <_>
      6.28733193e-04 2.47331103e-03 1.08402499e-04</_>
    <_>
      0. 0. 0.</_>
    <_>
      0. 0. 0.</_>
    <_>
      0. 0. 0.</_>
    <_>
      0. 0. 0.</_>
    <_>
      0. 0. 0.</_>
    <_>
      0. 0. 0.</_>
    <_>
      0. 0. 0.</_>
    <_>
      0. 0. 0.</_>
    <_>
      0. 0. 0.</_>
    <_>
      0. 0. 0.</_>
    <_>
      0. 0. 0.</_>
    <_>
      0. 0. 0.</_>
    <_>
      0. 0. 0.</_>
    <_>
      0. 0. 0.</_>
    <_>
      0. 0. 0.</_>
    <_>
      0. 0. 0.</_>
    <_>
      0. 0. 0.</_>
    <_>
      0. 0. 0.</_>
    <_>
      0. 0. 0.</_>
    <_>
      0. 0. 0.</_>
    <_>
      0. 0. 0.</_>
    <_>
      0. 0. 0.</_>
    <_>
      0. 0. 0.</_>
    <_>
      0. 0. 0.</_>
    <_>
      0. 0. 0.</_>
    <_>
      0. 0. 0.</_>
    <_>
      0. 0. 0.</_>
    <_>
      0. 0. 0.</_>
    <_>
      0. 0. 0.</_>
    <_>
      0. 0. 0.</_>
    <_>
      0. 0. 0.</_>
    <_>
      0. 0. 0.</_>
    <_>
      0. 0. 0.</_>
    <_>
      0. 0. 0.</_>
    <_>
      0. 0. 0.</_>
    <_>
      0. 0. 0.</_>
    <_>
      0. 0. 0.</_>
    <_>
      0. 0. 0.</_>
    <_>
      0. 0. 0.</_>
    <_>
      1.84915581e-04 6.50114147e-04 2.96289771e-04</_>
    <_>
      1.84915581e-04 6.50114147e-04 2.96289771e-04</_>
    <_>
      7.84825504e-01 8.57948124e-01 8.54786575e-01</_>
    <_>
      0. 0. 2.29269699e-06</_>
    <_>
      0. 0. 2.29269699e-06</_>
    <_>
      1.07978433e-01 1.33708879e-01 1.06602092e-04</_>
    <_>
      3.45865883e-05 1.35294598e-04 2.73401587e-04</_>
    <_>
      1.84780947e-04 4.00378660e-04 4.92769119e-04</_>
    <_>
      2.19367532e-04 2.65084062e-04 2.19367532e-04</_>
    <_>
      3.09364477e-05 1.70659085e-04 1.60486554e-04</_>
    <_>
      8.19989383e-01 8.67613077e-01 8.49574089e-01</_>
    <_>
      3.45865883e-05 1.35294598e-04 2.73401587e-04</_>
    <_>
      8.19989383e-01 8.67613077e-01 8.49574089e-01</_>
    <_>
      9.03807878e-01 9.08754528e-01 7.22905755e-01</_>
    <_>
      9.03807878e-01 9.08754528e-01 7.22905755e-01</_>
    <_>
      0. 0. 4.00160061e-05</_>
    <_>
      1.09554944e-03 1.12044821e-04 8.09212564e-04</_>
    <_>
      1.09554944e-03 1.12044821e-04 8.09212564e-04</_>
    <_>
      0. 0. 0.</_>
    <_>
      0. 0. 0.</_>
    <_>
      1.09554944e-03 1.12044821e-04 8.09212564e-04</_>
    <_>
      1.09554944e-03 1.12044821e-04 8.09212564e-04</_>
    <_>
      2.06382596e-04 3.58491787e-04 1.35851093e-03</_>
    <_>
      8.14144671e-01 8.43255460e-01 8.35574627e-01</_>
    <_>
      3.06494590e-02 4.42230590e-02 5.72564604e-04</_>
    <_>
      8.14144671e-01 8.43255460e-01 8.35574627e-01</_>
    <_>
      8.98190141e-01 9.24139619e-01 8.53830338e-01</_>
    <_>
      8.98190141e-01 9.24139619e-01 8.53830338e-01</_>
    <_>
      9.12647545e-01 9.30137515e-01 8.33754480e-01</_>
    <_>
      9.14458275e-01 9.18969452e-01 8.09777379e-01</_>
    <_>
      9.16204929e-01 9.20829237e-01 8.11581790e-01</_>
    <_>
      9.00843024e-01 9.06571388e-01 8.04082572e-01</_>
    <_>
      8.07766080e-01 8.75447035e-01 9.25573349e-01</_>
    <_>
      9.12647545e-01 9.30137515e-01 8.33754480e-01</_>
    <_>
      9.14458275e-01 9.18969452e-01 8.09777379e-01</_>
    <_>
      9.16204929e-01 9.20829237e-01 8.11581790e-01</_>
    <_>
      9.00843024e-01 9.06571388e-01 8.04082572e-01</_>
    <_>
      2.06315861e-04 3.39618680e-04 5.57092251e-04</_>
    <_>
      1.17101218e-03 8.01578513e-04 2.04605679e-03</_>
    <_>
      2.06315861e-04 3.39618680e-04 5.57092251e-04</_>
    <_>
      8.55580747e-01 8.29090774e-01 8.04763138e-01</_>
    <_>
      8.41885269e-01 8.14599216e-01 7.92356789e-01</_>
    <_>
      9.13942337e-01 9.32842910e-01 9.29796040e-01</_>
    <_>
      8.37663293e-01 9.11413133e-01 9.41255808e-01</_>
    <_>
      8.37663293e-01 9.11413133e-01 9.41255808e-01</_>
    <_>
      8.49711597e-01 8.35938811e-01 7.96552181e-01</_>
    <_>
      8.35311651e-01 8.43547344e-01 8.48295152e-01</_>
    <_>
      8.31777513e-01 8.25353622e-01 8.16289783e-01</_>
    <_>
      8.28097939e-01 8.51317108e-01 8.70167911e-01</_>
    <_>
      8.35311651e-01 8.43547344e-01 8.48295152e-01</_>
    <_>
      8.31777513e-01 8.25353622e-01 8.16289783e-01</_>
    <_>
      8.50211740e-01 8.38146031e-01 7.99353838e-01</_>
    <_>
      8.50211740e-01 8.38146031e-01 7.99353838e-01</_>
    <_>
      9.15494740e-01 8.91434014e-01 8.80635440e-01</_>
    <_>
      8.26148868e-01 8.26742113e-01 8.58342230e-01</_>
    <_>
      9.15494740e-01 8.91434014e-01 8.80635440e-01</_>
    <_>
      6.87390149e-01 3.93709302e-01 9.65606049e-03</_>
    <_>
      7.99243808e-01 8.58600199e-01 9.03779864e-01</_>
    <_>
      1.44330189e-02 1.67047575e-01 6.13817275e-01</_>
    <_>
      7.99243808e-01 8.58600199e-01 9.03779864e-01</_>
    <_>
      3.28273396e-04 6.03290624e-04 1.43731805e-03</_>
    <_>
      8.96554530e-01 9.10462797e-01 8.83717120e-01</_>
    <_>
      8.96554530e-01 9.10462797e-01 8.83717120e-01</_>
    <_>
      7.58723855e-01 8.20696294e-01 9.07862365e-01</_>
    <_>
      7.58723855e-01 8.20696294e-01 9.07862365e-01</_>
    <_>
      9.05489624e-01 9.53052580e-01 9.16848719e-01</_>
    <_>
      9.08169270e-01 9.58918095e-01 9.93006527e-01</_>
    <_>
      9.34054017e-01 9.66179490e-01 9.78994370e-01</_>
    <_>
      8.52545857e-01 9.40862775e-01 9.08263743e-01</_>
    <_>
      9.05489624e-01 9.53052580e-01 9.16848719e-01</_>
    <_>
      8.86121571e-01 9.47636425e-01 9.43978190e-01</_>
    <_>
      8.86121571e-01 9.47636425e-01 9.43978190e-01</_>
    <_>
      8.87748957e-01 9.49117064e-01 9.61135626e-01</_>
    <_>
      8.56753170e-01 8.94146025e-01 9.23155069e-01</_>
    <_>
      8.56753170e-01 8.94146025e-01 9.23155069e-01</_>
    <_>
      8.03647399e-01 8.59093308e-01 8.54375362e-01</_>
    <_>
      9.08169270e-01 9.58918095e-01 9.93006527e-01</_>
    <_>
      9.34054017e-01 9.66179490e-01 9.78994370e-01</_>
    <_>
      8.87748957e-01 9.49117064e-01 9.61135626e-01</_>
    <_>
      8.08853388e-01 8.65077913e-01 8.07177365e-01</_>
    <_>
      8.03647399e-01 8.59093308e-01 8.54375362e-01</_>
    <_>
      8.73779416e-01 8.76745045e-01 7.92396009e-01</_>
    <_>
      7.88009465e-01 7.57495940e-01 8.45453501e-01</_>
    <_>
      1.64591474e-03 2.91412944e-05 1.43133424e-04</_>
    <_>
      9.15874124e-01 9.10876036e-01 8.11655760e-01</_>
    <_>
      9.15874124e-01 9.10876036e-01 8.11655760e-01</_>
    <_>
      9.81478930e-01 9.57103729e-01 8.07007730e-01</_>
    <_>
      8.83676350e-01 8.83060098e-01 7.65349150e-01</_>
    <_>
      9.81478930e-01 9.57103729e-01 8.07007730e-01</_>
    <_>
      8.32846045e-01 8.51766169e-01 8.53259027e-01</_>
    <_>
      8.32846045e-01 8.51766169e-01 8.53259027e-01</_>
    <_>
      8.31104457e-01 8.23690653e-01 7.98646510e-01</_>
    <_>
      8.50043416e-01 8.59033108e-01 8.92856359e-01</_>
    <_>
      5.36675565e-04 1.88010721e-03 1.22378475e-03</_>
    <_>
      5.36675565e-04 1.88010721e-03 1.22378475e-03</_>
    <_>
      7.90544450e-01 8.25524151e-01 8.49141479e-01</_>
    <_>
      8.03031144e-05 8.37737446e-07 1.78282498e-03</_>
    <_>
      7.34875270e-04 9.80960671e-04 1.69492234e-03</_>
    <_>
      8.21135283e-01 8.22312772e-01 8.44219446e-01</_>
    <_>
      8.21135283e-01 8.22312772e-01 8.44219446e-01</_>
    <_>
      7.97550440e-01 8.38641584e-01 8.37760150e-01</_>
    <_>
      8.36763322e-01 8.53203356e-01 8.74111652e-01</_>
    <_>
      8.83887231e-01 9.04183626e-01 9.13481295e-01</_>
    <_>
      8.83887231e-01 9.04183626e-01 9.13481295e-01</_>
    <_>
      8.18235695e-01 8.25044036e-01 8.51501882e-01</_>
    <_>
      8.18235695e-01 8.25044036e-01 8.51501882e-01</_>
    <_>
      1.16107415e-03 3.27974209e-04 2.14330642e-03</_>
    <_>
      8.43182730e-04 1.09384570e-03 2.02977797e-03</_>
    <_>
      9.52866510e-04 3.40121391e-04 4.98334120e-04</_>
    <_>
      9.66913576e-05 2.05503730e-03 9.86652798e-04</_>
    <_>
      6.78687007e-04 9.30127921e-04 3.47720867e-04</_>
    <_>
      8.20438147e-01 8.09675336e-01 8.54142606e-01</_>
    <_>
      8.20438147e-01 8.09675336e-01 8.54142606e-01</_>
    <_>
      8.10525298e-01 8.26389551e-01 8.37397397e-01</_>
    <_>
      7.13291531e-03 5.91221219e-03 3.45566696e-05</_>
    <_>
      7.84179151e-01 8.45126867e-01 8.59816194e-01</_>
    <_>
      8.03374290e-01 8.61975908e-01 8.76929164e-01</_>
    <_>
      7.84179151e-01 8.45126867e-01 8.59816194e-01</_>
    <_>
      8.03374290e-01 8.61975908e-01 8.76929164e-01</_>
    <_>
      1.80735870e-03 4.61937394e-04 4.24403770e-05</_>
    <_>
      8.34387898e-01 8.28679919e-01 8.04812312e-01</_>
    <_>
      8.57577920e-01 8.58802736e-01 8.28056991e-01</_>
    <_>
      8.37883294e-01 8.65619719e-01 8.75536203e-01</_>
    <_>
      8.30126882e-01 8.49231482e-01 8.30217242e-01</_>
    <_>
      8.37883294e-01 8.65619719e-01 8.75536203e-01</_>
    <_>
      1.37670175e-03 5.70140139e-04 9.99443531e-02</_>
    <_>
      8.39666367e-01 8.40832233e-01 8.59414279e-01</_>
    <_>
      8.39666367e-01 8.40832233e-01 8.59414279e-01</_>
    <_>
      9.73391056e-04 1.62802299e-03 7.13453104e-04</_></support_vectors>
  <decision_functions>
    <_>
      <sv_count>200</sv_count>
      <rho>-4.4806078076362610e-03</rho>
      <alpha>
        1. 1. 1. 1. 1. 1. 1. 1. 1. 1. 1. 1. 1. 1. 1. 1. 1. 1. 1. 1. 1.
        1. 1. 1. 1. 1. 1. 1. 1. 1. 1. 1. 1. 1. 1. 1. 1. 1. 1. 1. 1. 1.
        1. 1. 1. 1. 1. 1. 1. 1. 1. 1. 1. 1. 1. 1. 1. 1. 1. 1. 1. 1. 1.
        1. 1. 1. 1. 1. 1. 1. 1. 1. 1. 1. 1. 1. 1. 1. 1. 1. 1. 1. 1. 1.
        1. 1. 1. 1. 1. 1. 1. 1. 1. 1. 1. 1. 1. 1. 1. 1. -1. -1. -1. -1.
        -1. -1. -1. -1. -1. -1. -1. -1. -1. -1. -1. -1. -1. -1. -1. -1.
        -1. -1. -1. -1. -1. -1. -1. -1. -1. -1. -1. -1. -1. -1. -1. -1.
        -1. -1. -1. -1. -1. -1. -1. -1. -1. -1. -1. -1. -1. -1. -1. -1.
        -1. -1. -1. -1. -1. -1. -1. -1. -1. -1. -1. -1. -1. -1. -1. -1.
        -1. -1. -1. -1. -1. -1. -1. -1. -1. -1. -1. -1. -1. -1. -1. -1.
        -1. -1. -1. -1. -1. -1. -1. -1. -1. -1. -1. -1. -1. -1. -1. -1.</alpha>
      <index>
        0 2 171 173 177 4 5 178 6 7 8 9 179 12 13 14 15 16 17 18 19 20
        21 22 23 26 29 30 31 71 72 180 181 73 76 183 184 77 78 79 80 81
        82 83 84 85 86 87 88 89 90 91 92 93 94 102 103 107 190 108 109
        110 111 112 113 114 115 116 119 124 125 126 127 131 132 133 134
        136 139 140 141 142 148 192 152 153 194 154 157 158 159 163 164
        165 166 197 198 167 168 199 1 3 10 11 24 25 27 28 32 33 34 35 36
        37 38 39 40 41 42 43 44 45 46 47 48 49 50 51 52 53 54 55 56 57
        58 59 60 61 62 63 64 65 66 67 68 69 70 74 75 95 96 97 98 99 100
        101 104 105 106 117 118 120 121 122 123 128 129 130 135 137 138
        143 144 145 146 147 149 150 151 155 156 160 161 162 169 170 172
        174 185 175 176 186 187 188 189 191 193 195 196 182</index></_></decision_functions></opencv_ml_svm>
</opencv_storage>
