<?xml version="1.0"?>
<opencv_storage>
<opencv_ml_svm>
  <format>3</format>
  <svmType>C_SVC</svmType>
  <kernel>
    <type>RBF</type>
    <gamma>1.</gamma></kernel>
  <C>1.</C>
  <term_criteria><iterations>100</iterations></term_criteria>
  <var_count>1</var_count>
  <class_count>2</class_count>
  <class_labels type_id="opencv-matrix">
    <rows>2</rows>
    <cols>1</cols>
    <dt>i</dt>
    <data>
      -1 1</data></class_labels>
  <sv_total>200</sv_total>
  <support_vectors>
    <_>
      3.21537405e-02</_>
    <_>
      1.59371775e-02</_>
    <_>
      9.43626761e-01</_>
    <_>
      9.43626761e-01</_>
    <_>
      1.06721170e-01</_>
    <_>
      0.</_>
    <_>
      0.</_>
    <_>
      0.</_>
    <_>
      0.</_>
    <_>
      0.</_>
    <_>
      0.</_>
    <_>
      0.</_>
    <_>
      0.</_>
    <_>
      0.</_>
    <_>
      0.</_>
    <_>
      0.</_>
    <_>
      0.</_>
    <_>
      2.82138008e-05</_>
    <_>
      8.26533198e-01</_>
    <_>
      6.42065934e-05</_>
    <_>
      8.32899868e-01</_>
    <_>
      8.32899868e-01</_>
    <_>
      0.</_>
    <_>
      0.</_>
    <_>
      3.99720448e-05</_>
    <_>
      8.29653084e-01</_>
    <_>
      9.17010844e-01</_>
    <_>
      7.28233208e-05</_>
    <_>
      0.</_>
    <_>
      0.</_>
    <_>
      0.</_>
    <_>
      0.</_>
    <_>
      0.</_>
    <_>
      0.</_>
    <_>
      0.</_>
    <_>
      0.</_>
    <_>
      0.</_>
    <_>
      0.</_>
    <_>
      0.</_>
    <_>
      0.</_>
    <_>
      0.</_>
    <_>
      0.</_>
    <_>
      0.</_>
    <_>
      0.</_>
    <_>
      0.</_>
    <_>
      0.</_>
    <_>
      0.</_>
    <_>
      0.</_>
    <_>
      0.</_>
    <_>
      0.</_>
    <_>
      0.</_>
    <_>
      0.</_>
    <_>
      0.</_>
    <_>
      0.</_>
    <_>
      0.</_>
    <_>
      0.</_>
    <_>
      0.</_>
    <_>
      0.</_>
    <_>
      0.</_>
    <_>
      0.</_>
    <_>
      0.</_>
    <_>
      0.</_>
    <_>
      0.</_>
    <_>
      2.50722842e-05</_>
    <_>
      2.50722842e-05</_>
    <_>
      1.15787283e-04</_>
    <_>
      0.</_>
    <_>
      3.48259418e-05</_>
    <_>
      3.48259418e-05</_>
    <_>
      3.48259418e-05</_>
    <_>
      3.45865883e-05</_>
    <_>
      3.09364477e-05</_>
    <_>
      8.19989383e-01</_>
    <_>
      3.45865883e-05</_>
    <_>
      3.72793147e-05</_>
    <_>
      3.72793147e-05</_>
    <_>
      9.03807878e-01</_>
    <_>
      9.03807878e-01</_>
    <_>
      0.</_>
    <_>
      0.</_>
    <_>
      0.</_>
    <_>
      3.34496581e-05</_>
    <_>
      8.68853385e-05</_>
    <_>
      8.68853385e-05</_>
    <_>
      0.</_>
    <_>
      1.76523245e-05</_>
    <_>
      5.43332571e-05</_>
    <_>
      8.22179427e-05</_>
    <_>
      0.</_>
    <_>
      0.</_>
    <_>
      8.22179427e-05</_>
    <_>
      0.</_>
    <_>
      2.65084054e-05</_>
    <_>
      2.65084054e-05</_>
    <_>
      2.65084054e-05</_>
    <_>
      1.14518523e-04</_>
    <_>
      7.31502235e-01</_>
    <_>
      8.98190141e-01</_>
    <_>
      8.98190141e-01</_>
    <_>
      9.12647545e-01</_>
    <_>
      9.14458275e-01</_>
    <_>
      9.16204929e-01</_>
    <_>
      9.00843024e-01</_>
    <_>
      8.77090812e-01</_>
    <_>
      9.12647545e-01</_>
    <_>
      9.14458275e-01</_>
    <_>
      9.16204929e-01</_>
    <_>
      9.00843024e-01</_>
    <_>
      8.77090812e-01</_>
    <_>
      8.41885269e-01</_>
    <_>
      8.30452323e-01</_>
    <_>
      8.30452323e-01</_>
    <_>
      8.32074642e-01</_>
    <_>
      8.87660205e-01</_>
    <_>
      8.32074642e-01</_>
    <_>
      9.13942337e-01</_>
    <_>
      8.86226714e-01</_>
    <_>
      8.37663293e-01</_>
    <_>
      8.33691120e-01</_>
    <_>
      8.33691120e-01</_>
    <_>
      8.35311651e-01</_>
    <_>
      8.31777513e-01</_>
    <_>
      8.24182332e-01</_>
    <_>
      8.24182332e-01</_>
    <_>
      8.35311651e-01</_>
    <_>
      8.31777513e-01</_>
    <_>
      8.21888745e-01</_>
    <_>
      8.90542746e-01</_>
    <_>
      8.50211740e-01</_>
    <_>
      8.21888745e-01</_>
    <_>
      8.90542746e-01</_>
    <_>
      8.50211740e-01</_>
    <_>
      9.15494740e-01</_>
    <_>
      8.90308678e-01</_>
    <_>
      9.15494740e-01</_>
    <_>
      8.90308678e-01</_>
    <_>
      8.31286013e-01</_>
    <_>
      8.96554530e-01</_>
    <_>
      8.31286013e-01</_>
    <_>
      8.96554530e-01</_>
    <_>
      9.05489624e-01</_>
    <_>
      9.08169270e-01</_>
    <_>
      9.34054017e-01</_>
    <_>
      9.05489624e-01</_>
    <_>
      8.86121571e-01</_>
    <_>
      8.86121571e-01</_>
    <_>
      8.87748957e-01</_>
    <_>
      8.56753170e-01</_>
    <_>
      8.56753170e-01</_>
    <_>
      9.08169270e-01</_>
    <_>
      9.34054017e-01</_>
    <_>
      8.87748957e-01</_>
    <_>
      8.23380768e-01</_>
    <_>
      8.23380768e-01</_>
    <_>
      9.15874124e-01</_>
    <_>
      9.15874124e-01</_>
    <_>
      9.81478930e-01</_>
    <_>
      8.83676350e-01</_>
    <_>
      9.81478930e-01</_>
    <_>
      8.32846045e-01</_>
    <_>
      8.32846045e-01</_>
    <_>
      9.05411839e-01</_>
    <_>
      8.31104457e-01</_>
    <_>
      9.05411839e-01</_>
    <_>
      8.31104457e-01</_>
    <_>
      8.03031144e-05</_>
    <_>
      8.21135283e-01</_>
    <_>
      8.21135283e-01</_>
    <_>
      8.36763322e-01</_>
    <_>
      8.36763322e-01</_>
    <_>
      8.83887231e-01</_>
    <_>
      8.83887231e-01</_>
    <_>
      5.36750340e-05</_>
    <_>
      2.30676997e-05</_>
    <_>
      1.18898875e-04</_>
    <_>
      1.18898875e-04</_>
    <_>
      8.23867917e-01</_>
    <_>
      8.23867917e-01</_>
    <_>
      8.40130961e-05</_>
    <_>
      6.64206091e-05</_>
    <_>
      9.66913576e-05</_>
    <_>
      8.22686195e-01</_>
    <_>
      8.26045275e-01</_>
    <_>
      8.20438147e-01</_>
    <_>
      8.20438147e-01</_>
    <_>
      8.07818287e-06</_>
    <_>
      8.07818287e-06</_>
    <_>
      3.22528904e-05</_>
    <_>
      8.16345200e-05</_>
    <_>
      9.59658137e-05</_>
    <_>
      8.34387898e-01</_>
    <_>
      8.34387898e-01</_>
    <_>
      4.19691496e-05</_>
    <_>
      8.37883294e-01</_>
    <_>
      8.30126882e-01</_>
    <_>
      8.37883294e-01</_>
    <_>
      8.95892620e-01</_>
    <_>
      8.95892620e-01</_>
    <_>
      8.21494281e-01</_>
    <_>
      9.59508543e-05</_></support_vectors>
  <decision_functions>
    <_>
      <sv_count>200</sv_count>
      <rho>-1.4742736518383026e-01</rho>
      <alpha>
        1. 1. 1. 1. 1. 1. 1. 1. 1. 1. 1. 1. 1. 1. 1. 1. 1. 1. 1. 1. 1.
        1. 1. 1. 1. 1. 1. 1. 1. 1. 1. 1. 1. 1. 1. 1. 1. 1. 1. 1. 1. 1.
        1. 1. 1. 1. 1. 1. 1. 1. 1. 1. 1. 1. 1. 1. 1. 1. 1. 1. 1. 1. 1.
        1. 1. 1. 1. 1. 1. 1. 1. 1. 1. 1. 1. 1. 1. 1. 1. 1. 1. 1. 1. 1.
        1. 1. 1. 1. 1. 1. 1. 1. 1. 1. 1. 1. 1. 1. 1. 1. -1. -1. -1. -1.
        -1. -1. -1. -1. -1. -1. -1. -1. -1. -1. -1. -1. -1. -1. -1. -1.
        -1. -1. -1. -1. -1. -1. -1. -1. -1. -1. -1. -1. -1. -1. -1. -1.
        -1. -1. -1. -1. -1. -1. -1. -1. -1. -1. -1. -1. -1. -1. -1. -1.
        -1. -1. -1. -1. -1. -1. -1. -1. -1. -1. -1. -1. -1. -1. -1. -1.
        -1. -1. -1. -1. -1. -1. -1. -1. -1. -1. -1. -1. -1. -1. -1. -1.
        -1. -1. -1. -1. -1. -1. -1. -1. -1. -1. -1. -1. -1. -1. -1. -1.</alpha>
      <index>
        0 169 170 4 172 199 173 17 18 19 21 174 175 24 25 27 176 178 179
        180 181 63 64 184 65 66 67 68 69 70 71 72 73 74 75 185 186 76 77
        78 79 80 81 82 83 84 85 86 87 88 89 90 91 92 93 94 187 95 102
        107 109 110 111 188 112 113 114 115 116 117 118 119 189 122 123
        127 130 132 133 134 135 191 137 192 139 140 143 144 145 150 194
        196 197 156 157 158 161 163 198 165 1 2 3 5 6 7 8 9 10 11 12 13
        14 15 16 20 22 23 26 28 29 30 31 32 33 34 35 36 37 38 39 40 41
        42 43 44 45 46 47 48 49 50 51 52 53 54 55 56 57 58 59 60 61 62
        96 97 98 99 100 101 103 104 105 106 108 120 121 124 125 126 128
        129 131 136 138 141 142 146 147 148 149 151 152 153 154 155 159
        160 162 164 166 167 168 171 177 190 193 195 182 183</index></_></decision_functions></opencv_ml_svm>
</opencv_storage>
