<?xml version="1.0"?>
<opencv_storage>
<opencv_ml_svm>
  <format>3</format>
  <svmType>C_SVC</svmType>
  <kernel>
    <type>RBF</type>
    <gamma>1.</gamma></kernel>
  <C>1.</C>
  <term_criteria><iterations>100</iterations></term_criteria>
  <var_count>4</var_count>
  <class_count>2</class_count>
  <class_labels type_id="opencv-matrix">
    <rows>2</rows>
    <cols>1</cols>
    <dt>i</dt>
    <data>
      -1 1</data></class_labels>
  <sv_total>200</sv_total>
  <support_vectors>
    <_>
      3.21537405e-02 2.46303193e-02 6.47445396e-03 1.82371825e-01</_>
    <_>
      1.59371775e-02 2.14244761e-02 1.69838704e-02 2.16466948e-01</_>
    <_>
      9.43626761e-01 8.38109374e-01 3.48360747e-01 2.05618799e-01</_>
    <_>
      0. 0. 1.08168321e-02 2.09656656e-01</_>
    <_>
      2.77264160e-03 1.99938007e-03 4.41505574e-03 2.85682857e-01</_>
    <_>
      7.78071344e-01 8.33704650e-01 8.96698952e-01 2.17861295e-01</_>
    <_>
      8.19806516e-01 8.82307708e-01 9.52692330e-01 2.05421954e-01</_>
    <_>
      7.15890884e-01 7.88300991e-01 8.80379856e-01 1.50934979e-01</_>
    <_>
      1.02371513e-03 2.35995115e-03 3.62106395e-04 2.28814736e-01</_>
    <_>
      1.02371513e-03 2.35995115e-03 3.62106395e-04 2.28814736e-01</_>
    <_>
      1.63361558e-03 3.14171164e-04 1.34469720e-03 3.13921064e-01</_>
    <_>
      2.99114821e-04 8.58397980e-05 5.95867168e-04 1.80968657e-01</_>
    <_>
      1.30493263e-05 2.36333828e-04 2.06778917e-04 1.90336809e-01</_>
    <_>
      4.66805231e-03 3.15408135e-04 0. 2.99507201e-01</_>
    <_>
      1.93654979e-03 6.66737277e-03 1.00360950e-03 2.85345018e-01</_>
    <_>
      0. 0. 0. 2.61195511e-01</_>
    <_>
      8.19320500e-01 8.37901950e-01 8.28710914e-01 2.30618522e-01</_>
    <_>
      1.81274419e-03 2.13515339e-03 4.43581986e-04 2.34266743e-01</_>
    <_>
      1.51570639e-04 4.13782458e-04 2.06879270e-03 2.19082206e-01</_>
    <_>
      8.48209136e-04 1.27934472e-04 2.25620647e-03 2.36060366e-01</_>
    <_>
      6.96638541e-04 2.85847986e-04 1.87413840e-04 2.31941134e-01</_>
    <_>
      6.96638541e-04 2.85847986e-04 1.87413840e-04 2.31941134e-01</_>
    <_>
      1.56040571e-03 1.49129226e-03 9.07927868e-04 2.34711692e-01</_>
    <_>
      1.56040571e-03 1.49129226e-03 9.07927868e-04 2.34711692e-01</_>
    <_>
      6.81260077e-04 4.37777664e-04 9.16604418e-04 1.98700577e-01</_>
    <_>
      3.95591574e-04 3.20093497e-03 2.00925348e-03 2.38489792e-01</_>
    <_>
      1.95791203e-04 1.46520277e-03 2.18368229e-03 2.20341712e-01</_>
    <_>
      9.17010844e-01 9.13698792e-01 8.94996941e-01 1.96584970e-01</_>
    <_>
      3.00599867e-03 1.22910761e-03 1.05355575e-04 2.16160744e-01</_>
    <_>
      2.15606927e-03 7.06134539e-04 5.10870188e-04 3.46147031e-01</_>
    <_>
      2.53823218e-05 0. 6.28553622e-04 2.74630845e-01</_>
    <_>
      0. 0. 6.20344013e-04 2.35760227e-01</_>
    <_>
      2.31328493e-04 1.98281559e-04 1.91102081e-04 3.39589506e-01</_>
    <_>
      8.55090562e-04 2.24453790e-04 9.30546783e-04 2.18533993e-01</_>
    <_>
      6.28733193e-04 2.47331103e-03 1.08402499e-04 2.43718162e-01</_>
    <_>
      0. 0. 0. 2.25837111e-01</_>
    <_>
      0. 0. 0. 2.19389200e-01</_>
    <_>
      0. 0. 0. 2.42576927e-01</_>
    <_>
      0. 0. 0. 2.21279770e-01</_>
    <_>
      0. 0. 0. 2.30483562e-01</_>
    <_>
      0. 0. 0. 2.32872412e-01</_>
    <_>
      0. 0. 0. 2.27792352e-01</_>
    <_>
      0. 0. 0. 2.22834468e-01</_>
    <_>
      0. 0. 0. 2.33411357e-01</_>
    <_>
      0. 0. 0. 2.30483562e-01</_>
    <_>
      0. 0. 0. 2.36759588e-01</_>
    <_>
      0. 0. 0. 2.22834468e-01</_>
    <_>
      0. 0. 0. 2.33411357e-01</_>
    <_>
      0. 0. 8.52661979e-05 2.50754356e-01</_>
    <_>
      0. 0. 8.52661979e-05 2.50754356e-01</_>
    <_>
      0. 0. 0. 2.18138665e-01</_>
    <_>
      0. 0. 0. 2.28808373e-01</_>
    <_>
      0. 0. 0. 2.32376263e-01</_>
    <_>
      0. 0. 0. 2.32289597e-01</_>
    <_>
      0. 0. 0. 2.18138665e-01</_>
    <_>
      0. 0. 0. 2.25147530e-01</_>
    <_>
      0. 0. 0. 2.35916883e-01</_>
    <_>
      0. 0. 0. 2.13908374e-01</_>
    <_>
      0. 0. 0. 2.24818558e-01</_>
    <_>
      0. 0. 0. 2.40130007e-01</_>
    <_>
      0. 0. 0. 2.16229260e-01</_>
    <_>
      0. 0. 0. 2.35916883e-01</_>
    <_>
      0. 0. 0. 2.34007701e-01</_>
    <_>
      0. 0. 0. 2.24818558e-01</_>
    <_>
      0. 0. 0. 2.14509398e-01</_>
    <_>
      0. 0. 0. 2.40130007e-01</_>
    <_>
      0. 0. 7.34393470e-05 2.05271661e-01</_>
    <_>
      7.84825504e-01 8.57948124e-01 8.54786575e-01 1.77812710e-01</_>
    <_>
      0. 0. 7.34393470e-05 2.05271661e-01</_>
    <_>
      0. 0. 8.89016883e-05 1.96823016e-01</_>
    <_>
      3.33045516e-03 2.20745313e-03 1.40192371e-03 2.37552449e-01</_>
    <_>
      3.45865883e-05 1.35294598e-04 2.73401587e-04 2.06869066e-01</_>
    <_>
      1.84780947e-04 4.00378660e-04 4.92769119e-04 2.13583976e-01</_>
    <_>
      2.19367532e-04 2.65084062e-04 2.19367532e-04 2.31607780e-01</_>
    <_>
      3.09364477e-05 1.70659085e-04 1.60486554e-04 2.22904027e-01</_>
    <_>
      8.19989383e-01 8.67613077e-01 8.49574089e-01 1.82328850e-01</_>
    <_>
      7.83111453e-01 9.07206655e-01 9.04952526e-01 1.86766744e-01</_>
    <_>
      8.04260254e-01 9.45059180e-01 9.40323591e-01 2.03165084e-01</_>
    <_>
      3.45865883e-05 1.35294598e-04 2.73401587e-04 2.06869066e-01</_>
    <_>
      9.03807878e-01 9.08754528e-01 7.22905755e-01 1.89903751e-01</_>
    <_>
      9.03807878e-01 9.08754528e-01 7.22905755e-01 1.89903751e-01</_>
    <_>
      0. 0. 4.00160061e-05 2.18457058e-01</_>
    <_>
      1.09554944e-03 1.12044821e-04 8.09212564e-04 2.35428095e-01</_>
    <_>
      1.09554944e-03 1.12044821e-04 8.09212564e-04 2.35428095e-01</_>
    <_>
      4.28355951e-03 4.37405746e-04 1.65912526e-04 2.28396565e-01</_>
    <_>
      0. 0. 0. 2.37805769e-01</_>
    <_>
      0. 0. 0. 2.22182691e-01</_>
    <_>
      1.09554944e-03 1.12044821e-04 8.09212564e-04 2.31859967e-01</_>
    <_>
      1.09554944e-03 1.12044821e-04 8.09212564e-04 2.21279770e-01</_>
    <_>
      4.28355951e-03 4.37405746e-04 1.65912526e-04 2.26125404e-01</_>
    <_>
      2.06382596e-04 3.58491787e-04 1.35851093e-03 1.84698746e-01</_>
    <_>
      8.14144671e-01 8.43255460e-01 8.35574627e-01 1.89540774e-01</_>
    <_>
      8.98190141e-01 9.24139619e-01 8.53830338e-01 2.20924631e-01</_>
    <_>
      8.98190141e-01 9.24139619e-01 8.53830338e-01 2.20924631e-01</_>
    <_>
      9.12647545e-01 9.30137515e-01 8.33754480e-01 2.11730495e-01</_>
    <_>
      9.14458275e-01 9.18969452e-01 8.09777379e-01 1.95510209e-01</_>
    <_>
      9.16204929e-01 9.20829237e-01 8.11581790e-01 1.99681550e-01</_>
    <_>
      9.00843024e-01 9.06571388e-01 8.04082572e-01 1.73791140e-01</_>
    <_>
      8.07766080e-01 8.75447035e-01 9.25573349e-01 1.90509036e-01</_>
    <_>
      9.12647545e-01 9.30137515e-01 8.33754480e-01 2.11730495e-01</_>
    <_>
      9.14458275e-01 9.18969452e-01 8.09777379e-01 1.95510209e-01</_>
    <_>
      9.16204929e-01 9.20829237e-01 8.11581790e-01 1.99681550e-01</_>
    <_>
      9.00843024e-01 9.06571388e-01 8.04082572e-01 1.73791140e-01</_>
    <_>
      2.06315861e-04 3.39618680e-04 5.57092251e-04 2.00259283e-01</_>
    <_>
      2.06315861e-04 3.39618680e-04 5.57092251e-04 2.00259283e-01</_>
    <_>
      8.55580747e-01 8.29090774e-01 8.04763138e-01 2.01197460e-01</_>
    <_>
      8.55580747e-01 8.29090774e-01 8.04763138e-01 2.01197460e-01</_>
    <_>
      8.63891482e-01 8.69292259e-01 8.21960807e-01 2.03395054e-01</_>
    <_>
      8.67244840e-01 8.71999502e-01 8.25919569e-01 2.25809708e-01</_>
    <_>
      8.87660205e-01 8.38925183e-01 7.48980939e-01 1.54819623e-01</_>
    <_>
      9.13942337e-01 9.32842910e-01 9.29796040e-01 1.88105837e-01</_>
    <_>
      8.86226714e-01 8.83069515e-01 7.89329231e-01 2.09608689e-01</_>
    <_>
      8.37663293e-01 9.11413133e-01 9.41255808e-01 1.64684132e-01</_>
    <_>
      8.37663293e-01 9.11413133e-01 9.41255808e-01 1.64684132e-01</_>
    <_>
      8.35311651e-01 8.43547344e-01 8.48295152e-01 1.65473685e-01</_>
    <_>
      8.31777513e-01 8.25353622e-01 8.16289783e-01 2.05731258e-01</_>
    <_>
      8.11771393e-01 8.21260691e-01 8.22956920e-01 1.74362883e-01</_>
    <_>
      8.35311651e-01 8.43547344e-01 8.48295152e-01 1.65473685e-01</_>
    <_>
      8.31777513e-01 8.25353622e-01 8.16289783e-01 2.05731258e-01</_>
    <_>
      8.50211740e-01 8.38146031e-01 7.99353838e-01 1.91417873e-01</_>
    <_>
      8.50211740e-01 8.38146031e-01 7.99353838e-01 1.91417873e-01</_>
    <_>
      9.15494740e-01 8.91434014e-01 8.80635440e-01 2.06604183e-01</_>
    <_>
      8.90308678e-01 8.73841703e-01 8.75067174e-01 2.07357615e-01</_>
    <_>
      8.26148868e-01 8.26742113e-01 8.58342230e-01 2.09401786e-01</_>
    <_>
      9.15494740e-01 8.91434014e-01 8.80635440e-01 2.06604183e-01</_>
    <_>
      8.26148868e-01 8.26742113e-01 8.58342230e-01 2.09401786e-01</_>
    <_>
      5.17283618e-01 2.88833380e-01 1.96326766e-02 1.43572405e-01</_>
    <_>
      7.99243808e-01 8.58600199e-01 9.03779864e-01 1.72772333e-01</_>
    <_>
      7.99243808e-01 8.58600199e-01 9.03779864e-01 1.72772333e-01</_>
    <_>
      3.28273396e-04 6.03290624e-04 1.43731805e-03 2.27912888e-01</_>
    <_>
      8.96554530e-01 9.10462797e-01 8.83717120e-01 1.85508117e-01</_>
    <_>
      7.58723855e-01 8.20696294e-01 9.07862365e-01 1.85132474e-01</_>
    <_>
      7.58723855e-01 8.20696294e-01 9.07862365e-01 1.85132474e-01</_>
    <_>
      9.05489624e-01 9.53052580e-01 9.16848719e-01 2.23228693e-01</_>
    <_>
      9.08169270e-01 9.58918095e-01 9.93006527e-01 2.03448892e-01</_>
    <_>
      9.34054017e-01 9.66179490e-01 9.78994370e-01 1.92829192e-01</_>
    <_>
      9.05489624e-01 9.53052580e-01 9.16848719e-01 2.23228693e-01</_>
    <_>
      8.86121571e-01 9.47636425e-01 9.43978190e-01 2.01415211e-01</_>
    <_>
      8.86121571e-01 9.47636425e-01 9.43978190e-01 2.01415211e-01</_>
    <_>
      8.87748957e-01 9.49117064e-01 9.61135626e-01 1.86560497e-01</_>
    <_>
      8.56753170e-01 8.94146025e-01 9.23155069e-01 1.74186543e-01</_>
    <_>
      8.56753170e-01 8.94146025e-01 9.23155069e-01 1.74186543e-01</_>
    <_>
      8.03647399e-01 8.59093308e-01 8.54375362e-01 1.87740460e-01</_>
    <_>
      9.08169270e-01 9.58918095e-01 9.93006527e-01 2.03448892e-01</_>
    <_>
      9.34054017e-01 9.66179490e-01 9.78994370e-01 1.92829192e-01</_>
    <_>
      8.87748957e-01 9.49117064e-01 9.61135626e-01 1.86560497e-01</_>
    <_>
      8.08853388e-01 8.65077913e-01 8.07177365e-01 1.61950499e-01</_>
    <_>
      8.03647399e-01 8.59093308e-01 8.54375362e-01 1.87740460e-01</_>
    <_>
      8.08853388e-01 8.65077913e-01 8.07177365e-01 1.61950499e-01</_>
    <_>
      8.73779416e-01 8.76745045e-01 7.92396009e-01 1.64963365e-01</_>
    <_>
      7.88009465e-01 7.57495940e-01 8.45453501e-01 1.39241219e-01</_>
    <_>
      1.64591474e-03 2.91412944e-05 1.43133424e-04 1.98301107e-01</_>
    <_>
      9.15874124e-01 9.10876036e-01 8.11655760e-01 1.85637683e-01</_>
    <_>
      9.15874124e-01 9.10876036e-01 8.11655760e-01 1.85637683e-01</_>
    <_>
      9.81478930e-01 9.57103729e-01 8.07007730e-01 1.90068290e-01</_>
    <_>
      9.81478930e-01 9.57103729e-01 8.07007730e-01 1.90068290e-01</_>
    <_>
      2.96254060e-03 2.14045797e-03 1.60983868e-03 2.33275115e-01</_>
    <_>
      2.96254060e-03 2.14045797e-03 1.60983868e-03 2.33275115e-01</_>
    <_>
      8.32846045e-01 8.51766169e-01 8.53259027e-01 2.06561044e-01</_>
    <_>
      8.32846045e-01 8.51766169e-01 8.53259027e-01 2.06561044e-01</_>
    <_>
      9.05411839e-01 8.99165094e-01 8.77715290e-01 1.69271976e-01</_>
    <_>
      7.90544450e-01 8.25524151e-01 8.49141479e-01 1.64727777e-01</_>
    <_>
      5.43296663e-03 1.28582828e-02 5.09075064e-04 3.42527211e-01</_>
    <_>
      8.21135283e-01 8.22312772e-01 8.44219446e-01 1.86348289e-01</_>
    <_>
      8.21135283e-01 8.22312772e-01 8.44219446e-01 1.86348289e-01</_>
    <_>
      7.97550440e-01 8.38641584e-01 8.37760150e-01 2.18717858e-01</_>
    <_>
      8.36763322e-01 8.53203356e-01 8.74111652e-01 1.82647735e-01</_>
    <_>
      8.83887231e-01 9.04183626e-01 9.13481295e-01 2.00394168e-01</_>
    <_>
      8.48292530e-01 8.59417021e-01 8.75562131e-01 1.43181518e-01</_>
    <_>
      8.83887231e-01 9.04183626e-01 9.13481295e-01 2.00394168e-01</_>
    <_>
      8.18235695e-01 8.25044036e-01 8.51501882e-01 1.83027193e-01</_>
    <_>
      8.18235695e-01 8.25044036e-01 8.51501882e-01 1.83027193e-01</_>
    <_>
      8.09930801e-01 8.40088010e-01 8.13126266e-01 1.69548228e-01</_>
    <_>
      6.75665156e-04 8.32250249e-03 2.20205271e-04 2.10813090e-01</_>
    <_>
      1.17106959e-01 3.18370148e-04 5.54109458e-03 1.22875683e-01</_>
    <_>
      0. 0. 0. 2.07413629e-01</_>
    <_>
      0. 0. 0. 2.07413629e-01</_>
    <_>
      6.78687007e-04 9.30127921e-04 3.47720867e-04 2.16273099e-01</_>
    <_>
      8.20438147e-01 8.09675336e-01 8.54142606e-01 1.89325407e-01</_>
    <_>
      8.20438147e-01 8.09675336e-01 8.54142606e-01 1.89325407e-01</_>
    <_>
      5.03599877e-04 3.33359669e-04 9.01285792e-04 3.44284773e-01</_>
    <_>
      5.03599877e-04 3.33359669e-04 9.01285792e-04 3.44284773e-01</_>
    <_>
      2.89139082e-03 1.96254207e-03 2.57143984e-03 2.77370006e-01</_>
    <_>
      1.30136525e-02 1.02887917e-02 2.80537922e-02 4.15481061e-01</_>
    <_>
      7.84179151e-01 8.45126867e-01 8.59816194e-01 1.60286874e-01</_>
    <_>
      8.03374290e-01 8.61975908e-01 8.76929164e-01 1.76913530e-01</_>
    <_>
      7.84179151e-01 8.45126867e-01 8.59816194e-01 1.60286874e-01</_>
    <_>
      8.03374290e-01 8.61975908e-01 8.76929164e-01 1.76913530e-01</_>
    <_>
      9.59658137e-05 2.90586427e-03 2.54771300e-03 2.31320143e-01</_>
    <_>
      8.34387898e-01 8.28679919e-01 8.04812312e-01 2.02991888e-01</_>
    <_>
      3.58820893e-04 1.62386429e-03 3.64256538e-02 1.83050543e-01</_>
    <_>
      8.24442208e-01 8.38924766e-01 8.55058908e-01 1.84575632e-01</_>
    <_>
      8.37883294e-01 8.65619719e-01 8.75536203e-01 2.00830743e-01</_>
    <_>
      8.37883294e-01 8.65619719e-01 8.75536203e-01 2.00830743e-01</_>
    <_>
      7.04977009e-03 5.42803016e-03 3.86137108e-04 2.87101865e-01</_>
    <_>
      4.21501609e-04 4.21501609e-04 4.21501609e-04 2.97153562e-01</_>
    <_>
      4.21501609e-04 4.21501609e-04 4.21501609e-04 2.97153562e-01</_>
    <_>
      7.02069283e-01 5.74320912e-01 2.07314283e-01 1.80853516e-01</_>
    <_>
      8.39666367e-01 8.40832233e-01 8.59414279e-01 1.82987615e-01</_>
    <_>
      9.73391056e-04 1.62802299e-03 7.13453104e-04 2.33709157e-01</_></support_vectors>
  <decision_functions>
    <_>
      <sv_count>200</sv_count>
      <rho>-4.0527060627937317e-04</rho>
      <alpha>
        1. 1. 1. 1. 1. 1. 1. 1. 1. 1. 1. 1. 1. 1. 1. 1. 1. 1. 1. 1. 1.
        1. 1. 1. 1. 1. 1. 1. 1. 1. 1. 1. 1. 1. 1. 1. 1. 1. 1. 1. 1. 1.
        1. 1. 1. 1. 1. 1. 1. 1. 1. 1. 1. 1. 1. 1. 1. 1. 1. 1. 1. 1. 1.
        1. 1. 1. 1. 1. 1. 1. 1. 1. 1. 1. 1. 1. 1. 1. 1. 1. 1. 1. 1. 1.
        1. 1. 1. 1. 1. 1. 1. 1. 1. 1. 1. 1. 1. 1. 1. 1. -1. -1. -1. -1.
        -1. -1. -1. -1. -1. -1. -1. -1. -1. -1. -1. -1. -1. -1. -1. -1.
        -1. -1. -1. -1. -1. -1. -1. -1. -1. -1. -1. -1. -1. -1. -1. -1.
        -1. -1. -1. -1. -1. -1. -1. -1. -1. -1. -1. -1. -1. -1. -1. -1.
        -1. -1. -1. -1. -1. -1. -1. -1. -1. -1. -1. -1. -1. -1. -1. -1.
        -1. -1. -1. -1. -1. -1. -1. -1. -1. -1. -1. -1. -1. -1. -1. -1.
        -1. -1. -1. -1. -1. -1. -1. -1. -1. -1. -1. -1. -1. -1. -1. -1.</alpha>
      <index>
        0 165 167 168 4 5 6 7 8 9 172 173 174 13 14 16 17 18 19 20 21 22
        23 24 25 26 28 29 33 34 177 67 70 179 182 71 72 73 74 75 76 77
        78 79 80 81 82 83 84 85 86 87 88 89 90 183 97 98 102 103 104 105
        106 107 108 109 110 111 112 113 188 121 122 123 124 125 129 130
        131 133 136 137 138 144 191 148 149 150 151 194 154 155 156 157
        160 161 197 198 162 199 1 2 3 10 11 12 15 27 30 31 32 35 36 37
        38 39 40 41 42 43 44 45 46 47 48 49 50 51 52 53 54 55 56 57 58
        59 60 61 62 63 64 65 66 68 69 91 92 93 94 95 96 99 100 101 114
        115 116 117 118 119 120 126 127 128 132 134 135 139 140 141 142
        143 145 146 147 152 153 158 159 163 164 166 169 180 181 170 171
        184 185 186 187 189 190 192 193 175 176 195 196 178</index></_></decision_functions></opencv_ml_svm>
</opencv_storage>
