<?xml version="1.0"?>
<opencv_storage>
<opencv_ml_svm>
  <format>3</format>
  <svmType>C_SVC</svmType>
  <kernel>
    <type>RBF</type>
    <gamma>1.</gamma></kernel>
  <C>1.</C>
  <term_criteria><iterations>100</iterations></term_criteria>
  <var_count>2</var_count>
  <class_count>2</class_count>
  <class_labels type_id="opencv-matrix">
    <rows>2</rows>
    <cols>1</cols>
    <dt>i</dt>
    <data>
      -1 1</data></class_labels>
  <sv_total>200</sv_total>
  <support_vectors>
    <_>
      3.21537405e-02 1.82371825e-01</_>
    <_>
      1.59371775e-02 2.16466948e-01</_>
    <_>
      9.43626761e-01 2.05618799e-01</_>
    <_>
      9.43626761e-01 2.05618799e-01</_>
    <_>
      5.53923985e-03 3.09227228e-01</_>
    <_>
      1.78925763e-03 3.42390895e-01</_>
    <_>
      1.78925763e-03 3.42390895e-01</_>
    <_>
      1.61025106e-04 1.56669527e-01</_>
    <_>
      2.77264160e-03 2.85682857e-01</_>
    <_>
      8.19806516e-01 2.05421954e-01</_>
    <_>
      8.25872660e-01 1.65156648e-01</_>
    <_>
      8.26533198e-01 2.09170997e-01</_>
    <_>
      1.63361558e-03 3.13921064e-01</_>
    <_>
      1.63361558e-03 3.13921064e-01</_>
    <_>
      8.32899868e-01 1.65807426e-01</_>
    <_>
      1.99627969e-03 3.02657247e-01</_>
    <_>
      4.66805231e-03 2.99507201e-01</_>
    <_>
      1.99627969e-03 3.02657247e-01</_>
    <_>
      1.33150141e-03 2.99292475e-01</_>
    <_>
      1.93654979e-03 2.85345018e-01</_>
    <_>
      3.10124038e-03 3.18889767e-01</_>
    <_>
      3.10124038e-03 3.18889767e-01</_>
    <_>
      8.19320500e-01 2.30618522e-01</_>
    <_>
      8.19320500e-01 2.30618522e-01</_>
    <_>
      9.99181415e-04 1.28134876e-01</_>
    <_>
      9.99181415e-04 1.28134876e-01</_>
    <_>
      9.17010844e-01 1.96584970e-01</_>
    <_>
      3.36016482e-03 2.84181178e-01</_>
    <_>
      9.29819699e-03 2.93543935e-01</_>
    <_>
      1.95876472e-02 3.90859783e-01</_>
    <_>
      2.15606927e-03 3.46147031e-01</_>
    <_>
      2.53823218e-05 2.74630845e-01</_>
    <_>
      2.53823218e-05 3.37441772e-01</_>
    <_>
      2.53823218e-05 2.74630845e-01</_>
    <_>
      0. 2.50730604e-01</_>
    <_>
      2.53823218e-05 3.37441772e-01</_>
    <_>
      0. 2.70266891e-01</_>
    <_>
      2.31328493e-04 3.39589506e-01</_>
    <_>
      2.31328493e-04 3.39589506e-01</_>
    <_>
      1.84915581e-04 1.52107209e-01</_>
    <_>
      1.84915581e-04 1.52107209e-01</_>
    <_>
      2.47641176e-04 2.97752291e-01</_>
    <_>
      2.47641176e-04 2.97752291e-01</_>
    <_>
      2.61703186e-04 1.42712429e-01</_>
    <_>
      9.03807878e-01 1.89903751e-01</_>
    <_>
      9.03807878e-01 1.89903751e-01</_>
    <_>
      1.24763045e-03 1.38537839e-01</_>
    <_>
      3.33539181e-04 1.41205877e-01</_>
    <_>
      1.32422356e-04 1.41313240e-01</_>
    <_>
      3.33539181e-04 1.41205877e-01</_>
    <_>
      1.76523245e-05 1.80940822e-01</_>
    <_>
      1.32422356e-04 1.41313240e-01</_>
    <_>
      0. 2.08027840e-01</_>
    <_>
      8.98190141e-01 2.20924631e-01</_>
    <_>
      8.98190141e-01 2.20924631e-01</_>
    <_>
      9.12647545e-01 2.11730495e-01</_>
    <_>
      9.14458275e-01 1.95510209e-01</_>
    <_>
      9.16204929e-01 1.99681550e-01</_>
    <_>
      9.00843024e-01 1.73791140e-01</_>
    <_>
      8.77090812e-01 2.24898756e-01</_>
    <_>
      9.12647545e-01 2.11730495e-01</_>
    <_>
      9.14458275e-01 1.95510209e-01</_>
    <_>
      9.16204929e-01 1.99681550e-01</_>
    <_>
      9.00843024e-01 1.73791140e-01</_>
    <_>
      8.77090812e-01 2.24898756e-01</_>
    <_>
      8.55580747e-01 2.01197460e-01</_>
    <_>
      8.30452323e-01 1.42962113e-01</_>
    <_>
      8.30452323e-01 1.42962113e-01</_>
    <_>
      8.67244840e-01 2.25809708e-01</_>
    <_>
      8.67244840e-01 2.25809708e-01</_>
    <_>
      9.13942337e-01 1.88105837e-01</_>
    <_>
      8.86226714e-01 2.09608689e-01</_>
    <_>
      8.37663293e-01 1.64684132e-01</_>
    <_>
      8.37663293e-01 1.64684132e-01</_>
    <_>
      8.35311651e-01 1.65473685e-01</_>
    <_>
      8.31777513e-01 2.05731258e-01</_>
    <_>
      8.28097939e-01 1.87479153e-01</_>
    <_>
      8.35311651e-01 1.65473685e-01</_>
    <_>
      8.31777513e-01 2.05731258e-01</_>
    <_>
      8.21888745e-01 1.61713779e-01</_>
    <_>
      8.90542746e-01 1.85031161e-01</_>
    <_>
      8.50211740e-01 1.91417873e-01</_>
    <_>
      8.81430089e-01 2.09856778e-01</_>
    <_>
      8.21888745e-01 1.61713779e-01</_>
    <_>
      8.50211740e-01 1.91417873e-01</_>
    <_>
      9.15494740e-01 2.06604183e-01</_>
    <_>
      8.90308678e-01 2.07357615e-01</_>
    <_>
      9.15494740e-01 2.06604183e-01</_>
    <_>
      8.90308678e-01 2.07357615e-01</_>
    <_>
      8.18044901e-01 1.53860494e-01</_>
    <_>
      8.31286013e-01 1.80217683e-01</_>
    <_>
      8.96554530e-01 1.85508117e-01</_>
    <_>
      7.96520710e-01 1.38294369e-01</_>
    <_>
      8.31286013e-01 1.80217683e-01</_>
    <_>
      8.96554530e-01 1.85508117e-01</_>
    <_>
      9.05489624e-01 2.23228693e-01</_>
    <_>
      9.08169270e-01 2.03448892e-01</_>
    <_>
      9.34054017e-01 1.92829192e-01</_>
    <_>
      9.05489624e-01 2.23228693e-01</_>
    <_>
      8.86121571e-01 2.01415211e-01</_>
    <_>
      8.86121571e-01 2.01415211e-01</_>
    <_>
      8.87748957e-01 1.86560497e-01</_>
    <_>
      8.56753170e-01 1.74186543e-01</_>
    <_>
      8.56753170e-01 1.74186543e-01</_>
    <_>
      9.08169270e-01 2.03448892e-01</_>
    <_>
      9.34054017e-01 1.92829192e-01</_>
    <_>
      8.87748957e-01 1.86560497e-01</_>
    <_>
      8.08853388e-01 1.61950499e-01</_>
    <_>
      8.23380768e-01 1.59329459e-01</_>
    <_>
      8.23380768e-01 1.59329459e-01</_>
    <_>
      4.75658337e-03 2.87552953e-01</_>
    <_>
      4.75658337e-03 2.87552953e-01</_>
    <_>
      9.15874124e-01 1.85637683e-01</_>
    <_>
      9.15874124e-01 1.85637683e-01</_>
    <_>
      9.81478930e-01 1.90068290e-01</_>
    <_>
      9.81478930e-01 1.90068290e-01</_>
    <_>
      8.32846045e-01 2.06561044e-01</_>
    <_>
      8.32846045e-01 2.06561044e-01</_>
    <_>
      9.05411839e-01 1.69271976e-01</_>
    <_>
      8.31104457e-01 1.61636427e-01</_>
    <_>
      9.05411839e-01 1.69271976e-01</_>
    <_>
      8.50043416e-01 1.93663955e-01</_>
    <_>
      8.31104457e-01 1.61636427e-01</_>
    <_>
      1.34758744e-02 3.45692515e-01</_>
    <_>
      1.12535367e-02 3.04132700e-01</_>
    <_>
      3.17508471e-03 2.78745979e-01</_>
    <_>
      8.42345005e-04 3.41845781e-01</_>
    <_>
      8.42345005e-04 3.41845781e-01</_>
    <_>
      5.43296663e-03 3.42527211e-01</_>
    <_>
      3.68128754e-02 3.83727133e-01</_>
    <_>
      8.21135283e-01 1.86348289e-01</_>
    <_>
      8.21135283e-01 1.86348289e-01</_>
    <_>
      8.36763322e-01 1.82647735e-01</_>
    <_>
      8.36763322e-01 1.82647735e-01</_>
    <_>
      8.48292530e-01 1.43181518e-01</_>
    <_>
      8.83887231e-01 2.00394168e-01</_>
    <_>
      8.48292530e-01 1.43181518e-01</_>
    <_>
      6.29920606e-03 3.18276197e-01</_>
    <_>
      3.40031635e-04 2.83434987e-01</_>
    <_>
      1.52121147e-03 1.21069260e-01</_>
    <_>
      6.31675959e-01 1.27177581e-01</_>
    <_>
      8.23867917e-01 1.77156940e-01</_>
    <_>
      8.40130961e-05 1.44240052e-01</_>
    <_>
      3.02602741e-04 1.40474468e-01</_>
    <_>
      3.15464986e-03 3.25662404e-01</_>
    <_>
      1.32793356e-02 3.11203212e-01</_>
    <_>
      1.01656448e-02 3.21718335e-01</_>
    <_>
      5.46324474e-04 2.97427356e-01</_>
    <_>
      5.46324474e-04 2.97427356e-01</_>
    <_>
      9.86687187e-03 3.66942227e-01</_>
    <_>
      9.86687187e-03 3.66942227e-01</_>
    <_>
      3.15464986e-03 3.25662404e-01</_>
    <_>
      4.23835311e-03 3.27180177e-01</_>
    <_>
      8.17133546e-01 2.08140641e-01</_>
    <_>
      1.92350504e-04 1.48167625e-01</_>
    <_>
      4.23835311e-03 3.27180177e-01</_>
    <_>
      8.26045275e-01 2.08308294e-01</_>
    <_>
      1.74219464e-03 3.41526568e-01</_>
    <_>
      1.74219464e-03 3.41526568e-01</_>
    <_>
      6.57625403e-03 3.66143733e-01</_>
    <_>
      6.57625403e-03 3.66143733e-01</_>
    <_>
      7.65949301e-03 3.47251117e-01</_>
    <_>
      7.65949301e-03 3.47251117e-01</_>
    <_>
      1.29650636e-02 3.29402477e-01</_>
    <_>
      4.30752616e-03 3.48803729e-01</_>
    <_>
      8.62271190e-05 1.55310810e-01</_>
    <_>
      8.62271190e-05 1.55310810e-01</_>
    <_>
      4.30752616e-03 3.48803729e-01</_>
    <_>
      5.03599877e-04 3.44284773e-01</_>
    <_>
      5.03599877e-04 3.44284773e-01</_>
    <_>
      3.66396434e-03 3.33185285e-01</_>
    <_>
      3.66396434e-03 3.33185285e-01</_>
    <_>
      2.89139082e-03 2.77370006e-01</_>
    <_>
      2.05667540e-02 3.31440240e-01</_>
    <_>
      9.27764282e-04 3.54897231e-01</_>
    <_>
      8.10546756e-01 2.85462976e-01</_>
    <_>
      3.15871136e-03 3.05624455e-01</_>
    <_>
      1.30136525e-02 4.15481061e-01</_>
    <_>
      5.00425138e-02 1.13397293e-01</_>
    <_>
      2.19565001e-03 3.24643910e-01</_>
    <_>
      9.88853350e-03 3.24225187e-01</_>
    <_>
      3.59030332e-06 1.51050225e-01</_>
    <_>
      3.59030332e-06 1.51050225e-01</_>
    <_>
      3.52905877e-03 1.17403559e-01</_>
    <_>
      2.65446072e-03 3.27868551e-01</_>
    <_>
      8.34387898e-01 2.02991888e-01</_>
    <_>
      8.34387898e-01 2.02991888e-01</_>
    <_>
      5.92762046e-03 3.03321272e-01</_>
    <_>
      8.57577920e-01 2.04186767e-01</_>
    <_>
      8.37883294e-01 2.00830743e-01</_>
    <_>
      8.37883294e-01 2.00830743e-01</_>
    <_>
      1.42176010e-04 1.07329369e-01</_>
    <_>
      8.95892620e-01 1.95775554e-01</_>
    <_>
      8.95892620e-01 1.95775554e-01</_>
    <_>
      5.16991690e-03 3.22436899e-01</_>
    <_>
      4.21501609e-04 2.97153562e-01</_>
    <_>
      4.21501609e-04 2.97153562e-01</_>
    <_>
      8.19734454e-01 1.54814616e-01</_>
    <_>
      4.82058065e-04 1.38792276e-01</_>
    <_>
      2.05719145e-03 2.83814847e-01</_></support_vectors>
  <decision_functions>
    <_>
      <sv_count>200</sv_count>
      <rho>-1.3576480746269226e-01</rho>
      <alpha>
        1. 1. 1. 1. 1. 1. 1. 1. 1. 1. 1. 1. 1. 1. 1. 1. 1. 1. 1. 1. 1.
        1. 1. 1. 1. 1. 1. 1. 1. 1. 1. 1. 1. 1. 1. 1. 1. 1. 1. 1. 1. 1.
        1. 1. 1. 1. 1. 1. 1. 1. 1. 1. 1. 1. 1. 1. 1. 1. 1. 1. 1. 1. 1.
        1. 1. 1. 1. 1. 1. 1. 1. 1. 1. 1. 1. 1. 1. 1. 1. 1. 1. 1. 1. 1.
        1. 1. 1. 1. 1. 1. 1. 1. 1. 1. 1. 1. 1. 1. 1. 1. -1. -1. -1. -1.
        -1. -1. -1. -1. -1. -1. -1. -1. -1. -1. -1. -1. -1. -1. -1. -1.
        -1. -1. -1. -1. -1. -1. -1. -1. -1. -1. -1. -1. -1. -1. -1. -1.
        -1. -1. -1. -1. -1. -1. -1. -1. -1. -1. -1. -1. -1. -1. -1. -1.
        -1. -1. -1. -1. -1. -1. -1. -1. -1. -1. -1. -1. -1. -1. -1. -1.
        -1. -1. -1. -1. -1. -1. -1. -1. -1. -1. -1. -1. -1. -1. -1. -1.
        -1. -1. -1. -1. -1. -1. -1. -1. -1. -1. -1. -1. -1. -1. -1. -1.</alpha>
      <index>
        0 4 5 6 133 134 136 199 8 137 9 10 11 16 138 18 19 22 23 27 28
        29 139 30 142 143 145 146 39 40 154 157 158 159 160 163 43 172
        173 174 44 45 50 52 175 176 177 58 63 178 65 66 67 179 68 69 70
        71 72 73 180 183 76 80 82 85 86 87 88 89 184 186 91 187 92 94 95
        98 99 100 105 188 107 191 110 111 192 193 114 115 118 120 121
        123 124 125 197 128 129 198 1 2 3 7 12 13 14 15 17 20 21 24 25
        26 31 32 33 34 35 36 37 38 41 42 46 47 48 49 51 53 54 55 56 57
        59 60 61 62 64 74 75 77 78 79 81 83 84 90 93 96 97 101 102 103
        104 106 108 109 112 113 116 117 119 122 126 127 130 131 132 135
        167 168 169 170 171 140 141 144 147 148 149 150 151 181 182 185
        189 190 152 153 155 156 194 195 196 161 162 164 165 166</index></_></decision_functions></opencv_ml_svm>
</opencv_storage>
