<?xml version="1.0"?>
<opencv_storage>
<opencv_ml_svm>
  <format>3</format>
  <svmType>C_SVC</svmType>
  <kernel>
    <type>RBF</type>
    <gamma>1.</gamma></kernel>
  <C>1.</C>
  <term_criteria><iterations>100</iterations></term_criteria>
  <var_count>2</var_count>
  <class_count>2</class_count>
  <class_labels type_id="opencv-matrix">
    <rows>2</rows>
    <cols>1</cols>
    <dt>i</dt>
    <data>
      -1 1</data></class_labels>
  <sv_total>200</sv_total>
  <support_vectors>
    <_>
      2.46303193e-02 6.47445396e-03</_>
    <_>
      2.14244761e-02 1.69838704e-02</_>
    <_>
      1.82263479e-01 6.65277719e-01</_>
    <_>
      5.23440599e-01 3.72730047e-02</_>
    <_>
      1.33549711e-02 5.85852027e-01</_>
    <_>
      1.32462796e-04 7.83177151e-04</_>
    <_>
      4.11927467e-04 2.47192394e-04</_>
    <_>
      4.11927467e-04 2.47192394e-04</_>
    <_>
      8.33704650e-01 8.96698952e-01</_>
    <_>
      8.82307708e-01 9.52692330e-01</_>
    <_>
      7.88300991e-01 8.80379856e-01</_>
    <_>
      8.81182492e-01 8.52389753e-01</_>
    <_>
      7.88300991e-01 8.80379856e-01</_>
    <_>
      7.66663313e-01 8.65190566e-01</_>
    <_>
      3.15408135e-04 0.</_>
    <_>
      3.15408135e-04 0.</_>
    <_>
      0. 0.</_>
    <_>
      0. 0.</_>
    <_>
      8.37901950e-01 8.28710914e-01</_>
    <_>
      2.85847986e-04 1.87413840e-04</_>
    <_>
      2.85847986e-04 1.87413840e-04</_>
    <_>
      9.13698792e-01 8.94996941e-01</_>
    <_>
      1.08953784e-04 0.</_>
    <_>
      2.93206482e-04 4.35729860e-04</_>
    <_>
      4.02160251e-04 4.35729860e-04</_>
    <_>
      4.02160251e-04 4.35729860e-04</_>
    <_>
      0. 0.</_>
    <_>
      0. 0.</_>
    <_>
      2.24453790e-04 9.30546783e-04</_>
    <_>
      0. 0.</_>
    <_>
      0. 0.</_>
    <_>
      0. 0.</_>
    <_>
      0. 0.</_>
    <_>
      0. 0.</_>
    <_>
      0. 0.</_>
    <_>
      0. 0.</_>
    <_>
      0. 0.</_>
    <_>
      0. 0.</_>
    <_>
      0. 0.</_>
    <_>
      0. 0.</_>
    <_>
      0. 0.</_>
    <_>
      0. 0.</_>
    <_>
      0. 0.</_>
    <_>
      0. 0.</_>
    <_>
      0. 0.</_>
    <_>
      0. 0.</_>
    <_>
      0. 0.</_>
    <_>
      0. 0.</_>
    <_>
      0. 0.</_>
    <_>
      0. 0.</_>
    <_>
      0. 0.</_>
    <_>
      0. 0.</_>
    <_>
      0. 0.</_>
    <_>
      0. 0.</_>
    <_>
      0. 0.</_>
    <_>
      0. 0.</_>
    <_>
      0. 0.</_>
    <_>
      0. 0.</_>
    <_>
      0. 0.</_>
    <_>
      0. 0.</_>
    <_>
      0. 0.</_>
    <_>
      0. 0.</_>
    <_>
      0. 0.</_>
    <_>
      0. 0.</_>
    <_>
      0. 0.</_>
    <_>
      0. 0.</_>
    <_>
      0. 0.</_>
    <_>
      0. 0.</_>
    <_>
      0. 0.</_>
    <_>
      0. 0.</_>
    <_>
      0. 0.</_>
    <_>
      0. 0.</_>
    <_>
      9.44923937e-01 9.40050185e-01</_>
    <_>
      1.35294598e-04 2.73401587e-04</_>
    <_>
      4.00378660e-04 4.92769119e-04</_>
    <_>
      2.65084062e-04 2.19367532e-04</_>
    <_>
      1.70659085e-04 1.60486554e-04</_>
    <_>
      9.44923937e-01 9.40050185e-01</_>
    <_>
      9.45059180e-01 9.40323591e-01</_>
    <_>
      1.35294598e-04 2.73401587e-04</_>
    <_>
      9.45059180e-01 9.40323591e-01</_>
    <_>
      9.08754528e-01 7.22905755e-01</_>
    <_>
      9.08754528e-01 7.22905755e-01</_>
    <_>
      1.85335975e-05 5.78391075e-04</_>
    <_>
      1.85335975e-05 5.78391075e-04</_>
    <_>
      0. 4.00160061e-05</_>
    <_>
      1.12044821e-04 8.09212564e-04</_>
    <_>
      1.12044821e-04 8.09212564e-04</_>
    <_>
      3.25360917e-04 6.43300067e-04</_>
    <_>
      3.25360917e-04 6.43300067e-04</_>
    <_>
      4.37405746e-04 1.65912526e-04</_>
    <_>
      0. 0.</_>
    <_>
      0. 0.</_>
    <_>
      1.12044821e-04 8.09212564e-04</_>
    <_>
      1.12044821e-04 8.09212564e-04</_>
    <_>
      4.37405746e-04 1.65912526e-04</_>
    <_>
      1.56836410e-04 7.19975505e-04</_>
    <_>
      8.43255460e-01 8.35574627e-01</_>
    <_>
      3.21440020e-05 1.06889172e-03</_>
    <_>
      1.02044100e-06 2.77433405e-03</_>
    <_>
      3.37828315e-05 1.61878357e-03</_>
    <_>
      9.45064247e-01 9.33979392e-01</_>
    <_>
      8.90948355e-01 8.18230867e-01</_>
    <_>
      9.24139619e-01 8.53830338e-01</_>
    <_>
      9.24139619e-01 8.53830338e-01</_>
    <_>
      9.30137515e-01 8.33754480e-01</_>
    <_>
      9.18969452e-01 8.09777379e-01</_>
    <_>
      9.20829237e-01 8.11581790e-01</_>
    <_>
      9.06571388e-01 8.04082572e-01</_>
    <_>
      9.30137515e-01 8.33754480e-01</_>
    <_>
      9.18969452e-01 8.09777379e-01</_>
    <_>
      9.20829237e-01 8.11581790e-01</_>
    <_>
      9.06571388e-01 8.04082572e-01</_>
    <_>
      3.39618680e-04 5.57092251e-04</_>
    <_>
      3.39618680e-04 5.57092251e-04</_>
    <_>
      9.32842910e-01 9.29796040e-01</_>
    <_>
      8.83069515e-01 7.89329231e-01</_>
    <_>
      9.11413133e-01 9.41255808e-01</_>
    <_>
      8.09267879e-01 8.22279811e-01</_>
    <_>
      8.43547344e-01 8.48295152e-01</_>
    <_>
      8.25353622e-01 8.16289783e-01</_>
    <_>
      8.21260691e-01 8.22956920e-01</_>
    <_>
      8.51317108e-01 8.70167911e-01</_>
    <_>
      8.43547344e-01 8.48295152e-01</_>
    <_>
      8.21260691e-01 8.22956920e-01</_>
    <_>
      8.12701821e-01 8.39136243e-01</_>
    <_>
      3.93709302e-01 9.65606049e-03</_>
    <_>
      8.58600199e-01 9.03779864e-01</_>
    <_>
      6.96788192e-01 9.02584314e-01</_>
    <_>
      8.58600199e-01 9.03779864e-01</_>
    <_>
      8.20696294e-01 9.07862365e-01</_>
    <_>
      8.20696294e-01 9.07862365e-01</_>
    <_>
      9.53052580e-01 9.16848719e-01</_>
    <_>
      9.58918095e-01 9.93006527e-01</_>
    <_>
      9.66179490e-01 9.78994370e-01</_>
    <_>
      9.40862775e-01 9.08263743e-01</_>
    <_>
      9.53052580e-01 9.16848719e-01</_>
    <_>
      9.40862775e-01 9.08263743e-01</_>
    <_>
      9.47636425e-01 9.43978190e-01</_>
    <_>
      9.47636425e-01 9.43978190e-01</_>
    <_>
      9.49117064e-01 9.61135626e-01</_>
    <_>
      8.94146025e-01 9.23155069e-01</_>
    <_>
      8.94146025e-01 9.23155069e-01</_>
    <_>
      8.59093308e-01 8.54375362e-01</_>
    <_>
      9.58918095e-01 9.93006527e-01</_>
    <_>
      9.66179490e-01 9.78994370e-01</_>
    <_>
      9.49117064e-01 9.61135626e-01</_>
    <_>
      8.65077913e-01 8.07177365e-01</_>
    <_>
      8.59093308e-01 8.54375362e-01</_>
    <_>
      8.65077913e-01 8.07177365e-01</_>
    <_>
      4.11667192e-04 6.57517288e-04</_>
    <_>
      7.99668074e-01 8.43599141e-01</_>
    <_>
      2.91412944e-05 1.43133424e-04</_>
    <_>
      9.10876036e-01 8.11655760e-01</_>
    <_>
      9.10876036e-01 8.11655760e-01</_>
    <_>
      9.57103729e-01 8.07007730e-01</_>
    <_>
      9.57103729e-01 8.07007730e-01</_>
    <_>
      8.51766169e-01 8.53259027e-01</_>
    <_>
      8.51766169e-01 8.53259027e-01</_>
    <_>
      8.37737446e-07 1.78282498e-03</_>
    <_>
      8.22312772e-01 8.44219446e-01</_>
    <_>
      8.22312772e-01 8.44219446e-01</_>
    <_>
      8.38641584e-01 8.37760150e-01</_>
    <_>
      8.53203356e-01 8.74111652e-01</_>
    <_>
      9.04183626e-01 9.13481295e-01</_>
    <_>
      8.25044036e-01 8.51501882e-01</_>
    <_>
      8.25044036e-01 8.51501882e-01</_>
    <_>
      8.74667525e-01 8.66570055e-01</_>
    <_>
      8.40088010e-01 8.13126266e-01</_>
    <_>
      8.40088010e-01 8.13126266e-01</_>
    <_>
      3.40121391e-04 4.98334120e-04</_>
    <_>
      3.31908581e-04 5.83364454e-04</_>
    <_>
      3.31908581e-04 5.83364454e-04</_>
    <_>
      1.25421269e-04 1.11748188e-04</_>
    <_>
      8.46787751e-01 8.23394656e-01</_>
    <_>
      8.09675336e-01 8.54142606e-01</_>
    <_>
      5.37024975e-01 7.66554326e-02</_>
    <_>
      3.83494407e-01 1.06671499e-02</_>
    <_>
      7.87965655e-01 8.56107593e-01</_>
    <_>
      4.10857843e-04 2.77500531e-05</_>
    <_>
      8.45126867e-01 8.59816194e-01</_>
    <_>
      8.61975908e-01 8.76929164e-01</_>
    <_>
      8.45126867e-01 8.59816194e-01</_>
    <_>
      8.61975908e-01 8.76929164e-01</_>
    <_>
      4.61937394e-04 4.24403770e-05</_>
    <_>
      6.57827556e-01 8.78529906e-01</_>
    <_>
      7.85108089e-01 8.89456093e-01</_>
    <_>
      7.85108089e-01 8.89456093e-01</_>
    <_>
      8.58802736e-01 8.28056991e-01</_>
    <_>
      8.58802736e-01 8.28056991e-01</_>
    <_>
      8.38549733e-01 8.50458443e-01</_>
    <_>
      8.65619719e-01 8.75536203e-01</_>
    <_>
      8.49231482e-01 8.30217242e-01</_>
    <_>
      8.65619719e-01 8.75536203e-01</_>
    <_>
      8.17502439e-01 8.34031343e-01</_>
    <_>
      8.17502439e-01 8.34031343e-01</_>
    <_>
      3.81679158e-04 3.48312378e-01</_>
    <_>
      8.40832233e-01 8.59414279e-01</_>
    <_>
      8.01176182e-04 1.21672928e-01</_>
    <_>
      1.56118360e-04 1.36892276e-03</_></support_vectors>
  <decision_functions>
    <_>
      <sv_count>200</sv_count>
      <rho>-1.1177805811166763e-01</rho>
      <alpha>
        1. 1. 1. 1. 1. 1. 1. 1. 1. 1. 1. 1. 1. 1. 1. 1. 1. 1. 1. 1. 1.
        1. 1. 1. 1. 1. 1. 1. 1. 1. 1. 1. 1. 1. 1. 1. 1. 1. 1. 1. 1. 1.
        1. 1. 1. 1. 1. 1. 1. 1. 1. 1. 1. 1. 1. 1. 1. 1. 1. 1. 1. 1. 1.
        1. 1. 1. 1. 1. 1. 1. 1. 1. 1. 1. 1. 1. 1. 1. 1. 1. 1. 1. 1. 1.
        1. 1. 1. 1. 1. 1. 1. 1. 1. 1. 1. 1. 1. 1. 1. 1. -1. -1. -1. -1.
        -1. -1. -1. -1. -1. -1. -1. -1. -1. -1. -1. -1. -1. -1. -1. -1.
        -1. -1. -1. -1. -1. -1. -1. -1. -1. -1. -1. -1. -1. -1. -1. -1.
        -1. -1. -1. -1. -1. -1. -1. -1. -1. -1. -1. -1. -1. -1. -1. -1.
        -1. -1. -1. -1. -1. -1. -1. -1. -1. -1. -1. -1. -1. -1. -1. -1.
        -1. -1. -1. -1. -1. -1. -1. -1. -1. -1. -1. -1. -1. -1. -1. -1.
        -1. -1. -1. -1. -1. -1. -1. -1. -1. -1. -1. -1. -1. -1. -1. -1.</alpha>
      <index>
        0 3 4 162 198 199 5 6 7 8 9 10 11 12 13 167 168 169 170 14 15
        171 172 18 19 20 22 23 24 25 28 173 174 72 73 74 75 76 77 78 79
        80 81 82 178 83 84 85 86 87 88 89 90 91 92 93 94 95 96 179 98 99
        100 101 102 108 112 184 113 114 115 116 117 185 118 187 122 125
        126 128 130 132 135 136 137 138 139 145 188 189 190 149 150 151
        192 152 155 156 197 159 1 2 16 17 21 26 27 29 30 31 32 33 34 35
        36 37 38 39 40 41 42 43 44 45 46 47 48 49 50 51 52 53 54 55 56
        57 58 59 60 61 62 63 64 65 66 67 68 69 70 71 97 103 104 105 106
        107 109 110 111 119 120 121 123 124 127 129 131 133 134 140 141
        142 143 144 146 147 148 153 154 157 158 160 161 163 164 165 166
        180 181 182 183 186 191 193 194 195 196 175 176 177</index></_></decision_functions></opencv_ml_svm>
</opencv_storage>
