<?xml version="1.0"?>
<opencv_storage>
<opencv_ml_svm>
  <format>3</format>
  <svmType>C_SVC</svmType>
  <kernel>
    <type>RBF</type>
    <gamma>1.</gamma></kernel>
  <C>1.</C>
  <term_criteria><iterations>100</iterations></term_criteria>
  <var_count>3</var_count>
  <class_count>2</class_count>
  <class_labels type_id="opencv-matrix">
    <rows>2</rows>
    <cols>1</cols>
    <dt>i</dt>
    <data>
      -1 1</data></class_labels>
  <sv_total>200</sv_total>
  <support_vectors>
    <_>
      2.61027515e-01 6.47445396e-03 1.82371825e-01</_>
    <_>
      5.12087882e-01 1.69838704e-02 2.16466948e-01</_>
    <_>
      1.40449405e-02 1.18061143e-04 2.66827643e-01</_>
    <_>
      1.81159377e-03 1.81358191e-03 2.14461342e-01</_>
    <_>
      1.81159377e-03 1.81358191e-03 2.14461342e-01</_>
    <_>
      4.13224101e-03 4.84646065e-03 1.94081470e-01</_>
    <_>
      0. 1.44997388e-02 1.66393086e-01</_>
    <_>
      6.83060288e-03 1.98862776e-02 1.59036830e-01</_>
    <_>
      6.83060288e-03 1.98862776e-02 1.59036830e-01</_>
    <_>
      9.31677222e-03 7.48054916e-03 2.62579560e-01</_>
    <_>
      2.54452229e-03 1.20061822e-02 2.09403828e-01</_>
    <_>
      1. 9.52692330e-01 2.05421954e-01</_>
    <_>
      1. 8.52389753e-01 1.80907890e-01</_>
    <_>
      8.98203254e-03 5.95867168e-04 1.80968657e-01</_>
    <_>
      1.51976943e-03 2.30943449e-04 1.89693347e-01</_>
    <_>
      8.98203254e-03 5.95867168e-04 1.80968657e-01</_>
    <_>
      1.51976943e-03 2.30943449e-04 1.89693347e-01</_>
    <_>
      1.13636255e-02 3.16865306e-04 3.02657247e-01</_>
    <_>
      1. 0. 2.99507201e-01</_>
    <_>
      6.64451718e-03 3.58278234e-03 2.01598391e-01</_>
    <_>
      1. 8.28710914e-01 2.30618522e-01</_>
    <_>
      1. 8.28710914e-01 2.30618522e-01</_>
    <_>
      1. 8.96557987e-01 1.81777701e-01</_>
    <_>
      1. 8.67237449e-01 1.80470765e-01</_>
    <_>
      1. 8.21731627e-01 2.01610640e-01</_>
    <_>
      9.91377652e-01 8.94996941e-01 1.96584970e-01</_>
    <_>
      6.94444776e-03 9.40309744e-03 2.50833899e-01</_>
    <_>
      1.04166567e-02 1.79260527e-03 2.19117403e-01</_>
    <_>
      6.90609217e-03 3.03325767e-04 1.83147937e-01</_>
    <_>
      1.87265873e-03 3.46454373e-03 2.22998768e-01</_>
    <_>
      4.82314825e-03 1.44400178e-02 2.80879885e-01</_>
    <_>
      3.21543217e-03 5.10870188e-04 3.46147031e-01</_>
    <_>
      1.61811709e-03 1.49508882e-02 2.50152498e-01</_>
    <_>
      5.57619333e-03 7.35257100e-03 2.15773553e-01</_>
    <_>
      5.57619333e-03 7.35257100e-03 2.15773553e-01</_>
    <_>
      8.28728080e-03 3.03325767e-04 2.12976813e-01</_>
    <_>
      8.28728080e-03 3.03325767e-04 2.12976813e-01</_>
    <_>
      1.61811709e-03 1.49508882e-02 2.50152498e-01</_>
    <_>
      6.38976693e-03 1.47878379e-03 3.37441772e-01</_>
    <_>
      3.46019864e-03 7.76307331e-03 2.28703707e-01</_>
    <_>
      1.52438879e-03 1.08799618e-03 2.28525713e-01</_>
    <_>
      1.51976943e-03 1.08799618e-03 2.15315431e-01</_>
    <_>
      1.52438879e-03 1.08799618e-03 2.28525713e-01</_>
    <_>
      3.03950906e-03 0. 2.31027827e-01</_>
    <_>
      1.52438879e-03 0. 2.21279770e-01</_>
    <_>
      1.51976943e-03 1.08799618e-03 2.15315431e-01</_>
    <_>
      3.03950906e-03 0. 2.31027827e-01</_>
    <_>
      1.51515007e-03 0. 2.32146204e-01</_>
    <_>
      1.51515007e-03 0. 2.32146204e-01</_>
    <_>
      1.52438879e-03 0. 2.21279770e-01</_>
    <_>
      4.90197539e-03 2.56311687e-05 2.44360253e-01</_>
    <_>
      2.92396545e-03 5.76701277e-05 2.32602313e-01</_>
    <_>
      4.90197539e-03 2.56311687e-05 2.44360253e-01</_>
    <_>
      2.92396545e-03 5.76701277e-05 2.32602313e-01</_>
    <_>
      1.58730149e-03 2.68709334e-03 2.02981368e-01</_>
    <_>
      1.58730149e-03 2.68709334e-03 2.02981368e-01</_>
    <_>
      1.49253011e-03 1.34313246e-03 2.06043065e-01</_>
    <_>
      1.49253011e-03 1.34313246e-03 2.06043065e-01</_>
    <_>
      1.74215436e-03 0. 2.18138665e-01</_>
    <_>
      3.62318754e-03 0. 2.15376824e-01</_>
    <_>
      1.74215436e-03 0. 2.18138665e-01</_>
    <_>
      3.62318754e-03 0. 2.15376824e-01</_>
    <_>
      0. 6.79420657e-04 2.30792478e-01</_>
    <_>
      0. 6.79420657e-04 2.30792478e-01</_>
    <_>
      1.51515007e-03 4.69923616e-05 2.16669798e-01</_>
    <_>
      1.51515007e-03 4.69923616e-05 2.16669798e-01</_>
    <_>
      1. 4.09434527e-01 1.18424110e-01</_>
    <_>
      4.99999523e-03 4.43308940e-03 2.12812781e-01</_>
    <_>
      1. 9.03118625e-02 2.29246154e-01</_>
    <_>
      9.96767998e-01 9.40050185e-01 1.84435070e-01</_>
    <_>
      9.96767998e-01 9.40050185e-01 1.84435070e-01</_>
    <_>
      9.96911407e-01 9.40323591e-01 2.03165084e-01</_>
    <_>
      9.96911407e-01 9.40323591e-01 2.03165084e-01</_>
    <_>
      4.33525443e-03 1.24674151e-03 2.31466681e-01</_>
    <_>
      2.88185477e-03 1.42813036e-02 2.67965406e-01</_>
    <_>
      7.69230723e-03 2.80008791e-03 1.84977561e-01</_>
    <_>
      7.69230723e-03 2.80008791e-03 1.84977561e-01</_>
    <_>
      1.67784095e-03 1.10995034e-02 2.28151977e-01</_>
    <_>
      9.95851576e-01 8.53830338e-01 2.20924631e-01</_>
    <_>
      9.95851576e-01 8.53830338e-01 2.20924631e-01</_>
    <_>
      9.97052014e-01 8.33754480e-01 2.11730495e-01</_>
    <_>
      9.88796949e-01 9.25573349e-01 1.90509036e-01</_>
    <_>
      1.19047761e-02 2.68218555e-05 2.21203059e-01</_>
    <_>
      9.89802897e-01 1.69905126e-02 2.80655056e-01</_>
    <_>
      9.67175603e-01 9.29796040e-01 1.88105837e-01</_>
    <_>
      1. 9.41255808e-01 1.64684132e-01</_>
    <_>
      1. 9.41255808e-01 1.64684132e-01</_>
    <_>
      9.97163534e-01 8.48295152e-01 1.65473685e-01</_>
    <_>
      9.97163534e-01 8.48295152e-01 1.65473685e-01</_>
    <_>
      9.77149189e-01 8.91677141e-01 2.09856778e-01</_>
    <_>
      1. 8.80635440e-01 2.06604183e-01</_>
    <_>
      1. 8.75067174e-01 2.07357615e-01</_>
    <_>
      1. 8.80635440e-01 2.06604183e-01</_>
    <_>
      1. 8.75067174e-01 2.07357615e-01</_>
    <_>
      9.93082225e-01 9.03779864e-01 1.72772333e-01</_>
    <_>
      9.83538985e-01 8.59093487e-01 1.72778368e-01</_>
    <_>
      9.83538985e-01 8.59093487e-01 1.72778368e-01</_>
    <_>
      9.86281991e-01 9.02584314e-01 1.72100887e-01</_>
    <_>
      9.93082225e-01 9.03779864e-01 1.72772333e-01</_>
    <_>
      1. 8.83717120e-01 1.85508117e-01</_>
    <_>
      9.91060555e-01 8.53594661e-01 1.66472629e-01</_>
    <_>
      9.91060555e-01 8.53594661e-01 1.66472629e-01</_>
    <_>
      9.89383698e-01 9.07862365e-01 1.85132474e-01</_>
    <_>
      1. 9.16848719e-01 2.23228693e-01</_>
    <_>
      1. 9.93006527e-01 2.03448892e-01</_>
    <_>
      1. 9.78994370e-01 1.92829192e-01</_>
    <_>
      1. 9.16848719e-01 2.23228693e-01</_>
    <_>
      9.89828110e-01 9.43978190e-01 2.01415211e-01</_>
    <_>
      9.89828110e-01 9.43978190e-01 2.01415211e-01</_>
    <_>
      9.96648669e-01 9.61135626e-01 1.86560497e-01</_>
    <_>
      9.78782594e-01 9.23155069e-01 1.74186543e-01</_>
    <_>
      9.78782594e-01 9.23155069e-01 1.74186543e-01</_>
    <_>
      9.85489726e-01 8.54375362e-01 1.87740460e-01</_>
    <_>
      1. 9.93006527e-01 2.03448892e-01</_>
    <_>
      1. 9.78994370e-01 1.92829192e-01</_>
    <_>
      9.96648669e-01 9.61135626e-01 1.86560497e-01</_>
    <_>
      9.85489726e-01 8.54375362e-01 1.87740460e-01</_>
    <_>
      4.36046720e-03 6.57517288e-04 1.92887977e-01</_>
    <_>
      5.15460968e-03 1.70810602e-03 2.05300838e-01</_>
    <_>
      9.90292013e-01 8.39943230e-01 1.59329459e-01</_>
    <_>
      9.92036521e-01 8.45453501e-01 1.39241219e-01</_>
    <_>
      9.88932431e-01 8.42267036e-01 1.32569984e-01</_>
    <_>
      9.90292013e-01 8.39943230e-01 1.59329459e-01</_>
    <_>
      9.92036521e-01 8.45453501e-01 1.39241219e-01</_>
    <_>
      7.72628188e-03 1.96608319e-03 2.08000273e-01</_>
    <_>
      9.88932431e-01 8.42267036e-01 1.32569984e-01</_>
    <_>
      2.06610560e-03 5.47750155e-03 1.97734430e-01</_>
    <_>
      9.85065997e-01 8.77715290e-01 1.69271976e-01</_>
    <_>
      1. 8.32495213e-01 1.76438794e-01</_>
    <_>
      1. 8.32495213e-01 1.76438794e-01</_>
    <_>
      1. 8.49141479e-01 1.64727777e-01</_>
    <_>
      9.90577281e-01 8.44219446e-01 1.86348289e-01</_>
    <_>
      9.90577281e-01 8.44219446e-01 1.86348289e-01</_>
    <_>
      1.04790330e-02 7.46962614e-04 1.98128909e-01</_>
    <_>
      1. 8.74111652e-01 1.82647735e-01</_>
    <_>
      1. 8.75562131e-01 1.43181518e-01</_>
    <_>
      1. 9.13481295e-01 2.00394168e-01</_>
    <_>
      1. 8.75562131e-01 1.43181518e-01</_>
    <_>
      1. 8.51501882e-01 1.83027193e-01</_>
    <_>
      1. 8.51501882e-01 1.83027193e-01</_>
    <_>
      9.93728042e-01 8.21964443e-01 1.43625602e-01</_>
    <_>
      9.93728042e-01 8.21964443e-01 1.43625602e-01</_>
    <_>
      1.29532814e-03 2.57167825e-03 2.12135896e-01</_>
    <_>
      9.96569574e-01 8.44722867e-01 1.81882307e-01</_>
    <_>
      9.96569574e-01 8.44722867e-01 1.81882307e-01</_>
    <_>
      2.10728049e-02 5.18553471e-03 1.50910988e-01</_>
    <_>
      1.61653459e-02 1.04226507e-02 1.50642961e-01</_>
    <_>
      4.93422151e-03 7.03772763e-03 2.12148905e-01</_>
    <_>
      4.93422151e-03 7.03772763e-03 2.12148905e-01</_>
    <_>
      7.87660480e-03 4.98334120e-04 1.42929599e-01</_>
    <_>
      1.25312805e-03 9.69381872e-05 2.08928928e-01</_>
    <_>
      1.25312805e-03 9.69381872e-05 2.08928928e-01</_>
    <_>
      1.38887763e-03 2.73102400e-04 1.92416564e-01</_>
    <_>
      1.38887763e-03 2.73102400e-04 1.92416564e-01</_>
    <_>
      3.00300121e-03 7.84961134e-03 2.23886982e-01</_>
    <_>
      9.92508411e-01 7.70439982e-01 1.39315113e-01</_>
    <_>
      1.43265724e-03 2.52733426e-03 2.26605937e-01</_>
    <_>
      1. 8.54142606e-01 1.89325407e-01</_>
    <_>
      1. 8.54142606e-01 1.89325407e-01</_>
    <_>
      1. 8.35129619e-01 1.64642483e-01</_>
    <_>
      1. 8.35129619e-01 1.64642483e-01</_>
    <_>
      1.77934766e-03 1.74207496e-03 3.33185285e-01</_>
    <_>
      8.89679790e-03 5.48193417e-03 2.20746249e-01</_>
    <_>
      1.77934766e-03 1.74207496e-03 3.33185285e-01</_>
    <_>
      3.96826863e-03 1.39383704e-03 2.21857309e-01</_>
    <_>
      3.96826863e-03 1.39383704e-03 2.21857309e-01</_>
    <_>
      8.99279118e-03 1.50814059e-03 2.24894583e-01</_>
    <_>
      7.32600689e-03 1.81748357e-03 2.09996477e-01</_>
    <_>
      8.99279118e-03 1.50814059e-03 2.24894583e-01</_>
    <_>
      8.99279118e-03 2.57143984e-03 2.77370006e-01</_>
    <_>
      5.01671433e-03 1.21164322e-03 1.95632577e-01</_>
    <_>
      5.01671433e-03 1.21164322e-03 1.95632577e-01</_>
    <_>
      1. 8.00732911e-01 2.85462976e-01</_>
    <_>
      9.86263275e-01 8.59816194e-01 1.60286874e-01</_>
    <_>
      9.91091132e-01 8.76929164e-01 1.76913530e-01</_>
    <_>
      9.86263275e-01 8.59816194e-01 1.60286874e-01</_>
    <_>
      9.91091132e-01 8.76929164e-01 1.76913530e-01</_>
    <_>
      1.57234073e-03 1.39976498e-02 1.92105085e-01</_>
    <_>
      1. 8.39983344e-01 1.57924056e-01</_>
    <_>
      1.44091249e-03 6.29612617e-03 2.43019059e-01</_>
    <_>
      6.52742386e-03 8.37030588e-04 2.20249176e-01</_>
    <_>
      9.95538354e-01 8.89456093e-01 1.40472367e-01</_>
    <_>
      9.95538354e-01 8.89456093e-01 1.40472367e-01</_>
    <_>
      9.90080714e-01 8.39839101e-01 1.57726929e-01</_>
    <_>
      9.90080714e-01 8.39839101e-01 1.57726929e-01</_>
    <_>
      8.04290175e-03 1.06178736e-03 1.77918658e-01</_>
    <_>
      1. 6.42054439e-01 1.18531160e-01</_>
    <_>
      9.96746123e-01 8.90567243e-01 1.95412606e-01</_>
    <_>
      9.96746123e-01 8.90567243e-01 1.95412606e-01</_>
    <_>
      1. 8.28056991e-01 2.04186767e-01</_>
    <_>
      1. 1.76674068e-01 2.09680438e-01</_>
    <_>
      1. 8.75536203e-01 2.00830743e-01</_>
    <_>
      1. 8.75536203e-01 2.00830743e-01</_>
    <_>
      9.95107532e-01 8.34031343e-01 2.19459906e-01</_>
    <_>
      9.90164876e-01 8.77768040e-01 1.95775554e-01</_>
    <_>
      7.38334656e-03 4.35204618e-03 1.80854410e-01</_>
    <_>
      1.45772099e-03 1.82495860e-03 1.98245972e-01</_>
    <_>
      8.76346231e-03 1.91243493e-03 1.67651653e-01</_>
    <_>
      1.08040869e-02 3.59111116e-03 2.29946822e-01</_>
    <_>
      0. 9.48285498e-03 2.08340138e-01</_></support_vectors>
  <decision_functions>
    <_>
      <sv_count>200</sv_count>
      <rho>-6.4346060156822205e-02</rho>
      <alpha>
        1. 1. 1. 1. 1. 1. 1. 1. 1. 1. 1. 1. 1. 1. 1. 1. 1. 1. 1. 1. 1.
        1. 1. 1. 1. 1. 1. 1. 1. 1. 1. 1. 1. 1. 1. 1. 1. 1. 1. 1. 1. 1.
        1. 1. 1. 1. 1. 1. 1. 1. 1. 1. 1. 1. 1. 1. 1. 1. 1. 1. 1. 1. 1.
        1. 1. 1. 1. 1. 1. 1. 1. 1. 1. 1. 1. 1. 1. 1. 1. 1. 1. 1. 1. 1.
        1. 1. 1. 1. 1. 1. 1. 1. 1. 1. 1. 1. 1. 1. 1. 1. -1. -1. -1. -1.
        -1. -1. -1. -1. -1. -1. -1. -1. -1. -1. -1. -1. -1. -1. -1. -1.
        -1. -1. -1. -1. -1. -1. -1. -1. -1. -1. -1. -1. -1. -1. -1. -1.
        -1. -1. -1. -1. -1. -1. -1. -1. -1. -1. -1. -1. -1. -1. -1. -1.
        -1. -1. -1. -1. -1. -1. -1. -1. -1. -1. -1. -1. -1. -1. -1. -1.
        -1. -1. -1. -1. -1. -1. -1. -1. -1. -1. -1. -1. -1. -1. -1. -1.
        -1. -1. -1. -1. -1. -1. -1. -1. -1. -1. -1. -1. -1. -1. -1. -1.</alpha>
      <index>
        0 2 133 199 135 137 5 6 9 140 141 10 11 12 147 148 149 18 19 20
        21 22 23 24 26 27 28 29 154 30 31 32 33 34 35 36 37 39 155 66
        158 160 67 162 164 165 166 167 168 169 170 171 68 69 70 71 72 73
        172 178 77 81 82 179 84 85 86 180 182 183 184 185 89 90 91 92 93
        97 99 103 106 107 108 114 189 117 118 120 121 123 124 125 126
        194 127 195 130 196 197 198 1 3 4 7 8 13 14 15 16 17 25 38 40 41
        42 43 44 45 46 47 48 49 50 51 52 53 54 55 56 57 58 59 60 61 62
        63 64 65 74 75 76 78 79 80 83 87 88 94 95 96 98 100 101 102 104
        105 109 110 111 112 113 115 116 119 122 128 129 131 132 134 136
        161 163 138 139 173 174 175 176 177 142 143 144 150 151 145 181
        146 186 187 188 190 156 191 192 193 152 153 157 159</index></_></decision_functions></opencv_ml_svm>
</opencv_storage>
