<?xml version="1.0"?>
<opencv_storage>
<opencv_ml_svm>
  <format>3</format>
  <svmType>C_SVC</svmType>
  <kernel>
    <type>RBF</type>
    <gamma>1.</gamma></kernel>
  <C>1.</C>
  <term_criteria><iterations>100</iterations></term_criteria>
  <var_count>3</var_count>
  <class_count>2</class_count>
  <class_labels type_id="opencv-matrix">
    <rows>2</rows>
    <cols>1</cols>
    <dt>i</dt>
    <data>
      -1 1</data></class_labels>
  <sv_total>200</sv_total>
  <support_vectors>
    <_>
      2.61027515e-01 3.21537405e-02 2.46303193e-02</_>
    <_>
      5.12087882e-01 1.59371775e-02 2.14244761e-02</_>
    <_>
      9.92822826e-01 9.43626761e-01 8.38109374e-01</_>
    <_>
      9.92822826e-01 9.43626761e-01 8.38109374e-01</_>
    <_>
      2.05761194e-03 1.88091435e-02 4.84741144e-02</_>
    <_>
      0. 4.09249682e-03 8.57717451e-03</_>
    <_>
      9.31677222e-03 5.88510535e-04 4.18704178e-04</_>
    <_>
      1.44928694e-03 2.35398230e-03 4.68965434e-03</_>
    <_>
      1.44928694e-03 2.35398230e-03 4.68965434e-03</_>
    <_>
      1.65015459e-03 0. 0.</_>
    <_>
      1.65015459e-03 0. 0.</_>
    <_>
      9.35134292e-03 8.59636161e-03 4.35612071e-03</_>
    <_>
      2.54452229e-03 4.45622485e-03 5.81458304e-03</_>
    <_>
      1.79027915e-02 7.60498224e-04 4.84754535e-04</_>
    <_>
      2.54452229e-03 4.45622485e-03 5.81458304e-03</_>
    <_>
      1.79027915e-02 7.60498224e-04 4.84754535e-04</_>
    <_>
      1. 7.70664871e-01 8.81182492e-01</_>
    <_>
      1.51976943e-03 2.03579097e-04 1.79412702e-04</_>
    <_>
      1.51976943e-03 2.03579097e-04 1.79412702e-04</_>
    <_>
      1. 8.19320500e-01 8.37901950e-01</_>
    <_>
      1. 8.19320500e-01 8.37901950e-01</_>
    <_>
      1. 8.72679770e-01 9.07467484e-01</_>
    <_>
      1. 6.27481401e-01 8.04256499e-01</_>
    <_>
      9.91377652e-01 9.17010844e-01 9.13698792e-01</_>
    <_>
      5.20834327e-03 2.97930278e-03 5.80351974e-04</_>
    <_>
      1.58730149e-03 2.87561887e-03 5.23882825e-03</_>
    <_>
      1.04166567e-02 1.60226307e-03 2.61503109e-03</_>
    <_>
      3.71748209e-03 5.17552206e-03 4.67822189e-03</_>
    <_>
      1.87265873e-03 1.08947735e-02 1.29807892e-03</_>
    <_>
      3.21543217e-03 2.15606927e-03 7.06134539e-04</_>
    <_>
      5.57619333e-03 5.71925147e-03 3.38014285e-03</_>
    <_>
      5.57619333e-03 5.71925147e-03 3.38014285e-03</_>
    <_>
      3.46019864e-03 7.40069244e-03 6.86621573e-03</_>
    <_>
      1.52438879e-03 7.77140143e-04 1.41080830e-03</_>
    <_>
      1.51976943e-03 7.77140143e-04 1.41080830e-03</_>
    <_>
      0. 1.24031916e-01 1.17036164e-01</_>
    <_>
      1.52438879e-03 7.77140143e-04 1.41080830e-03</_>
    <_>
      3.03950906e-03 0. 0.</_>
    <_>
      1.52438879e-03 0. 0.</_>
    <_>
      1.51976943e-03 7.77140143e-04 1.41080830e-03</_>
    <_>
      1.51515007e-03 0. 0.</_>
    <_>
      1.51515007e-03 0. 0.</_>
    <_>
      0. 1.24031916e-01 1.17036164e-01</_>
    <_>
      1.52438879e-03 0. 0.</_>
    <_>
      4.90197539e-03 0. 0.</_>
    <_>
      2.92396545e-03 0. 0.</_>
    <_>
      2.92396545e-03 0. 0.</_>
    <_>
      1.21212006e-02 2.47641176e-04 1.85507978e-03</_>
    <_>
      3.37839127e-03 8.56382176e-02 8.19617957e-02</_>
    <_>
      1.74215436e-03 0. 0.</_>
    <_>
      3.37839127e-03 8.56382176e-02 8.19617957e-02</_>
    <_>
      3.62318754e-03 0. 0.</_>
    <_>
      1.74215436e-03 0. 0.</_>
    <_>
      2.53623128e-02 0. 0.</_>
    <_>
      2.73972750e-02 0. 0.</_>
    <_>
      0. 0. 0.</_>
    <_>
      0. 0. 0.</_>
    <_>
      8.95521045e-03 0. 0.</_>
    <_>
      1.51515007e-03 0. 0.</_>
    <_>
      4.48206067e-03 1.52753312e-02 2.99401185e-03</_>
    <_>
      1.51515007e-03 0. 0.</_>
    <_>
      1.68350339e-03 1.29398564e-03 1.36000523e-03</_>
    <_>
      1. 0. 1.23931281e-03</_>
    <_>
      1. 0. 1.23931281e-03</_>
    <_>
      1. 2.61438116e-02 5.08892573e-02</_>
    <_>
      1. 2.03226134e-02 1.21743657e-01</_>
    <_>
      1. 2.13681683e-02 3.28306295e-02</_>
    <_>
      1. 1.84780947e-04 4.00378660e-04</_>
    <_>
      1. 2.19367532e-04 2.65084062e-04</_>
    <_>
      9.75128233e-01 7.83111453e-01 9.07206655e-01</_>
    <_>
      1. 9.03807878e-01 9.08754528e-01</_>
    <_>
      1. 9.03807878e-01 9.08754528e-01</_>
    <_>
      4.33525443e-03 6.84574386e-03 7.70712912e-04</_>
    <_>
      1.42857134e-02 1.09554944e-03 1.12044821e-04</_>
    <_>
      1.48304999e-02 1.39149085e-01 1.00776345e-01</_>
    <_>
      1. 0. 1.44251809e-02</_>
    <_>
      1. 1.02622835e-04 2.96457321e-03</_>
    <_>
      1. 2.82885972e-03 2.12921739e-01</_>
    <_>
      1. 1.02622835e-04 2.96457321e-03</_>
    <_>
      1. 2.06382596e-04 3.58491787e-04</_>
    <_>
      7.69230723e-03 1.29433125e-01 1.26154795e-01</_>
    <_>
      7.69230723e-03 1.29433125e-01 1.26154795e-01</_>
    <_>
      8.47458839e-03 2.72116978e-02 2.41253059e-03</_>
    <_>
      4.70218062e-03 1.07877771e-03 1.46123590e-02</_>
    <_>
      9.95851576e-01 8.98190141e-01 9.24139619e-01</_>
    <_>
      9.95851576e-01 8.98190141e-01 9.24139619e-01</_>
    <_>
      9.97052014e-01 9.12647545e-01 9.30137515e-01</_>
    <_>
      1. 9.14458275e-01 9.18969452e-01</_>
    <_>
      1. 9.16204929e-01 9.20829237e-01</_>
    <_>
      9.85345721e-01 9.00843024e-01 9.06571388e-01</_>
    <_>
      9.84051049e-01 8.77090812e-01 8.18725944e-01</_>
    <_>
      9.97052014e-01 9.12647545e-01 9.30137515e-01</_>
    <_>
      1. 9.14458275e-01 9.18969452e-01</_>
    <_>
      1. 9.16204929e-01 9.20829237e-01</_>
    <_>
      9.85345721e-01 9.00843024e-01 9.06571388e-01</_>
    <_>
      9.84051049e-01 8.77090812e-01 8.18725944e-01</_>
    <_>
      1.34680271e-02 2.70497915e-03 2.90733296e-03</_>
    <_>
      9.73060131e-01 8.41594875e-01 7.54359126e-01</_>
    <_>
      9.74744320e-01 8.87660205e-01 8.38925183e-01</_>
    <_>
      9.67175603e-01 9.13942337e-01 9.32842910e-01</_>
    <_>
      1. 8.37663293e-01 9.11413133e-01</_>
    <_>
      1. 8.23292494e-01 8.08731675e-01</_>
    <_>
      1. 8.23292494e-01 8.08731675e-01</_>
    <_>
      1. 8.47160220e-01 8.20824981e-01</_>
    <_>
      1. 8.47160220e-01 8.20824981e-01</_>
    <_>
      9.97163534e-01 8.35311651e-01 8.43547344e-01</_>
    <_>
      9.96757627e-01 8.31777513e-01 8.25353622e-01</_>
    <_>
      9.97163534e-01 8.35311651e-01 8.43547344e-01</_>
    <_>
      9.96757627e-01 8.31777513e-01 8.25353622e-01</_>
    <_>
      9.90904570e-01 8.50211740e-01 8.38146031e-01</_>
    <_>
      9.90904570e-01 8.50211740e-01 8.38146031e-01</_>
    <_>
      1. 9.15494740e-01 8.91434014e-01</_>
    <_>
      1. 8.90308678e-01 8.73841703e-01</_>
    <_>
      9.72424865e-01 8.26148868e-01 8.26742113e-01</_>
    <_>
      1. 9.15494740e-01 8.91434014e-01</_>
    <_>
      1. 8.90308678e-01 8.73841703e-01</_>
    <_>
      1. 5.37545606e-02 4.59902197e-01</_>
    <_>
      1. 3.06939334e-01 6.26084626e-01</_>
    <_>
      9.93082225e-01 7.99243808e-01 8.58600199e-01</_>
    <_>
      9.87267852e-01 8.31286013e-01 8.36980104e-01</_>
    <_>
      1. 8.96554530e-01 9.10462797e-01</_>
    <_>
      9.87267852e-01 8.31286013e-01 8.36980104e-01</_>
    <_>
      1. 8.96554530e-01 9.10462797e-01</_>
    <_>
      1. 9.05489624e-01 9.53052580e-01</_>
    <_>
      1. 9.08169270e-01 9.58918095e-01</_>
    <_>
      1. 9.34054017e-01 9.66179490e-01</_>
    <_>
      1. 9.05489624e-01 9.53052580e-01</_>
    <_>
      9.89828110e-01 8.86121571e-01 9.47636425e-01</_>
    <_>
      9.89828110e-01 8.86121571e-01 9.47636425e-01</_>
    <_>
      9.96648669e-01 8.87748957e-01 9.49117064e-01</_>
    <_>
      9.78782594e-01 8.56753170e-01 8.94146025e-01</_>
    <_>
      9.78782594e-01 8.56753170e-01 8.94146025e-01</_>
    <_>
      1. 9.08169270e-01 9.58918095e-01</_>
    <_>
      1. 9.34054017e-01 9.66179490e-01</_>
    <_>
      9.96648669e-01 8.87748957e-01 9.49117064e-01</_>
    <_>
      9.97813642e-01 8.59410167e-01 7.96440363e-01</_>
    <_>
      2.06610560e-03 2.13183230e-03 1.45005696e-02</_>
    <_>
      9.90364134e-01 9.15874124e-01 9.10876036e-01</_>
    <_>
      9.90364134e-01 9.15874124e-01 9.10876036e-01</_>
    <_>
      1. 9.81478930e-01 9.57103729e-01</_>
    <_>
      1. 9.81478930e-01 9.57103729e-01</_>
    <_>
      9.85065997e-01 9.05411839e-01 8.99165094e-01</_>
    <_>
      9.96859193e-01 8.31104457e-01 8.23690653e-01</_>
    <_>
      9.85065997e-01 9.05411839e-01 8.99165094e-01</_>
    <_>
      9.96859193e-01 8.31104457e-01 8.23690653e-01</_>
    <_>
      1. 8.36763322e-01 8.53203356e-01</_>
    <_>
      1. 8.83887231e-01 9.04183626e-01</_>
    <_>
      1. 8.48292530e-01 8.59417021e-01</_>
    <_>
      1. 8.83887231e-01 9.04183626e-01</_>
    <_>
      1. 8.18235695e-01 8.25044036e-01</_>
    <_>
      2.71565616e-02 6.11308962e-04 3.42796184e-03</_>
    <_>
      1.64048076e-02 8.43182730e-04 1.09384570e-03</_>
    <_>
      4.93422151e-03 9.79353953e-03 1.23869209e-03</_>
    <_>
      4.93422151e-03 9.79353953e-03 1.23869209e-03</_>
    <_>
      1.14795864e-02 8.26846866e-04 7.93504901e-03</_>
    <_>
      7.87660480e-03 9.52866510e-04 3.40121391e-04</_>
    <_>
      1.96078420e-03 9.63712228e-04 7.98275881e-03</_>
    <_>
      1.96078420e-03 9.63712228e-04 7.98275881e-03</_>
    <_>
      1.38887763e-03 2.83992995e-04 2.62151967e-04</_>
    <_>
      1.38887763e-03 2.83992995e-04 2.62151967e-04</_>
    <_>
      1.41955912e-02 6.28481107e-03 4.21748446e-05</_>
    <_>
      2.99220383e-02 1.68183269e-05 4.81825415e-03</_>
    <_>
      1. 8.14624846e-01 8.26413989e-01</_>
    <_>
      0. 9.84982494e-03 1.28533011e-02</_>
    <_>
      2.04081535e-02 8.60230718e-03 1.94995361e-03</_>
    <_>
      2.04081535e-02 8.60230718e-03 1.94995361e-03</_>
    <_>
      9.96486008e-01 8.48396480e-01 8.46787751e-01</_>
    <_>
      1. 8.26045275e-01 8.22182059e-01</_>
    <_>
      1. 8.26045275e-01 8.22182059e-01</_>
    <_>
      1.11111104e-02 5.97271649e-03 2.74955155e-03</_>
    <_>
      8.99279118e-03 2.89139082e-03 1.96254207e-03</_>
    <_>
      4.16666269e-03 6.51946699e-04 5.33246808e-03</_>
    <_>
      1.17924511e-02 6.94750622e-03 3.56563483e-03</_>
    <_>
      4.31033969e-03 3.35763674e-03 6.75152813e-04</_>
    <_>
      1.53845549e-03 1.11808628e-02 4.43178229e-03</_>
    <_>
      1.53845549e-03 1.11808628e-02 4.43178229e-03</_>
    <_>
      8.68055224e-03 7.93801807e-03 1.23535423e-03</_>
    <_>
      9.91091132e-01 8.03374290e-01 8.61975908e-01</_>
    <_>
      9.91091132e-01 8.03374290e-01 8.61975908e-01</_>
    <_>
      1.57234073e-03 1.42256788e-03 1.95120275e-02</_>
    <_>
      1.57234073e-03 1.42256788e-03 1.95120275e-02</_>
    <_>
      8.49857926e-03 2.51810029e-02 2.76537123e-03</_>
    <_>
      1.44091249e-03 7.70582305e-03 6.38405466e-03</_>
    <_>
      5.23561239e-03 9.47878975e-03 6.37136749e-04</_>
    <_>
      5.91015816e-03 3.94529477e-03 2.55696912e-04</_>
    <_>
      1.18201971e-03 8.65631085e-03 3.39978538e-03</_>
    <_>
      8.04290175e-03 2.71035731e-03 4.18956252e-03</_>
    <_>
      9.94754612e-01 8.34387898e-01 8.28679919e-01</_>
    <_>
      1. 8.57577920e-01 8.58802736e-01</_>
    <_>
      1. 8.57577920e-01 8.58802736e-01</_>
    <_>
      1. 8.37883294e-01 8.65619719e-01</_>
    <_>
      1. 8.37883294e-01 8.65619719e-01</_>
    <_>
      7.38334656e-03 2.79355515e-03 5.78565430e-03</_>
    <_>
      1.45772099e-03 8.33666977e-03 1.06486753e-02</_>
    <_>
      1.12903118e-02 7.66336033e-03 9.66259104e-04</_>
    <_>
      1.28939748e-02 6.98319962e-03 3.77281045e-04</_>
    <_>
      9.97370362e-01 8.39666367e-01 8.40832233e-01</_>
    <_>
      1.08040869e-02 1.31536741e-03 4.07607155e-03</_>
    <_>
      1.08040869e-02 1.31536741e-03 4.07607155e-03</_>
    <_>
      0. 1.08703161e-02 9.86125413e-03</_></support_vectors>
  <decision_functions>
    <_>
      <sv_count>200</sv_count>
      <rho>-7.1800891309976578e-02</rho>
      <alpha>
        1. 1. 1. 1. 1. 1. 1. 1. 1. 1. 1. 1. 1. 1. 1. 1. 1. 1. 1. 1. 1.
        1. 1. 1. 1. 1. 1. 1. 1. 1. 1. 1. 1. 1. 1. 1. 1. 1. 1. 1. 1. 1.
        1. 1. 1. 1. 1. 1. 1. 1. 1. 1. 1. 1. 1. 1. 1. 1. 1. 1. 1. 1. 1.
        1. 1. 1. 1. 1. 1. 1. 1. 1. 1. 1. 1. 1. 1. 1. 1. 1. 1. 1. 1. 1.
        1. 1. 1. 1. 1. 1. 1. 1. 1. 1. 1. 1. 1. 1. 1. 1. -1. -1. -1. -1.
        -1. -1. -1. -1. -1. -1. -1. -1. -1. -1. -1. -1. -1. -1. -1. -1.
        -1. -1. -1. -1. -1. -1. -1. -1. -1. -1. -1. -1. -1. -1. -1. -1.
        -1. -1. -1. -1. -1. -1. -1. -1. -1. -1. -1. -1. -1. -1. -1. -1.
        -1. -1. -1. -1. -1. -1. -1. -1. -1. -1. -1. -1. -1. -1. -1. -1.
        -1. -1. -1. -1. -1. -1. -1. -1. -1. -1. -1. -1. -1. -1. -1. -1.
        -1. -1. -1. -1. -1. -1. -1. -1. -1. -1. -1. -1. -1. -1. -1. -1.</alpha>
      <index>
        0 4 199 146 147 5 6 7 8 12 13 14 15 16 151 152 153 154 155 19 20
        21 156 157 22 160 26 27 28 29 30 31 32 35 42 162 166 168 169 170
        65 66 67 68 69 70 71 72 73 74 75 171 79 172 173 176 89 94 96 97
        182 98 99 100 101 102 183 103 184 185 104 186 111 112 113 114
        115 116 120 122 123 126 127 128 133 188 189 135 136 139 140 141
        143 192 193 194 195 196 197 198 1 2 3 9 10 11 17 18 23 24 25 33
        34 36 37 38 39 40 41 43 44 45 46 47 48 49 50 51 52 53 54 55 56
        57 58 59 60 61 62 63 64 76 77 78 80 81 82 83 84 85 86 87 88 90
        91 92 93 95 105 106 107 108 109 110 117 118 119 121 124 125 129
        130 131 132 134 137 138 142 144 145 148 161 149 174 175 177 178
        179 180 150 181 187 163 164 165 190 191 167 158 159</index></_></decision_functions></opencv_ml_svm>
</opencv_storage>
