<?xml version="1.0"?>
<opencv_storage>
<opencv_ml_svm>
  <format>3</format>
  <svmType>C_SVC</svmType>
  <kernel>
    <type>RBF</type>
    <gamma>1.</gamma></kernel>
  <C>1.</C>
  <term_criteria><iterations>100</iterations></term_criteria>
  <var_count>3</var_count>
  <class_count>2</class_count>
  <class_labels type_id="opencv-matrix">
    <rows>2</rows>
    <cols>1</cols>
    <dt>i</dt>
    <data>
      -1 1</data></class_labels>
  <sv_total>200</sv_total>
  <support_vectors>
    <_>
      2.61027515e-01 3.21537405e-02 6.47445396e-03</_>
    <_>
      5.12087882e-01 1.59371775e-02 1.69838704e-02</_>
    <_>
      1.81159377e-03 2.21078806e-02 1.81358191e-03</_>
    <_>
      1.81159377e-03 2.21078806e-02 1.81358191e-03</_>
    <_>
      4.13224101e-03 6.94149220e-03 4.84646065e-03</_>
    <_>
      0. 4.09249682e-03 1.44997388e-02</_>
    <_>
      9.31677222e-03 5.88510535e-04 7.48054916e-03</_>
    <_>
      1.44928694e-03 2.35398230e-03 1.58569328e-02</_>
    <_>
      1.44928694e-03 2.35398230e-03 1.58569328e-02</_>
    <_>
      2.79329717e-02 5.88125130e-03 3.11742742e-02</_>
    <_>
      2.54452229e-03 4.45622485e-03 1.20061822e-02</_>
    <_>
      2.54452229e-03 4.45622485e-03 1.20061822e-02</_>
    <_>
      1. 8.19806516e-01 9.52692330e-01</_>
    <_>
      1. 7.70664871e-01 8.52389753e-01</_>
    <_>
      2.04342306e-02 1.02371513e-03 3.62106395e-04</_>
    <_>
      1.51976943e-03 2.03579097e-04 2.30943449e-04</_>
    <_>
      1.51976943e-03 2.03579097e-04 2.30943449e-04</_>
    <_>
      9.95109975e-01 1.65273625e-04 6.05614781e-01</_>
    <_>
      1. 8.19320500e-01 8.28710914e-01</_>
    <_>
      1. 8.39198053e-01 8.67237449e-01</_>
    <_>
      9.91377652e-01 9.17010844e-01 8.94996941e-01</_>
    <_>
      5.20834327e-03 2.97930278e-03 7.08121210e-02</_>
    <_>
      1.04166567e-02 1.60226307e-03 1.79260527e-03</_>
    <_>
      3.71748209e-03 5.17552206e-03 1.08171143e-02</_>
    <_>
      1.87265873e-03 1.08947735e-02 3.46454373e-03</_>
    <_>
      3.21543217e-03 2.15606927e-03 5.10870188e-04</_>
    <_>
      5.57619333e-03 5.71925147e-03 7.35257100e-03</_>
    <_>
      5.57619333e-03 5.71925147e-03 7.35257100e-03</_>
    <_>
      3.46019864e-03 7.40069244e-03 7.76307331e-03</_>
    <_>
      1.52438879e-03 7.77140143e-04 1.08799618e-03</_>
    <_>
      1.51976943e-03 7.77140143e-04 1.08799618e-03</_>
    <_>
      1.52438879e-03 7.77140143e-04 1.08799618e-03</_>
    <_>
      3.03950906e-03 0. 0.</_>
    <_>
      1.52438879e-03 0. 0.</_>
    <_>
      1.51976943e-03 7.77140143e-04 1.08799618e-03</_>
    <_>
      3.03950906e-03 0. 0.</_>
    <_>
      1.51515007e-03 0. 0.</_>
    <_>
      1.51515007e-03 0. 0.</_>
    <_>
      1.52438879e-03 0. 0.</_>
    <_>
      7.50750303e-03 0. 0.</_>
    <_>
      4.90197539e-03 0. 2.56311687e-05</_>
    <_>
      2.92396545e-03 0. 5.76701277e-05</_>
    <_>
      2.92396545e-03 0. 5.76701277e-05</_>
    <_>
      3.27870250e-03 0. 2.59104010e-04</_>
    <_>
      1.49253011e-03 4.44769766e-03 1.34313246e-03</_>
    <_>
      1.49253011e-03 4.44769766e-03 1.34313246e-03</_>
    <_>
      3.11475396e-02 0. 0.</_>
    <_>
      1.74215436e-03 0. 0.</_>
    <_>
      3.62318754e-03 0. 0.</_>
    <_>
      1.74215436e-03 0. 0.</_>
    <_>
      1.74825191e-02 0. 0.</_>
    <_>
      3.62318754e-03 0. 0.</_>
    <_>
      0. 0. 6.79420657e-04</_>
    <_>
      0. 0. 6.79420657e-04</_>
    <_>
      1.51515007e-03 0. 4.69923616e-05</_>
    <_>
      1.51515007e-03 0. 4.69923616e-05</_>
    <_>
      1.68350339e-03 1.29398564e-03 3.27395136e-03</_>
    <_>
      4.99999523e-03 1.45850831e-03 4.43308940e-03</_>
    <_>
      9.96808410e-01 8.19989383e-01 8.49574089e-01</_>
    <_>
      9.96911407e-01 8.04260254e-01 9.40323591e-01</_>
    <_>
      9.96808410e-01 8.19989383e-01 8.49574089e-01</_>
    <_>
      4.33525443e-03 6.84574386e-03 1.24674151e-03</_>
    <_>
      1.44508779e-02 6.84574386e-03 1.24674151e-03</_>
    <_>
      1.42857134e-02 1.09554944e-03 8.09212564e-04</_>
    <_>
      1. 1.26079482e-04 5.68330660e-02</_>
    <_>
      1. 3.13194119e-04 2.55093038e-01</_>
    <_>
      2.88185477e-03 4.15986665e-02 1.42813036e-02</_>
    <_>
      1. 2.06382596e-04 4.17085551e-02</_>
    <_>
      1. 3.23635922e-03 1.17510505e-01</_>
    <_>
      1.33587718e-02 1.14518523e-04 4.17572772e-03</_>
    <_>
      9.84309852e-01 7.40917504e-01 9.33979392e-01</_>
    <_>
      9.95851576e-01 8.98190141e-01 8.53830338e-01</_>
    <_>
      9.95851576e-01 8.98190141e-01 8.53830338e-01</_>
    <_>
      9.97052014e-01 9.12647545e-01 8.33754480e-01</_>
    <_>
      1. 9.14458275e-01 8.09777379e-01</_>
    <_>
      1. 9.16204929e-01 8.11581790e-01</_>
    <_>
      9.85345721e-01 9.00843024e-01 8.04082572e-01</_>
    <_>
      9.97052014e-01 9.12647545e-01 8.33754480e-01</_>
    <_>
      1. 9.14458275e-01 8.09777379e-01</_>
    <_>
      1. 9.16204929e-01 8.11581790e-01</_>
    <_>
      9.85345721e-01 9.00843024e-01 8.04082572e-01</_>
    <_>
      1.19047761e-02 8.64222832e-03 2.68218555e-05</_>
    <_>
      9.67175603e-01 9.13942337e-01 9.29796040e-01</_>
    <_>
      1. 8.37663293e-01 9.41255808e-01</_>
    <_>
      1. 8.37663293e-01 9.41255808e-01</_>
    <_>
      1. 8.49711597e-01 7.96552181e-01</_>
    <_>
      1. 8.47160220e-01 7.82208622e-01</_>
    <_>
      9.97163534e-01 8.35311651e-01 8.48295152e-01</_>
    <_>
      9.96757627e-01 8.31777513e-01 8.16289783e-01</_>
    <_>
      9.94572222e-01 8.11771393e-01 8.22956920e-01</_>
    <_>
      9.97163534e-01 8.35311651e-01 8.48295152e-01</_>
    <_>
      9.96757627e-01 8.31777513e-01 8.16289783e-01</_>
    <_>
      9.90904570e-01 8.50211740e-01 7.99353838e-01</_>
    <_>
      9.90904570e-01 8.50211740e-01 7.99353838e-01</_>
    <_>
      1. 9.15494740e-01 8.80635440e-01</_>
    <_>
      9.72424865e-01 8.26148868e-01 8.58342230e-01</_>
    <_>
      1. 9.15494740e-01 8.80635440e-01</_>
    <_>
      9.93082225e-01 7.99243808e-01 9.03779864e-01</_>
    <_>
      9.93082225e-01 7.99243808e-01 9.03779864e-01</_>
    <_>
      9.94302094e-01 8.81206453e-01 8.76857460e-01</_>
    <_>
      1. 7.96520710e-01 7.52384782e-01</_>
    <_>
      9.89383698e-01 7.58723855e-01 9.07862365e-01</_>
    <_>
      1. 9.05489624e-01 9.16848719e-01</_>
    <_>
      1. 9.08169270e-01 9.93006527e-01</_>
    <_>
      1. 9.34054017e-01 9.78994370e-01</_>
    <_>
      1. 9.05489624e-01 9.16848719e-01</_>
    <_>
      9.89828110e-01 8.86121571e-01 9.43978190e-01</_>
    <_>
      9.89828110e-01 8.86121571e-01 9.43978190e-01</_>
    <_>
      9.96648669e-01 8.87748957e-01 9.61135626e-01</_>
    <_>
      9.78782594e-01 8.56753170e-01 9.23155069e-01</_>
    <_>
      9.78782594e-01 8.56753170e-01 9.23155069e-01</_>
    <_>
      9.85489726e-01 8.03647399e-01 8.54375362e-01</_>
    <_>
      1. 9.08169270e-01 9.93006527e-01</_>
    <_>
      1. 9.34054017e-01 9.78994370e-01</_>
    <_>
      9.96648669e-01 8.87748957e-01 9.61135626e-01</_>
    <_>
      9.85489726e-01 8.03647399e-01 8.54375362e-01</_>
    <_>
      9.94270444e-01 8.73779416e-01 7.92396009e-01</_>
    <_>
      9.90292013e-01 8.23380768e-01 8.39943230e-01</_>
    <_>
      9.90292013e-01 8.23380768e-01 8.39943230e-01</_>
    <_>
      7.72628188e-03 1.23248789e-02 1.96608319e-03</_>
    <_>
      2.06610560e-03 2.13183230e-03 5.47750155e-03</_>
    <_>
      9.90364134e-01 9.15874124e-01 8.11655760e-01</_>
    <_>
      9.90364134e-01 9.15874124e-01 8.11655760e-01</_>
    <_>
      1. 9.81478930e-01 8.07007730e-01</_>
    <_>
      9.82674539e-01 8.83676350e-01 7.65349150e-01</_>
    <_>
      1. 9.81478930e-01 8.07007730e-01</_>
    <_>
      9.85065997e-01 9.05411839e-01 8.77715290e-01</_>
    <_>
      9.96859193e-01 8.31104457e-01 7.98646510e-01</_>
    <_>
      9.85065997e-01 9.05411839e-01 8.77715290e-01</_>
    <_>
      9.95709181e-01 8.50043416e-01 8.92856359e-01</_>
    <_>
      1. 7.90544450e-01 8.49141479e-01</_>
    <_>
      1. 7.90544450e-01 8.49141479e-01</_>
    <_>
      9.90577281e-01 8.21135283e-01 8.44219446e-01</_>
    <_>
      9.90577281e-01 8.21135283e-01 8.44219446e-01</_>
    <_>
      1. 8.36763322e-01 8.74111652e-01</_>
    <_>
      1. 8.36763322e-01 8.74111652e-01</_>
    <_>
      1. 8.83887231e-01 9.13481295e-01</_>
    <_>
      1. 8.83887231e-01 9.13481295e-01</_>
    <_>
      1. 8.18235695e-01 8.51501882e-01</_>
    <_>
      1. 8.18235695e-01 8.51501882e-01</_>
    <_>
      9.96124208e-01 8.61097753e-01 9.03290987e-01</_>
    <_>
      1.64048076e-02 8.43182730e-04 2.02977797e-03</_>
    <_>
      1.29532814e-03 8.42623971e-03 2.57167825e-03</_>
    <_>
      4.93422151e-03 9.79353953e-03 7.03772763e-03</_>
    <_>
      4.93422151e-03 9.79353953e-03 7.03772763e-03</_>
    <_>
      7.87660480e-03 9.52866510e-04 4.98334120e-04</_>
    <_>
      1.25312805e-03 1.45477895e-02 9.69381872e-05</_>
    <_>
      1.25312805e-03 1.45477895e-02 9.69381872e-05</_>
    <_>
      7.42575526e-03 2.37040799e-02 1.24404003e-04</_>
    <_>
      0. 1.60130747e-02 1.91176478e-02</_>
    <_>
      1.38887763e-03 2.83992995e-04 2.73102400e-04</_>
    <_>
      1.59089565e-02 3.74320820e-02 1.40195363e-03</_>
    <_>
      1.38887763e-03 2.83992995e-04 2.73102400e-04</_>
    <_>
      4.03225422e-03 2.21955534e-02 3.23223043e-03</_>
    <_>
      1.02040768e-02 1.41306489e-03 5.65976556e-03</_>
    <_>
      1.90315545e-02 4.61638952e-03 1.88677921e-04</_>
    <_>
      0. 9.84982494e-03 1.66437104e-02</_>
    <_>
      9.67741013e-03 0. 0.</_>
    <_>
      1. 8.20438147e-01 8.54142606e-01</_>
    <_>
      1. 8.20438147e-01 8.54142606e-01</_>
    <_>
      1.11111104e-02 5.97271649e-03 3.89755098e-03</_>
    <_>
      9.97729242e-01 8.10525298e-01 8.37397397e-01</_>
    <_>
      3.96826863e-03 1.73106771e-02 1.39383704e-03</_>
    <_>
      3.96826863e-03 1.73106771e-02 1.39383704e-03</_>
    <_>
      8.99279118e-03 1.22490246e-02 1.50814059e-03</_>
    <_>
      7.32600689e-03 8.18329770e-03 1.81748357e-03</_>
    <_>
      1.61870420e-02 4.06572688e-03 3.09342955e-04</_>
    <_>
      8.99279118e-03 1.22490246e-02 1.50814059e-03</_>
    <_>
      8.99279118e-03 2.89139082e-03 2.57143984e-03</_>
    <_>
      5.01671433e-03 1.60893574e-02 1.21164322e-03</_>
    <_>
      5.01671433e-03 1.60893574e-02 1.21164322e-03</_>
    <_>
      4.31033969e-03 3.35763674e-03 1.10145910e-02</_>
    <_>
      9.91091132e-01 8.03374290e-01 8.76929164e-01</_>
    <_>
      9.91091132e-01 8.03374290e-01 8.76929164e-01</_>
    <_>
      1.44091249e-03 7.70582305e-03 6.29612617e-03</_>
    <_>
      9.96693134e-01 5.30195057e-01 8.78529906e-01</_>
    <_>
      6.52742386e-03 1.18303485e-02 8.37030588e-04</_>
    <_>
      9.95538354e-01 6.96194828e-01 8.89456093e-01</_>
    <_>
      5.23561239e-03 9.47878975e-03 8.01559538e-03</_>
    <_>
      5.91015816e-03 3.94529477e-03 1.46576976e-02</_>
    <_>
      1.18201971e-03 8.65631085e-03 1.42874513e-02</_>
    <_>
      8.04290175e-03 2.71035731e-03 1.06178736e-03</_>
    <_>
      9.94754612e-01 8.34387898e-01 8.04812312e-01</_>
    <_>
      1. 8.57577920e-01 8.28056991e-01</_>
    <_>
      1. 8.57577920e-01 8.28056991e-01</_>
    <_>
      9.87638950e-01 8.24442208e-01 8.55058908e-01</_>
    <_>
      1. 8.37883294e-01 8.75536203e-01</_>
    <_>
      1. 8.30126882e-01 8.30217242e-01</_>
    <_>
      1. 8.37883294e-01 8.75536203e-01</_>
    <_>
      1. 8.30126882e-01 8.30217242e-01</_>
    <_>
      9.89048481e-01 1.96366131e-01 7.27927446e-01</_>
    <_>
      2.33942568e-02 1.32782129e-03 1.25811556e-02</_>
    <_>
      1.06382966e-02 2.06320751e-02 2.91628670e-02</_>
    <_>
      9.94633257e-01 7.91892171e-01 7.92315066e-01</_>
    <_>
      7.38334656e-03 2.79355515e-03 4.35204618e-03</_>
    <_>
      1.45772099e-03 8.33666977e-03 1.82495860e-03</_>
    <_>
      9.97370362e-01 8.39666367e-01 8.59414279e-01</_>
    <_>
      1.08040869e-02 1.31536741e-03 3.59111116e-03</_>
    <_>
      1.08040869e-02 1.31536741e-03 3.59111116e-03</_>
    <_>
      0. 1.08703161e-02 9.48285498e-03</_></support_vectors>
  <decision_functions>
    <_>
      <sv_count>200</sv_count>
      <rho>-7.7050451189279556e-02</rho>
      <alpha>
        1. 1. 1. 1. 1. 1. 1. 1. 1. 1. 1. 1. 1. 1. 1. 1. 1. 1. 1. 1. 1.
        1. 1. 1. 1. 1. 1. 1. 1. 1. 1. 1. 1. 1. 1. 1. 1. 1. 1. 1. 1. 1.
        1. 1. 1. 1. 1. 1. 1. 1. 1. 1. 1. 1. 1. 1. 1. 1. 1. 1. 1. 1. 1.
        1. 1. 1. 1. 1. 1. 1. 1. 1. 1. 1. 1. 1. 1. 1. 1. 1. 1. 1. 1. 1.
        1. 1. 1. 1. 1. 1. 1. 1. 1. 1. 1. 1. 1. 1. 1. 1. -1. -1. -1. -1.
        -1. -1. -1. -1. -1. -1. -1. -1. -1. -1. -1. -1. -1. -1. -1. -1.
        -1. -1. -1. -1. -1. -1. -1. -1. -1. -1. -1. -1. -1. -1. -1. -1.
        -1. -1. -1. -1. -1. -1. -1. -1. -1. -1. -1. -1. -1. -1. -1. -1.
        -1. -1. -1. -1. -1. -1. -1. -1. -1. -1. -1. -1. -1. -1. -1. -1.
        -1. -1. -1. -1. -1. -1. -1. -1. -1. -1. -1. -1. -1. -1. -1. -1.
        -1. -1. -1. -1. -1. -1. -1. -1. -1. -1. -1. -1. -1. -1. -1. -1.</alpha>
      <index>
        0 199 135 136 4 5 6 7 8 140 10 11 12 13 141 14 143 144 17 145 18
        19 22 23 24 25 26 27 28 159 160 161 57 162 163 164 165 166 167
        168 169 170 58 59 60 61 62 63 67 68 171 69 70 76 80 81 174 82 83
        84 175 85 176 178 86 179 180 181 94 95 96 99 100 102 105 106 107
        113 183 184 185 116 119 187 189 120 123 124 125 193 126 128 129
        194 130 131 195 196 197 198 1 2 3 9 15 16 20 21 29 30 31 32 33
        34 35 36 37 38 39 40 41 42 43 44 45 46 47 48 49 50 51 52 53 54
        55 56 64 65 66 71 72 73 74 75 77 78 79 87 88 89 90 91 92 93 97
        98 101 103 104 108 109 110 111 112 114 115 117 118 121 122 127
        132 133 134 137 153 154 138 139 172 173 142 146 147 148 177 182
        155 156 149 157 186 188 190 191 192 150 151 152 158</index></_></decision_functions></opencv_ml_svm>
</opencv_storage>
