<?xml version="1.0"?>
<opencv_storage>
<opencv_ml_svm>
  <format>3</format>
  <svmType>C_SVC</svmType>
  <kernel>
    <type>RBF</type>
    <gamma>1.</gamma></kernel>
  <C>1.</C>
  <term_criteria><iterations>100</iterations></term_criteria>
  <var_count>3</var_count>
  <class_count>2</class_count>
  <class_labels type_id="opencv-matrix">
    <rows>2</rows>
    <cols>1</cols>
    <dt>i</dt>
    <data>
      -1 1</data></class_labels>
  <sv_total>200</sv_total>
  <support_vectors>
    <_>
      2.46303193e-02 6.47445396e-03 1.82371825e-01</_>
    <_>
      2.14244761e-02 1.69838704e-02 2.16466948e-01</_>
    <_>
      1.04061945e-03 8.57813191e-03 3.09227228e-01</_>
    <_>
      1.01672001e-02 1.18061143e-04 2.66827643e-01</_>
    <_>
      6.72583483e-05 6.84548169e-03 1.42137662e-01</_>
    <_>
      6.72583483e-05 6.84548169e-03 1.42137662e-01</_>
    <_>
      2.19134171e-03 1.07137638e-03 2.56560534e-01</_>
    <_>
      9.18818463e-04 2.78777326e-03 1.48478359e-01</_>
    <_>
      9.18818463e-04 2.78777326e-03 1.48478359e-01</_>
    <_>
      1.99938007e-03 4.41505574e-03 2.85682857e-01</_>
    <_>
      8.33704650e-01 8.96698952e-01 2.17861295e-01</_>
    <_>
      7.88300991e-01 8.80379856e-01 1.50934979e-01</_>
    <_>
      7.88300991e-01 8.80379856e-01 1.50934979e-01</_>
    <_>
      7.66663313e-01 8.65190566e-01 1.87021509e-01</_>
    <_>
      8.02031934e-01 8.56091380e-01 1.87006265e-01</_>
    <_>
      6.32790965e-04 2.90814554e-04 1.84774965e-01</_>
    <_>
      3.14171164e-04 1.34469720e-03 3.13921064e-01</_>
    <_>
      8.58397980e-05 5.95867168e-04 1.80968657e-01</_>
    <_>
      3.14171164e-04 1.34469720e-03 3.13921064e-01</_>
    <_>
      3.15408135e-04 0. 2.99507201e-01</_>
    <_>
      3.15408135e-04 0. 2.11285889e-01</_>
    <_>
      6.66737277e-03 1.00360950e-03 2.85345018e-01</_>
    <_>
      0. 0. 2.61195511e-01</_>
    <_>
      0. 0. 2.61195511e-01</_>
    <_>
      8.37901950e-01 8.28710914e-01 2.30618522e-01</_>
    <_>
      2.85847986e-04 1.87413840e-04 2.31941134e-01</_>
    <_>
      2.85847986e-04 1.87413840e-04 2.31941134e-01</_>
    <_>
      9.57548851e-04 1.85364363e-04 1.82561532e-01</_>
    <_>
      8.45407069e-01 8.39624405e-01 1.84152573e-01</_>
    <_>
      3.50542250e-03 1.21561682e-03 1.22383028e-01</_>
    <_>
      8.57930362e-01 8.48534584e-01 2.04401284e-01</_>
    <_>
      9.13698792e-01 8.94996941e-01 1.96584970e-01</_>
    <_>
      3.40718136e-04 1.42994635e-02 3.14680845e-01</_>
    <_>
      1.16525646e-02 1.40628796e-02 3.90859783e-01</_>
    <_>
      1.08953784e-04 0. 2.09115833e-01</_>
    <_>
      7.06134539e-04 5.10870188e-04 3.46147031e-01</_>
    <_>
      0. 6.28553622e-04 2.74630845e-01</_>
    <_>
      0. 1.47878379e-03 3.37441772e-01</_>
    <_>
      0. 6.28553622e-04 2.74630845e-01</_>
    <_>
      0. 1.47878379e-03 3.37441772e-01</_>
    <_>
      1.98281559e-04 1.91102081e-04 3.39589506e-01</_>
    <_>
      1.98281559e-04 1.91102081e-04 3.39589506e-01</_>
    <_>
      8.14469993e-01 8.25741231e-01 1.75741389e-01</_>
    <_>
      8.05287063e-03 5.17003682e-05 2.05333889e-01</_>
    <_>
      2.47331103e-03 1.08402499e-04 2.43718162e-01</_>
    <_>
      0. 0. 2.25837111e-01</_>
    <_>
      0. 0. 2.19389200e-01</_>
    <_>
      0. 0. 2.42576927e-01</_>
    <_>
      0. 0. 2.21279770e-01</_>
    <_>
      0. 0. 2.20970392e-01</_>
    <_>
      0. 0. 2.22834468e-01</_>
    <_>
      0. 0. 2.20970392e-01</_>
    <_>
      0. 2.56311687e-05 2.44360253e-01</_>
    <_>
      6.50114147e-04 2.96289771e-04 1.52107209e-01</_>
    <_>
      6.50114147e-04 2.96289771e-04 1.52107209e-01</_>
    <_>
      0. 8.52661979e-05 2.50754356e-01</_>
    <_>
      0. 8.52661979e-05 2.50754356e-01</_>
    <_>
      0. 0. 2.29195714e-01</_>
    <_>
      0. 0. 2.29139686e-01</_>
    <_>
      0. 0. 2.29195714e-01</_>
    <_>
      0. 0. 2.32376263e-01</_>
    <_>
      0. 0. 2.31189236e-01</_>
    <_>
      0. 0. 2.11769581e-01</_>
    <_>
      7.21761098e-05 4.35965194e-04 1.86760858e-01</_>
    <_>
      7.21761098e-05 4.35965194e-04 1.86760858e-01</_>
    <_>
      0. 8.89016883e-05 1.96823016e-01</_>
    <_>
      0. 1.47695449e-04 2.48766840e-01</_>
    <_>
      0. 8.89016883e-05 1.96823016e-01</_>
    <_>
      0. 2.29269699e-06 2.27540001e-01</_>
    <_>
      0. 2.29269699e-06 2.27540001e-01</_>
    <_>
      5.49633568e-03 3.28979502e-03 2.79904127e-01</_>
    <_>
      9.44923937e-01 9.40050185e-01 1.84435070e-01</_>
    <_>
      2.65084062e-04 2.19367532e-04 2.31607780e-01</_>
    <_>
      1.70659085e-04 1.60486554e-04 2.22904027e-01</_>
    <_>
      9.44923937e-01 9.40050185e-01 1.84435070e-01</_>
    <_>
      9.45059180e-01 9.40323591e-01 2.03165084e-01</_>
    <_>
      9.45059180e-01 9.40323591e-01 2.03165084e-01</_>
    <_>
      9.08754528e-01 7.22905755e-01 1.89903751e-01</_>
    <_>
      9.08754528e-01 7.22905755e-01 1.89903751e-01</_>
    <_>
      0. 4.00160061e-05 2.18457058e-01</_>
    <_>
      1.12044821e-04 8.09212564e-04 2.35428095e-01</_>
    <_>
      1.12044821e-04 8.09212564e-04 2.35428095e-01</_>
    <_>
      4.37405746e-04 1.65912526e-04 2.28396565e-01</_>
    <_>
      0. 0. 2.37805769e-01</_>
    <_>
      0. 0. 2.22182691e-01</_>
    <_>
      1.12044821e-04 8.09212564e-04 2.31859967e-01</_>
    <_>
      4.37405746e-04 1.65912526e-04 2.26125404e-01</_>
    <_>
      2.94483192e-02 1.12247430e-02 3.42093945e-01</_>
    <_>
      8.43255460e-01 8.35574627e-01 1.89540774e-01</_>
    <_>
      8.24957013e-01 8.53563905e-01 1.68803379e-01</_>
    <_>
      9.45064247e-01 9.33979392e-01 2.08663106e-01</_>
    <_>
      8.90948355e-01 8.18230867e-01 1.59262821e-01</_>
    <_>
      9.24139619e-01 8.53830338e-01 2.20924631e-01</_>
    <_>
      9.24139619e-01 8.53830338e-01 2.20924631e-01</_>
    <_>
      9.30137515e-01 8.33754480e-01 2.11730495e-01</_>
    <_>
      9.18969452e-01 8.09777379e-01 1.95510209e-01</_>
    <_>
      9.20829237e-01 8.11581790e-01 1.99681550e-01</_>
    <_>
      8.75447035e-01 9.25573349e-01 1.90509036e-01</_>
    <_>
      9.30137515e-01 8.33754480e-01 2.11730495e-01</_>
    <_>
      9.18969452e-01 8.09777379e-01 1.95510209e-01</_>
    <_>
      9.20829237e-01 8.11581790e-01 1.99681550e-01</_>
    <_>
      2.60393322e-02 6.03170956e-05 1.37989596e-01</_>
    <_>
      8.71999502e-01 8.25919569e-01 2.25809708e-01</_>
    <_>
      9.11413133e-01 9.41255808e-01 1.64684132e-01</_>
    <_>
      9.11413133e-01 9.41255808e-01 1.64684132e-01</_>
    <_>
      8.43547344e-01 8.48295152e-01 1.65473685e-01</_>
    <_>
      8.21260691e-01 8.22956920e-01 1.74362883e-01</_>
    <_>
      8.51317108e-01 8.70167911e-01 1.87479153e-01</_>
    <_>
      8.43547344e-01 8.48295152e-01 1.65473685e-01</_>
    <_>
      8.21260691e-01 8.22956920e-01 1.74362883e-01</_>
    <_>
      8.75895858e-01 8.91677141e-01 2.09856778e-01</_>
    <_>
      8.73841703e-01 8.75067174e-01 2.07357615e-01</_>
    <_>
      8.26742113e-01 8.58342230e-01 2.09401786e-01</_>
    <_>
      8.58600199e-01 9.03779864e-01 1.72772333e-01</_>
    <_>
      8.58600199e-01 9.03779864e-01 1.72772333e-01</_>
    <_>
      9.10462797e-01 8.83717120e-01 1.85508117e-01</_>
    <_>
      7.87910223e-01 8.53594661e-01 1.66472629e-01</_>
    <_>
      7.87910223e-01 8.53594661e-01 1.66472629e-01</_>
    <_>
      8.20696294e-01 9.07862365e-01 1.85132474e-01</_>
    <_>
      8.20696294e-01 9.07862365e-01 1.85132474e-01</_>
    <_>
      9.53052580e-01 9.16848719e-01 2.23228693e-01</_>
    <_>
      9.58918095e-01 9.93006527e-01 2.03448892e-01</_>
    <_>
      9.66179490e-01 9.78994370e-01 1.92829192e-01</_>
    <_>
      9.40862775e-01 9.08263743e-01 1.76081344e-01</_>
    <_>
      9.53052580e-01 9.16848719e-01 2.23228693e-01</_>
    <_>
      9.47636425e-01 9.43978190e-01 2.01415211e-01</_>
    <_>
      9.47636425e-01 9.43978190e-01 2.01415211e-01</_>
    <_>
      9.49117064e-01 9.61135626e-01 1.86560497e-01</_>
    <_>
      8.94146025e-01 9.23155069e-01 1.74186543e-01</_>
    <_>
      8.94146025e-01 9.23155069e-01 1.74186543e-01</_>
    <_>
      8.59093308e-01 8.54375362e-01 1.87740460e-01</_>
    <_>
      9.58918095e-01 9.93006527e-01 2.03448892e-01</_>
    <_>
      9.66179490e-01 9.78994370e-01 1.92829192e-01</_>
    <_>
      9.49117064e-01 9.61135626e-01 1.86560497e-01</_>
    <_>
      8.65077913e-01 8.07177365e-01 1.61950499e-01</_>
    <_>
      8.59093308e-01 8.54375362e-01 1.87740460e-01</_>
    <_>
      8.76745045e-01 7.92396009e-01 1.64963365e-01</_>
    <_>
      7.99668074e-01 8.43599141e-01 2.11785734e-01</_>
    <_>
      2.91412944e-05 1.43133424e-04 1.98301107e-01</_>
    <_>
      9.10876036e-01 8.11655760e-01 1.85637683e-01</_>
    <_>
      9.10876036e-01 8.11655760e-01 1.85637683e-01</_>
    <_>
      9.57103729e-01 8.07007730e-01 1.90068290e-01</_>
    <_>
      9.57103729e-01 8.07007730e-01 1.90068290e-01</_>
    <_>
      8.51766169e-01 8.53259027e-01 2.06561044e-01</_>
    <_>
      8.51766169e-01 8.53259027e-01 2.06561044e-01</_>
    <_>
      8.59033108e-01 8.92856359e-01 1.93663955e-01</_>
    <_>
      8.59033108e-01 8.92856359e-01 1.93663955e-01</_>
    <_>
      4.60336712e-04 9.21630883e-04 3.41845781e-01</_>
    <_>
      4.60336712e-04 9.21630883e-04 3.41845781e-01</_>
    <_>
      1.28582828e-02 5.09075064e-04 3.42527211e-01</_>
    <_>
      8.22312772e-01 8.44219446e-01 1.86348289e-01</_>
    <_>
      8.22312772e-01 8.44219446e-01 1.86348289e-01</_>
    <_>
      8.53203356e-01 8.74111652e-01 1.82647735e-01</_>
    <_>
      8.53203356e-01 8.74111652e-01 1.82647735e-01</_>
    <_>
      8.59417021e-01 8.75562131e-01 1.43181518e-01</_>
    <_>
      9.04183626e-01 9.13481295e-01 2.00394168e-01</_>
    <_>
      8.59417021e-01 8.75562131e-01 1.43181518e-01</_>
    <_>
      8.25044036e-01 8.51501882e-01 1.83027193e-01</_>
    <_>
      8.25044036e-01 8.51501882e-01 1.83027193e-01</_>
    <_>
      9.03291535e-03 8.59901961e-03 3.18276197e-01</_>
    <_>
      4.21064377e-01 1.98153034e-02 1.32531732e-01</_>
    <_>
      3.40121391e-04 4.98334120e-04 1.42929599e-01</_>
    <_>
      5.93656674e-03 8.07776395e-03 3.66942227e-01</_>
    <_>
      1.25421269e-04 1.11748188e-04 1.73925295e-01</_>
    <_>
      8.22833002e-01 8.15657198e-01 1.70928687e-01</_>
    <_>
      8.46787751e-01 8.23394656e-01 1.62756756e-01</_>
    <_>
      2.04007025e-03 1.25112496e-02 3.41526568e-01</_>
    <_>
      2.04007025e-03 1.25112496e-02 3.41526568e-01</_>
    <_>
      8.09675336e-01 8.54142606e-01 1.89325407e-01</_>
    <_>
      5.09718340e-03 1.52362902e-02 3.29402477e-01</_>
    <_>
      2.15095072e-03 1.81669340e-04 3.48803729e-01</_>
    <_>
      5.73850157e-05 3.52980662e-03 1.55310810e-01</_>
    <_>
      5.73850157e-05 3.52980662e-03 1.55310810e-01</_>
    <_>
      2.15095072e-03 1.81669340e-04 3.48803729e-01</_>
    <_>
      3.33359669e-04 9.01285792e-04 3.44284773e-01</_>
    <_>
      3.33359669e-04 9.01285792e-04 3.44284773e-01</_>
    <_>
      1.96254207e-03 2.57143984e-03 2.77370006e-01</_>
    <_>
      3.76027427e-03 3.61887622e-04 2.42360964e-01</_>
    <_>
      4.10857843e-04 2.77500531e-05 1.87632173e-01</_>
    <_>
      7.83026498e-03 5.75744221e-03 3.05624455e-01</_>
    <_>
      1.02887917e-02 2.80537922e-02 4.15481061e-01</_>
    <_>
      8.45126867e-01 8.59816194e-01 1.60286874e-01</_>
    <_>
      8.61975908e-01 8.76929164e-01 1.76913530e-01</_>
    <_>
      8.45126867e-01 8.59816194e-01 1.60286874e-01</_>
    <_>
      8.61975908e-01 8.76929164e-01 1.76913530e-01</_>
    <_>
      4.61937394e-04 4.24403770e-05 1.64398685e-01</_>
    <_>
      7.85108089e-01 8.89456093e-01 1.40472367e-01</_>
    <_>
      7.85108089e-01 8.89456093e-01 1.40472367e-01</_>
    <_>
      1.17019201e-02 1.43119961e-03 2.84152210e-01</_>
    <_>
      3.91582405e-04 2.32817698e-03 2.48945862e-01</_>
    <_>
      8.65619719e-01 8.75536203e-01 2.00830743e-01</_>
    <_>
      8.65619719e-01 8.75536203e-01 2.00830743e-01</_>
    <_>
      8.17502439e-01 8.34031343e-01 2.19459906e-01</_>
    <_>
      8.17502439e-01 8.34031343e-01 2.19459906e-01</_>
    <_>
      8.96697223e-01 8.77768040e-01 1.95775554e-01</_>
    <_>
      5.42803016e-03 3.86137108e-04 2.87101865e-01</_>
    <_>
      4.21501609e-04 4.21501609e-04 2.97153562e-01</_>
    <_>
      4.21501609e-04 4.21501609e-04 2.97153562e-01</_>
    <_>
      8.40832233e-01 8.59414279e-01 1.82987615e-01</_>
    <_>
      6.75772607e-01 3.17370921e-01 1.56786367e-01</_></support_vectors>
  <decision_functions>
    <_>
      <sv_count>200</sv_count>
      <rho>-9.1692745685577393e-02</rho>
      <alpha>
        1. 1. 1. 1. 1. 1. 1. 1. 1. 1. 1. 1. 1. 1. 1. 1. 1. 1. 1. 1. 1.
        1. 1. 1. 1. 1. 1. 1. 1. 1. 1. 1. 1. 1. 1. 1. 1. 1. 1. 1. 1. 1.
        1. 1. 1. 1. 1. 1. 1. 1. 1. 1. 1. 1. 1. 1. 1. 1. 1. 1. 1. 1. 1.
        1. 1. 1. 1. 1. 1. 1. 1. 1. 1. 1. 1. 1. 1. 1. 1. 1. 1. 1. 1. 1.
        1. 1. 1. 1. 1. 1. 1. 1. 1. 1. 1. 1. 1. 1. 1. 1. -1. -1. -1. -1.
        -1. -1. -1. -1. -1. -1. -1. -1. -1. -1. -1. -1. -1. -1. -1. -1.
        -1. -1. -1. -1. -1. -1. -1. -1. -1. -1. -1. -1. -1. -1. -1. -1.
        -1. -1. -1. -1. -1. -1. -1. -1. -1. -1. -1. -1. -1. -1. -1. -1.
        -1. -1. -1. -1. -1. -1. -1. -1. -1. -1. -1. -1. -1. -1. -1. -1.
        -1. -1. -1. -1. -1. -1. -1. -1. -1. -1. -1. -1. -1. -1. -1. -1.
        -1. -1. -1. -1. -1. -1. -1. -1. -1. -1. -1. -1. -1. -1. -1. -1.</alpha>
      <index>
        0 2 3 153 154 156 199 6 9 159 10 11 12 13 14 15 161 19 20 21 24
        25 26 27 28 29 30 32 33 34 35 42 43 44 53 54 163 164 165 166 167
        169 70 176 71 72 73 74 75 76 77 78 79 80 81 82 83 84 85 86 177
        178 179 87 180 89 90 91 97 185 101 102 103 104 187 107 110 111
        112 188 115 118 189 120 123 124 125 126 132 136 137 138 194 195
        141 142 145 146 198 149 1 4 5 7 8 16 17 18 22 23 31 36 37 38 39
        40 41 45 46 47 48 49 50 51 52 55 56 57 58 59 60 61 62 63 64 65
        66 67 68 69 88 92 93 94 95 96 98 99 100 105 106 108 109 113 114
        116 117 119 121 122 127 128 129 130 131 133 134 135 139 140 143
        144 147 148 150 151 152 155 173 174 175 157 158 181 182 183 184
        162 186 190 191 192 193 196 197 168 160 170 171 172</index></_></decision_functions></opencv_ml_svm>
</opencv_storage>
