<?xml version="1.0"?>
<opencv_storage>
<opencv_ml_svm>
  <format>3</format>
  <svmType>C_SVC</svmType>
  <kernel>
    <type>RBF</type>
    <gamma>1.</gamma></kernel>
  <C>1.</C>
  <term_criteria><iterations>100</iterations></term_criteria>
  <var_count>3</var_count>
  <class_count>2</class_count>
  <class_labels type_id="opencv-matrix">
    <rows>2</rows>
    <cols>1</cols>
    <dt>i</dt>
    <data>
      -1 1</data></class_labels>
  <sv_total>200</sv_total>
  <support_vectors>
    <_>
      2.61027515e-01 2.46303193e-02 1.82371825e-01</_>
    <_>
      5.12087882e-01 2.14244761e-02 2.16466948e-01</_>
    <_>
      9.92822826e-01 8.38109374e-01 2.05618799e-01</_>
    <_>
      9.92822826e-01 8.38109374e-01 2.05618799e-01</_>
    <_>
      2.52808928e-02 1.04061945e-03 3.09227228e-01</_>
    <_>
      0. 8.57717451e-03 1.66393086e-01</_>
    <_>
      3.08641791e-03 1.11031421e-02 1.82018682e-01</_>
    <_>
      3.08641791e-03 1.11031421e-02 1.82018682e-01</_>
    <_>
      9.31677222e-03 4.18704178e-04 2.62579560e-01</_>
    <_>
      1.44928694e-03 4.68965434e-03 2.22075433e-01</_>
    <_>
      1.44928694e-03 4.68965434e-03 2.22075433e-01</_>
    <_>
      3.37387621e-02 2.03295681e-03 1.46325409e-01</_>
    <_>
      1.65015459e-03 0. 2.14233905e-01</_>
    <_>
      1.65015459e-03 0. 2.14233905e-01</_>
    <_>
      2.54452229e-03 5.81458304e-03 2.09403828e-01</_>
    <_>
      2.54452229e-03 5.81458304e-03 2.09403828e-01</_>
    <_>
      8.98203254e-03 8.58397980e-05 1.80968657e-01</_>
    <_>
      1.51976943e-03 1.79412702e-04 1.89693347e-01</_>
    <_>
      8.98203254e-03 8.58397980e-05 1.80968657e-01</_>
    <_>
      1.51976943e-03 1.79412702e-04 1.89693347e-01</_>
    <_>
      1. 3.15408135e-04 2.99507201e-01</_>
    <_>
      1. 8.37901950e-01 2.30618522e-01</_>
    <_>
      1. 8.37901950e-01 2.30618522e-01</_>
    <_>
      1. 8.63069534e-01 1.80470765e-01</_>
    <_>
      9.91377652e-01 9.13698792e-01 1.96584970e-01</_>
    <_>
      5.20834327e-03 5.80351974e-04 2.95665294e-01</_>
    <_>
      5.20834327e-03 5.80351974e-04 2.95665294e-01</_>
    <_>
      1.04166567e-02 2.61503109e-03 2.19117403e-01</_>
    <_>
      6.90609217e-03 3.61323613e-03 1.83147937e-01</_>
    <_>
      3.71748209e-03 4.67822189e-03 2.02144206e-01</_>
    <_>
      1.87265873e-03 1.29807892e-03 2.22998768e-01</_>
    <_>
      3.21543217e-03 7.06134539e-04 3.46147031e-01</_>
    <_>
      5.57619333e-03 3.38014285e-03 2.15773553e-01</_>
    <_>
      5.57619333e-03 3.38014285e-03 2.15773553e-01</_>
    <_>
      8.28728080e-03 3.97573411e-03 2.12976813e-01</_>
    <_>
      8.28728080e-03 3.97573411e-03 2.12976813e-01</_>
    <_>
      6.38976693e-03 0. 3.37441772e-01</_>
    <_>
      3.46019864e-03 6.86621573e-03 2.28703707e-01</_>
    <_>
      1.52438879e-03 1.41080830e-03 2.28525713e-01</_>
    <_>
      1.51976943e-03 1.41080830e-03 2.15315431e-01</_>
    <_>
      1.52438879e-03 1.41080830e-03 2.28525713e-01</_>
    <_>
      1.52438879e-03 0. 2.21279770e-01</_>
    <_>
      1.51976943e-03 1.41080830e-03 2.15315431e-01</_>
    <_>
      1.51515007e-03 0. 2.32146204e-01</_>
    <_>
      1.51515007e-03 0. 2.32146204e-01</_>
    <_>
      1.52438879e-03 0. 2.21279770e-01</_>
    <_>
      4.90197539e-03 0. 2.44360253e-01</_>
    <_>
      2.92396545e-03 0. 2.32602313e-01</_>
    <_>
      4.90197539e-03 0. 2.44360253e-01</_>
    <_>
      2.92396545e-03 0. 2.32602313e-01</_>
    <_>
      3.27870250e-03 0. 2.33090982e-01</_>
    <_>
      3.27870250e-03 0. 2.33090982e-01</_>
    <_>
      8.92856717e-03 6.62357127e-03 1.75255463e-01</_>
    <_>
      1.58730149e-03 1.96700916e-03 2.02981368e-01</_>
    <_>
      1.58730149e-03 1.96700916e-03 2.02981368e-01</_>
    <_>
      1.49253011e-03 6.08583353e-03 2.06043065e-01</_>
    <_>
      1.49253011e-03 6.08583353e-03 2.06043065e-01</_>
    <_>
      1.74215436e-03 0. 2.18138665e-01</_>
    <_>
      1.74215436e-03 0. 2.18138665e-01</_>
    <_>
      4.55927849e-03 7.21761098e-05 2.11479500e-01</_>
    <_>
      1.34328306e-02 7.21761098e-05 1.86760858e-01</_>
    <_>
      0. 0. 2.30792478e-01</_>
    <_>
      0. 0. 2.30792478e-01</_>
    <_>
      1.51515007e-03 0. 2.16669798e-01</_>
    <_>
      4.48206067e-03 2.99401185e-03 1.91818327e-01</_>
    <_>
      1.51515007e-03 0. 2.16669798e-01</_>
    <_>
      1.68350339e-03 1.36000523e-03 2.12098628e-01</_>
    <_>
      4.48206067e-03 2.99401185e-03 1.91818327e-01</_>
    <_>
      1.68350339e-03 1.36000523e-03 2.12098628e-01</_>
    <_>
      1. 1.64830878e-01 2.09074438e-01</_>
    <_>
      9.96767998e-01 9.44923937e-01 1.84435070e-01</_>
    <_>
      9.80327249e-01 9.25016940e-01 2.13800564e-01</_>
    <_>
      9.96767998e-01 9.44923937e-01 1.84435070e-01</_>
    <_>
      9.96911407e-01 9.45059180e-01 2.03165084e-01</_>
    <_>
      9.96911407e-01 9.45059180e-01 2.03165084e-01</_>
    <_>
      1. 9.08754528e-01 1.89903751e-01</_>
    <_>
      4.33525443e-03 7.70712912e-04 2.31466681e-01</_>
    <_>
      9.97133493e-01 8.80836844e-01 1.48718685e-01</_>
    <_>
      8.47458839e-03 2.41253059e-03 1.86391056e-01</_>
    <_>
      9.97133493e-01 8.80836844e-01 1.48718685e-01</_>
    <_>
      9.81935143e-01 8.43255460e-01 1.89540774e-01</_>
    <_>
      9.95403111e-01 8.24957013e-01 1.68803379e-01</_>
    <_>
      9.55484331e-01 8.81083488e-01 1.63121134e-01</_>
    <_>
      9.84309852e-01 9.45064247e-01 2.08663106e-01</_>
    <_>
      9.95851576e-01 9.24139619e-01 2.20924631e-01</_>
    <_>
      9.95851576e-01 9.24139619e-01 2.20924631e-01</_>
    <_>
      9.97052014e-01 9.30137515e-01 2.11730495e-01</_>
    <_>
      1. 9.18969452e-01 1.95510209e-01</_>
    <_>
      1. 9.20829237e-01 1.99681550e-01</_>
    <_>
      9.97052014e-01 9.30137515e-01 2.11730495e-01</_>
    <_>
      1. 9.18969452e-01 1.95510209e-01</_>
    <_>
      1. 9.20829237e-01 1.99681550e-01</_>
    <_>
      9.89802897e-01 2.80390121e-02 2.80655056e-01</_>
    <_>
      9.74744320e-01 8.38925183e-01 1.54819623e-01</_>
    <_>
      1. 9.11413133e-01 1.64684132e-01</_>
    <_>
      1. 9.11413133e-01 1.64684132e-01</_>
    <_>
      1. 8.35938811e-01 1.61193117e-01</_>
    <_>
      1. 8.20824981e-01 1.69273213e-01</_>
    <_>
      9.97163534e-01 8.43547344e-01 1.65473685e-01</_>
    <_>
      9.97163534e-01 8.43547344e-01 1.65473685e-01</_>
    <_>
      9.90904570e-01 8.38146031e-01 1.91417873e-01</_>
    <_>
      9.90904570e-01 8.38146031e-01 1.91417873e-01</_>
    <_>
      1. 8.91434014e-01 2.06604183e-01</_>
    <_>
      1. 8.91434014e-01 2.06604183e-01</_>
    <_>
      9.79391336e-01 8.26226234e-01 1.53860494e-01</_>
    <_>
      9.93082225e-01 8.58600199e-01 1.72772333e-01</_>
    <_>
      9.93082225e-01 8.58600199e-01 1.72772333e-01</_>
    <_>
      9.87267852e-01 8.36980104e-01 1.80217683e-01</_>
    <_>
      1. 9.10462797e-01 1.85508117e-01</_>
    <_>
      9.87267852e-01 8.36980104e-01 1.80217683e-01</_>
    <_>
      1. 9.10462797e-01 1.85508117e-01</_>
    <_>
      9.87146020e-01 8.43399584e-01 1.67676747e-01</_>
    <_>
      9.87146020e-01 8.43399584e-01 1.67676747e-01</_>
    <_>
      1. 9.53052580e-01 2.23228693e-01</_>
    <_>
      1. 9.58918095e-01 2.03448892e-01</_>
    <_>
      1. 9.66179490e-01 1.92829192e-01</_>
    <_>
      1. 9.53052580e-01 2.23228693e-01</_>
    <_>
      9.89828110e-01 9.47636425e-01 2.01415211e-01</_>
    <_>
      9.89828110e-01 9.47636425e-01 2.01415211e-01</_>
    <_>
      9.96648669e-01 9.49117064e-01 1.86560497e-01</_>
    <_>
      9.78782594e-01 8.94146025e-01 1.74186543e-01</_>
    <_>
      9.78782594e-01 8.94146025e-01 1.74186543e-01</_>
    <_>
      9.85489726e-01 8.59093308e-01 1.87740460e-01</_>
    <_>
      1. 9.58918095e-01 2.03448892e-01</_>
    <_>
      1. 9.66179490e-01 1.92829192e-01</_>
    <_>
      9.96648669e-01 9.49117064e-01 1.86560497e-01</_>
    <_>
      9.85489726e-01 8.59093308e-01 1.87740460e-01</_>
    <_>
      4.36046720e-03 4.11667192e-04 1.92887977e-01</_>
    <_>
      9.97813642e-01 7.96440363e-01 1.53018907e-01</_>
    <_>
      4.96277213e-03 4.16296395e-03 1.89059108e-01</_>
    <_>
      9.90364134e-01 9.10876036e-01 1.85637683e-01</_>
    <_>
      9.90364134e-01 9.10876036e-01 1.85637683e-01</_>
    <_>
      1. 9.57103729e-01 1.90068290e-01</_>
    <_>
      9.82674539e-01 8.83060098e-01 1.94147795e-01</_>
    <_>
      1. 9.57103729e-01 1.90068290e-01</_>
    <_>
      9.96859193e-01 8.23690653e-01 1.61636427e-01</_>
    <_>
      9.95709181e-01 8.59033108e-01 1.93663955e-01</_>
    <_>
      9.96859193e-01 8.23690653e-01 1.61636427e-01</_>
    <_>
      1.40845180e-02 5.17859729e-03 2.64116168e-01</_>
    <_>
      1. 8.25524151e-01 1.64727777e-01</_>
    <_>
      1. 8.25524151e-01 1.64727777e-01</_>
    <_>
      1. 7.81710029e-01 2.14293152e-01</_>
    <_>
      1. 8.15319955e-01 2.18742341e-01</_>
    <_>
      9.95442152e-01 8.38641584e-01 2.18717858e-01</_>
    <_>
      9.95442152e-01 8.38641584e-01 2.18717858e-01</_>
    <_>
      1. 8.53203356e-01 1.82647735e-01</_>
    <_>
      1. 9.04183626e-01 2.00394168e-01</_>
    <_>
      1. 8.59417021e-01 1.43181518e-01</_>
    <_>
      1. 9.04183626e-01 2.00394168e-01</_>
    <_>
      1. 8.59417021e-01 1.43181518e-01</_>
    <_>
      1. 8.25044036e-01 1.83027193e-01</_>
    <_>
      1. 8.25044036e-01 1.83027193e-01</_>
    <_>
      4.93422151e-03 1.23869209e-03 2.12148905e-01</_>
    <_>
      4.93422151e-03 1.23869209e-03 2.12148905e-01</_>
    <_>
      7.87660480e-03 3.40121391e-04 1.42929599e-01</_>
    <_>
      1.96078420e-03 7.98275881e-03 2.00946629e-01</_>
    <_>
      1.96078420e-03 7.98275881e-03 2.00946629e-01</_>
    <_>
      1.38887763e-03 2.62151967e-04 1.92416564e-01</_>
    <_>
      1.38887763e-03 2.62151967e-04 1.92416564e-01</_>
    <_>
      1.41955912e-02 4.21748446e-05 2.33832970e-01</_>
    <_>
      3.00300121e-03 9.61647369e-03 2.23886982e-01</_>
    <_>
      7.13017583e-03 5.60361054e-03 1.91963002e-01</_>
    <_>
      9.96486008e-01 8.46787751e-01 1.62756756e-01</_>
    <_>
      1. 6.05227590e-01 2.20167637e-01</_>
    <_>
      5.37633896e-03 1.89226270e-02 1.67287529e-01</_>
    <_>
      1. 8.22182059e-01 2.08308294e-01</_>
    <_>
      1. 3.04083139e-01 2.21256971e-01</_>
    <_>
      1.77934766e-03 5.23777399e-03 3.33185285e-01</_>
    <_>
      8.99279118e-03 1.96254207e-03 2.77370006e-01</_>
    <_>
      4.16666269e-03 5.33246808e-03 1.79775536e-01</_>
    <_>
      1.17924511e-02 3.56563483e-03 2.40325063e-01</_>
    <_>
      1.17924511e-02 3.56563483e-03 2.40325063e-01</_>
    <_>
      1. 8.13814759e-01 2.85462976e-01</_>
    <_>
      4.31033969e-03 6.75152813e-04 1.96461722e-01</_>
    <_>
      1.53845549e-03 4.43178229e-03 1.99796945e-01</_>
    <_>
      8.06450844e-03 2.51262519e-03 2.21997112e-01</_>
    <_>
      1.53845549e-03 4.43178229e-03 1.99796945e-01</_>
    <_>
      8.68055224e-03 1.23535423e-03 2.05601260e-01</_>
    <_>
      9.86263275e-01 8.45126867e-01 1.60286874e-01</_>
    <_>
      9.91091132e-01 8.61975908e-01 1.76913530e-01</_>
    <_>
      9.86263275e-01 8.45126867e-01 1.60286874e-01</_>
    <_>
      9.91091132e-01 8.61975908e-01 1.76913530e-01</_>
    <_>
      1.44091249e-03 6.38405466e-03 2.43019059e-01</_>
    <_>
      6.52742386e-03 7.00434530e-03 2.20249176e-01</_>
    <_>
      5.23561239e-03 6.37136749e-04 1.94674030e-01</_>
    <_>
      5.91015816e-03 2.55696912e-04 2.24459231e-01</_>
    <_>
      1.18201971e-03 3.39978538e-03 2.05271930e-01</_>
    <_>
      8.04290175e-03 4.18956252e-03 1.77918658e-01</_>
    <_>
      9.94754612e-01 8.28679919e-01 2.02991888e-01</_>
    <_>
      9.87826526e-01 8.38549733e-01 1.96855590e-01</_>
    <_>
      1. 8.65619719e-01 2.00830743e-01</_>
    <_>
      1. 8.65619719e-01 2.00830743e-01</_>
    <_>
      1.45772099e-03 1.06486753e-02 1.98245972e-01</_>
    <_>
      1.12903118e-02 9.66259104e-04 1.82469428e-01</_>
    <_>
      1.04895234e-02 2.17037951e-03 2.12433323e-01</_>
    <_>
      1.04895234e-02 2.17037951e-03 2.12433323e-01</_>
    <_>
      9.97370362e-01 8.40832233e-01 1.82987615e-01</_>
    <_>
      1.08040869e-02 4.07607155e-03 2.29946822e-01</_>
    <_>
      1.08040869e-02 4.07607155e-03 2.29946822e-01</_>
    <_>
      0. 9.86125413e-03 2.08340138e-01</_></support_vectors>
  <decision_functions>
    <_>
      <sv_count>200</sv_count>
      <rho>-6.5406560897827148e-02</rho>
      <alpha>
        1. 1. 1. 1. 1. 1. 1. 1. 1. 1. 1. 1. 1. 1. 1. 1. 1. 1. 1. 1. 1.
        1. 1. 1. 1. 1. 1. 1. 1. 1. 1. 1. 1. 1. 1. 1. 1. 1. 1. 1. 1. 1.
        1. 1. 1. 1. 1. 1. 1. 1. 1. 1. 1. 1. 1. 1. 1. 1. 1. 1. 1. 1. 1.
        1. 1. 1. 1. 1. 1. 1. 1. 1. 1. 1. 1. 1. 1. 1. 1. 1. 1. 1. 1. 1.
        1. 1. 1. 1. 1. 1. 1. 1. 1. 1. 1. 1. 1. 1. 1. 1. -1. -1. -1. -1.
        -1. -1. -1. -1. -1. -1. -1. -1. -1. -1. -1. -1. -1. -1. -1. -1.
        -1. -1. -1. -1. -1. -1. -1. -1. -1. -1. -1. -1. -1. -1. -1. -1.
        -1. -1. -1. -1. -1. -1. -1. -1. -1. -1. -1. -1. -1. -1. -1. -1.
        -1. -1. -1. -1. -1. -1. -1. -1. -1. -1. -1. -1. -1. -1. -1. -1.
        -1. -1. -1. -1. -1. -1. -1. -1. -1. -1. -1. -1. -1. -1. -1. -1.
        -1. -1. -1. -1. -1. -1. -1. -1. -1. -1. -1. -1. -1. -1. -1. -1.</alpha>
      <index>
        0 142 143 4 144 199 146 147 149 5 8 9 10 14 15 152 153 154 20 21
        22 23 155 156 159 27 28 29 30 160 31 32 33 34 35 37 161 162 163
        168 69 70 71 72 73 74 75 76 169 170 171 172 173 175 177 77 79 81
        82 83 182 93 94 95 96 183 184 97 185 186 187 102 103 104 108 110
        113 116 117 118 124 189 127 128 129 132 133 134 136 138 139 140
        192 193 194 195 196 197 141 198 1 2 3 6 7 11 12 13 16 17 18 19
        24 25 26 36 38 39 40 41 42 43 44 45 46 47 48 49 50 51 52 53 54
        55 56 57 58 59 60 61 62 63 64 65 66 67 68 78 80 84 85 86 87 88
        89 90 91 92 98 99 100 101 105 106 107 109 111 112 114 115 119
        120 121 122 123 125 126 130 131 135 137 145 148 167 150 151 174
        176 178 179 180 181 188 190 191 164 165 157 158 166</index></_></decision_functions></opencv_ml_svm>
</opencv_storage>
