<?xml version="1.0"?>
<opencv_storage>
<opencv_ml_svm>
  <format>3</format>
  <svmType>C_SVC</svmType>
  <kernel>
    <type>RBF</type>
    <gamma>1.</gamma></kernel>
  <C>1.</C>
  <term_criteria><iterations>100</iterations></term_criteria>
  <var_count>2</var_count>
  <class_count>2</class_count>
  <class_labels type_id="opencv-matrix">
    <rows>2</rows>
    <cols>1</cols>
    <dt>i</dt>
    <data>
      -1 1</data></class_labels>
  <sv_total>200</sv_total>
  <support_vectors>
    <_>
      2.61027515e-01 6.47445396e-03</_>
    <_>
      5.12087882e-01 1.69838704e-02</_>
    <_>
      1.81159377e-03 1.81358191e-03</_>
    <_>
      1.81159377e-03 1.81358191e-03</_>
    <_>
      4.13224101e-03 4.84646065e-03</_>
    <_>
      0. 1.44997388e-02</_>
    <_>
      2.54452229e-03 1.20061822e-02</_>
    <_>
      2.54452229e-03 1.20061822e-02</_>
    <_>
      9.83891010e-01 8.96698952e-01</_>
    <_>
      1. 9.52692330e-01</_>
    <_>
      1. 8.80379856e-01</_>
    <_>
      9.96573925e-01 8.56091380e-01</_>
    <_>
      1.51976943e-03 2.30943449e-04</_>
    <_>
      1.51976943e-03 2.30943449e-04</_>
    <_>
      6.64451718e-03 3.58278234e-03</_>
    <_>
      1. 8.96557987e-01</_>
    <_>
      1. 8.96557987e-01</_>
    <_>
      1. 8.67237449e-01</_>
    <_>
      1. 8.21731627e-01</_>
    <_>
      9.91377652e-01 8.94996941e-01</_>
    <_>
      1.04166567e-02 1.79260527e-03</_>
    <_>
      1.12044811e-02 2.69678072e-03</_>
    <_>
      6.90609217e-03 3.03325767e-04</_>
    <_>
      3.71748209e-03 1.08171143e-02</_>
    <_>
      1.87265873e-03 3.46454373e-03</_>
    <_>
      3.21543217e-03 5.10870188e-04</_>
    <_>
      5.57619333e-03 7.35257100e-03</_>
    <_>
      5.57619333e-03 7.35257100e-03</_>
    <_>
      8.28728080e-03 3.03325767e-04</_>
    <_>
      8.28728080e-03 3.03325767e-04</_>
    <_>
      3.46019864e-03 7.76307331e-03</_>
    <_>
      1.52438879e-03 1.08799618e-03</_>
    <_>
      1.51976943e-03 1.08799618e-03</_>
    <_>
      1.52438879e-03 1.08799618e-03</_>
    <_>
      3.03950906e-03 0.</_>
    <_>
      1.52438879e-03 0.</_>
    <_>
      1.51976943e-03 1.08799618e-03</_>
    <_>
      3.03950906e-03 0.</_>
    <_>
      1.51515007e-03 0.</_>
    <_>
      1.51515007e-03 0.</_>
    <_>
      1.52438879e-03 0.</_>
    <_>
      4.90197539e-03 2.56311687e-05</_>
    <_>
      2.92396545e-03 5.76701277e-05</_>
    <_>
      2.92396545e-03 5.76701277e-05</_>
    <_>
      3.27870250e-03 2.59104010e-04</_>
    <_>
      3.27870250e-03 2.59104010e-04</_>
    <_>
      1.58730149e-03 2.68709334e-03</_>
    <_>
      1.58730149e-03 2.68709334e-03</_>
    <_>
      1.49253011e-03 1.34313246e-03</_>
    <_>
      1.49253011e-03 1.34313246e-03</_>
    <_>
      1.74215436e-03 0.</_>
    <_>
      3.55986953e-02 0.</_>
    <_>
      2.09790170e-02 0.</_>
    <_>
      3.62318754e-03 0.</_>
    <_>
      1.74215436e-03 0.</_>
    <_>
      3.62318754e-03 0.</_>
    <_>
      0. 6.79420657e-04</_>
    <_>
      0. 6.79420657e-04</_>
    <_>
      8.95521045e-03 7.34393470e-05</_>
    <_>
      1.51515007e-03 4.69923616e-05</_>
    <_>
      9.91859257e-01 8.54786575e-01</_>
    <_>
      1.51515007e-03 4.69923616e-05</_>
    <_>
      1.68350339e-03 3.27395136e-03</_>
    <_>
      1.68350339e-03 3.27395136e-03</_>
    <_>
      4.99999523e-03 4.43308940e-03</_>
    <_>
      9.96767998e-01 9.40050185e-01</_>
    <_>
      9.80327249e-01 9.33104157e-01</_>
    <_>
      9.96767998e-01 9.40050185e-01</_>
    <_>
      9.96911407e-01 9.40323591e-01</_>
    <_>
      9.96911407e-01 9.40323591e-01</_>
    <_>
      9.80327249e-01 9.33104157e-01</_>
    <_>
      4.33525443e-03 1.24674151e-03</_>
    <_>
      1. 8.62339363e-02</_>
    <_>
      1.67784095e-03 1.10995034e-02</_>
    <_>
      9.84309852e-01 9.33979392e-01</_>
    <_>
      9.95851576e-01 8.53830338e-01</_>
    <_>
      9.95851576e-01 8.53830338e-01</_>
    <_>
      9.97052014e-01 8.33754480e-01</_>
    <_>
      9.88796949e-01 9.25573349e-01</_>
    <_>
      9.97052014e-01 8.33754480e-01</_>
    <_>
      1.19047761e-02 2.68218555e-05</_>
    <_>
      9.67175603e-01 9.29796040e-01</_>
    <_>
      1. 9.41255808e-01</_>
    <_>
      1. 9.41255808e-01</_>
    <_>
      9.92881775e-01 8.37432563e-01</_>
    <_>
      9.92881775e-01 8.37432563e-01</_>
    <_>
      9.97163534e-01 8.48295152e-01</_>
    <_>
      9.97163534e-01 8.48295152e-01</_>
    <_>
      9.77149189e-01 8.91677141e-01</_>
    <_>
      9.93082225e-01 9.03779864e-01</_>
    <_>
      9.83538985e-01 8.59093487e-01</_>
    <_>
      9.83538985e-01 8.59093487e-01</_>
    <_>
      9.93082225e-01 9.03779864e-01</_>
    <_>
      1. 8.83717120e-01</_>
    <_>
      9.94302094e-01 8.76857460e-01</_>
    <_>
      9.91060555e-01 8.53594661e-01</_>
    <_>
      9.91060555e-01 8.53594661e-01</_>
    <_>
      9.89383698e-01 9.07862365e-01</_>
    <_>
      1. 9.16848719e-01</_>
    <_>
      1. 9.93006527e-01</_>
    <_>
      1. 9.78994370e-01</_>
    <_>
      9.91581142e-01 9.08263743e-01</_>
    <_>
      1. 9.16848719e-01</_>
    <_>
      9.89828110e-01 9.43978190e-01</_>
    <_>
      9.89828110e-01 9.43978190e-01</_>
    <_>
      9.96648669e-01 9.61135626e-01</_>
    <_>
      9.78782594e-01 9.23155069e-01</_>
    <_>
      9.78782594e-01 9.23155069e-01</_>
    <_>
      9.85489726e-01 8.54375362e-01</_>
    <_>
      1. 9.93006527e-01</_>
    <_>
      1. 9.78994370e-01</_>
    <_>
      9.96648669e-01 9.61135626e-01</_>
    <_>
      9.85489726e-01 8.54375362e-01</_>
    <_>
      4.36046720e-03 6.57517288e-04</_>
    <_>
      5.15460968e-03 1.70810602e-03</_>
    <_>
      7.72628188e-03 1.96608319e-03</_>
    <_>
      9.95781600e-01 8.43599141e-01</_>
    <_>
      2.06610560e-03 5.47750155e-03</_>
    <_>
      1. 8.24149311e-01</_>
    <_>
      1. 8.07007730e-01</_>
    <_>
      1. 8.07007730e-01</_>
    <_>
      1. 2.18522191e-01</_>
    <_>
      1. 8.32495213e-01</_>
    <_>
      1. 8.32495213e-01</_>
    <_>
      1. 8.18088472e-01</_>
    <_>
      9.90577281e-01 8.44219446e-01</_>
    <_>
      9.90577281e-01 8.44219446e-01</_>
    <_>
      1. 8.21818173e-01</_>
    <_>
      1. 8.21818173e-01</_>
    <_>
      1.04790330e-02 7.46962614e-04</_>
    <_>
      1. 8.74111652e-01</_>
    <_>
      1. 8.74111652e-01</_>
    <_>
      1. 9.13481295e-01</_>
    <_>
      1. 9.13481295e-01</_>
    <_>
      1. 8.51501882e-01</_>
    <_>
      1. 8.51501882e-01</_>
    <_>
      1.00784004e-02 3.80878081e-03</_>
    <_>
      1.29532814e-03 2.57167825e-03</_>
    <_>
      9.96569574e-01 8.44722867e-01</_>
    <_>
      1.29532814e-03 2.57167825e-03</_>
    <_>
      9.96569574e-01 8.44722867e-01</_>
    <_>
      4.93422151e-03 7.03772763e-03</_>
    <_>
      4.93422151e-03 7.03772763e-03</_>
    <_>
      1. 3.80237103e-01</_>
    <_>
      7.87660480e-03 4.98334120e-04</_>
    <_>
      1.25312805e-03 9.69381872e-05</_>
    <_>
      1.25312805e-03 9.69381872e-05</_>
    <_>
      0. 1.91176478e-02</_>
    <_>
      1.38887763e-03 2.73102400e-04</_>
    <_>
      1.38887763e-03 2.73102400e-04</_>
    <_>
      1.47059560e-03 3.39643396e-02</_>
    <_>
      3.00300121e-03 7.84961134e-03</_>
    <_>
      1. 8.14892530e-01</_>
    <_>
      1. 8.03911030e-01</_>
    <_>
      0. 1.66437104e-02</_>
    <_>
      7.13017583e-03 5.35425683e-03</_>
    <_>
      0. 1.66437104e-02</_>
    <_>
      1.43265724e-03 2.52733426e-03</_>
    <_>
      1.43265724e-03 2.52733426e-03</_>
    <_>
      1. 7.24898100e-01</_>
    <_>
      1. 4.58765663e-02</_>
    <_>
      1. 8.54142606e-01</_>
    <_>
      1. 8.35129619e-01</_>
    <_>
      1. 8.35129619e-01</_>
    <_>
      1.77934766e-03 1.74207496e-03</_>
    <_>
      1.77934766e-03 1.74207496e-03</_>
    <_>
      3.96826863e-03 1.39383704e-03</_>
    <_>
      3.96826863e-03 1.39383704e-03</_>
    <_>
      8.99279118e-03 1.50814059e-03</_>
    <_>
      7.32600689e-03 1.81748357e-03</_>
    <_>
      8.99279118e-03 1.50814059e-03</_>
    <_>
      8.99279118e-03 2.57143984e-03</_>
    <_>
      5.01671433e-03 1.21164322e-03</_>
    <_>
      5.01671433e-03 1.21164322e-03</_>
    <_>
      9.94859338e-01 8.25423241e-01</_>
    <_>
      1. 8.00732911e-01</_>
    <_>
      9.86263275e-01 8.59816194e-01</_>
    <_>
      9.91091132e-01 8.76929164e-01</_>
    <_>
      9.86263275e-01 8.59816194e-01</_>
    <_>
      9.91091132e-01 8.76929164e-01</_>
    <_>
      1. 8.39983344e-01</_>
    <_>
      1.44091249e-03 6.29612617e-03</_>
    <_>
      1. 7.68618822e-01</_>
    <_>
      1. 7.68618822e-01</_>
    <_>
      6.52742386e-03 8.37030588e-04</_>
    <_>
      9.95538354e-01 8.89456093e-01</_>
    <_>
      5.23561239e-03 8.01559538e-03</_>
    <_>
      1.18201971e-03 1.42874513e-02</_>
    <_>
      8.04290175e-03 1.06178736e-03</_>
    <_>
      9.96746123e-01 8.90567243e-01</_>
    <_>
      9.96746123e-01 8.90567243e-01</_>
    <_>
      1. 8.28056991e-01</_>
    <_>
      1. 8.75536203e-01</_>
    <_>
      1. 8.75536203e-01</_>
    <_>
      9.95107532e-01 8.34031343e-01</_>
    <_>
      7.38334656e-03 4.35204618e-03</_>
    <_>
      1.45772099e-03 1.82495860e-03</_>
    <_>
      8.76346231e-03 1.91243493e-03</_>
    <_>
      7.33137131e-03 5.24423644e-03</_>
    <_>
      0. 9.48285498e-03</_></support_vectors>
  <decision_functions>
    <_>
      <sv_count>200</sv_count>
      <rho>-5.4595194756984711e-02</rho>
      <alpha>
        1. 1. 1. 1. 1. 1. 1. 1. 1. 1. 1. 1. 1. 1. 1. 1. 1. 1. 1. 1. 1.
        1. 1. 1. 1. 1. 1. 1. 1. 1. 1. 1. 1. 1. 1. 1. 1. 1. 1. 1. 1. 1.
        1. 1. 1. 1. 1. 1. 1. 1. 1. 1. 1. 1. 1. 1. 1. 1. 1. 1. 1. 1. 1.
        1. 1. 1. 1. 1. 1. 1. 1. 1. 1. 1. 1. 1. 1. 1. 1. 1. 1. 1. 1. 1.
        1. 1. 1. 1. 1. 1. 1. 1. 1. 1. 1. 1. 1. 1. 1. 1. -1. -1. -1. -1.
        -1. -1. -1. -1. -1. -1. -1. -1. -1. -1. -1. -1. -1. -1. -1. -1.
        -1. -1. -1. -1. -1. -1. -1. -1. -1. -1. -1. -1. -1. -1. -1. -1.
        -1. -1. -1. -1. -1. -1. -1. -1. -1. -1. -1. -1. -1. -1. -1. -1.
        -1. -1. -1. -1. -1. -1. -1. -1. -1. -1. -1. -1. -1. -1. -1. -1.
        -1. -1. -1. -1. -1. -1. -1. -1. -1. -1. -1. -1. -1. -1. -1. -1.
        -1. -1. -1. -1. -1. -1. -1. -1. -1. -1. -1. -1. -1. -1. -1. -1.</alpha>
      <index>
        0 128 129 199 131 132 4 5 136 6 7 8 9 10 11 141 142 144 14 15 16
        17 18 20 21 22 23 24 151 25 26 27 28 29 152 153 30 155 159 60
        160 163 64 166 167 168 169 170 171 172 173 65 66 67 68 69 70 174
        71 175 180 73 74 78 80 181 81 82 83 182 183 184 186 187 188 88
        93 94 98 101 102 103 104 110 191 113 114 115 116 117 118 119 120
        121 195 196 124 197 198 127 1 2 3 12 13 19 31 32 33 34 35 36 37
        38 39 40 41 42 43 44 45 46 47 48 49 50 51 52 53 54 55 56 57 58
        59 61 62 63 72 75 76 77 79 84 85 86 87 89 90 91 92 95 96 97 99
        100 105 106 107 108 109 111 112 122 123 125 126 130 133 164 165
        150 134 135 176 177 178 179 137 138 139 140 145 146 185 189 190
        154 147 156 157 158 192 193 194 148 149 143 161 162</index></_></decision_functions></opencv_ml_svm>
</opencv_storage>
