<?xml version="1.0"?>
<opencv_storage>
<opencv_ml_svm>
  <format>3</format>
  <svmType>C_SVC</svmType>
  <kernel>
    <type>RBF</type>
    <gamma>1.</gamma></kernel>
  <C>1.</C>
  <term_criteria><iterations>100</iterations></term_criteria>
  <var_count>3</var_count>
  <class_count>2</class_count>
  <class_labels type_id="opencv-matrix">
    <rows>2</rows>
    <cols>1</cols>
    <dt>i</dt>
    <data>
      -1 1</data></class_labels>
  <sv_total>200</sv_total>
  <support_vectors>
    <_>
      2.61027515e-01 3.21537405e-02 1.82371825e-01</_>
    <_>
      5.12087882e-01 1.59371775e-02 2.16466948e-01</_>
    <_>
      9.92822826e-01 9.43626761e-01 2.05618799e-01</_>
    <_>
      9.92822826e-01 9.43626761e-01 2.05618799e-01</_>
    <_>
      2.52808928e-02 5.53923985e-03 3.09227228e-01</_>
    <_>
      2.05761194e-03 1.88091435e-02 2.51833856e-01</_>
    <_>
      2.05761194e-03 1.88091435e-02 2.51833856e-01</_>
    <_>
      4.13224101e-03 6.94149220e-03 1.94081470e-01</_>
    <_>
      0. 4.09249682e-03 1.66393086e-01</_>
    <_>
      3.08641791e-03 1.53558692e-02 1.82018682e-01</_>
    <_>
      9.31677222e-03 5.88510535e-04 2.62579560e-01</_>
    <_>
      1.44928694e-03 2.35398230e-03 2.22075433e-01</_>
    <_>
      1.44928694e-03 2.35398230e-03 2.22075433e-01</_>
    <_>
      1.65015459e-03 0. 2.14233905e-01</_>
    <_>
      1.65015459e-03 0. 2.14233905e-01</_>
    <_>
      2.54452229e-03 4.45622485e-03 2.09403828e-01</_>
    <_>
      2.54452229e-03 4.45622485e-03 2.09403828e-01</_>
    <_>
      8.98203254e-03 2.99114821e-04 1.80968657e-01</_>
    <_>
      1.51976943e-03 2.03579097e-04 1.89693347e-01</_>
    <_>
      1.51976943e-03 2.03579097e-04 1.89693347e-01</_>
    <_>
      1. 4.66805231e-03 2.99507201e-01</_>
    <_>
      1. 8.72679770e-01 1.81777701e-01</_>
    <_>
      9.91377652e-01 9.17010844e-01 1.96584970e-01</_>
    <_>
      5.20834327e-03 2.97930278e-03 2.95665294e-01</_>
    <_>
      5.20834327e-03 2.97930278e-03 2.95665294e-01</_>
    <_>
      1.04166567e-02 1.60226307e-03 2.19117403e-01</_>
    <_>
      3.71748209e-03 5.17552206e-03 2.02144206e-01</_>
    <_>
      1.87265873e-03 1.08947735e-02 2.22998768e-01</_>
    <_>
      4.82314825e-03 4.14014347e-02 2.80879885e-01</_>
    <_>
      3.21543217e-03 2.15606927e-03 3.46147031e-01</_>
    <_>
      1.61811709e-03 4.35575023e-02 2.50152498e-01</_>
    <_>
      5.57619333e-03 5.71925147e-03 2.15773553e-01</_>
    <_>
      5.57619333e-03 5.71925147e-03 2.15773553e-01</_>
    <_>
      1.61811709e-03 4.35575023e-02 2.50152498e-01</_>
    <_>
      6.38976693e-03 2.53823218e-05 3.37441772e-01</_>
    <_>
      6.38976693e-03 2.53823218e-05 3.37441772e-01</_>
    <_>
      3.46019864e-03 7.40069244e-03 2.28703707e-01</_>
    <_>
      7.16331601e-03 7.86502510e-02 1.99827239e-01</_>
    <_>
      1.52438879e-03 7.77140143e-04 2.28525713e-01</_>
    <_>
      0. 1.24031916e-01 2.06182763e-01</_>
    <_>
      1.52438879e-03 7.77140143e-04 2.28525713e-01</_>
    <_>
      1.52438879e-03 0. 2.21279770e-01</_>
    <_>
      1.51515007e-03 0. 2.32146204e-01</_>
    <_>
      1.51515007e-03 0. 2.32146204e-01</_>
    <_>
      0. 1.24031916e-01 2.06182763e-01</_>
    <_>
      1.52438879e-03 0. 2.21279770e-01</_>
    <_>
      4.90197539e-03 0. 2.44360253e-01</_>
    <_>
      4.90197539e-03 0. 2.44360253e-01</_>
    <_>
      1.58730149e-03 3.02521023e-03 2.02981368e-01</_>
    <_>
      1.21212006e-02 2.47641176e-04 2.97752291e-01</_>
    <_>
      1.58730149e-03 3.02521023e-03 2.02981368e-01</_>
    <_>
      1.49253011e-03 4.44769766e-03 2.06043065e-01</_>
    <_>
      1.49253011e-03 4.44769766e-03 2.06043065e-01</_>
    <_>
      3.37839127e-03 8.56382176e-02 1.93931326e-01</_>
    <_>
      3.37839127e-03 8.56382176e-02 1.93931326e-01</_>
    <_>
      0. 0. 2.30792478e-01</_>
    <_>
      9.96778846e-01 7.37149094e-04 1.35815591e-01</_>
    <_>
      0. 0. 2.30792478e-01</_>
    <_>
      1.51515007e-03 0. 2.16669798e-01</_>
    <_>
      9.96636510e-01 1.22638780e-03 1.46063507e-01</_>
    <_>
      9.95281875e-01 1.85768271e-03 1.42983913e-01</_>
    <_>
      9.96636510e-01 1.22638780e-03 1.46063507e-01</_>
    <_>
      1.51515007e-03 0. 2.16669798e-01</_>
    <_>
      9.95281875e-01 1.85768271e-03 1.42983913e-01</_>
    <_>
      1. 0. 2.07568914e-01</_>
    <_>
      1. 3.07204295e-03 1.77609712e-01</_>
    <_>
      1. 4.23278799e-03 1.51474997e-01</_>
    <_>
      1. 3.07204295e-03 1.77609712e-01</_>
    <_>
      1. 4.23278799e-03 1.51474997e-01</_>
    <_>
      4.99999523e-03 1.45850831e-03 2.12812781e-01</_>
    <_>
      1. 8.20803165e-04 1.80861592e-01</_>
    <_>
      1. 2.03226134e-02 1.75173715e-01</_>
    <_>
      1. 2.19367532e-04 2.31607780e-01</_>
    <_>
      1. 9.03807878e-01 1.89903751e-01</_>
    <_>
      1. 9.03807878e-01 1.89903751e-01</_>
    <_>
      4.33525443e-03 6.84574386e-03 2.31466681e-01</_>
    <_>
      1. 8.20384303e-05 1.75051808e-01</_>
    <_>
      1. 4.35067564e-02 1.61757663e-01</_>
    <_>
      1. 2.27984259e-04 2.12001920e-01</_>
    <_>
      1. 8.20384303e-05 1.75051808e-01</_>
    <_>
      1. 7.09384098e-04 1.54527277e-01</_>
    <_>
      9.96696055e-01 3.33539181e-04 1.41205877e-01</_>
    <_>
      1. 7.09384098e-04 1.54527277e-01</_>
    <_>
      9.96696055e-01 3.33539181e-04 1.41205877e-01</_>
    <_>
      9.96402860e-01 7.56237539e-04 1.57482281e-01</_>
    <_>
      9.96402860e-01 7.56237539e-04 1.57482281e-01</_>
    <_>
      1. 1.76523245e-05 1.80940822e-01</_>
    <_>
      1. 3.13194119e-04 1.75539702e-01</_>
    <_>
      1. 1.02622835e-04 1.75041467e-01</_>
    <_>
      1. 0. 2.08027840e-01</_>
    <_>
      2.88185477e-03 4.15986665e-02 2.67965406e-01</_>
    <_>
      1. 1.02622835e-04 1.75041467e-01</_>
    <_>
      1. 1.02622835e-04 1.82618201e-01</_>
    <_>
      1. 2.06382596e-04 1.74260408e-01</_>
    <_>
      1. 2.06382596e-04 1.74260408e-01</_>
    <_>
      2.88185477e-03 4.15986665e-02 2.67965406e-01</_>
    <_>
      1. 2.82497029e-04 1.73168033e-01</_>
    <_>
      7.69230723e-03 1.29433125e-01 1.84977561e-01</_>
    <_>
      7.69230723e-03 1.29433125e-01 1.84977561e-01</_>
    <_>
      1. 6.30277768e-03 1.59037575e-01</_>
    <_>
      1.67784095e-03 4.22508605e-02 2.28151977e-01</_>
    <_>
      1.33587718e-02 1.14518523e-04 2.21436307e-01</_>
    <_>
      9.95851576e-01 8.98190141e-01 2.20924631e-01</_>
    <_>
      9.95851576e-01 8.98190141e-01 2.20924631e-01</_>
    <_>
      9.97052014e-01 9.12647545e-01 2.11730495e-01</_>
    <_>
      1. 9.14458275e-01 1.95510209e-01</_>
    <_>
      1. 9.16204929e-01 1.99681550e-01</_>
    <_>
      9.84051049e-01 8.77090812e-01 2.24898756e-01</_>
    <_>
      9.97052014e-01 9.12647545e-01 2.11730495e-01</_>
    <_>
      1. 9.14458275e-01 1.95510209e-01</_>
    <_>
      1. 9.16204929e-01 1.99681550e-01</_>
    <_>
      9.84051049e-01 8.77090812e-01 2.24898756e-01</_>
    <_>
      9.89764988e-01 8.67244840e-01 2.25809708e-01</_>
    <_>
      9.89764988e-01 8.67244840e-01 2.25809708e-01</_>
    <_>
      9.67175603e-01 9.13942337e-01 1.88105837e-01</_>
    <_>
      1. 8.47160220e-01 1.69273213e-01</_>
    <_>
      1. 8.47160220e-01 1.69273213e-01</_>
    <_>
      9.97163534e-01 8.35311651e-01 1.65473685e-01</_>
    <_>
      9.90904570e-01 8.50211740e-01 1.91417873e-01</_>
    <_>
      9.90904570e-01 8.50211740e-01 1.91417873e-01</_>
    <_>
      1. 9.15494740e-01 2.06604183e-01</_>
    <_>
      1. 8.90308678e-01 2.07357615e-01</_>
    <_>
      1. 9.15494740e-01 2.06604183e-01</_>
    <_>
      1. 8.90308678e-01 2.07357615e-01</_>
    <_>
      1. 1.13735661e-01 1.52021065e-01</_>
    <_>
      1. 1.56644930e-03 2.02795550e-01</_>
    <_>
      1. 8.96554530e-01 1.85508117e-01</_>
    <_>
      1. 8.96554530e-01 1.85508117e-01</_>
    <_>
      1. 9.05489624e-01 2.23228693e-01</_>
    <_>
      1. 9.08169270e-01 2.03448892e-01</_>
    <_>
      1. 9.34054017e-01 1.92829192e-01</_>
    <_>
      1. 9.05489624e-01 2.23228693e-01</_>
    <_>
      1. 2.67962296e-03 2.19240442e-01</_>
    <_>
      9.89828110e-01 8.86121571e-01 2.01415211e-01</_>
    <_>
      9.89828110e-01 8.86121571e-01 2.01415211e-01</_>
    <_>
      9.96648669e-01 8.87748957e-01 1.86560497e-01</_>
    <_>
      9.78782594e-01 8.56753170e-01 1.74186543e-01</_>
    <_>
      9.78782594e-01 8.56753170e-01 1.74186543e-01</_>
    <_>
      1. 9.08169270e-01 2.03448892e-01</_>
    <_>
      1. 9.34054017e-01 1.92829192e-01</_>
    <_>
      1. 2.67962296e-03 2.19240442e-01</_>
    <_>
      9.96648669e-01 8.87748957e-01 1.86560497e-01</_>
    <_>
      2.06610560e-03 2.13183230e-03 1.97734430e-01</_>
    <_>
      9.90364134e-01 9.15874124e-01 1.85637683e-01</_>
    <_>
      9.90364134e-01 9.15874124e-01 1.85637683e-01</_>
    <_>
      1. 9.81478930e-01 1.90068290e-01</_>
    <_>
      1. 9.81478930e-01 1.90068290e-01</_>
    <_>
      9.85065997e-01 9.05411839e-01 1.69271976e-01</_>
    <_>
      9.85065997e-01 9.05411839e-01 1.69271976e-01</_>
    <_>
      1.40845180e-02 5.58190420e-03 2.64116168e-01</_>
    <_>
      1. 8.36763322e-01 1.82647735e-01</_>
    <_>
      1. 8.83887231e-01 2.00394168e-01</_>
    <_>
      1. 8.48292530e-01 1.43181518e-01</_>
    <_>
      1. 8.83887231e-01 2.00394168e-01</_>
    <_>
      7.87660480e-03 9.52866510e-04 1.42929599e-01</_>
    <_>
      1.96078420e-03 9.63712228e-04 2.00946629e-01</_>
    <_>
      1.96078420e-03 9.63712228e-04 2.00946629e-01</_>
    <_>
      0. 1.60130747e-02 2.29163378e-01</_>
    <_>
      0. 1.60130747e-02 2.29163378e-01</_>
    <_>
      1.38887763e-03 2.83992995e-04 1.92416564e-01</_>
    <_>
      1.38887763e-03 2.83992995e-04 1.92416564e-01</_>
    <_>
      1.47059560e-03 1.43210394e-02 1.94467127e-01</_>
    <_>
      0. 9.84982494e-03 2.21706674e-01</_>
    <_>
      0. 9.84982494e-03 2.21706674e-01</_>
    <_>
      1.42857134e-02 4.23835311e-03 3.27180177e-01</_>
    <_>
      5.37633896e-03 7.13683479e-03 1.67287529e-01</_>
    <_>
      5.37633896e-03 7.13683479e-03 1.67287529e-01</_>
    <_>
      1. 8.20438147e-01 1.89325407e-01</_>
    <_>
      1.77934766e-03 3.66396434e-03 3.33185285e-01</_>
    <_>
      1.77934766e-03 3.66396434e-03 3.33185285e-01</_>
    <_>
      8.99279118e-03 2.89139082e-03 2.77370006e-01</_>
    <_>
      1.83967054e-02 2.05667540e-02 3.31440240e-01</_>
    <_>
      5.10203838e-03 5.87622039e-02 2.93629736e-01</_>
    <_>
      4.16666269e-03 6.51946699e-04 1.79775536e-01</_>
    <_>
      1. 8.10546756e-01 2.85462976e-01</_>
    <_>
      4.31033969e-03 3.35763674e-03 1.96461722e-01</_>
    <_>
      1.57234073e-03 1.42256788e-03 1.92105085e-01</_>
    <_>
      1. 5.08065104e-01 1.38577878e-01</_>
    <_>
      1.57234073e-03 1.42256788e-03 1.92105085e-01</_>
    <_>
      1.44091249e-03 7.70582305e-03 2.43019059e-01</_>
    <_>
      5.71429729e-03 8.15282762e-02 1.81594342e-01</_>
    <_>
      5.91015816e-03 3.94529477e-03 2.24459231e-01</_>
    <_>
      1.18201971e-03 8.65631085e-03 2.05271930e-01</_>
    <_>
      1.39665604e-03 3.62321436e-02 1.98719084e-01</_>
    <_>
      8.62067938e-03 5.49080856e-02 3.14584821e-01</_>
    <_>
      1. 8.57577920e-01 2.04186767e-01</_>
    <_>
      1. 3.27075720e-01 1.14771560e-01</_>
    <_>
      1. 8.37883294e-01 2.00830743e-01</_>
    <_>
      1. 8.37883294e-01 2.00830743e-01</_>
    <_>
      9.90164876e-01 8.95892620e-01 1.95775554e-01</_>
    <_>
      9.90164876e-01 8.95892620e-01 1.95775554e-01</_>
    <_>
      6.04230165e-03 7.48764947e-02 2.62809932e-01</_>
    <_>
      6.04230165e-03 7.48764947e-02 2.62809932e-01</_>
    <_>
      7.38334656e-03 2.79355515e-03 1.80854410e-01</_>
    <_>
      1.45772099e-03 8.33666977e-03 1.98245972e-01</_>
    <_>
      1.08040869e-02 1.31536741e-03 2.29946822e-01</_>
    <_>
      1.08040869e-02 1.31536741e-03 2.29946822e-01</_>
    <_>
      0. 1.08703161e-02 2.08340138e-01</_>
    <_>
      5.78033924e-03 3.54734026e-02 2.89663732e-01</_>
    <_>
      5.78033924e-03 3.54734026e-02 2.89663732e-01</_></support_vectors>
  <decision_functions>
    <_>
      <sv_count>200</sv_count>
      <rho>-2.7573063969612122e-02</rho>
      <alpha>
        1. 1. 1. 1. 1. 1. 1. 1. 1. 1. 1. 1. 1. 1. 1. 1. 1. 1. 1. 1. 1.
        1. 1. 1. 1. 1. 1. 1. 1. 1. 1. 1. 1. 1. 1. 1. 1. 1. 1. 1. 1. 1.
        1. 1. 1. 1. 1. 1. 1. 1. 1. 1. 1. 1. 1. 1. 1. 1. 1. 1. 1. 1. 1.
        1. 1. 1. 1. 1. 1. 1. 1. 1. 1. 1. 1. 1. 1. 1. 1. 1. 1. 1. 1. 1.
        1. 1. 1. 1. 1. 1. 1. 1. 1. 1. 1. 1. 1. 1. 1. 1. -1. -1. -1. -1.
        -1. -1. -1. -1. -1. -1. -1. -1. -1. -1. -1. -1. -1. -1. -1. -1.
        -1. -1. -1. -1. -1. -1. -1. -1. -1. -1. -1. -1. -1. -1. -1. -1.
        -1. -1. -1. -1. -1. -1. -1. -1. -1. -1. -1. -1. -1. -1. -1. -1.
        -1. -1. -1. -1. -1. -1. -1. -1. -1. -1. -1. -1. -1. -1. -1. -1.
        -1. -1. -1. -1. -1. -1. -1. -1. -1. -1. -1. -1. -1. -1. -1. -1.
        -1. -1. -1. -1. -1. -1. -1. -1. -1. -1. -1. -1. -1. -1. -1. -1.</alpha>
      <index>
        0 4 5 197 6 151 152 7 198 199 8 10 11 12 15 16 154 20 21 155 156
        25 26 27 28 29 30 31 32 33 36 39 44 56 59 60 61 63 65 67 167 69
        170 171 72 172 73 74 75 77 84 85 86 89 93 94 173 96 174 99 175
        100 101 179 112 180 113 114 115 181 182 116 183 120 121 122 123
        125 126 127 184 128 131 133 134 139 185 186 142 189 190 145 146
        147 148 149 193 194 195 196 1 2 3 9 13 14 17 18 19 22 23 24 34
        35 37 38 40 41 42 43 45 46 47 48 49 50 51 52 53 54 55 57 58 62
        64 66 68 70 71 76 78 79 80 81 82 83 87 88 90 91 92 95 97 98 102
        103 104 105 106 107 108 109 110 111 117 118 119 124 129 130 132
        135 136 137 138 140 141 143 144 150 153 168 169 161 176 177 178
        162 157 163 158 187 188 164 165 166 159 191 192 160</index></_></decision_functions></opencv_ml_svm>
</opencv_storage>
