<?xml version="1.0"?>
<opencv_storage>
<opencv_ml_svm>
  <format>3</format>
  <svmType>C_SVC</svmType>
  <kernel>
    <type>RBF</type>
    <gamma>1.</gamma></kernel>
  <C>1.</C>
  <term_criteria><iterations>100</iterations></term_criteria>
  <var_count>1</var_count>
  <class_count>2</class_count>
  <class_labels type_id="opencv-matrix">
    <rows>2</rows>
    <cols>1</cols>
    <dt>i</dt>
    <data>
      -1 1</data></class_labels>
  <sv_total>200</sv_total>
  <support_vectors>
    <_>
      6.47445396e-03</_>
    <_>
      1.69838704e-02</_>
    <_>
      7.78620541e-01</_>
    <_>
      1.18061143e-04</_>
    <_>
      1.05225809e-04</_>
    <_>
      1.57150571e-05</_>
    <_>
      1.57150571e-05</_>
    <_>
      1.21292411e-04</_>
    <_>
      9.52692330e-01</_>
    <_>
      8.65190566e-01</_>
    <_>
      8.35031509e-01</_>
    <_>
      8.35031509e-01</_>
    <_>
      1.21641673e-01</_>
    <_>
      7.18479633e-01</_>
    <_>
      0.</_>
    <_>
      0.</_>
    <_>
      1.22489175e-04</_>
    <_>
      0.</_>
    <_>
      0.</_>
    <_>
      4.48039937e-05</_>
    <_>
      8.94996941e-01</_>
    <_>
      1.05355575e-04</_>
    <_>
      0.</_>
    <_>
      0.</_>
    <_>
      0.</_>
    <_>
      5.17003682e-05</_>
    <_>
      1.08402499e-04</_>
    <_>
      0.</_>
    <_>
      0.</_>
    <_>
      0.</_>
    <_>
      0.</_>
    <_>
      0.</_>
    <_>
      0.</_>
    <_>
      0.</_>
    <_>
      0.</_>
    <_>
      0.</_>
    <_>
      0.</_>
    <_>
      0.</_>
    <_>
      0.</_>
    <_>
      0.</_>
    <_>
      0.</_>
    <_>
      0.</_>
    <_>
      0.</_>
    <_>
      0.</_>
    <_>
      0.</_>
    <_>
      0.</_>
    <_>
      0.</_>
    <_>
      0.</_>
    <_>
      0.</_>
    <_>
      0.</_>
    <_>
      0.</_>
    <_>
      0.</_>
    <_>
      0.</_>
    <_>
      0.</_>
    <_>
      0.</_>
    <_>
      0.</_>
    <_>
      0.</_>
    <_>
      0.</_>
    <_>
      0.</_>
    <_>
      0.</_>
    <_>
      0.</_>
    <_>
      0.</_>
    <_>
      0.</_>
    <_>
      0.</_>
    <_>
      0.</_>
    <_>
      0.</_>
    <_>
      0.</_>
    <_>
      0.</_>
    <_>
      0.</_>
    <_>
      0.</_>
    <_>
      0.</_>
    <_>
      0.</_>
    <_>
      1.06602092e-04</_>
    <_>
      2.94554466e-05</_>
    <_>
      9.40050185e-01</_>
    <_>
      9.04952526e-01</_>
    <_>
      9.33104157e-01</_>
    <_>
      9.40050185e-01</_>
    <_>
      9.04952526e-01</_>
    <_>
      9.40323591e-01</_>
    <_>
      9.40323591e-01</_>
    <_>
      9.33104157e-01</_>
    <_>
      4.00160061e-05</_>
    <_>
      0.</_>
    <_>
      0.</_>
    <_>
      8.35574627e-01</_>
    <_>
      2.64078972e-05</_>
    <_>
      9.33979392e-01</_>
    <_>
      1.67547496e-05</_>
    <_>
      1.67547496e-05</_>
    <_>
      8.53830338e-01</_>
    <_>
      8.53830338e-01</_>
    <_>
      9.25573349e-01</_>
    <_>
      2.68218555e-05</_>
    <_>
      7.70948410e-01</_>
    <_>
      6.03170956e-05</_>
    <_>
      9.29796040e-01</_>
    <_>
      9.41255808e-01</_>
    <_>
      4.84391749e-05</_>
    <_>
      9.41255808e-01</_>
    <_>
      8.87874305e-01</_>
    <_>
      4.84391749e-05</_>
    <_>
      8.37432563e-01</_>
    <_>
      8.37432563e-01</_>
    <_>
      7.93462634e-01</_>
    <_>
      8.48295152e-01</_>
    <_>
      8.48295152e-01</_>
    <_>
      8.59628022e-01</_>
    <_>
      8.80635440e-01</_>
    <_>
      9.03779864e-01</_>
    <_>
      8.59093487e-01</_>
    <_>
      8.59093487e-01</_>
    <_>
      9.03779864e-01</_>
    <_>
      8.13535810e-01</_>
    <_>
      6.14540259e-05</_>
    <_>
      8.76857460e-01</_>
    <_>
      8.13535810e-01</_>
    <_>
      6.14540259e-05</_>
    <_>
      8.76857460e-01</_>
    <_>
      8.53594661e-01</_>
    <_>
      8.53594661e-01</_>
    <_>
      9.07862365e-01</_>
    <_>
      9.07862365e-01</_>
    <_>
      9.16848719e-01</_>
    <_>
      9.93006527e-01</_>
    <_>
      9.78994370e-01</_>
    <_>
      9.08263743e-01</_>
    <_>
      9.16848719e-01</_>
    <_>
      9.08263743e-01</_>
    <_>
      9.43978190e-01</_>
    <_>
      9.43978190e-01</_>
    <_>
      9.61135626e-01</_>
    <_>
      7.83619642e-01</_>
    <_>
      9.23155069e-01</_>
    <_>
      9.23155069e-01</_>
    <_>
      8.54375362e-01</_>
    <_>
      9.93006527e-01</_>
    <_>
      9.78994370e-01</_>
    <_>
      9.61135626e-01</_>
    <_>
      8.54375362e-01</_>
    <_>
      7.84747243e-01</_>
    <_>
      7.68277049e-01</_>
    <_>
      8.39943230e-01</_>
    <_>
      8.45453501e-01</_>
    <_>
      8.39943230e-01</_>
    <_>
      7.68277049e-01</_>
    <_>
      8.34409833e-01</_>
    <_>
      9.01240928e-05</_>
    <_>
      8.47532570e-01</_>
    <_>
      4.05704268e-05</_>
    <_>
      4.05704268e-05</_>
    <_>
      8.53259027e-01</_>
    <_>
      8.53259027e-01</_>
    <_>
      8.92856359e-01</_>
    <_>
      8.92856359e-01</_>
    <_>
      8.44219446e-01</_>
    <_>
      8.44219446e-01</_>
    <_>
      8.74111652e-01</_>
    <_>
      9.13481295e-01</_>
    <_>
      9.13481295e-01</_>
    <_>
      8.51501882e-01</_>
    <_>
      8.51501882e-01</_>
    <_>
      9.03290987e-01</_>
    <_>
      7.62741625e-01</_>
    <_>
      1.10012879e-04</_>
    <_>
      1.10012879e-04</_>
    <_>
      8.44722867e-01</_>
    <_>
      8.44722867e-01</_>
    <_>
      6.29499846e-05</_>
    <_>
      6.29499846e-05</_>
    <_>
      1.11748188e-04</_>
    <_>
      8.40875328e-01</_>
    <_>
      8.54142606e-01</_>
    <_>
      8.06500733e-01</_>
    <_>
      8.35129619e-01</_>
    <_>
      8.49179685e-01</_>
    <_>
      3.55290431e-05</_>
    <_>
      2.77500531e-05</_>
    <_>
      8.59816194e-01</_>
    <_>
      8.76929164e-01</_>
    <_>
      8.59816194e-01</_>
    <_>
      8.76929164e-01</_>
    <_>
      4.24403770e-05</_>
    <_>
      1.73980116e-05</_>
    <_>
      8.89456093e-01</_>
    <_>
      1.22848214e-04</_>
    <_>
      1.22848214e-04</_>
    <_>
      8.90567243e-01</_>
    <_>
      8.90567243e-01</_>
    <_>
      3.47361856e-05</_>
    <_>
      8.03031144e-05</_>
    <_>
      8.03031144e-05</_>
    <_>
      8.75536203e-01</_>
    <_>
      8.75536203e-01</_>
    <_>
      1.05644678e-04</_>
    <_>
      1.05644678e-04</_>
    <_>
      2.79445267e-05</_>
    <_>
      2.79445267e-05</_>
    <_>
      4.50283878e-05</_>
    <_>
      8.12598825e-01</_></support_vectors>
  <decision_functions>
    <_>
      <sv_count>200</sv_count>
      <rho>-8.0302774906158447e-02</rho>
      <alpha>
        1. 1. 1. 1. 1. 1. 1. 1. 1. 1. 1. 1. 1. 1. 1. 1. 1. 1. 1. 1. 1.
        1. 1. 1. 1. 1. 1. 1. 1. 1. 1. 1. 1. 1. 1. 1. 1. 1. 1. 1. 1. 1.
        1. 1. 1. 1. 1. 1. 1. 1. 1. 1. 1. 1. 1. 1. 1. 1. 1. 1. 1. 1. 1.
        1. 1. 1. 1. 1. 1. 1. 1. 1. 1. 1. 1. 1. 1. 1. 1. 1. 1. 1. 1. 1.
        1. 1. 1. 1. 1. 1. 1. 1. 1. 1. 1. 1. 1. 1. 1. 1. -1. -1. -1. -1.
        -1. -1. -1. -1. -1. -1. -1. -1. -1. -1. -1. -1. -1. -1. -1. -1.
        -1. -1. -1. -1. -1. -1. -1. -1. -1. -1. -1. -1. -1. -1. -1. -1.
        -1. -1. -1. -1. -1. -1. -1. -1. -1. -1. -1. -1. -1. -1. -1. -1.
        -1. -1. -1. -1. -1. -1. -1. -1. -1. -1. -1. -1. -1. -1. -1. -1.
        -1. -1. -1. -1. -1. -1. -1. -1. -1. -1. -1. -1. -1. -1. -1. -1.
        -1. -1. -1. -1. -1. -1. -1. -1. -1. -1. -1. -1. -1. -1. -1. -1.</alpha>
      <index>
        0 2 3 158 4 5 6 7 162 163 164 165 8 9 10 11 168 169 13 14 15 16
        19 21 22 25 26 170 171 72 173 175 73 74 75 76 77 78 79 80 81 82
        83 84 176 177 86 87 88 89 92 182 183 93 94 95 96 97 98 99 100
        101 104 185 186 107 108 113 114 115 116 117 118 121 123 126 127
        128 129 130 132 137 189 190 191 140 141 143 145 194 195 147 196
        149 197 150 153 154 198 199 1 12 17 18 20 23 24 27 28 29 30 31
        32 33 34 35 36 37 38 39 40 41 42 43 44 45 46 47 48 49 50 51 52
        53 54 55 56 57 58 59 60 61 62 63 64 65 66 67 68 69 70 71 85 90
        91 102 103 105 106 109 110 111 112 119 120 122 124 125 131 133
        134 135 136 138 139 142 144 146 148 151 152 155 156 157 159 160
        161 178 179 180 181 166 167 184 187 188 192 193 172 174</index></_></decision_functions></opencv_ml_svm>
</opencv_storage>
