<?xml version="1.0"?>
<opencv_storage>
<opencv_ml_svm>
  <format>3</format>
  <svmType>C_SVC</svmType>
  <kernel>
    <type>RBF</type>
    <gamma>1.</gamma></kernel>
  <C>1.</C>
  <term_criteria><iterations>100</iterations></term_criteria>
  <var_count>4</var_count>
  <class_count>2</class_count>
  <class_labels type_id="opencv-matrix">
    <rows>2</rows>
    <cols>1</cols>
    <dt>i</dt>
    <data>
      -1 1</data></class_labels>
  <sv_total>200</sv_total>
  <support_vectors>
    <_>
      2.61027515e-01 3.21537405e-02 2.46303193e-02 6.47445396e-03</_>
    <_>
      5.12087882e-01 1.59371775e-02 2.14244761e-02 1.69838704e-02</_>
    <_>
      9.58839893e-01 2.21825927e-01 7.50155270e-01 6.94920897e-01</_>
    <_>
      1.81159377e-03 2.21078806e-02 9.33318026e-03 1.81358191e-03</_>
    <_>
      0. 4.09249682e-03 8.57717451e-03 1.44997388e-02</_>
    <_>
      9.31677222e-03 5.88510535e-04 4.18704178e-04 7.48054916e-03</_>
    <_>
      1.44928694e-03 2.35398230e-03 4.68965434e-03 1.58569328e-02</_>
    <_>
      1.44928694e-03 2.35398230e-03 4.68965434e-03 1.58569328e-02</_>
    <_>
      1.47491693e-03 7.10445922e-03 3.59865581e-03 1.95714608e-02</_>
    <_>
      1.65015459e-03 0. 0. 3.81931439e-02</_>
    <_>
      2.54452229e-03 4.45622485e-03 5.81458304e-03 1.20061822e-02</_>
    <_>
      2.54452229e-03 4.45622485e-03 5.81458304e-03 1.20061822e-02</_>
    <_>
      1. 8.19806516e-01 8.82307708e-01 9.52692330e-01</_>
    <_>
      1. 7.70664871e-01 8.81182492e-01 8.52389753e-01</_>
    <_>
      2.04342306e-02 1.02371513e-03 2.35995115e-03 3.62106395e-04</_>
    <_>
      2.04342306e-02 1.02371513e-03 2.35995115e-03 3.62106395e-04</_>
    <_>
      1.51976943e-03 2.03579097e-04 1.79412702e-04 2.30943449e-04</_>
    <_>
      1.51976943e-03 2.03579097e-04 1.79412702e-04 2.30943449e-04</_>
    <_>
      1. 8.72679770e-01 9.07467484e-01 8.96557987e-01</_>
    <_>
      9.70108509e-01 8.24454069e-01 8.45407069e-01 8.39624405e-01</_>
    <_>
      1. 8.39198053e-01 8.63069534e-01 8.67237449e-01</_>
    <_>
      9.70248520e-01 8.29653084e-01 8.57930362e-01 8.48534584e-01</_>
    <_>
      9.91377652e-01 9.17010844e-01 9.13698792e-01 8.94996941e-01</_>
    <_>
      1.04166567e-02 1.60226307e-03 2.61503109e-03 1.79260527e-03</_>
    <_>
      3.71748209e-03 5.17552206e-03 4.67822189e-03 1.08171143e-02</_>
    <_>
      1.87265873e-03 1.08947735e-02 1.29807892e-03 3.46454373e-03</_>
    <_>
      1.68539286e-02 6.95394410e-04 9.11992684e-05 2.27998171e-05</_>
    <_>
      3.21543217e-03 2.15606927e-03 7.06134539e-04 5.10870188e-04</_>
    <_>
      5.57619333e-03 5.71925147e-03 3.38014285e-03 7.35257100e-03</_>
    <_>
      5.57619333e-03 5.71925147e-03 3.38014285e-03 7.35257100e-03</_>
    <_>
      3.46019864e-03 7.40069244e-03 6.86621573e-03 7.76307331e-03</_>
    <_>
      1.52438879e-03 7.77140143e-04 1.41080830e-03 1.08799618e-03</_>
    <_>
      1.51976943e-03 7.77140143e-04 1.41080830e-03 1.08799618e-03</_>
    <_>
      1.52438879e-03 7.77140143e-04 1.41080830e-03 1.08799618e-03</_>
    <_>
      3.03950906e-03 0. 0. 0.</_>
    <_>
      1.52438879e-03 0. 0. 0.</_>
    <_>
      1.51976943e-03 7.77140143e-04 1.41080830e-03 1.08799618e-03</_>
    <_>
      3.03950906e-03 0. 0. 0.</_>
    <_>
      1.51515007e-03 0. 0. 0.</_>
    <_>
      1.51515007e-03 0. 0. 0.</_>
    <_>
      1.52438879e-03 0. 0. 0.</_>
    <_>
      7.50750303e-03 0. 0. 0.</_>
    <_>
      2.92396545e-03 0. 0. 5.76701277e-05</_>
    <_>
      2.92396545e-03 0. 0. 5.76701277e-05</_>
    <_>
      3.27870250e-03 0. 0. 2.59104010e-04</_>
    <_>
      3.27870250e-03 0. 0. 2.59104010e-04</_>
    <_>
      4.99999523e-03 5.89195965e-03 1.32263824e-03 7.79163151e-04</_>
    <_>
      4.99999523e-03 5.89195965e-03 1.32263824e-03 7.79163151e-04</_>
    <_>
      1.74215436e-03 0. 0. 0.</_>
    <_>
      3.45821381e-02 0. 0. 0.</_>
    <_>
      2.09790170e-02 0. 0. 0.</_>
    <_>
      3.62318754e-03 0. 0. 0.</_>
    <_>
      1.74215436e-03 0. 0. 0.</_>
    <_>
      3.62318754e-03 0. 0. 0.</_>
    <_>
      0. 0. 0. 6.79420657e-04</_>
    <_>
      0. 0. 0. 6.79420657e-04</_>
    <_>
      1.51515007e-03 0. 0. 4.69923616e-05</_>
    <_>
      9.91859257e-01 7.84825504e-01 8.57948124e-01 8.54786575e-01</_>
    <_>
      4.48206067e-03 1.52753312e-02 2.99401185e-03 5.45998430e-03</_>
    <_>
      1.51515007e-03 0. 0. 4.69923616e-05</_>
    <_>
      9.92029905e-01 1.14317171e-01 3.82916808e-01 4.26370949e-01</_>
    <_>
      1.82711780e-02 2.38014665e-03 4.25693300e-03 2.18974100e-03</_>
    <_>
      4.45945859e-02 4.10268009e-02 2.45622476e-03 3.80561082e-03</_>
    <_>
      1. 4.98196483e-03 1.11428231e-01 1.25397682e-01</_>
    <_>
      1. 8.54489207e-02 2.75028378e-01 2.46472821e-01</_>
    <_>
      9.96911407e-01 8.04260254e-01 9.45059180e-01 9.40323591e-01</_>
    <_>
      1. 9.03807878e-01 9.08754528e-01 7.22905755e-01</_>
    <_>
      1. 9.03807878e-01 9.08754528e-01 7.22905755e-01</_>
    <_>
      4.33525443e-03 6.84574386e-03 7.70712912e-04 1.24674151e-03</_>
    <_>
      1.44508779e-02 6.84574386e-03 7.70712912e-04 1.24674151e-03</_>
    <_>
      1.42857134e-02 1.09554944e-03 1.12044821e-04 8.09212564e-04</_>
    <_>
      1. 3.23635922e-03 4.78460565e-02 1.17510505e-01</_>
    <_>
      1. 2.53954116e-04 9.83569585e-03 5.52636236e-02</_>
    <_>
      4.17137742e-02 6.07571704e-03 2.04968173e-02 4.92715277e-03</_>
    <_>
      3.13901305e-02 1.98716274e-03 1.79723855e-02 9.19722021e-03</_>
    <_>
      3.13901305e-02 1.98716274e-03 1.79723855e-02 9.19722021e-03</_>
    <_>
      9.81935143e-01 8.14144671e-01 8.43255460e-01 8.35574627e-01</_>
    <_>
      1.33587718e-02 1.14518523e-04 9.95342527e-03 4.17572772e-03</_>
    <_>
      2.25409865e-02 3.39457183e-03 3.21440020e-05 1.06889172e-03</_>
    <_>
      9.95851576e-01 8.98190141e-01 9.24139619e-01 8.53830338e-01</_>
    <_>
      9.95851576e-01 8.98190141e-01 9.24139619e-01 8.53830338e-01</_>
    <_>
      9.97052014e-01 9.12647545e-01 9.30137515e-01 8.33754480e-01</_>
    <_>
      1. 9.14458275e-01 9.18969452e-01 8.09777379e-01</_>
    <_>
      1. 9.16204929e-01 9.20829237e-01 8.11581790e-01</_>
    <_>
      9.85345721e-01 9.00843024e-01 9.06571388e-01 8.04082572e-01</_>
    <_>
      9.88796949e-01 8.07766080e-01 8.75447035e-01 9.25573349e-01</_>
    <_>
      9.97052014e-01 9.12647545e-01 9.30137515e-01 8.33754480e-01</_>
    <_>
      1. 9.14458275e-01 9.18969452e-01 8.09777379e-01</_>
    <_>
      1. 9.16204929e-01 9.20829237e-01 8.11581790e-01</_>
    <_>
      1.34680271e-02 2.70497915e-03 2.90733296e-03 8.59987363e-03</_>
    <_>
      2.04402506e-02 1.17101218e-03 8.01578513e-04 2.04605679e-03</_>
    <_>
      1.19047761e-02 8.64222832e-03 4.72521456e-03 2.68218555e-05</_>
    <_>
      2.04402506e-02 1.17101218e-03 8.01578513e-04 2.04605679e-03</_>
    <_>
      9.67175603e-01 9.13942337e-01 9.32842910e-01 9.29796040e-01</_>
    <_>
      1. 8.37663293e-01 9.11413133e-01 9.41255808e-01</_>
    <_>
      1. 8.37663293e-01 9.11413133e-01 9.41255808e-01</_>
    <_>
      9.97163534e-01 8.35311651e-01 8.43547344e-01 8.48295152e-01</_>
    <_>
      9.96757627e-01 8.31777513e-01 8.25353622e-01 8.16289783e-01</_>
    <_>
      9.97163534e-01 8.35311651e-01 8.43547344e-01 8.48295152e-01</_>
    <_>
      9.90904570e-01 8.50211740e-01 8.38146031e-01 7.99353838e-01</_>
    <_>
      9.77149189e-01 8.81430089e-01 8.75895858e-01 8.91677141e-01</_>
    <_>
      9.90904570e-01 8.50211740e-01 8.38146031e-01 7.99353838e-01</_>
    <_>
      1. 9.15494740e-01 8.91434014e-01 8.80635440e-01</_>
    <_>
      1. 8.90308678e-01 8.73841703e-01 8.75067174e-01</_>
    <_>
      9.72424865e-01 8.26148868e-01 8.26742113e-01 8.58342230e-01</_>
    <_>
      1. 9.15494740e-01 8.91434014e-01 8.80635440e-01</_>
    <_>
      9.72424865e-01 8.26148868e-01 8.26742113e-01 8.58342230e-01</_>
    <_>
      9.93082225e-01 7.99243808e-01 8.58600199e-01 9.03779864e-01</_>
    <_>
      9.83538985e-01 4.36659306e-01 6.76607192e-01 8.59093487e-01</_>
    <_>
      9.93082225e-01 7.99243808e-01 8.58600199e-01 9.03779864e-01</_>
    <_>
      1. 8.96554530e-01 9.10462797e-01 8.83717120e-01</_>
    <_>
      9.91060555e-01 6.46550775e-01 7.87910223e-01 8.53594661e-01</_>
    <_>
      9.89383698e-01 7.58723855e-01 8.20696294e-01 9.07862365e-01</_>
    <_>
      1. 9.05489624e-01 9.53052580e-01 9.16848719e-01</_>
    <_>
      1. 9.08169270e-01 9.58918095e-01 9.93006527e-01</_>
    <_>
      1. 9.34054017e-01 9.66179490e-01 9.78994370e-01</_>
    <_>
      9.91581142e-01 8.52545857e-01 9.40862775e-01 9.08263743e-01</_>
    <_>
      1. 9.05489624e-01 9.53052580e-01 9.16848719e-01</_>
    <_>
      1. 2.67962296e-03 5.86547842e-03 7.61578158e-02</_>
    <_>
      9.89828110e-01 8.86121571e-01 9.47636425e-01 9.43978190e-01</_>
    <_>
      9.89828110e-01 8.86121571e-01 9.47636425e-01 9.43978190e-01</_>
    <_>
      9.96648669e-01 8.87748957e-01 9.49117064e-01 9.61135626e-01</_>
    <_>
      9.78782594e-01 8.56753170e-01 8.94146025e-01 9.23155069e-01</_>
    <_>
      9.78782594e-01 8.56753170e-01 8.94146025e-01 9.23155069e-01</_>
    <_>
      9.85489726e-01 8.03647399e-01 8.59093308e-01 8.54375362e-01</_>
    <_>
      1. 9.08169270e-01 9.58918095e-01 9.93006527e-01</_>
    <_>
      1. 9.34054017e-01 9.66179490e-01 9.78994370e-01</_>
    <_>
      9.96648669e-01 8.87748957e-01 9.49117064e-01 9.61135626e-01</_>
    <_>
      9.85489726e-01 8.03647399e-01 8.59093308e-01 8.54375362e-01</_>
    <_>
      4.36046720e-03 2.49561407e-02 4.11667192e-04 6.57517288e-04</_>
    <_>
      1.75192654e-02 4.86897537e-03 4.25736094e-03 7.32494809e-04</_>
    <_>
      9.94270444e-01 8.73779416e-01 8.76745045e-01 7.92396009e-01</_>
    <_>
      9.92036521e-01 7.88009465e-01 7.57495940e-01 8.45453501e-01</_>
    <_>
      9.92036521e-01 7.88009465e-01 7.57495940e-01 8.45453501e-01</_>
    <_>
      9.95781600e-01 7.51171052e-01 7.99668074e-01 8.43599141e-01</_>
    <_>
      2.06610560e-03 2.13183230e-03 1.45005696e-02 5.47750155e-03</_>
    <_>
      9.90364134e-01 9.15874124e-01 9.10876036e-01 8.11655760e-01</_>
    <_>
      9.90364134e-01 9.15874124e-01 9.10876036e-01 8.11655760e-01</_>
    <_>
      1. 9.81478930e-01 9.57103729e-01 8.07007730e-01</_>
    <_>
      1. 9.81478930e-01 9.57103729e-01 8.07007730e-01</_>
    <_>
      9.41287875e-01 8.32846045e-01 8.51766169e-01 8.53259027e-01</_>
    <_>
      9.41287875e-01 8.32846045e-01 8.51766169e-01 8.53259027e-01</_>
    <_>
      9.95709181e-01 8.50043416e-01 8.59033108e-01 8.92856359e-01</_>
    <_>
      1. 7.90544450e-01 8.25524151e-01 8.49141479e-01</_>
    <_>
      9.90577281e-01 8.21135283e-01 8.22312772e-01 8.44219446e-01</_>
    <_>
      9.90577281e-01 8.21135283e-01 8.22312772e-01 8.44219446e-01</_>
    <_>
      9.95792806e-01 7.79878616e-01 8.13611448e-01 8.42372060e-01</_>
    <_>
      1. 8.36763322e-01 8.53203356e-01 8.74111652e-01</_>
    <_>
      1. 8.83887231e-01 9.04183626e-01 9.13481295e-01</_>
    <_>
      1. 8.48292530e-01 8.59417021e-01 8.75562131e-01</_>
    <_>
      1. 8.83887231e-01 9.04183626e-01 9.13481295e-01</_>
    <_>
      1. 8.18235695e-01 8.25044036e-01 8.51501882e-01</_>
    <_>
      1. 8.18235695e-01 8.25044036e-01 8.51501882e-01</_>
    <_>
      1.64048076e-02 8.43182730e-04 1.09384570e-03 2.02977797e-03</_>
    <_>
      4.93422151e-03 9.79353953e-03 1.23869209e-03 7.03772763e-03</_>
    <_>
      4.93422151e-03 9.79353953e-03 1.23869209e-03 7.03772763e-03</_>
    <_>
      7.87660480e-03 9.52866510e-04 3.40121391e-04 4.98334120e-04</_>
    <_>
      1.25312805e-03 1.45477895e-02 1.44241629e-02 9.69381872e-05</_>
    <_>
      6.18812442e-03 9.15629044e-03 5.52822929e-03 2.21342198e-04</_>
    <_>
      0. 1.60130747e-02 1.91176478e-02 1.91176478e-02</_>
    <_>
      0. 1.60130747e-02 1.91176478e-02 1.91176478e-02</_>
    <_>
      1.38887763e-03 2.83992995e-04 2.62151967e-04 2.73102400e-04</_>
    <_>
      1.38887763e-03 2.83992995e-04 2.62151967e-04 2.73102400e-04</_>
    <_>
      3.30033004e-02 5.92741137e-03 3.37231206e-03 1.92009425e-03</_>
    <_>
      9.47865844e-03 8.74135271e-03 1.02449981e-02 3.34057435e-02</_>
    <_>
      9.67741013e-03 0. 0. 0.</_>
    <_>
      1. 8.20438147e-01 8.09675336e-01 8.54142606e-01</_>
    <_>
      1. 8.20438147e-01 8.09675336e-01 8.54142606e-01</_>
    <_>
      1.11111104e-02 5.97271649e-03 2.74955155e-03 3.89755098e-03</_>
    <_>
      9.97729242e-01 8.10525298e-01 8.26389551e-01 8.37397397e-01</_>
    <_>
      7.32600689e-03 8.18329770e-03 8.16145726e-03 1.81748357e-03</_>
    <_>
      1.61870420e-02 4.06572688e-03 1.43334258e-03 3.09342955e-04</_>
    <_>
      8.99279118e-03 2.89139082e-03 1.96254207e-03 2.57143984e-03</_>
    <_>
      2.35601962e-02 1.35835726e-02 2.58333646e-02 3.03087346e-02</_>
    <_>
      4.31033969e-03 3.35763674e-03 6.75152813e-04 1.10145910e-02</_>
    <_>
      9.86263275e-01 7.84179151e-01 8.45126867e-01 8.59816194e-01</_>
    <_>
      9.91091132e-01 8.03374290e-01 8.61975908e-01 8.76929164e-01</_>
    <_>
      9.86263275e-01 7.84179151e-01 8.45126867e-01 8.59816194e-01</_>
    <_>
      9.91091132e-01 8.03374290e-01 8.61975908e-01 8.76929164e-01</_>
    <_>
      8.49857926e-03 2.51810029e-02 2.76537123e-03 1.30060269e-02</_>
    <_>
      8.49857926e-03 2.51810029e-02 2.76537123e-03 1.30060269e-02</_>
    <_>
      1.44091249e-03 7.70582305e-03 6.38405466e-03 6.29612617e-03</_>
    <_>
      9.96693134e-01 5.30195057e-01 6.57827556e-01 8.78529906e-01</_>
    <_>
      6.52742386e-03 1.18303485e-02 7.00434530e-03 8.37030588e-04</_>
    <_>
      5.23561239e-03 9.47878975e-03 6.37136749e-04 8.01559538e-03</_>
    <_>
      5.91015816e-03 3.94529477e-03 2.55696912e-04 1.46576976e-02</_>
    <_>
      1.18201971e-03 8.65631085e-03 3.39978538e-03 1.42874513e-02</_>
    <_>
      8.04290175e-03 2.71035731e-03 4.18956252e-03 1.06178736e-03</_>
    <_>
      1. 8.57577920e-01 8.58802736e-01 8.28056991e-01</_>
    <_>
      1. 8.37883294e-01 8.65619719e-01 8.75536203e-01</_>
    <_>
      1. 8.37883294e-01 8.65619719e-01 8.75536203e-01</_>
    <_>
      7.38334656e-03 2.79355515e-03 5.78565430e-03 4.35204618e-03</_>
    <_>
      9.26714540e-01 8.19734454e-01 8.17813575e-01 8.12598825e-01</_>
    <_>
      1.45772099e-03 8.33666977e-03 1.06486753e-02 1.82495860e-03</_>
    <_>
      1.28939748e-02 6.98319962e-03 3.77281045e-04 4.20239009e-03</_>
    <_>
      9.97370362e-01 8.39666367e-01 8.40832233e-01 8.59414279e-01</_>
    <_>
      9.95791256e-01 8.12945426e-01 8.10757458e-01 8.18274498e-01</_>
    <_>
      1.08040869e-02 1.31536741e-03 4.07607155e-03 3.59111116e-03</_>
    <_>
      1.08040869e-02 1.31536741e-03 4.07607155e-03 3.59111116e-03</_>
    <_>
      0. 1.08703161e-02 9.86125413e-03 9.48285498e-03</_></support_vectors>
  <decision_functions>
    <_>
      <sv_count>200</sv_count>
      <rho>-1.0812627710402012e-01</rho>
      <alpha>
        1. 1. 1. 1. 1. 1. 1. 1. 1. 1. 1. 1. 1. 1. 1. 1. 1. 1. 1. 1. 1.
        1. 1. 1. 1. 1. 1. 1. 1. 1. 1. 1. 1. 1. 1. 1. 1. 1. 1. 1. 1. 1.
        1. 1. 1. 1. 1. 1. 1. 1. 1. 1. 1. 1. 1. 1. 1. 1. 1. 1. 1. 1. 1.
        1. 1. 1. 1. 1. 1. 1. 1. 1. 1. 1. 1. 1. 1. 1. 1. 1. 1. 1. 1. 1.
        1. 1. 1. 1. 1. 1. 1. 1. 1. 1. 1. 1. 1. 1. 1. 1. -1. -1. -1. -1.
        -1. -1. -1. -1. -1. -1. -1. -1. -1. -1. -1. -1. -1. -1. -1. -1.
        -1. -1. -1. -1. -1. -1. -1. -1. -1. -1. -1. -1. -1. -1. -1. -1.
        -1. -1. -1. -1. -1. -1. -1. -1. -1. -1. -1. -1. -1. -1. -1. -1.
        -1. -1. -1. -1. -1. -1. -1. -1. -1. -1. -1. -1. -1. -1. -1. -1.
        -1. -1. -1. -1. -1. -1. -1. -1. -1. -1. -1. -1. -1. -1. -1. -1.
        -1. -1. -1. -1. -1. -1. -1. -1. -1. -1. -1. -1. -1. -1. -1. -1.</alpha>
      <index>
        0 2 146 199 148 149 4 5 6 7 10 11 12 13 153 14 154 15 155 156 18
        19 20 21 23 24 25 27 28 29 30 57 167 168 169 61 170 171 172 64
        65 66 67 68 69 70 71 72 174 77 78 84 85 89 90 91 92 181 93 94 95
        182 183 184 185 186 187 100 102 103 104 105 106 110 113 116 117
        119 120 126 188 129 130 131 132 133 134 135 138 139 142 191 143
        192 193 194 195 196 197 198 1 3 8 9 16 17 22 26 31 32 33 34 35
        36 37 38 39 40 41 42 43 44 45 46 47 48 49 50 51 52 53 54 55 56
        58 59 60 62 63 73 74 75 76 79 80 81 82 83 86 87 88 96 97 98 99
        101 107 108 109 111 112 114 115 118 121 122 123 124 125 127 128
        136 137 140 141 144 145 147 150 151 152 173 175 176 177 178 179
        180 157 158 163 164 159 160 165 189 190 161 162 166</index></_></decision_functions></opencv_ml_svm>
</opencv_storage>
