<?xml version="1.0"?>
<opencv_storage>
<opencv_ml_svm>
  <format>3</format>
  <svmType>C_SVC</svmType>
  <kernel>
    <type>RBF</type>
    <gamma>1.</gamma></kernel>
  <C>1.</C>
  <term_criteria><iterations>100</iterations></term_criteria>
  <var_count>4</var_count>
  <class_count>2</class_count>
  <class_labels type_id="opencv-matrix">
    <rows>2</rows>
    <cols>1</cols>
    <dt>i</dt>
    <data>
      -1 1</data></class_labels>
  <sv_total>200</sv_total>
  <support_vectors>
    <_>
      2.61027515e-01 3.21537405e-02 6.47445396e-03 1.82371825e-01</_>
    <_>
      5.12087882e-01 1.59371775e-02 1.69838704e-02 2.16466948e-01</_>
    <_>
      1.40449405e-02 1.48436306e-02 1.18061143e-04 2.66827643e-01</_>
    <_>
      1.81159377e-03 2.21078806e-02 1.81358191e-03 2.14461342e-01</_>
    <_>
      4.13224101e-03 6.94149220e-03 4.84646065e-03 1.94081470e-01</_>
    <_>
      0. 4.09249682e-03 1.44997388e-02 1.66393086e-01</_>
    <_>
      6.83060288e-03 3.46083790e-02 1.98862776e-02 1.59036830e-01</_>
    <_>
      3.08641791e-03 1.53558692e-02 1.03585077e-02 1.82018682e-01</_>
    <_>
      9.31677222e-03 5.88510535e-04 7.48054916e-03 2.62579560e-01</_>
    <_>
      1.44928694e-03 2.35398230e-03 1.58569328e-02 2.22075433e-01</_>
    <_>
      1.44928694e-03 2.35398230e-03 1.58569328e-02 2.22075433e-01</_>
    <_>
      2.54452229e-03 4.45622485e-03 1.20061822e-02 2.09403828e-01</_>
    <_>
      2.54452229e-03 4.45622485e-03 1.20061822e-02 2.09403828e-01</_>
    <_>
      1. 8.19806516e-01 9.52692330e-01 2.05421954e-01</_>
    <_>
      1. 7.15890884e-01 8.80379856e-01 1.50934979e-01</_>
    <_>
      8.98203254e-03 2.99114821e-04 5.95867168e-04 1.80968657e-01</_>
    <_>
      1.51976943e-03 2.03579097e-04 2.30943449e-04 1.89693347e-01</_>
    <_>
      8.98203254e-03 2.99114821e-04 5.95867168e-04 1.80968657e-01</_>
    <_>
      1.51976943e-03 2.03579097e-04 2.30943449e-04 1.89693347e-01</_>
    <_>
      1. 4.66805231e-03 0. 2.99507201e-01</_>
    <_>
      1. 8.19320500e-01 8.28710914e-01 2.30618522e-01</_>
    <_>
      9.91377652e-01 9.17010844e-01 8.94996941e-01 1.96584970e-01</_>
    <_>
      5.20834327e-03 2.97930278e-03 7.08121210e-02 2.95665294e-01</_>
    <_>
      1.04166567e-02 1.60226307e-03 1.79260527e-03 2.19117403e-01</_>
    <_>
      3.71748209e-03 5.17552206e-03 1.08171143e-02 2.02144206e-01</_>
    <_>
      1.87265873e-03 1.08947735e-02 3.46454373e-03 2.22998768e-01</_>
    <_>
      3.21543217e-03 2.15606927e-03 5.10870188e-04 3.46147031e-01</_>
    <_>
      5.57619333e-03 5.71925147e-03 7.35257100e-03 2.15773553e-01</_>
    <_>
      5.57619333e-03 5.71925147e-03 7.35257100e-03 2.15773553e-01</_>
    <_>
      1.09375119e-02 0. 1.48699339e-03 2.70266891e-01</_>
    <_>
      3.46019864e-03 7.40069244e-03 7.76307331e-03 2.28703707e-01</_>
    <_>
      1.52438879e-03 7.77140143e-04 1.08799618e-03 2.28525713e-01</_>
    <_>
      1.51976943e-03 7.77140143e-04 1.08799618e-03 2.15315431e-01</_>
    <_>
      1.21951103e-02 0. 0. 2.42576927e-01</_>
    <_>
      1.52438879e-03 0. 0. 2.21279770e-01</_>
    <_>
      1.51976943e-03 7.77140143e-04 1.08799618e-03 2.15315431e-01</_>
    <_>
      1.51515007e-03 0. 0. 2.32146204e-01</_>
    <_>
      1.51515007e-03 0. 0. 2.32146204e-01</_>
    <_>
      1.52438879e-03 0. 0. 2.21279770e-01</_>
    <_>
      4.90197539e-03 0. 2.56311687e-05 2.44360253e-01</_>
    <_>
      2.92396545e-03 0. 5.76701277e-05 2.32602313e-01</_>
    <_>
      4.90197539e-03 0. 2.56311687e-05 2.44360253e-01</_>
    <_>
      2.92396545e-03 0. 5.76701277e-05 2.32602313e-01</_>
    <_>
      1.58730149e-03 3.02521023e-03 2.68709334e-03 2.02981368e-01</_>
    <_>
      1.58730149e-03 3.02521023e-03 2.68709334e-03 2.02981368e-01</_>
    <_>
      1.49253011e-03 4.44769766e-03 1.34313246e-03 2.06043065e-01</_>
    <_>
      1.74215436e-03 0. 0. 2.18138665e-01</_>
    <_>
      3.62318754e-03 0. 0. 2.15376824e-01</_>
    <_>
      1.74215436e-03 0. 0. 2.18138665e-01</_>
    <_>
      0. 0. 6.79420657e-04 2.30792478e-01</_>
    <_>
      0. 0. 6.79420657e-04 2.30792478e-01</_>
    <_>
      1.51515007e-03 0. 4.69923616e-05 2.16669798e-01</_>
    <_>
      9.91859257e-01 7.84825504e-01 8.54786575e-01 1.77812710e-01</_>
    <_>
      1.79104507e-02 0. 8.89016883e-05 1.96823016e-01</_>
    <_>
      1.51515007e-03 0. 4.69923616e-05 2.16669798e-01</_>
    <_>
      4.99999523e-03 1.45850831e-03 4.43308940e-03 2.12812781e-01</_>
    <_>
      9.96911407e-01 8.04260254e-01 9.40323591e-01 2.03165084e-01</_>
    <_>
      1. 9.03807878e-01 7.22905755e-01 1.89903751e-01</_>
    <_>
      4.33525443e-03 6.84574386e-03 1.24674151e-03 2.31466681e-01</_>
    <_>
      1.42857134e-02 1.09554944e-03 8.09212564e-04 2.31859967e-01</_>
    <_>
      1.33587718e-02 1.14518523e-04 4.17572772e-03 2.21436307e-01</_>
    <_>
      9.95851576e-01 8.98190141e-01 8.53830338e-01 2.20924631e-01</_>
    <_>
      9.95851576e-01 8.98190141e-01 8.53830338e-01 2.20924631e-01</_>
    <_>
      9.97052014e-01 9.12647545e-01 8.33754480e-01 2.11730495e-01</_>
    <_>
      1. 9.14458275e-01 8.09777379e-01 1.95510209e-01</_>
    <_>
      1. 9.16204929e-01 8.11581790e-01 1.99681550e-01</_>
    <_>
      9.97052014e-01 9.12647545e-01 8.33754480e-01 2.11730495e-01</_>
    <_>
      1. 9.14458275e-01 8.09777379e-01 1.95510209e-01</_>
    <_>
      1. 9.16204929e-01 8.11581790e-01 1.99681550e-01</_>
    <_>
      1.19047761e-02 8.64222832e-03 2.68218555e-05 2.21203059e-01</_>
    <_>
      9.84116912e-01 8.55580747e-01 8.04763138e-01 2.01197460e-01</_>
    <_>
      9.89802897e-01 5.33273742e-02 1.69905126e-02 2.80655056e-01</_>
    <_>
      9.93045390e-01 8.63891482e-01 8.21960807e-01 2.03395054e-01</_>
    <_>
      9.67175603e-01 9.13942337e-01 9.29796040e-01 1.88105837e-01</_>
    <_>
      1. 8.37663293e-01 9.41255808e-01 1.64684132e-01</_>
    <_>
      1. 8.37663293e-01 9.41255808e-01 1.64684132e-01</_>
    <_>
      9.97163534e-01 8.35311651e-01 8.48295152e-01 1.65473685e-01</_>
    <_>
      9.96757627e-01 8.31777513e-01 8.16289783e-01 2.05731258e-01</_>
    <_>
      9.94572222e-01 8.11771393e-01 8.22956920e-01 1.74362883e-01</_>
    <_>
      9.86861348e-01 8.28097939e-01 8.70167911e-01 1.87479153e-01</_>
    <_>
      9.97163534e-01 8.35311651e-01 8.48295152e-01 1.65473685e-01</_>
    <_>
      9.96757627e-01 8.31777513e-01 8.16289783e-01 2.05731258e-01</_>
    <_>
      9.93588030e-01 8.21888745e-01 6.20225608e-01 1.61713779e-01</_>
    <_>
      9.90904570e-01 8.50211740e-01 7.99353838e-01 1.91417873e-01</_>
    <_>
      9.90904570e-01 8.50211740e-01 7.99353838e-01 1.91417873e-01</_>
    <_>
      1. 9.15494740e-01 8.80635440e-01 2.06604183e-01</_>
    <_>
      1. 8.90308678e-01 8.75067174e-01 2.07357615e-01</_>
    <_>
      1. 9.15494740e-01 8.80635440e-01 2.06604183e-01</_>
    <_>
      1. 8.90308678e-01 8.75067174e-01 2.07357615e-01</_>
    <_>
      9.86297548e-01 7.07208395e-01 1.81319296e-01 1.85098797e-01</_>
    <_>
      1. 6.87390149e-01 9.65606049e-03 1.65918678e-01</_>
    <_>
      9.93082225e-01 7.99243808e-01 9.03779864e-01 1.72772333e-01</_>
    <_>
      9.93082225e-01 7.99243808e-01 9.03779864e-01 1.72772333e-01</_>
    <_>
      9.89383698e-01 7.58723855e-01 9.07862365e-01 1.85132474e-01</_>
    <_>
      9.89383698e-01 7.58723855e-01 9.07862365e-01 1.85132474e-01</_>
    <_>
      1. 9.05489624e-01 9.16848719e-01 2.23228693e-01</_>
    <_>
      1. 9.08169270e-01 9.93006527e-01 2.03448892e-01</_>
    <_>
      1. 9.34054017e-01 9.78994370e-01 1.92829192e-01</_>
    <_>
      9.91581142e-01 8.52545857e-01 9.08263743e-01 1.76081344e-01</_>
    <_>
      1. 9.05489624e-01 9.16848719e-01 2.23228693e-01</_>
    <_>
      9.89828110e-01 8.86121571e-01 9.43978190e-01 2.01415211e-01</_>
    <_>
      9.89828110e-01 8.86121571e-01 9.43978190e-01 2.01415211e-01</_>
    <_>
      9.96648669e-01 8.87748957e-01 9.61135626e-01 1.86560497e-01</_>
    <_>
      9.78782594e-01 8.56753170e-01 9.23155069e-01 1.74186543e-01</_>
    <_>
      9.78782594e-01 8.56753170e-01 9.23155069e-01 1.74186543e-01</_>
    <_>
      9.85489726e-01 8.03647399e-01 8.54375362e-01 1.87740460e-01</_>
    <_>
      1. 9.08169270e-01 9.93006527e-01 2.03448892e-01</_>
    <_>
      1. 9.34054017e-01 9.78994370e-01 1.92829192e-01</_>
    <_>
      9.96648669e-01 8.87748957e-01 9.61135626e-01 1.86560497e-01</_>
    <_>
      9.85489726e-01 8.03647399e-01 8.54375362e-01 1.87740460e-01</_>
    <_>
      9.94270444e-01 8.73779416e-01 7.92396009e-01 1.64963365e-01</_>
    <_>
      9.90292013e-01 8.23380768e-01 8.39943230e-01 1.59329459e-01</_>
    <_>
      9.88932431e-01 7.79542565e-01 8.42267036e-01 1.32569984e-01</_>
    <_>
      9.90992665e-01 8.65790725e-01 8.45344067e-01 1.68227777e-01</_>
    <_>
      9.90292013e-01 8.23380768e-01 8.39943230e-01 1.59329459e-01</_>
    <_>
      7.72628188e-03 1.23248789e-02 1.96608319e-03 2.08000273e-01</_>
    <_>
      2.06610560e-03 2.13183230e-03 5.47750155e-03 1.97734430e-01</_>
    <_>
      9.90364134e-01 9.15874124e-01 8.11655760e-01 1.85637683e-01</_>
    <_>
      9.90364134e-01 9.15874124e-01 8.11655760e-01 1.85637683e-01</_>
    <_>
      1. 9.81478930e-01 8.07007730e-01 1.90068290e-01</_>
    <_>
      1. 2.26211488e-01 4.22257371e-02 1.90668404e-01</_>
    <_>
      9.82674539e-01 8.83676350e-01 7.65349150e-01 1.94147795e-01</_>
    <_>
      1. 9.81478930e-01 8.07007730e-01 1.90068290e-01</_>
    <_>
      9.85065997e-01 9.05411839e-01 8.77715290e-01 1.69271976e-01</_>
    <_>
      9.85065997e-01 9.05411839e-01 8.77715290e-01 1.69271976e-01</_>
    <_>
      1. 7.90544450e-01 8.49141479e-01 1.64727777e-01</_>
    <_>
      1. 7.90544450e-01 8.49141479e-01 1.64727777e-01</_>
    <_>
      9.90577281e-01 8.21135283e-01 8.44219446e-01 1.86348289e-01</_>
    <_>
      9.90577281e-01 8.21135283e-01 8.44219446e-01 1.86348289e-01</_>
    <_>
      9.95792806e-01 7.79878616e-01 8.42372060e-01 1.75306574e-01</_>
    <_>
      1. 8.36763322e-01 8.74111652e-01 1.82647735e-01</_>
    <_>
      1. 8.83887231e-01 9.13481295e-01 2.00394168e-01</_>
    <_>
      1. 8.48292530e-01 8.75562131e-01 1.43181518e-01</_>
    <_>
      1. 8.83887231e-01 9.13481295e-01 2.00394168e-01</_>
    <_>
      1. 8.48292530e-01 8.75562131e-01 1.43181518e-01</_>
    <_>
      1. 4.06692445e-01 3.34202349e-02 1.65657118e-01</_>
    <_>
      1. 8.18235695e-01 8.51501882e-01 1.83027193e-01</_>
    <_>
      1. 8.18235695e-01 8.51501882e-01 1.83027193e-01</_>
    <_>
      1.64048076e-02 8.43182730e-04 2.02977797e-03 1.79117054e-01</_>
    <_>
      3.61367762e-02 1.45726819e-02 7.11478468e-04 1.39264226e-01</_>
    <_>
      1.61653459e-02 2.74418108e-02 1.04226507e-02 1.50642961e-01</_>
    <_>
      4.93422151e-03 9.79353953e-03 7.03772763e-03 2.12148905e-01</_>
    <_>
      4.93422151e-03 9.79353953e-03 7.03772763e-03 2.12148905e-01</_>
    <_>
      7.87660480e-03 9.52866510e-04 4.98334120e-04 1.42929599e-01</_>
    <_>
      1.25312805e-03 1.45477895e-02 9.69381872e-05 2.08928928e-01</_>
    <_>
      1.25312805e-03 1.45477895e-02 9.69381872e-05 2.08928928e-01</_>
    <_>
      1.38887763e-03 2.83992995e-04 2.73102400e-04 1.92416564e-01</_>
    <_>
      1.59089565e-02 3.74320820e-02 1.40195363e-03 2.20050156e-01</_>
    <_>
      1.38887763e-03 2.83992995e-04 2.73102400e-04 1.92416564e-01</_>
    <_>
      4.03225422e-03 2.21955534e-02 3.23223043e-03 2.17826292e-01</_>
    <_>
      1.47059560e-03 1.43210394e-02 3.39643396e-02 1.94467127e-01</_>
    <_>
      9.91719544e-01 7.88324773e-01 8.40875328e-01 1.83517784e-01</_>
    <_>
      9.96486008e-01 8.48396480e-01 8.23394656e-01 1.62756756e-01</_>
    <_>
      2.43309140e-03 1.68903433e-02 4.55956869e-02 1.62677422e-01</_>
    <_>
      1. 8.20438147e-01 8.54142606e-01 1.89325407e-01</_>
    <_>
      1. 8.20438147e-01 8.54142606e-01 1.89325407e-01</_>
    <_>
      1.11111104e-02 5.97271649e-03 3.89755098e-03 2.01684296e-01</_>
    <_>
      1.25391781e-02 5.13640745e-03 6.27824396e-04 2.84269899e-01</_>
    <_>
      1.77934766e-03 3.66396434e-03 1.74207496e-03 3.33185285e-01</_>
    <_>
      3.96826863e-03 1.73106771e-02 1.39383704e-03 2.21857309e-01</_>
    <_>
      3.96826863e-03 1.73106771e-02 1.39383704e-03 2.21857309e-01</_>
    <_>
      3.96826863e-03 6.84618670e-03 1.14733935e-03 2.34984964e-01</_>
    <_>
      8.99279118e-03 1.22490246e-02 1.50814059e-03 2.24894583e-01</_>
    <_>
      7.32600689e-03 8.18329770e-03 1.81748357e-03 2.09996477e-01</_>
    <_>
      1.61870420e-02 4.06572688e-03 3.09342955e-04 2.19334409e-01</_>
    <_>
      1.11523867e-02 1.32954316e-02 1.59632619e-02 2.61858344e-01</_>
    <_>
      8.99279118e-03 1.22490246e-02 1.50814059e-03 2.24894583e-01</_>
    <_>
      8.99279118e-03 2.89139082e-03 2.57143984e-03 2.77370006e-01</_>
    <_>
      5.01671433e-03 1.60893574e-02 1.21164322e-03 1.95632577e-01</_>
    <_>
      5.01671433e-03 1.60893574e-02 1.21164322e-03 1.95632577e-01</_>
    <_>
      1.17924511e-02 6.94750622e-03 6.08430756e-03 2.40325063e-01</_>
    <_>
      1. 8.10546756e-01 8.00732911e-01 2.85462976e-01</_>
    <_>
      4.31033969e-03 3.35763674e-03 1.10145910e-02 1.96461722e-01</_>
    <_>
      1.53845549e-03 1.11808628e-02 4.17790515e-03 1.99796945e-01</_>
    <_>
      1.53845549e-03 1.11808628e-02 4.17790515e-03 1.99796945e-01</_>
    <_>
      9.86263275e-01 7.84179151e-01 8.59816194e-01 1.60286874e-01</_>
    <_>
      9.91091132e-01 8.03374290e-01 8.76929164e-01 1.76913530e-01</_>
    <_>
      9.91091132e-01 8.03374290e-01 8.76929164e-01 1.76913530e-01</_>
    <_>
      1.57234073e-03 1.42256788e-03 1.39976498e-02 1.92105085e-01</_>
    <_>
      1.57234073e-03 1.42256788e-03 1.39976498e-02 1.92105085e-01</_>
    <_>
      1.44091249e-03 7.70582305e-03 6.29612617e-03 2.43019059e-01</_>
    <_>
      6.52742386e-03 1.18303485e-02 8.37030588e-04 2.20249176e-01</_>
    <_>
      5.23561239e-03 9.47878975e-03 8.01559538e-03 1.94674030e-01</_>
    <_>
      1.18201971e-03 8.65631085e-03 1.42874513e-02 2.05271930e-01</_>
    <_>
      8.04290175e-03 2.71035731e-03 1.06178736e-03 1.77918658e-01</_>
    <_>
      9.84098554e-01 8.60369325e-01 8.47700715e-01 2.03685924e-01</_>
    <_>
      9.94754612e-01 8.34387898e-01 8.04812312e-01 2.02991888e-01</_>
    <_>
      1. 8.57577920e-01 8.28056991e-01 2.04186767e-01</_>
    <_>
      1. 8.57577920e-01 8.28056991e-01 2.04186767e-01</_>
    <_>
      9.87151563e-01 7.39215851e-01 4.66454029e-01 1.41232327e-01</_>
    <_>
      1. 8.37883294e-01 8.75536203e-01 2.00830743e-01</_>
    <_>
      1. 8.30126882e-01 8.30217242e-01 1.73530921e-01</_>
    <_>
      1. 8.37883294e-01 8.75536203e-01 2.00830743e-01</_>
    <_>
      1. 8.12536359e-01 7.77202189e-01 2.08807811e-01</_>
    <_>
      7.38334656e-03 2.79355515e-03 4.35204618e-03 1.80854410e-01</_>
    <_>
      1.45772099e-03 8.33666977e-03 1.82495860e-03 1.98245972e-01</_>
    <_>
      1.13955736e-02 1.68938730e-02 1.07144229e-02 1.71756938e-01</_>
    <_>
      1.08040869e-02 1.31536741e-03 3.59111116e-03 2.29946822e-01</_>
    <_>
      1.08040869e-02 1.31536741e-03 3.59111116e-03 2.29946822e-01</_>
    <_>
      0. 1.08703161e-02 9.48285498e-03 2.08340138e-01</_></support_vectors>
  <decision_functions>
    <_>
      <sv_count>200</sv_count>
      <rho>-9.7901914268732071e-02</rho>
      <alpha>
        1. 1. 1. 1. 1. 1. 1. 1. 1. 1. 1. 1. 1. 1. 1. 1. 1. 1. 1. 1. 1.
        1. 1. 1. 1. 1. 1. 1. 1. 1. 1. 1. 1. 1. 1. 1. 1. 1. 1. 1. 1. 1.
        1. 1. 1. 1. 1. 1. 1. 1. 1. 1. 1. 1. 1. 1. 1. 1. 1. 1. 1. 1. 1.
        1. 1. 1. 1. 1. 1. 1. 1. 1. 1. 1. 1. 1. 1. 1. 1. 1. 1. 1. 1. 1.
        1. 1. 1. 1. 1. 1. 1. 1. 1. 1. 1. 1. 1. 1. 1. 1. -1. -1. -1. -1.
        -1. -1. -1. -1. -1. -1. -1. -1. -1. -1. -1. -1. -1. -1. -1. -1.
        -1. -1. -1. -1. -1. -1. -1. -1. -1. -1. -1. -1. -1. -1. -1. -1.
        -1. -1. -1. -1. -1. -1. -1. -1. -1. -1. -1. -1. -1. -1. -1. -1.
        -1. -1. -1. -1. -1. -1. -1. -1. -1. -1. -1. -1. -1. -1. -1. -1.
        -1. -1. -1. -1. -1. -1. -1. -1. -1. -1. -1. -1. -1. -1. -1. -1.
        -1. -1. -1. -1. -1. -1. -1. -1. -1. -1. -1. -1. -1. -1. -1. -1.</alpha>
      <index>
        0 2 129 199 131 132 134 4 5 8 9 10 11 12 13 14 138 141 142 143
        19 20 23 24 25 26 27 28 30 151 152 52 153 155 156 55 159 160 162
        163 164 166 167 168 169 56 57 58 59 170 171 172 60 69 70 180 72
        73 74 75 181 182 183 79 184 85 86 87 88 90 185 93 95 98 99 100
        101 107 187 188 110 112 113 115 189 191 116 119 120 121 122 123
        193 124 194 125 126 195 197 198 1 3 6 7 15 16 17 18 21 22 29 31
        32 33 34 35 36 37 38 39 40 41 42 43 44 45 46 47 48 49 50 51 53
        54 61 62 63 64 65 66 67 68 71 76 77 78 80 81 82 83 84 89 91 92
        94 96 97 102 103 104 105 106 108 109 111 114 117 118 127 128 130
        133 135 157 149 158 161 165 150 136 137 173 174 175 176 177 178
        179 144 145 139 140 186 190 192 146 147 148 196 154</index></_></decision_functions></opencv_ml_svm>
</opencv_storage>
