<?xml version="1.0"?>
<opencv_storage>
<opencv_ml_svm>
  <format>3</format>
  <svmType>C_SVC</svmType>
  <kernel>
    <type>RBF</type>
    <gamma>1.</gamma></kernel>
  <C>1.</C>
  <term_criteria><iterations>100</iterations></term_criteria>
  <var_count>4</var_count>
  <class_count>2</class_count>
  <class_labels type_id="opencv-matrix">
    <rows>2</rows>
    <cols>1</cols>
    <dt>i</dt>
    <data>
      -1 1</data></class_labels>
  <sv_total>200</sv_total>
  <support_vectors>
    <_>
      2.61027515e-01 3.21537405e-02 2.46303193e-02 1.82371825e-01</_>
    <_>
      5.12087882e-01 1.59371775e-02 2.14244761e-02 2.16466948e-01</_>
    <_>
      9.91089821e-01 1.54872518e-02 1.27022475e-01 1.33091629e-01</_>
    <_>
      9.92822826e-01 9.43626761e-01 8.38109374e-01 2.05618799e-01</_>
    <_>
      9.92822826e-01 9.43626761e-01 8.38109374e-01 2.05618799e-01</_>
    <_>
      2.52808928e-02 5.53923985e-03 1.04061945e-03 3.09227228e-01</_>
    <_>
      0. 4.09249682e-03 8.57717451e-03 1.66393086e-01</_>
    <_>
      6.83060288e-03 3.46083790e-02 2.24472303e-02 1.59036830e-01</_>
    <_>
      9.31677222e-03 5.88510535e-04 4.18704178e-04 2.62579560e-01</_>
    <_>
      1.44928694e-03 2.35398230e-03 4.68965434e-03 2.22075433e-01</_>
    <_>
      1.44928694e-03 2.35398230e-03 4.68965434e-03 2.22075433e-01</_>
    <_>
      2.06489563e-02 1.48818537e-04 7.52385997e-04 1.76003635e-01</_>
    <_>
      2.06489563e-02 1.48818537e-04 7.52385997e-04 1.76003635e-01</_>
    <_>
      1.65015459e-03 0. 0. 2.14233905e-01</_>
    <_>
      1.65015459e-03 0. 0. 2.14233905e-01</_>
    <_>
      2.54452229e-03 4.45622485e-03 5.81458304e-03 2.09403828e-01</_>
    <_>
      1.79027915e-02 7.60498224e-04 4.84754535e-04 1.95725769e-01</_>
    <_>
      2.54452229e-03 4.45622485e-03 5.81458304e-03 2.09403828e-01</_>
    <_>
      1.79027915e-02 7.60498224e-04 4.84754535e-04 1.95725769e-01</_>
    <_>
      1. 8.19806516e-01 8.82307708e-01 2.05421954e-01</_>
    <_>
      5.91716170e-03 3.36326979e-04 2.45940373e-05 2.06969634e-01</_>
    <_>
      5.91716170e-03 3.36326979e-04 2.45940373e-05 2.06969634e-01</_>
    <_>
      8.98203254e-03 2.99114821e-04 8.58397980e-05 1.80968657e-01</_>
    <_>
      1.51976943e-03 2.03579097e-04 1.79412702e-04 1.89693347e-01</_>
    <_>
      8.98203254e-03 2.99114821e-04 8.58397980e-05 1.80968657e-01</_>
    <_>
      1.51976943e-03 2.03579097e-04 1.79412702e-04 1.89693347e-01</_>
    <_>
      1. 4.66805231e-03 3.15408135e-04 2.99507201e-01</_>
    <_>
      1. 8.19320500e-01 8.37901950e-01 2.30618522e-01</_>
    <_>
      1. 8.39198053e-01 8.63069534e-01 1.80470765e-01</_>
    <_>
      1. 6.27481401e-01 8.04256499e-01 2.01610640e-01</_>
    <_>
      9.70248520e-01 8.29653084e-01 8.57930362e-01 2.04401284e-01</_>
    <_>
      9.91377652e-01 9.17010844e-01 9.13698792e-01 1.96584970e-01</_>
    <_>
      1.04166567e-02 1.60226307e-03 2.61503109e-03 2.19117403e-01</_>
    <_>
      3.71748209e-03 5.17552206e-03 4.67822189e-03 2.02144206e-01</_>
    <_>
      1.87265873e-03 1.08947735e-02 1.29807892e-03 2.22998768e-01</_>
    <_>
      3.21543217e-03 2.15606927e-03 7.06134539e-04 3.46147031e-01</_>
    <_>
      5.57619333e-03 5.71925147e-03 3.38014285e-03 2.15773553e-01</_>
    <_>
      5.57619333e-03 5.71925147e-03 3.38014285e-03 2.15773553e-01</_>
    <_>
      6.38976693e-03 2.53823218e-05 0. 3.37441772e-01</_>
    <_>
      6.38976693e-03 2.53823218e-05 0. 3.37441772e-01</_>
    <_>
      1.09375119e-02 0. 0. 2.70266891e-01</_>
    <_>
      3.46019864e-03 7.40069244e-03 6.86621573e-03 2.28703707e-01</_>
    <_>
      1.52438879e-03 7.77140143e-04 1.41080830e-03 2.28525713e-01</_>
    <_>
      3.03950906e-03 0. 0. 2.31027827e-01</_>
    <_>
      1.52438879e-03 0. 0. 2.21279770e-01</_>
    <_>
      3.03950906e-03 0. 0. 2.31027827e-01</_>
    <_>
      1.51515007e-03 0. 0. 2.32146204e-01</_>
    <_>
      1.51515007e-03 0. 0. 2.32146204e-01</_>
    <_>
      1.52438879e-03 0. 0. 2.21279770e-01</_>
    <_>
      4.90197539e-03 0. 0. 2.44360253e-01</_>
    <_>
      2.92396545e-03 0. 0. 2.32602313e-01</_>
    <_>
      4.90197539e-03 0. 0. 2.44360253e-01</_>
    <_>
      2.92396545e-03 0. 0. 2.32602313e-01</_>
    <_>
      1.58730149e-03 3.02521023e-03 1.96700916e-03 2.02981368e-01</_>
    <_>
      1.58730149e-03 3.02521023e-03 1.96700916e-03 2.02981368e-01</_>
    <_>
      2.95082033e-02 0. 0. 2.27576062e-01</_>
    <_>
      1.74215436e-03 0. 0. 2.18138665e-01</_>
    <_>
      1.34328306e-02 3.84939252e-04 7.21761098e-05 1.86760858e-01</_>
    <_>
      0. 0. 0. 2.30792478e-01</_>
    <_>
      9.96778846e-01 7.37149094e-04 4.46989164e-02 1.35815591e-01</_>
    <_>
      0. 0. 0. 2.30792478e-01</_>
    <_>
      1.51515007e-03 0. 0. 2.16669798e-01</_>
    <_>
      9.91859257e-01 7.84825504e-01 8.57948124e-01 1.77812710e-01</_>
    <_>
      1.34328306e-02 3.84939252e-04 7.21761098e-05 1.86760858e-01</_>
    <_>
      1.51515007e-03 0. 0. 2.16669798e-01</_>
    <_>
      1.68350339e-03 1.29398564e-03 1.36000523e-03 2.12098628e-01</_>
    <_>
      1.68350339e-03 1.29398564e-03 1.36000523e-03 2.12098628e-01</_>
    <_>
      2.38031745e-02 4.01181635e-03 1.14000030e-03 1.57834187e-01</_>
    <_>
      9.75128233e-01 7.83111453e-01 9.07206655e-01 1.86766744e-01</_>
    <_>
      1. 9.03807878e-01 9.08754528e-01 1.89903751e-01</_>
    <_>
      1. 9.03807878e-01 9.08754528e-01 1.89903751e-01</_>
    <_>
      4.33525443e-03 6.84574386e-03 7.70712912e-04 2.31466681e-01</_>
    <_>
      1.42857134e-02 1.09554944e-03 1.12044821e-04 2.31859967e-01</_>
    <_>
      1. 7.09384098e-04 7.98500776e-02 1.54527277e-01</_>
    <_>
      1. 2.82885972e-03 2.12921739e-01 1.84894189e-01</_>
    <_>
      8.47458839e-03 2.72116978e-02 2.41253059e-03 1.86391056e-01</_>
    <_>
      8.47458839e-03 2.72116978e-02 2.41253059e-03 1.86391056e-01</_>
    <_>
      1. 7.71062076e-01 8.61187518e-01 1.98775694e-01</_>
    <_>
      9.95851576e-01 8.98190141e-01 9.24139619e-01 2.20924631e-01</_>
    <_>
      9.95851576e-01 8.98190141e-01 9.24139619e-01 2.20924631e-01</_>
    <_>
      9.97052014e-01 9.12647545e-01 9.30137515e-01 2.11730495e-01</_>
    <_>
      1. 9.14458275e-01 9.18969452e-01 1.95510209e-01</_>
    <_>
      1. 9.16204929e-01 9.20829237e-01 1.99681550e-01</_>
    <_>
      9.85345721e-01 9.00843024e-01 9.06571388e-01 1.73791140e-01</_>
    <_>
      9.84051049e-01 8.77090812e-01 8.18725944e-01 2.24898756e-01</_>
    <_>
      9.97052014e-01 9.12647545e-01 9.30137515e-01 2.11730495e-01</_>
    <_>
      1. 9.14458275e-01 9.18969452e-01 1.95510209e-01</_>
    <_>
      1. 9.16204929e-01 9.20829237e-01 1.99681550e-01</_>
    <_>
      9.85345721e-01 9.00843024e-01 9.06571388e-01 1.73791140e-01</_>
    <_>
      9.84051049e-01 8.77090812e-01 8.18725944e-01 2.24898756e-01</_>
    <_>
      1.34680271e-02 2.70497915e-03 2.90733296e-03 2.10326314e-01</_>
    <_>
      9.84116912e-01 8.55580747e-01 8.29090774e-01 2.01197460e-01</_>
    <_>
      9.73060131e-01 8.41594875e-01 7.54359126e-01 1.80584028e-01</_>
    <_>
      9.89764988e-01 8.67244840e-01 8.71999502e-01 2.25809708e-01</_>
    <_>
      9.89764988e-01 8.67244840e-01 8.71999502e-01 2.25809708e-01</_>
    <_>
      9.67175603e-01 9.13942337e-01 9.32842910e-01 1.88105837e-01</_>
    <_>
      1. 8.23292494e-01 8.08731675e-01 1.82216853e-01</_>
    <_>
      1. 8.47160220e-01 8.20824981e-01 1.69273213e-01</_>
    <_>
      1. 8.47160220e-01 8.20824981e-01 1.69273213e-01</_>
    <_>
      9.97163534e-01 8.35311651e-01 8.43547344e-01 1.65473685e-01</_>
    <_>
      9.96757627e-01 8.31777513e-01 8.25353622e-01 2.05731258e-01</_>
    <_>
      9.97163534e-01 8.35311651e-01 8.43547344e-01 1.65473685e-01</_>
    <_>
      9.96757627e-01 8.31777513e-01 8.25353622e-01 2.05731258e-01</_>
    <_>
      9.92960513e-01 8.90542746e-01 8.84500563e-01 1.85031161e-01</_>
    <_>
      9.90904570e-01 8.50211740e-01 8.38146031e-01 1.91417873e-01</_>
    <_>
      9.90904570e-01 8.50211740e-01 8.38146031e-01 1.91417873e-01</_>
    <_>
      1. 9.15494740e-01 8.91434014e-01 2.06604183e-01</_>
    <_>
      1. 8.90308678e-01 8.73841703e-01 2.07357615e-01</_>
    <_>
      1. 9.15494740e-01 8.91434014e-01 2.06604183e-01</_>
    <_>
      1. 8.90308678e-01 8.73841703e-01 2.07357615e-01</_>
    <_>
      1. 5.37545606e-02 4.59902197e-01 1.54601380e-01</_>
    <_>
      1. 3.06939334e-01 6.26084626e-01 1.69536218e-01</_>
    <_>
      9.93082225e-01 7.99243808e-01 8.58600199e-01 1.72772333e-01</_>
    <_>
      9.93082225e-01 7.99243808e-01 8.58600199e-01 1.72772333e-01</_>
    <_>
      9.87267852e-01 8.31286013e-01 8.36980104e-01 1.80217683e-01</_>
    <_>
      1. 8.96554530e-01 9.10462797e-01 1.85508117e-01</_>
    <_>
      9.87267852e-01 8.31286013e-01 8.36980104e-01 1.80217683e-01</_>
    <_>
      1. 8.96554530e-01 9.10462797e-01 1.85508117e-01</_>
    <_>
      1. 9.05489624e-01 9.53052580e-01 2.23228693e-01</_>
    <_>
      1. 9.08169270e-01 9.58918095e-01 2.03448892e-01</_>
    <_>
      1. 9.34054017e-01 9.66179490e-01 1.92829192e-01</_>
    <_>
      1. 9.05489624e-01 9.53052580e-01 2.23228693e-01</_>
    <_>
      1. 2.67962296e-03 5.86547842e-03 2.19240442e-01</_>
    <_>
      9.89828110e-01 8.86121571e-01 9.47636425e-01 2.01415211e-01</_>
    <_>
      9.89828110e-01 8.86121571e-01 9.47636425e-01 2.01415211e-01</_>
    <_>
      9.96648669e-01 8.87748957e-01 9.49117064e-01 1.86560497e-01</_>
    <_>
      9.78782594e-01 8.56753170e-01 8.94146025e-01 1.74186543e-01</_>
    <_>
      9.78782594e-01 8.56753170e-01 8.94146025e-01 1.74186543e-01</_>
    <_>
      9.85489726e-01 8.03647399e-01 8.59093308e-01 1.87740460e-01</_>
    <_>
      1. 9.08169270e-01 9.58918095e-01 2.03448892e-01</_>
    <_>
      1. 9.34054017e-01 9.66179490e-01 1.92829192e-01</_>
    <_>
      9.96648669e-01 8.87748957e-01 9.49117064e-01 1.86560497e-01</_>
    <_>
      9.85489726e-01 8.03647399e-01 8.59093308e-01 1.87740460e-01</_>
    <_>
      9.97813642e-01 8.59410167e-01 7.96440363e-01 1.53018907e-01</_>
    <_>
      4.96277213e-03 1.46257719e-02 4.16296395e-03 1.89059108e-01</_>
    <_>
      2.06610560e-03 2.13183230e-03 1.45005696e-02 1.97734430e-01</_>
    <_>
      9.90364134e-01 9.15874124e-01 9.10876036e-01 1.85637683e-01</_>
    <_>
      9.90364134e-01 9.15874124e-01 9.10876036e-01 1.85637683e-01</_>
    <_>
      1. 9.81478930e-01 9.57103729e-01 1.90068290e-01</_>
    <_>
      1. 9.81478930e-01 9.57103729e-01 1.90068290e-01</_>
    <_>
      9.96859193e-01 8.31104457e-01 8.23690653e-01 1.61636427e-01</_>
    <_>
      9.96859193e-01 8.31104457e-01 8.23690653e-01 1.61636427e-01</_>
    <_>
      1.40845180e-02 5.58190420e-03 5.17859729e-03 2.64116168e-01</_>
    <_>
      1. 8.36763322e-01 8.53203356e-01 1.82647735e-01</_>
    <_>
      1. 8.36763322e-01 8.53203356e-01 1.82647735e-01</_>
    <_>
      1. 8.83887231e-01 9.04183626e-01 2.00394168e-01</_>
    <_>
      1. 8.48292530e-01 8.59417021e-01 1.43181518e-01</_>
    <_>
      1. 8.83887231e-01 9.04183626e-01 2.00394168e-01</_>
    <_>
      1. 8.18235695e-01 8.25044036e-01 1.83027193e-01</_>
    <_>
      1.64048076e-02 8.43182730e-04 1.09384570e-03 1.79117054e-01</_>
    <_>
      3.61367762e-02 1.45726819e-02 1.41182095e-02 1.39264226e-01</_>
    <_>
      3.61367762e-02 1.45726819e-02 1.41182095e-02 1.39264226e-01</_>
    <_>
      4.93422151e-03 9.79353953e-03 1.23869209e-03 2.12148905e-01</_>
    <_>
      4.93422151e-03 9.79353953e-03 1.23869209e-03 2.12148905e-01</_>
    <_>
      1.14795864e-02 8.26846866e-04 7.93504901e-03 1.71033025e-01</_>
    <_>
      7.87660480e-03 9.52866510e-04 3.40121391e-04 1.42929599e-01</_>
    <_>
      1.96078420e-03 9.63712228e-04 7.98275881e-03 2.00946629e-01</_>
    <_>
      1.96078420e-03 9.63712228e-04 7.98275881e-03 2.00946629e-01</_>
    <_>
      1.38887763e-03 2.83992995e-04 2.62151967e-04 1.92416564e-01</_>
    <_>
      1.38887763e-03 2.83992995e-04 2.62151967e-04 1.92416564e-01</_>
    <_>
      2.05969214e-02 1.52121147e-03 2.20779725e-03 1.21069260e-01</_>
    <_>
      1.41955912e-02 6.28481107e-03 4.21748446e-05 2.33832970e-01</_>
    <_>
      9.96517122e-01 8.23867917e-01 8.00995648e-01 1.77156940e-01</_>
    <_>
      1. 8.14624846e-01 8.26413989e-01 2.03743666e-01</_>
    <_>
      9.67741013e-03 0. 0. 2.22942531e-01</_>
    <_>
      5.37633896e-03 7.13683479e-03 1.89226270e-02 1.67287529e-01</_>
    <_>
      1. 8.26045275e-01 8.22182059e-01 2.08308294e-01</_>
    <_>
      1. 8.26045275e-01 8.22182059e-01 2.08308294e-01</_>
    <_>
      1. 8.20438147e-01 8.09675336e-01 1.89325407e-01</_>
    <_>
      1.11111104e-02 5.97271649e-03 2.74955155e-03 2.01684296e-01</_>
    <_>
      1.77934766e-03 3.66396434e-03 5.23777399e-03 3.33185285e-01</_>
    <_>
      8.99279118e-03 2.89139082e-03 1.96254207e-03 2.77370006e-01</_>
    <_>
      4.16666269e-03 6.51946699e-04 5.33246808e-03 1.79775536e-01</_>
    <_>
      1.17924511e-02 6.94750622e-03 3.56563483e-03 2.40325063e-01</_>
    <_>
      4.31033969e-03 3.35763674e-03 6.75152813e-04 1.96461722e-01</_>
    <_>
      8.68055224e-03 7.93801807e-03 1.23535423e-03 2.05601260e-01</_>
    <_>
      9.91091132e-01 8.03374290e-01 8.61975908e-01 1.76913530e-01</_>
    <_>
      9.91091132e-01 8.03374290e-01 8.61975908e-01 1.76913530e-01</_>
    <_>
      1.57234073e-03 1.42256788e-03 1.95120275e-02 1.92105085e-01</_>
    <_>
      1.57234073e-03 1.42256788e-03 1.95120275e-02 1.92105085e-01</_>
    <_>
      1.44091249e-03 7.70582305e-03 6.38405466e-03 2.43019059e-01</_>
    <_>
      5.23561239e-03 9.47878975e-03 6.37136749e-04 1.94674030e-01</_>
    <_>
      5.91015816e-03 3.94529477e-03 2.55696912e-04 2.24459231e-01</_>
    <_>
      1.18201971e-03 8.65631085e-03 3.39978538e-03 2.05271930e-01</_>
    <_>
      8.04290175e-03 2.71035731e-03 4.18956252e-03 1.77918658e-01</_>
    <_>
      9.94754612e-01 8.34387898e-01 8.28679919e-01 2.02991888e-01</_>
    <_>
      1.01239979e-02 3.55326943e-02 2.56757028e-02 1.64323494e-01</_>
    <_>
      1. 8.37883294e-01 8.65619719e-01 2.00830743e-01</_>
    <_>
      1. 8.30126882e-01 8.49231482e-01 1.73530921e-01</_>
    <_>
      1. 8.37883294e-01 8.65619719e-01 2.00830743e-01</_>
    <_>
      1. 8.30126882e-01 8.49231482e-01 1.73530921e-01</_>
    <_>
      9.90164876e-01 8.95892620e-01 8.96697223e-01 1.95775554e-01</_>
    <_>
      9.90164876e-01 8.95892620e-01 8.96697223e-01 1.95775554e-01</_>
    <_>
      7.38334656e-03 2.79355515e-03 5.78565430e-03 1.80854410e-01</_>
    <_>
      1.45772099e-03 8.33666977e-03 1.06486753e-02 1.98245972e-01</_>
    <_>
      1.12903118e-02 7.66336033e-03 9.66259104e-04 1.82469428e-01</_>
    <_>
      1.28939748e-02 6.98319962e-03 3.77281045e-04 1.95482373e-01</_>
    <_>
      1.08040869e-02 1.31536741e-03 4.07607155e-03 2.29946822e-01</_>
    <_>
      1.08040869e-02 1.31536741e-03 4.07607155e-03 2.29946822e-01</_>
    <_>
      0. 1.08703161e-02 9.86125413e-03 2.08340138e-01</_></support_vectors>
  <decision_functions>
    <_>
      <sv_count>200</sv_count>
      <rho>-6.3468884676694870e-02</rho>
      <alpha>
        1. 1. 1. 1. 1. 1. 1. 1. 1. 1. 1. 1. 1. 1. 1. 1. 1. 1. 1. 1. 1.
        1. 1. 1. 1. 1. 1. 1. 1. 1. 1. 1. 1. 1. 1. 1. 1. 1. 1. 1. 1. 1.
        1. 1. 1. 1. 1. 1. 1. 1. 1. 1. 1. 1. 1. 1. 1. 1. 1. 1. 1. 1. 1.
        1. 1. 1. 1. 1. 1. 1. 1. 1. 1. 1. 1. 1. 1. 1. 1. 1. 1. 1. 1. 1.
        1. 1. 1. 1. 1. 1. 1. 1. 1. 1. 1. 1. 1. 1. 1. 1. -1. -1. -1. -1.
        -1. -1. -1. -1. -1. -1. -1. -1. -1. -1. -1. -1. -1. -1. -1. -1.
        -1. -1. -1. -1. -1. -1. -1. -1. -1. -1. -1. -1. -1. -1. -1. -1.
        -1. -1. -1. -1. -1. -1. -1. -1. -1. -1. -1. -1. -1. -1. -1. -1.
        -1. -1. -1. -1. -1. -1. -1. -1. -1. -1. -1. -1. -1. -1. -1. -1.
        -1. -1. -1. -1. -1. -1. -1. -1. -1. -1. -1. -1. -1. -1. -1. -1.
        -1. -1. -1. -1. -1. -1. -1. -1. -1. -1. -1. -1. -1. -1. -1. -1.</alpha>
      <index>
        0 2 5 199 144 145 146 6 8 9 10 15 16 17 18 19 149 152 153 154
        155 26 27 28 156 157 29 30 160 161 32 33 34 35 36 37 162 41 163
        167 59 62 168 169 171 68 69 70 71 72 172 173 174 175 77 83 88 90
        91 92 180 93 94 95 96 181 97 182 183 98 184 103 106 107 108 109
        110 115 117 118 121 123 124 130 133 134 188 190 135 191 192 138
        139 142 193 194 195 196 197 198 1 3 4 7 11 12 13 14 20 21 22 23
        24 25 31 38 39 40 42 43 44 45 46 47 48 49 50 51 52 53 54 55 56
        57 58 60 61 63 64 65 66 67 73 74 75 76 78 79 80 81 82 84 85 86
        87 89 99 100 101 102 104 105 111 112 113 114 116 119 120 122 125
        126 127 128 129 131 132 136 137 140 141 143 147 170 148 176 177
        178 179 150 185 151 186 164 187 189 165 166 158 159</index></_></decision_functions></opencv_ml_svm>
</opencv_storage>
